################################################################################
# Neural network connection values (weights and biases).
################################################################################
# Col  Name       Description
################################################################################
# 1    connection Neural network connection value.
# 2    t          Connection type (a = weight, b = bias).
# 3    index      Index enumerating weights.
# 4    l_s        Starting point layer (end point layer for biases).
# 5    n_s        Starting point neuron in starting layer (end point neuron for biases).
# 6    l_e        End point layer.
# 7    n_e        End point neuron in end layer.
################################################################################
#                      1 2         3     4     5     6     7
#             connection t     index   l_s   n_s   l_e   n_e
############################################################
  9.3064425066440998E-02 a         1     0     1     1     1
  1.3261660490882932E-01 a         2     0     1     1     2
 -4.0260899856807242E-01 a         3     0     1     1     3
  2.2491801041013688E-02 a         4     0     1     1     4
 -2.1181449227282306E-01 a         5     0     1     1     5
 -1.7147300626939510E-01 a         6     0     1     1     6
  3.1177172958862137E-01 a         7     0     1     1     7
 -7.6833764681690491E-03 a         8     0     1     1     8
 -1.6212872933798203E-01 a         9     0     1     1     9
 -4.3537059567378592E-02 a        10     0     1     1    10
 -4.3633329824941441E-01 a        11     0     1     1    11
 -1.0596693306250115E-02 a        12     0     1     1    12
 -3.3899284480681760E-02 a        13     0     1     1    13
 -3.6469401073414215E-01 a        14     0     1     1    14
  1.7788837241302263E-03 a        15     0     1     1    15
 -3.2406674233810517E-01 a        16     0     1     1    16
  2.6478585808021188E-01 a        17     0     1     1    17
 -4.2080869074195210E-01 a        18     0     1     1    18
  1.8476120216747802E-01 a        19     0     1     1    19
 -5.0283576741055247E-01 a        20     0     1     1    20
  1.4827674149132131E-01 a        21     0     1     1    21
 -1.7215199376269069E-01 a        22     0     1     1    22
 -3.1427936408967894E-01 a        23     0     1     1    23
 -4.5372068898053902E-01 a        24     0     1     1    24
 -2.2680884918887808E-02 a        25     0     1     1    25
 -2.0914888171722745E-01 a        26     0     2     1     1
  4.6522594763664660E-02 a        27     0     2     1     2
  4.9819810940256837E-02 a        28     0     2     1     3
  3.8920750440463295E-02 a        29     0     2     1     4
 -1.0170552238257206E-01 a        30     0     2     1     5
  5.2782303288281394E-02 a        31     0     2     1     6
 -1.5602546621349764E-01 a        32     0     2     1     7
  7.0060480225488331E-02 a        33     0     2     1     8
  6.0169604664048013E-02 a        34     0     2     1     9
  2.1344850358311759E-01 a        35     0     2     1    10
  2.2845851646265007E-02 a        36     0     2     1    11
  1.6972249768638089E-02 a        37     0     2     1    12
 -1.2681798451197263E-01 a        38     0     2     1    13
  1.7779385437795733E-01 a        39     0     2     1    14
 -1.0951346486737061E-01 a        40     0     2     1    15
  1.7689925663949055E-01 a        41     0     2     1    16
 -6.6304257090022023E-02 a        42     0     2     1    17
 -1.0649659821418121E-01 a        43     0     2     1    18
  8.0051253899616759E-02 a        44     0     2     1    19
 -7.7237278593705744E-03 a        45     0     2     1    20
  8.4063861583665009E-02 a        46     0     2     1    21
 -9.4845609883027565E-02 a        47     0     2     1    22
 -3.9361508447299187E-02 a        48     0     2     1    23
  2.2596621098157044E-01 a        49     0     2     1    24
  1.2356003408127776E-01 a        50     0     2     1    25
  2.1070030748093085E-01 a        51     0     3     1     1
 -7.5759632869848770E-02 a        52     0     3     1     2
  7.4768427484772887E-02 a        53     0     3     1     3
  1.0637123437311059E-01 a        54     0     3     1     4
  1.4258467861576593E-01 a        55     0     3     1     5
  1.0885397281508240E-01 a        56     0     3     1     6
  2.1331306006274628E-01 a        57     0     3     1     7
  2.8413756546282507E-02 a        58     0     3     1     8
  1.0790283395884445E-01 a        59     0     3     1     9
  1.0610344652559203E-01 a        60     0     3     1    10
  1.1062679189206655E-01 a        61     0     3     1    11
 -3.0149731167328631E-01 a        62     0     3     1    12
  1.0423427853162535E-01 a        63     0     3     1    13
 -1.8723483515042721E-01 a        64     0     3     1    14
  3.1115587390575287E-02 a        65     0     3     1    15
  7.0832663067880622E-02 a        66     0     3     1    16
  2.3408861188969395E-02 a        67     0     3     1    17
 -9.0613109903024125E-03 a        68     0     3     1    18
 -6.3852593054719662E-03 a        69     0     3     1    19
  1.5784249942028020E-01 a        70     0     3     1    20
  2.4081177137368636E-02 a        71     0     3     1    21
  2.0184069750349708E-02 a        72     0     3     1    22
 -2.8928843361987793E-02 a        73     0     3     1    23
 -6.9744099747750810E-02 a        74     0     3     1    24
  4.5451947427233338E-02 a        75     0     3     1    25
  6.0028736494712805E-02 a        76     0     4     1     1
 -7.5618037522552015E-02 a        77     0     4     1     2
 -2.1846108584522839E-01 a        78     0     4     1     3
  3.8748718697303275E-01 a        79     0     4     1     4
  1.3142209811542785E-01 a        80     0     4     1     5
 -4.2358071871553306E-02 a        81     0     4     1     6
  2.1140452677592952E-01 a        82     0     4     1     7
  4.9384925212406013E-02 a        83     0     4     1     8
  1.0033790974964081E-01 a        84     0     4     1     9
  1.3005280728765950E-01 a        85     0     4     1    10
  1.6307392089198938E-01 a        86     0     4     1    11
 -1.7313998100262355E-02 a        87     0     4     1    12
 -1.7867789367204989E-01 a        88     0     4     1    13
  4.2956391112216281E-02 a        89     0     4     1    14
  2.5261438219440274E-01 a        90     0     4     1    15
 -1.0686985683777491E-02 a        91     0     4     1    16
 -1.2843375085060416E-01 a        92     0     4     1    17
  2.2016682246830167E-02 a        93     0     4     1    18
  2.3967325884537420E-02 a        94     0     4     1    19
 -1.4589284064127617E-01 a        95     0     4     1    20
 -8.6096244206888634E-02 a        96     0     4     1    21
  2.3719154899960796E-02 a        97     0     4     1    22
  1.4280368746643674E-01 a        98     0     4     1    23
 -2.5405652380259708E-01 a        99     0     4     1    24
 -9.5875817686022838E-02 a       100     0     4     1    25
 -3.9083443978623728E-01 a       101     0     5     1     1
 -3.5976829577826275E-01 a       102     0     5     1     2
  3.5259174527034745E-03 a       103     0     5     1     3
  1.4502995833761634E-01 a       104     0     5     1     4
 -3.0935328001695378E-01 a       105     0     5     1     5
  4.5029879134200722E-02 a       106     0     5     1     6
 -9.5598137245832659E-02 a       107     0     5     1     7
 -4.7043781276186657E-02 a       108     0     5     1     8
 -5.8394149045957378E-01 a       109     0     5     1     9
 -2.2698607171278615E-01 a       110     0     5     1    10
  6.1180595104413038E-01 a       111     0     5     1    11
  3.2323475004933966E-01 a       112     0     5     1    12
  1.5497855191080437E-01 a       113     0     5     1    13
  6.8176514870088056E-01 a       114     0     5     1    14
 -1.8910195273969532E-01 a       115     0     5     1    15
  8.1121857558435526E-02 a       116     0     5     1    16
 -7.7372040476568996E-02 a       117     0     5     1    17
  2.6854726449999908E-02 a       118     0     5     1    18
 -1.9916695619684116E-01 a       119     0     5     1    19
  4.3837569201871832E-02 a       120     0     5     1    20
  1.7967565071624739E-01 a       121     0     5     1    21
 -4.7987428225419176E-01 a       122     0     5     1    22
  3.2884950873286273E-01 a       123     0     5     1    23
  6.6617926433111874E-01 a       124     0     5     1    24
  6.0645493313721566E-01 a       125     0     5     1    25
  7.6294431396282253E-02 a       126     0     6     1     1
  1.2109550504316224E-01 a       127     0     6     1     2
 -3.5756518756273545E-02 a       128     0     6     1     3
  4.5461076659994971E-02 a       129     0     6     1     4
  1.5708286487019646E-01 a       130     0     6     1     5
 -1.7414966199070953E-01 a       131     0     6     1     6
  9.0540820598229904E-02 a       132     0     6     1     7
 -5.0451068086106131E-02 a       133     0     6     1     8
  1.8931798857688545E-01 a       134     0     6     1     9
 -1.2105505468145125E-01 a       135     0     6     1    10
 -7.2916413539705210E-02 a       136     0     6     1    11
 -4.6647976811377674E-02 a       137     0     6     1    12
  1.3585142371393535E-01 a       138     0     6     1    13
 -6.3646981325662433E-02 a       139     0     6     1    14
  1.7384150898574088E-01 a       140     0     6     1    15
 -2.8517586768910808E-01 a       141     0     6     1    16
  1.1417122709220913E-01 a       142     0     6     1    17
  4.7518070000802499E-02 a       143     0     6     1    18
 -1.3210522040858225E-01 a       144     0     6     1    19
  1.6365893812432708E-01 a       145     0     6     1    20
  1.6085730792854774E-02 a       146     0     6     1    21
  9.3546431308672240E-02 a       147     0     6     1    22
 -4.9839203740716910E-02 a       148     0     6     1    23
 -1.8435062924965562E-01 a       149     0     6     1    24
 -1.4364717194302520E-01 a       150     0     6     1    25
 -7.8267488593185858E-02 a       151     0     7     1     1
  1.2727519461886627E-01 a       152     0     7     1     2
 -1.8735862898322281E-01 a       153     0     7     1     3
 -2.4668360407686482E-01 a       154     0     7     1     4
 -5.6237608760207114E-02 a       155     0     7     1     5
  3.3358882986788252E-01 a       156     0     7     1     6
  4.4968257408695991E-02 a       157     0     7     1     7
 -1.6455507606543424E-01 a       158     0     7     1     8
 -1.6770355128797498E-02 a       159     0     7     1     9
 -1.1272206806000058E-01 a       160     0     7     1    10
  1.1660956922036100E-01 a       161     0     7     1    11
  3.7117642608434477E-03 a       162     0     7     1    12
  1.1500103528703384E-01 a       163     0     7     1    13
  7.2254676276112567E-02 a       164     0     7     1    14
 -1.0354391580749701E-01 a       165     0     7     1    15
  1.9784483831130567E-01 a       166     0     7     1    16
  2.2003747972495802E-01 a       167     0     7     1    17
  4.1148751722247259E-02 a       168     0     7     1    18
 -9.1668523781752428E-02 a       169     0     7     1    19
 -1.1298332840885324E-01 a       170     0     7     1    20
 -2.2539100361476168E-02 a       171     0     7     1    21
  1.4507986554638844E-01 a       172     0     7     1    22
 -8.7883694774775603E-02 a       173     0     7     1    23
  8.6604451844326302E-02 a       174     0     7     1    24
  1.0950133616837648E-01 a       175     0     7     1    25
 -1.3581271109733115E-01 a       176     0     8     1     1
 -4.9153947799285974E-02 a       177     0     8     1     2
  1.9719097878339137E-01 a       178     0     8     1     3
 -1.3565181251571537E-01 a       179     0     8     1     4
 -6.2187283341945759E-02 a       180     0     8     1     5
 -9.1465412609290878E-02 a       181     0     8     1     6
  4.8404915877867646E-02 a       182     0     8     1     7
  1.5494457934215794E-01 a       183     0     8     1     8
 -4.9867188853161938E-03 a       184     0     8     1     9
  2.8037747261600193E-01 a       185     0     8     1    10
 -1.2153399967080954E-01 a       186     0     8     1    11
  1.6332644942564234E-01 a       187     0     8     1    12
  8.9630998619862012E-02 a       188     0     8     1    13
  1.1391171318385835E-02 a       189     0     8     1    14
 -9.5013136466491968E-02 a       190     0     8     1    15
  1.5106308462446053E-01 a       191     0     8     1    16
 -1.3515651251636893E-01 a       192     0     8     1    17
  1.5152480242565991E-01 a       193     0     8     1    18
 -1.5424302285838945E-01 a       194     0     8     1    19
  4.5557418199118023E-02 a       195     0     8     1    20
 -1.2785810755032997E-01 a       196     0     8     1    21
 -1.8591202499836926E-01 a       197     0     8     1    22
 -8.4998874568413402E-02 a       198     0     8     1    23
  1.8315120047881300E-01 a       199     0     8     1    24
  2.2366300903039274E-02 a       200     0     8     1    25
 -1.7268942172626517E-01 a       201     0     9     1     1
  1.4032075567777719E-01 a       202     0     9     1     2
 -2.9695958153605706E-01 a       203     0     9     1     3
 -1.2290959707072132E-02 a       204     0     9     1     4
 -1.9890550399860560E-01 a       205     0     9     1     5
 -1.6396884385009997E-02 a       206     0     9     1     6
  6.0654630179248803E-01 a       207     0     9     1     7
  1.2593635702603362E-01 a       208     0     9     1     8
  1.1690901922971089E-01 a       209     0     9     1     9
  7.1889484745613408E-02 a       210     0     9     1    10
 -2.3651451516782757E-01 a       211     0     9     1    11
  9.7246122654823589E-02 a       212     0     9     1    12
 -1.3783320961140108E-02 a       213     0     9     1    13
 -5.6279141508449493E-01 a       214     0     9     1    14
 -9.9459617416978466E-02 a       215     0     9     1    15
  4.9610212374937970E-02 a       216     0     9     1    16
  2.7215828816809856E-01 a       217     0     9     1    17
 -6.5880071819228352E-03 a       218     0     9     1    18
 -4.2951048405412323E-01 a       219     0     9     1    19
 -2.2645984277981521E-01 a       220     0     9     1    20
  3.2439395775973318E-01 a       221     0     9     1    21
 -8.0230947822044416E-02 a       222     0     9     1    22
 -1.7863956503644790E-01 a       223     0     9     1    23
 -4.5444500899453877E-01 a       224     0     9     1    24
 -4.9726366180052793E-02 a       225     0     9     1    25
 -4.5420382053430672E-02 a       226     0    10     1     1
 -1.6483067444092347E-01 a       227     0    10     1     2
  2.0647827120465626E-01 a       228     0    10     1     3
  9.6497675968200386E-02 a       229     0    10     1     4
  2.4188781460295797E-01 a       230     0    10     1     5
  2.6860830215944653E-01 a       231     0    10     1     6
 -1.8403712772996106E-01 a       232     0    10     1     7
  1.0888797521603176E-01 a       233     0    10     1     8
 -5.4711415666723207E-01 a       234     0    10     1     9
 -1.5287215216574165E-01 a       235     0    10     1    10
 -2.1677079559170970E-01 a       236     0    10     1    11
  3.4097747967755931E-01 a       237     0    10     1    12
 -1.1082498524291759E-01 a       238     0    10     1    13
 -4.2724434478586475E-02 a       239     0    10     1    14
 -9.4386533849893442E-02 a       240     0    10     1    15
  1.7955989828416544E-01 a       241     0    10     1    16
 -2.3843690156610733E-01 a       242     0    10     1    17
 -5.4807708931642364E-02 a       243     0    10     1    18
  1.9612987878043794E-01 a       244     0    10     1    19
 -3.9007667338587196E-02 a       245     0    10     1    20
 -1.1867979497303579E-02 a       246     0    10     1    21
 -1.8964923058578498E-01 a       247     0    10     1    22
  1.6654607319793616E-01 a       248     0    10     1    23
  5.6844215165522703E-02 a       249     0    10     1    24
 -1.7521306882528800E-01 a       250     0    10     1    25
  9.9880757256638461E-02 a       251     0    11     1     1
  3.2863533165764965E-02 a       252     0    11     1     2
 -1.0549769206078817E-01 a       253     0    11     1     3
 -3.7161557641275024E-02 a       254     0    11     1     4
 -6.7257504914172678E-02 a       255     0    11     1     5
  1.2376066114253594E-01 a       256     0    11     1     6
  1.9093518317749661E-01 a       257     0    11     1     7
  1.9670395627045395E-01 a       258     0    11     1     8
  1.8827018390892632E-02 a       259     0    11     1     9
  1.4730047531122456E-01 a       260     0    11     1    10
 -1.4661999540859222E-01 a       261     0    11     1    11
 -3.3604259215004401E-01 a       262     0    11     1    12
  2.1488103968189204E-01 a       263     0    11     1    13
 -1.5481489161781650E-01 a       264     0    11     1    14
 -3.5685721463884684E-02 a       265     0    11     1    15
 -2.4701433734920741E-01 a       266     0    11     1    16
  1.7656961284395889E-01 a       267     0    11     1    17
 -1.9269786445795696E-02 a       268     0    11     1    18
  1.7101867650562136E-01 a       269     0    11     1    19
  5.6895214221929641E-02 a       270     0    11     1    20
  1.2828461323844273E-01 a       271     0    11     1    21
 -2.7021442924100653E-01 a       272     0    11     1    22
 -4.9106058113432390E-02 a       273     0    11     1    23
 -1.6423527018896031E-01 a       274     0    11     1    24
 -2.9613096645523043E-02 a       275     0    11     1    25
 -2.8478253598319164E-01 a       276     0    12     1     1
  3.9878803539104496E-01 a       277     0    12     1     2
 -3.8219389732653083E-02 a       278     0    12     1     3
 -3.7648290038553224E-02 a       279     0    12     1     4
 -1.6050940541609524E-01 a       280     0    12     1     5
  7.8814884767571619E-02 a       281     0    12     1     6
 -1.0885043962857281E-01 a       282     0    12     1     7
 -2.2095964598352141E-01 a       283     0    12     1     8
 -2.6785368925499836E-01 a       284     0    12     1     9
  1.9028726129745845E-02 a       285     0    12     1    10
 -6.9904688670822751E-02 a       286     0    12     1    11
 -5.8961657272247406E-02 a       287     0    12     1    12
  7.5710234044862379E-02 a       288     0    12     1    13
  1.2542229833173785E-01 a       289     0    12     1    14
  1.3513366359577433E-01 a       290     0    12     1    15
 -1.1962743881735474E-01 a       291     0    12     1    16
  9.1318404397786768E-02 a       292     0    12     1    17
 -2.6356705173410294E-01 a       293     0    12     1    18
  2.2358608720041046E-02 a       294     0    12     1    19
 -3.9672814754615919E-02 a       295     0    12     1    20
  1.4163398147627637E-01 a       296     0    12     1    21
  1.5379895947771138E-01 a       297     0    12     1    22
  3.2172133585915662E-02 a       298     0    12     1    23
 -6.5189707568974700E-02 a       299     0    12     1    24
 -1.2228532315085525E-01 a       300     0    12     1    25
 -6.4699812590116215E-02 a       301     0    13     1     1
 -2.8579661918473048E-01 a       302     0    13     1     2
 -2.6410154054595941E-01 a       303     0    13     1     3
 -6.1042257564352309E-01 a       304     0    13     1     4
 -7.9774413609337139E-02 a       305     0    13     1     5
  2.5444571542152028E-01 a       306     0    13     1     6
 -2.0831360801996315E-01 a       307     0    13     1     7
  4.3396793515473479E-02 a       308     0    13     1     8
 -3.6406812493359786E-01 a       309     0    13     1     9
 -1.3233463399332612E-01 a       310     0    13     1    10
  2.9702643685340802E-01 a       311     0    13     1    11
 -2.3722705340129416E-01 a       312     0    13     1    12
  1.9393454075282657E-01 a       313     0    13     1    13
  1.2475365955033584E-01 a       314     0    13     1    14
 -1.7048693666665146E-01 a       315     0    13     1    15
 -4.0662847256422380E-01 a       316     0    13     1    16
  1.9976021156936491E-01 a       317     0    13     1    17
  6.9125223595215585E-02 a       318     0    13     1    18
  1.3445522263566229E-01 a       319     0    13     1    19
 -2.8299874836795980E-01 a       320     0    13     1    20
 -6.1219096807179442E-02 a       321     0    13     1    21
 -3.2726046893752880E-01 a       322     0    13     1    22
  3.2189800777106059E-01 a       323     0    13     1    23
  4.3253108589205680E-01 a       324     0    13     1    24
  3.7595633353935914E-01 a       325     0    13     1    25
 -1.8423270100986797E-01 a       326     0    14     1     1
  1.2691514083019714E-01 a       327     0    14     1     2
  5.5857164966775474E-01 a       328     0    14     1     3
 -1.0206105193822539E-01 a       329     0    14     1     4
  2.5232084168739355E-01 a       330     0    14     1     5
  3.7049490826675485E-01 a       331     0    14     1     6
 -2.5430717390103114E-01 a       332     0    14     1     7
 -9.1768642504064264E-03 a       333     0    14     1     8
 -2.2601480918813785E-01 a       334     0    14     1     9
  1.0937552918812835E-01 a       335     0    14     1    10
 -1.3525588739632904E-01 a       336     0    14     1    11
  9.7429349861733225E-02 a       337     0    14     1    12
 -7.0820643183047032E-04 a       338     0    14     1    13
  4.8795114791570826E-01 a       339     0    14     1    14
  2.6551574712900661E-01 a       340     0    14     1    15
 -1.6611412837414760E-01 a       341     0    14     1    16
  2.9885165983440494E-02 a       342     0    14     1    17
  7.9879216907325551E-02 a       343     0    14     1    18
  1.3838327216846244E-01 a       344     0    14     1    19
  1.3784169359360757E-01 a       345     0    14     1    20
  2.8273048572691868E-02 a       346     0    14     1    21
  3.4143775394921277E-01 a       347     0    14     1    22
 -6.7087566406976440E-02 a       348     0    14     1    23
  4.8852605697034496E-01 a       349     0    14     1    24
  2.0347284069419766E-01 a       350     0    14     1    25
 -7.5461943714923360E-02 a       351     0    15     1     1
 -2.7870079350447791E-01 a       352     0    15     1     2
  2.4697411514922085E-01 a       353     0    15     1     3
 -3.0985038440310194E-02 a       354     0    15     1     4
 -5.5180094801314451E-02 a       355     0    15     1     5
  5.7468599140890433E-02 a       356     0    15     1     6
  1.2105268492475098E-01 a       357     0    15     1     7
 -8.1671409757285859E-02 a       358     0    15     1     8
 -9.9354279102366244E-02 a       359     0    15     1     9
  1.5218272384605777E-01 a       360     0    15     1    10
  1.2098805358616414E-01 a       361     0    15     1    11
 -1.9646216749161324E-01 a       362     0    15     1    12
 -8.2079284282926365E-02 a       363     0    15     1    13
 -1.1575675715462203E-01 a       364     0    15     1    14
 -3.1434901373933793E-01 a       365     0    15     1    15
  1.4912934689059568E-01 a       366     0    15     1    16
  6.5048854443180010E-02 a       367     0    15     1    17
 -8.0889810226588837E-02 a       368     0    15     1    18
  1.0399460560457825E-01 a       369     0    15     1    19
 -1.8743475898630842E-02 a       370     0    15     1    20
 -7.9087509208732670E-02 a       371     0    15     1    21
 -1.2180712309768101E-01 a       372     0    15     1    22
 -2.2271727931305646E-01 a       373     0    15     1    23
  9.5629309301317592E-02 a       374     0    15     1    24
 -1.2198774793945208E-01 a       375     0    15     1    25
 -2.2846964187638885E-01 a       376     0    16     1     1
  1.6348260042161401E-03 a       377     0    16     1     2
 -1.3790728804353392E-01 a       378     0    16     1     3
 -1.1890669953565761E-01 a       379     0    16     1     4
  7.0415035395532094E-02 a       380     0    16     1     5
  5.8330666520238897E-02 a       381     0    16     1     6
  9.0951267279325634E-02 a       382     0    16     1     7
 -1.9194275023240882E-02 a       383     0    16     1     8
 -2.3778040572688686E-01 a       384     0    16     1     9
 -6.2972662702977134E-02 a       385     0    16     1    10
 -1.8450565010354616E-01 a       386     0    16     1    11
 -1.8740851335369627E-01 a       387     0    16     1    12
 -2.0711956848589042E-01 a       388     0    16     1    13
 -4.6236167858319202E-02 a       389     0    16     1    14
 -2.5206788909472332E-02 a       390     0    16     1    15
  1.0516566242297916E-02 a       391     0    16     1    16
 -9.3068393639457972E-02 a       392     0    16     1    17
  5.3009424686854947E-02 a       393     0    16     1    18
  2.3855075314640487E-02 a       394     0    16     1    19
 -1.4994738347958295E-01 a       395     0    16     1    20
  1.9523557574601788E-01 a       396     0    16     1    21
  8.9345250763282730E-02 a       397     0    16     1    22
  1.4624663798456672E-01 a       398     0    16     1    23
  2.3898234596564524E-01 a       399     0    16     1    24
  2.8148882181001833E-01 a       400     0    16     1    25
 -9.4057061453120774E-02 a       401     0    17     1     1
  1.4307691627070920E-01 a       402     0    17     1     2
 -3.4369541051717750E-01 a       403     0    17     1     3
  5.1413642838365536E-01 a       404     0    17     1     4
 -6.0261891781956928E-02 a       405     0    17     1     5
 -7.6538056797902043E-02 a       406     0    17     1     6
  2.2467166812892653E-01 a       407     0    17     1     7
  1.7861641950855861E-01 a       408     0    17     1     8
  2.3948848675448642E-01 a       409     0    17     1     9
 -3.0698931266878593E-01 a       410     0    17     1    10
  1.2562373769932139E-01 a       411     0    17     1    11
 -4.5341113603405958E-01 a       412     0    17     1    12
 -8.9920327823671417E-02 a       413     0    17     1    13
 -1.4271952483009065E-01 a       414     0    17     1    14
 -2.7650765696690737E-02 a       415     0    17     1    15
  1.6773783212920271E-01 a       416     0    17     1    16
 -3.0442555342264455E-01 a       417     0    17     1    17
  1.3229925955082616E-01 a       418     0    17     1    18
 -5.5704312713290316E-01 a       419     0    17     1    19
  3.4439063230310624E-02 a       420     0    17     1    20
  1.2557845130460030E-01 a       421     0    17     1    21
 -3.2742891506924732E-01 a       422     0    17     1    22
 -1.1242082643847785E-01 a       423     0    17     1    23
 -4.6762584937303309E-01 a       424     0    17     1    24
 -1.3684261993786062E-01 a       425     0    17     1    25
  9.2338154445533005E-02 a       426     0    18     1     1
  1.7470582256011544E-02 a       427     0    18     1     2
  3.1462679464206778E-01 a       428     0    18     1     3
  2.4158758135740885E-01 a       429     0    18     1     4
  2.7655097202589984E-01 a       430     0    18     1     5
  1.4184655698338486E-01 a       431     0    18     1     6
 -6.5041961195216741E-02 a       432     0    18     1     7
 -1.5991632986014737E-01 a       433     0    18     1     8
 -1.9710569287457697E-01 a       434     0    18     1     9
  3.8501288270926565E-01 a       435     0    18     1    10
 -1.4028330270740805E-01 a       436     0    18     1    11
  2.7101581549863623E-02 a       437     0    18     1    12
 -1.9242891207967055E-02 a       438     0    18     1    13
  1.0539434001387331E-01 a       439     0    18     1    14
 -1.5834641907451136E-01 a       440     0    18     1    15
 -1.6076065965053527E-02 a       441     0    18     1    16
  2.6818421919815472E-02 a       442     0    18     1    17
 -5.0490394037396844E-02 a       443     0    18     1    18
  8.7840897483595679E-02 a       444     0    18     1    19
  1.5300866774283220E-01 a       445     0    18     1    20
  7.1394984446172066E-02 a       446     0    18     1    21
  2.4962942969160432E-01 a       447     0    18     1    22
 -2.1672983895584011E-01 a       448     0    18     1    23
  7.9005863283683128E-02 a       449     0    18     1    24
 -1.7201290450746218E-04 a       450     0    18     1    25
 -5.2040044261821079E-02 a       451     0    19     1     1
 -5.6017541607394555E-02 a       452     0    19     1     2
 -9.6985774643816858E-02 a       453     0    19     1     3
 -1.6150509181359821E-01 a       454     0    19     1     4
  2.9853174180665989E-02 a       455     0    19     1     5
  1.7791373537019722E-01 a       456     0    19     1     6
 -1.5265901798879514E-01 a       457     0    19     1     7
  1.2911676272389994E-01 a       458     0    19     1     8
 -1.3756078554053633E-02 a       459     0    19     1     9
  6.3779140754853143E-03 a       460     0    19     1    10
 -3.7255757852338804E-02 a       461     0    19     1    11
 -2.8835648547059600E-01 a       462     0    19     1    12
  1.5957809999136965E-01 a       463     0    19     1    13
 -6.0878863236107188E-02 a       464     0    19     1    14
 -1.3044040752694730E-01 a       465     0    19     1    15
 -9.0018276885338311E-02 a       466     0    19     1    16
  8.7554155534977515E-02 a       467     0    19     1    17
 -3.7297283478921112E-02 a       468     0    19     1    18
 -1.6366829913988298E-01 a       469     0    19     1    19
  3.3303540473134136E-02 a       470     0    19     1    20
  2.3215530208766144E-01 a       471     0    19     1    21
 -2.7920930592799070E-01 a       472     0    19     1    22
  1.8149640512524584E-01 a       473     0    19     1    23
 -1.2831086996889976E-01 a       474     0    19     1    24
 -1.0661519022844082E-01 a       475     0    19     1    25
 -1.6437347016911860E-01 a       476     0    20     1     1
  1.6330770995753807E-01 a       477     0    20     1     2
 -6.0672899582136293E-04 a       478     0    20     1     3
  1.8458481582828665E-01 a       479     0    20     1     4
 -1.9067604816153333E-01 a       480     0    20     1     5
  1.3298855271402768E-01 a       481     0    20     1     6
 -3.3556770969973081E-02 a       482     0    20     1     7
 -9.6300657441268131E-02 a       483     0    20     1     8
 -1.3234614215812815E-01 a       484     0    20     1     9
  2.7366654711594302E-01 a       485     0    20     1    10
 -7.1565806203488777E-02 a       486     0    20     1    11
 -1.2426969377136252E-01 a       487     0    20     1    12
  7.3009179720327957E-02 a       488     0    20     1    13
  8.8324147042208298E-02 a       489     0    20     1    14
 -2.9136993055684485E-02 a       490     0    20     1    15
  1.1245729096697167E-01 a       491     0    20     1    16
 -9.2080793506302452E-02 a       492     0    20     1    17
 -8.6355763299699878E-02 a       493     0    20     1    18
 -2.1027115412927119E-01 a       494     0    20     1    19
  1.1861766437685017E-01 a       495     0    20     1    20
 -9.2763692100965162E-02 a       496     0    20     1    21
  2.0926692360151861E-01 a       497     0    20     1    22
 -2.1742161617821013E-01 a       498     0    20     1    23
  8.1529117678558582E-02 a       499     0    20     1    24
 -2.1700918758044954E-01 a       500     0    20     1    25
  2.5398098318100293E-01 a       501     0    21     1     1
 -2.9918644751636592E-01 a       502     0    21     1     2
 -3.9317606656746229E-01 a       503     0    21     1     3
 -2.8884210487207540E-01 a       504     0    21     1     4
  1.7530944636509851E-02 a       505     0    21     1     5
 -3.2339046356472667E-01 a       506     0    21     1     6
 -3.8723433951759131E-02 a       507     0    21     1     7
  1.5744621155289695E-01 a       508     0    21     1     8
 -1.4562869188028926E-01 a       509     0    21     1     9
 -1.6672811877979996E-01 a       510     0    21     1    10
  2.8451993374761678E-02 a       511     0    21     1    11
 -1.0029765937639842E-01 a       512     0    21     1    12
  2.7627420697813998E-01 a       513     0    21     1    13
  2.0582774527918760E-01 a       514     0    21     1    14
 -1.4671500132084375E-01 a       515     0    21     1    15
 -3.3293919867056426E-01 a       516     0    21     1    16
  2.5670320588643009E-01 a       517     0    21     1    17
  1.6079586272684820E-01 a       518     0    21     1    18
  4.3587773764081927E-01 a       519     0    21     1    19
 -1.8337333286527716E-01 a       520     0    21     1    20
  2.0641669186328174E-01 a       521     0    21     1    21
 -2.6183283531500140E-01 a       522     0    21     1    22
  1.1351262672021646E-01 a       523     0    21     1    23
  2.1027508866956468E-01 a       524     0    21     1    24
 -5.7690337989858259E-02 a       525     0    21     1    25
 -5.5853961403922403E-02 a       526     0    22     1     1
  2.8409503820212567E-01 a       527     0    22     1     2
  3.7718860048596436E-01 a       528     0    22     1     3
  1.9352648440271653E-02 a       529     0    22     1     4
 -2.4022682703871836E-02 a       530     0    22     1     5
 -3.7983274839634498E-02 a       531     0    22     1     6
 -2.8091196148136371E-01 a       532     0    22     1     7
 -7.8674585433322911E-02 a       533     0    22     1     8
 -2.0648180475342179E-01 a       534     0    22     1     9
  1.5906446667990101E-01 a       535     0    22     1    10
 -1.9947324779560710E-01 a       536     0    22     1    11
 -5.4025328685917721E-03 a       537     0    22     1    12
 -1.7075982121439559E-01 a       538     0    22     1    13
  4.7960810978667306E-02 a       539     0    22     1    14
  1.1427087175861403E-01 a       540     0    22     1    15
  1.0059386499676108E-01 a       541     0    22     1    16
 -9.0529010393934239E-02 a       542     0    22     1    17
 -1.9671408199476448E-01 a       543     0    22     1    18
 -5.1129959439555096E-02 a       544     0    22     1    19
  2.0638621168633142E-01 a       545     0    22     1    20
 -1.3841274448420318E-01 a       546     0    22     1    21
  2.8661094134541276E-01 a       547     0    22     1    22
  5.8929856882483783E-02 a       548     0    22     1    23
  2.6660845227378810E-01 a       549     0    22     1    24
  1.7864048164900254E-01 a       550     0    22     1    25
 -1.1197597088077442E-01 a       551     0    23     1     1
 -1.0800416186722830E-01 a       552     0    23     1     2
 -2.4920067102765658E-01 a       553     0    23     1     3
 -1.3991543205025212E-02 a       554     0    23     1     4
  5.6452575279021928E-02 a       555     0    23     1     5
  7.6872830308234982E-02 a       556     0    23     1     6
  1.6156328483979188E-01 a       557     0    23     1     7
  1.8488093922869212E-02 a       558     0    23     1     8
  1.3392111644507990E-01 a       559     0    23     1     9
 -3.8134725513220158E-01 a       560     0    23     1    10
  1.0372251734704338E-01 a       561     0    23     1    11
  1.0536946642990816E-01 a       562     0    23     1    12
 -3.8855969532435398E-02 a       563     0    23     1    13
 -2.6362640830488802E-02 a       564     0    23     1    14
 -3.7241412396930441E-02 a       565     0    23     1    15
 -7.3003287936688241E-02 a       566     0    23     1    16
  9.6842751011789602E-03 a       567     0    23     1    17
  1.3985619576245278E-01 a       568     0    23     1    18
  1.7102299270430699E-01 a       569     0    23     1    19
 -1.5567436225758522E-02 a       570     0    23     1    20
 -4.3345101326446242E-02 a       571     0    23     1    21
 -1.6936424805230929E-01 a       572     0    23     1    22
 -1.4189567872280903E-01 a       573     0    23     1    23
  1.2353980650287366E-01 a       574     0    23     1    24
  5.9655275171666002E-02 a       575     0    23     1    25
 -2.1594682994466161E-01 a       576     0    24     1     1
  2.5154356953057244E-01 a       577     0    24     1     2
  1.2104646060399370E-01 a       578     0    24     1     3
 -2.1151381502514267E-02 a       579     0    24     1     4
  6.2876832784367995E-02 a       580     0    24     1     5
  1.7034550417064717E-01 a       581     0    24     1     6
 -1.7456941267140091E-01 a       582     0    24     1     7
 -8.2443341454892377E-02 a       583     0    24     1     8
 -1.7715816121185413E-01 a       584     0    24     1     9
 -6.9581950954990007E-02 a       585     0    24     1    10
 -1.2394511930118386E-01 a       586     0    24     1    11
  4.0101346205953011E-03 a       587     0    24     1    12
 -4.1555594164265144E-02 a       588     0    24     1    13
  6.2659067272546540E-02 a       589     0    24     1    14
  2.5298376973906678E-01 a       590     0    24     1    15
 -2.9617702664528716E-02 a       591     0    24     1    16
 -1.4515355683511356E-02 a       592     0    24     1    17
 -2.8569507088047952E-02 a       593     0    24     1    18
 -2.2821933473337427E-02 a       594     0    24     1    19
 -1.4262207923434261E-01 a       595     0    24     1    20
  2.0040671832609241E-02 a       596     0    24     1    21
  2.1279475480936189E-01 a       597     0    24     1    22
  2.7060682410302389E-01 a       598     0    24     1    23
 -1.7321707561198149E-02 a       599     0    24     1    24
  2.2774341091110251E-01 a       600     0    24     1    25
 -2.5296906901922500E-01 a       601     0    25     1     1
  3.0387015944895065E-02 a       602     0    25     1     2
 -5.4012697692679933E-02 a       603     0    25     1     3
 -7.9569356178324668E-02 a       604     0    25     1     4
 -5.2681078198337471E-02 a       605     0    25     1     5
  2.6239279054401859E-01 a       606     0    25     1     6
  1.0331814320853801E-01 a       607     0    25     1     7
 -1.2435153469039528E-01 a       608     0    25     1     8
 -2.9440383496469599E-02 a       609     0    25     1     9
  4.9591033958102469E-03 a       610     0    25     1    10
  1.4011702977653387E-01 a       611     0    25     1    11
 -2.6844523752809468E-01 a       612     0    25     1    12
 -1.9444422907020339E-01 a       613     0    25     1    13
 -2.9322548793387770E-01 a       614     0    25     1    14
 -1.6807990944920329E-01 a       615     0    25     1    15
 -1.1648699094984937E-03 a       616     0    25     1    16
 -2.6605715685414860E-01 a       617     0    25     1    17
  3.4586616285304443E-03 a       618     0    25     1    18
 -3.1711042186970234E-01 a       619     0    25     1    19
  1.8383276872490925E-01 a       620     0    25     1    20
  5.9587598147032898E-02 a       621     0    25     1    21
 -1.8617489325925876E-01 a       622     0    25     1    22
 -6.9467440813481870E-02 a       623     0    25     1    23
 -2.5617343515948746E-02 a       624     0    25     1    24
 -3.3984857838921259E-02 a       625     0    25     1    25
  1.6817034662846067E-01 a       626     0    26     1     1
  7.3148159397123255E-02 a       627     0    26     1     2
  1.9462642763707222E-01 a       628     0    26     1     3
  6.7229370683647899E-02 a       629     0    26     1     4
 -3.6164646292227709E-02 a       630     0    26     1     5
  1.3893211033601155E-01 a       631     0    26     1     6
 -1.5811584624320157E-01 a       632     0    26     1     7
 -8.2986510627137092E-02 a       633     0    26     1     8
 -2.7733342951970909E-02 a       634     0    26     1     9
 -4.8637748153740119E-02 a       635     0    26     1    10
 -1.0733120120888796E-01 a       636     0    26     1    11
 -1.1623592370652265E-01 a       637     0    26     1    12
 -3.7575456487551354E-02 a       638     0    26     1    13
  2.0541447980263423E-02 a       639     0    26     1    14
  3.5135276550355678E-02 a       640     0    26     1    15
  6.7511529130736159E-02 a       641     0    26     1    16
  6.1764496564842446E-02 a       642     0    26     1    17
  1.2863983461462075E-01 a       643     0    26     1    18
  6.6177865707327836E-03 a       644     0    26     1    19
 -2.1501588892847218E-01 a       645     0    26     1    20
  1.1630872434283004E-02 a       646     0    26     1    21
  1.5238893961839162E-01 a       647     0    26     1    22
 -8.5258119116091061E-02 a       648     0    26     1    23
 -8.7230123509451821E-02 a       649     0    26     1    24
 -4.2388953748626196E-02 a       650     0    26     1    25
  1.7407333897492341E-02 a       651     0    27     1     1
  1.0354576004317954E-01 a       652     0    27     1     2
  1.0449132900587237E-01 a       653     0    27     1     3
  8.2912278772103040E-02 a       654     0    27     1     4
 -8.9895861602721436E-02 a       655     0    27     1     5
 -3.5487836095534231E-01 a       656     0    27     1     6
 -2.1025944753587777E-01 a       657     0    27     1     7
  9.1408779207751562E-02 a       658     0    27     1     8
  1.7156383763185963E-02 a       659     0    27     1     9
  2.4233327143620798E-01 a       660     0    27     1    10
 -5.8256534195086369E-02 a       661     0    27     1    11
 -2.4248415785391184E-01 a       662     0    27     1    12
  4.1857622957843538E-02 a       663     0    27     1    13
  1.1691545175330774E-01 a       664     0    27     1    14
 -3.9530450787924130E-02 a       665     0    27     1    15
  6.0254054775515362E-02 a       666     0    27     1    16
 -1.8410352028412093E-02 a       667     0    27     1    17
 -8.4101767825820892E-02 a       668     0    27     1    18
 -6.2486389176903571E-02 a       669     0    27     1    19
  1.2759291308347348E-01 a       670     0    27     1    20
  1.9991112198817604E-01 a       671     0    27     1    21
 -2.1254380125492400E-01 a       672     0    27     1    22
  1.2709074484796196E-01 a       673     0    27     1    23
 -6.1134849852978873E-02 a       674     0    27     1    24
  2.3887288328833019E-02 a       675     0    27     1    25
  8.4911659884389118E-02 a       676     0    28     1     1
 -8.7889243755621793E-02 a       677     0    28     1     2
  1.0094242939138641E-01 a       678     0    28     1     3
  2.6211322386296160E-02 a       679     0    28     1     4
 -1.8651572430714164E-01 a       680     0    28     1     5
 -1.0012263526077927E-01 a       681     0    28     1     6
  8.1162960353699756E-02 a       682     0    28     1     7
 -8.5910957622597470E-02 a       683     0    28     1     8
 -2.3083208117847989E-02 a       684     0    28     1     9
  2.2999417277238526E-01 a       685     0    28     1    10
 -4.1209787367497426E-02 a       686     0    28     1    11
 -1.6068916724639479E-01 a       687     0    28     1    12
 -7.6397668378829026E-02 a       688     0    28     1    13
 -1.4175593439715107E-02 a       689     0    28     1    14
 -6.6481797159502740E-02 a       690     0    28     1    15
 -3.3517641960183059E-02 a       691     0    28     1    16
 -1.6079361720142096E-02 a       692     0    28     1    17
 -1.5060235781894013E-02 a       693     0    28     1    18
  2.6854180842829020E-02 a       694     0    28     1    19
  2.2427380409203086E-03 a       695     0    28     1    20
  1.1763665323104949E-02 a       696     0    28     1    21
  4.5899710342081852E-02 a       697     0    28     1    22
 -1.5880430080851218E-01 a       698     0    28     1    23
  5.7946935629885878E-02 a       699     0    28     1    24
 -6.5358313472633003E-02 a       700     0    28     1    25
  2.9740602636585855E-02 a       701     0    29     1     1
 -2.1127552870394559E-01 a       702     0    29     1     2
 -2.0545444549448250E-02 a       703     0    29     1     3
  2.8813390654831511E-01 a       704     0    29     1     4
  1.8609979104873642E-01 a       705     0    29     1     5
 -2.7679093260158510E-01 a       706     0    29     1     6
  1.3179280022690321E-01 a       707     0    29     1     7
  1.1636828826696634E-01 a       708     0    29     1     8
  9.7634791320371679E-03 a       709     0    29     1     9
 -2.7463638830039727E-01 a       710     0    29     1    10
  1.0407401831140192E-01 a       711     0    29     1    11
 -4.0606561432838591E-02 a       712     0    29     1    12
  1.5997839500264657E-01 a       713     0    29     1    13
  2.4955093585284591E-01 a       714     0    29     1    14
  2.4558585018661172E-01 a       715     0    29     1    15
  4.4078929185306502E-02 a       716     0    29     1    16
  1.0615555802370974E-01 a       717     0    29     1    17
  3.3524910459092744E-01 a       718     0    29     1    18
  3.3120809448113175E-01 a       719     0    29     1    19
 -5.0835639405634500E-02 a       720     0    29     1    20
  8.5303989879703376E-02 a       721     0    29     1    21
 -9.6595208323777881E-02 a       722     0    29     1    22
 -3.6110010154798075E-02 a       723     0    29     1    23
  8.1194854188322133E-02 a       724     0    29     1    24
  9.7617184047663258E-02 a       725     0    29     1    25
  1.0017498044215181E-01 a       726     0    30     1     1
  1.7364176992845171E-01 a       727     0    30     1     2
  4.5876111802760348E-02 a       728     0    30     1     3
  9.8118944813734732E-02 a       729     0    30     1     4
 -8.3536387094992406E-02 a       730     0    30     1     5
 -8.8614626294666959E-02 a       731     0    30     1     6
 -1.9914737649430542E-01 a       732     0    30     1     7
  4.8606484517227141E-02 a       733     0    30     1     8
 -2.3108388681006602E-02 a       734     0    30     1     9
  3.0717460642635075E-01 a       735     0    30     1    10
 -9.2104821101547690E-02 a       736     0    30     1    11
  1.3238835941924748E-01 a       737     0    30     1    12
 -4.7437195077069422E-02 a       738     0    30     1    13
  5.1449367888155850E-02 a       739     0    30     1    14
 -1.9343981562968335E-02 a       740     0    30     1    15
  1.7878258001923351E-02 a       741     0    30     1    16
 -1.2169338834419735E-01 a       742     0    30     1    17
 -3.6068148594056615E-01 a       743     0    30     1    18
 -1.0357199628368222E-01 a       744     0    30     1    19
  1.3122522032689646E-01 a       745     0    30     1    20
 -1.9901344704778634E-01 a       746     0    30     1    21
  3.5423674205532343E-02 a       747     0    30     1    22
  1.2348884421369032E-01 a       748     0    30     1    23
 -1.6828666670249515E-02 a       749     0    30     1    24
 -4.9125138652767429E-02 a       750     0    30     1    25
  8.6388498805608949E-02 a       751     0    31     1     1
 -2.2507809649154950E-01 a       752     0    31     1     2
 -1.2165098798577147E-01 a       753     0    31     1     3
  2.8352135580814352E-02 a       754     0    31     1     4
  1.0584673859683949E-01 a       755     0    31     1     5
 -1.6943865978134584E-01 a       756     0    31     1     6
  3.3500441048736181E-02 a       757     0    31     1     7
 -3.3416749985275405E-02 a       758     0    31     1     8
  2.6856590063026587E-02 a       759     0    31     1     9
 -2.1240599069212215E-01 a       760     0    31     1    10
  3.2615773997470163E-02 a       761     0    31     1    11
  3.4159897147027642E-02 a       762     0    31     1    12
 -2.4767180237964894E-02 a       763     0    31     1    13
 -1.6470016769456142E-01 a       764     0    31     1    14
 -1.8501491692767552E-01 a       765     0    31     1    15
 -1.6139214899968307E-01 a       766     0    31     1    16
  9.3684390973069409E-02 a       767     0    31     1    17
  2.7841923184626594E-01 a       768     0    31     1    18
  1.1298169827088080E-01 a       769     0    31     1    19
 -2.8628956082059998E-02 a       770     0    31     1    20
  1.3162158746234962E-01 a       771     0    31     1    21
  2.6522590070529459E-02 a       772     0    31     1    22
 -2.3008664443025043E-01 a       773     0    31     1    23
  1.3086359838152484E-01 a       774     0    31     1    24
 -1.7161303306252700E-02 a       775     0    31     1    25
 -4.3000124154141395E-02 a       776     0    32     1     1
  4.1024107277440125E-01 a       777     0    32     1     2
 -2.3741705363197186E-02 a       778     0    32     1     3
 -6.2552278536418510E-02 a       779     0    32     1     4
 -2.7217375582193976E-02 a       780     0    32     1     5
  6.4148257239471027E-02 a       781     0    32     1     6
  1.3915323749925454E-02 a       782     0    32     1     7
  1.6812322686742431E-02 a       783     0    32     1     8
 -7.9164528789143804E-02 a       784     0    32     1     9
 -8.2296923166833721E-02 a       785     0    32     1    10
 -1.5791335515113572E-01 a       786     0    32     1    11
 -1.3764393933801375E-02 a       787     0    32     1    12
 -7.7534773929658587E-02 a       788     0    32     1    13
  1.8930100753076753E-01 a       789     0    32     1    14
 -1.5944657498903081E-01 a       790     0    32     1    15
  1.1888706813161812E-01 a       791     0    32     1    16
 -1.3932765516811643E-01 a       792     0    32     1    17
 -1.4042610851310069E-01 a       793     0    32     1    18
 -1.8067844143613454E-01 a       794     0    32     1    19
  3.8829286100852532E-02 a       795     0    32     1    20
 -2.2954331423267992E-02 a       796     0    32     1    21
  1.4009175339092975E-01 a       797     0    32     1    22
  8.3149101409448103E-02 a       798     0    32     1    23
  3.2288537084923137E-02 a       799     0    32     1    24
 -9.4683987233982414E-02 a       800     0    32     1    25
 -5.7760418451131539E-03 a       801     0    33     1     1
  7.8834879025766511E-02 a       802     0    33     1     2
 -1.2619785385791901E-01 a       803     0    33     1     3
 -1.0557293233470863E-01 a       804     0    33     1     4
 -1.0506273944555777E-01 a       805     0    33     1     5
  1.7250212188178216E-01 a       806     0    33     1     6
 -5.0850672178147170E-02 a       807     0    33     1     7
 -5.4952989668600176E-02 a       808     0    33     1     8
  9.7969905701063537E-02 a       809     0    33     1     9
 -2.4632145103526498E-02 a       810     0    33     1    10
 -4.5303022204072766E-03 a       811     0    33     1    11
  8.5316211831398439E-02 a       812     0    33     1    12
 -1.4154544230798765E-02 a       813     0    33     1    13
 -2.3368848559954643E-02 a       814     0    33     1    14
 -7.7315948231619414E-02 a       815     0    33     1    15
 -5.7739117619516389E-02 a       816     0    33     1    16
 -5.1583646878438855E-03 a       817     0    33     1    17
 -9.5619035490562679E-02 a       818     0    33     1    18
 -1.7905380260665837E-01 a       819     0    33     1    19
 -3.9292204964694023E-02 a       820     0    33     1    20
  5.5529282493497811E-02 a       821     0    33     1    21
  7.9189609744450065E-02 a       822     0    33     1    22
  2.5564895629495279E-02 a       823     0    33     1    23
 -4.8690549422026580E-02 a       824     0    33     1    24
 -1.4724528784125083E-02 a       825     0    33     1    25
 -1.5069539968529763E-02 a       826     0    34     1     1
  2.7486806759793172E-02 a       827     0    34     1     2
  1.2624914153871436E-01 a       828     0    34     1     3
 -7.5114071192607282E-02 a       829     0    34     1     4
 -2.1565824048682312E-02 a       830     0    34     1     5
 -2.1002738244727207E-01 a       831     0    34     1     6
  1.6187851309743631E-01 a       832     0    34     1     7
 -5.9736377895523239E-02 a       833     0    34     1     8
 -5.9231036070679151E-02 a       834     0    34     1     9
  9.7891354605502606E-02 a       835     0    34     1    10
 -5.4093846751007472E-02 a       836     0    34     1    11
 -2.8894344121355647E-01 a       837     0    34     1    12
 -7.2885452611129289E-02 a       838     0    34     1    13
 -4.7576750203515490E-02 a       839     0    34     1    14
 -2.7053021556888348E-03 a       840     0    34     1    15
  7.7914253965903943E-02 a       841     0    34     1    16
  3.9521912640783509E-02 a       842     0    34     1    17
  1.6445107965568576E-01 a       843     0    34     1    18
  9.7107469485314610E-02 a       844     0    34     1    19
 -1.7312408685184574E-02 a       845     0    34     1    20
  5.7332501796658102E-02 a       846     0    34     1    21
 -6.4222058618798566E-02 a       847     0    34     1    22
 -1.1217407782247255E-01 a       848     0    34     1    23
  8.2293148017526380E-02 a       849     0    34     1    24
  7.9463666827316398E-02 a       850     0    34     1    25
 -2.1164092563955544E-01 a       851     0    35     1     1
 -3.8169186405032744E-02 a       852     0    35     1     2
  1.4105976646592799E-01 a       853     0    35     1     3
 -7.6270614893713631E-02 a       854     0    35     1     4
  8.9743704414902439E-02 a       855     0    35     1     5
  1.9564560787917160E-01 a       856     0    35     1     6
 -1.8512967972735786E-01 a       857     0    35     1     7
 -1.8181673545222085E-02 a       858     0    35     1     8
 -7.6947693772281764E-02 a       859     0    35     1     9
 -1.6857132721492300E-02 a       860     0    35     1    10
  4.8749892108707053E-02 a       861     0    35     1    11
 -5.7234421133874426E-02 a       862     0    35     1    12
  1.1725614463358717E-02 a       863     0    35     1    13
  1.9569924032184081E-02 a       864     0    35     1    14
  5.5565341020929027E-02 a       865     0    35     1    15
  1.0287806451643980E-01 a       866     0    35     1    16
 -2.7435613306809901E-02 a       867     0    35     1    17
 -2.6019487567789179E-01 a       868     0    35     1    18
 -6.7746635214503179E-02 a       869     0    35     1    19
  6.5586585605393266E-02 a       870     0    35     1    20
 -1.3071019771898232E-01 a       871     0    35     1    21
  9.8969606192081290E-03 a       872     0    35     1    22
  6.5520219090542481E-02 a       873     0    35     1    23
 -6.1882306961500447E-02 a       874     0    35     1    24
  6.2491865070965331E-02 a       875     0    35     1    25
 -2.0803917926400437E-02 a       876     0    36     1     1
 -1.9301166651664750E-01 a       877     0    36     1     2
  6.6375806331320768E-03 a       878     0    36     1     3
  1.2780990637026316E-02 a       879     0    36     1     4
 -5.3053538447351001E-02 a       880     0    36     1     5
  1.8316994684536247E-01 a       881     0    36     1     6
  3.4788421544223139E-02 a       882     0    36     1     7
 -2.5550450632713953E-02 a       883     0    36     1     8
  3.6996564928346243E-02 a       884     0    36     1     9
 -6.3550619075081111E-02 a       885     0    36     1    10
  6.1938083520080782E-02 a       886     0    36     1    11
 -3.9467742665972576E-02 a       887     0    36     1    12
  5.7746433563712327E-02 a       888     0    36     1    13
 -1.8512824780764658E-01 a       889     0    36     1    14
  2.4525750551105518E-01 a       890     0    36     1    15
 -1.2117459744663973E-01 a       891     0    36     1    16
  9.1391957333765123E-02 a       892     0    36     1    17
  8.5010119111467983E-02 a       893     0    36     1    18
  1.2049302900116902E-01 a       894     0    36     1    19
 -8.5120642052064224E-02 a       895     0    36     1    20
 -2.7874965997640101E-02 a       896     0    36     1    21
 -1.0335071606660352E-01 a       897     0    36     1    22
  8.9629333749633486E-02 a       898     0    36     1    23
 -5.2043703117487877E-02 a       899     0    36     1    24
  8.1103021448812748E-02 a       900     0    36     1    25
 -6.3861612291649550E-02 a       901     0    37     1     1
 -9.1368744493221202E-02 a       902     0    37     1     2
  9.1361993587930471E-02 a       903     0    37     1     3
  2.2694707302581735E-01 a       904     0    37     1     4
  6.7663021662546091E-02 a       905     0    37     1     5
 -1.4963140146564816E-01 a       906     0    37     1     6
 -1.6574843134583395E-02 a       907     0    37     1     7
  1.1747847219788946E-02 a       908     0    37     1     8
 -1.1120979675888110E-01 a       909     0    37     1     9
 -2.2003460001317385E-01 a       910     0    37     1    10
  4.6186721807777179E-02 a       911     0    37     1    11
  3.7843774605854034E-03 a       912     0    37     1    12
 -5.7467220801659974E-02 a       913     0    37     1    13
 -8.5660006006551513E-03 a       914     0    37     1    14
  9.5223679925670657E-02 a       915     0    37     1    15
  8.7331541018258449E-02 a       916     0    37     1    16
 -5.0637431968505939E-02 a       917     0    37     1    17
  9.5489358676384084E-02 a       918     0    37     1    18
  1.3269542204792290E-01 a       919     0    37     1    19
  1.3608075424779612E-01 a       920     0    37     1    20
  3.3364925984868819E-03 a       921     0    37     1    21
 -1.6155366442417776E-01 a       922     0    37     1    22
 -3.5196785422936014E-02 a       923     0    37     1    23
  9.1006345650993567E-02 a       924     0    37     1    24
  9.1860943499232364E-02 a       925     0    37     1    25
  1.4211889407270586E-01 a       926     0    38     1     1
  2.9341906992415723E-02 a       927     0    38     1     2
  5.3045478964628467E-02 a       928     0    38     1     3
  2.8012582819434247E-02 a       929     0    38     1     4
 -4.1753235481792716E-02 a       930     0    38     1     5
 -1.9365369644698840E-02 a       931     0    38     1     6
 -1.6046331950110734E-01 a       932     0    38     1     7
  2.2537674184758098E-02 a       933     0    38     1     8
 -7.7201861300592658E-02 a       934     0    38     1     9
  2.0551767564275611E-01 a       935     0    38     1    10
 -5.0066980298872563E-02 a       936     0    38     1    11
 -1.4591922213135158E-01 a       937     0    38     1    12
 -3.7095191514170733E-02 a       938     0    38     1    13
  7.7799407879392511E-03 a       939     0    38     1    14
 -8.4233971346164699E-02 a       940     0    38     1    15
 -2.9488727798698443E-02 a       941     0    38     1    16
 -8.7902766447394434E-02 a       942     0    38     1    17
 -1.6729024997936098E-01 a       943     0    38     1    18
 -5.3899566667356250E-02 a       944     0    38     1    19
  1.2061079077556944E-02 a       945     0    38     1    20
 -9.2178485263447615E-02 a       946     0    38     1    21
  2.5855270622537552E-02 a       947     0    38     1    22
  3.1361547425142619E-02 a       948     0    38     1    23
 -4.1690197641402582E-02 a       949     0    38     1    24
 -1.3874965820201790E-01 a       950     0    38     1    25
  1.6238372892878208E-01 a       951     0    39     1     1
  4.1962507802533015E-03 a       952     0    39     1     2
 -7.3299231711648857E-02 a       953     0    39     1     3
  1.2595275527542560E-01 a       954     0    39     1     4
 -1.4505839598933166E-03 a       955     0    39     1     5
 -1.3727960292063462E-01 a       956     0    39     1     6
 -3.5156617398801951E-02 a       957     0    39     1     7
  3.5771799460556294E-02 a       958     0    39     1     8
  9.3923350417717585E-02 a       959     0    39     1     9
 -2.6202682898391588E-01 a       960     0    39     1    10
 -2.9437167649872205E-02 a       961     0    39     1    11
  2.3510229464898985E-01 a       962     0    39     1    12
  1.8306740496444297E-02 a       963     0    39     1    13
  2.8493049081357854E-02 a       964     0    39     1    14
 -1.0051891375504449E-01 a       965     0    39     1    15
 -6.9285283138219939E-02 a       966     0    39     1    16
  5.6228783989548309E-02 a       967     0    39     1    17
  2.4514450330010715E-01 a       968     0    39     1    18
  4.1153603980141958E-02 a       969     0    39     1    19
 -6.0757143080368073E-02 a       970     0    39     1    20
  1.6796782713891414E-01 a       971     0    39     1    21
  2.0057497577435631E-02 a       972     0    39     1    22
 -9.5722640656966784E-02 a       973     0    39     1    23
  2.9394945710400921E-02 a       974     0    39     1    24
 -1.7423949513363429E-02 a       975     0    39     1    25
 -7.0869200343864958E-02 a       976     0    40     1     1
  1.3463806558229058E-01 a       977     0    40     1     2
  3.6757496087796222E-02 a       978     0    40     1     3
 -7.3414489179155745E-02 a       979     0    40     1     4
 -1.2091396374005204E-02 a       980     0    40     1     5
 -1.3009112131742287E-01 a       981     0    40     1     6
  1.4053902103612359E-01 a       982     0    40     1     7
 -3.2041720191678238E-02 a       983     0    40     1     8
  3.7542036596776040E-03 a       984     0    40     1     9
  1.8915396198589432E-01 a       985     0    40     1    10
 -3.8750212757653300E-02 a       986     0    40     1    11
 -5.9788094760398043E-02 a       987     0    40     1    12
 -2.6104461290208169E-02 a       988     0    40     1    13
  1.5937646724149115E-01 a       989     0    40     1    14
 -1.3970354045029262E-01 a       990     0    40     1    15
  9.8777542255862216E-02 a       991     0    40     1    16
 -1.5750566554209415E-02 a       992     0    40     1    17
 -1.5197393152372535E-01 a       993     0    40     1    18
 -8.2517393373803982E-02 a       994     0    40     1    19
  9.3150358681355447E-02 a       995     0    40     1    20
  2.0845572905050513E-02 a       996     0    40     1    21
  1.5436377727963990E-01 a       997     0    40     1    22
 -8.4235073330638330E-02 a       998     0    40     1    23
  6.7728608492645059E-02 a       999     0    40     1    24
  3.5304960970271117E-02 a      1000     0    40     1    25
 -8.9471464471573461E-02 a      1001     0    41     1     1
 -2.2364689490758841E-01 a      1002     0    41     1     2
 -2.1695455135627437E-01 a      1003     0    41     1     3
  1.5889663987146627E-02 a      1004     0    41     1     4
  5.7486006619717894E-02 a      1005     0    41     1     5
 -1.0746501084615966E-01 a      1006     0    41     1     6
 -5.7163567008865712E-02 a      1007     0    41     1     7
 -2.2477527744073730E-02 a      1008     0    41     1     8
  2.1397365737807858E-01 a      1009     0    41     1     9
 -2.2315984274656388E-02 a      1010     0    41     1    10
  2.3833109640974964E-01 a      1011     0    41     1    11
  1.9108577440876678E-01 a      1012     0    41     1    12
  6.1690030153376457E-02 a      1013     0    41     1    13
  5.5664422128271100E-02 a      1014     0    41     1    14
  1.8956363815914798E-01 a      1015     0    41     1    15
  1.9546268591462138E-01 a      1016     0    41     1    16
 -4.7093033336476409E-02 a      1017     0    41     1    17
 -5.9492567143849251E-01 a      1018     0    41     1    18
  9.1976806271058009E-01 a      1019     0    41     1    19
  5.9588563953258378E-01 a      1020     0    41     1    20
  1.8918182405480002E-01 a      1021     0    41     1    21
  2.3062991256197568E-01 a      1022     0    41     1    22
 -1.0033602463162052E-01 a      1023     0    41     1    23
 -1.9152542872319878E-01 a      1024     0    41     1    24
 -7.8717724795497157E-01 a      1025     0    41     1    25
 -1.6834814865528611E-01 a      1026     0    42     1     1
  7.2913974748285304E-01 a      1027     0    42     1     2
  2.3279771667146990E-01 a      1028     0    42     1     3
 -4.0659600972336057E-01 a      1029     0    42     1     4
  2.4757548968897669E-01 a      1030     0    42     1     5
 -2.3595012869774609E-01 a      1031     0    42     1     6
 -1.3987289633051467E-01 a      1032     0    42     1     7
  1.3680120798947102E-02 a      1033     0    42     1     8
  5.9979449332092372E-01 a      1034     0    42     1     9
 -6.8152481358174394E-02 a      1035     0    42     1    10
 -2.9246365428570519E-02 a      1036     0    42     1    11
 -1.3005382838431603E-01 a      1037     0    42     1    12
  1.1544584855578925E-01 a      1038     0    42     1    13
  3.2349493075384428E-01 a      1039     0    42     1    14
 -1.0226197924766497E-01 a      1040     0    42     1    15
  5.0952982767387113E-02 a      1041     0    42     1    16
  1.5955881585985621E-01 a      1042     0    42     1    17
  3.8984864387827189E-01 a      1043     0    42     1    18
 -8.6351013467311621E-01 a      1044     0    42     1    19
 -2.1380799643013831E-01 a      1045     0    42     1    20
 -8.3825310297867373E-01 a      1046     0    42     1    21
 -4.6832130785646442E-01 a      1047     0    42     1    22
 -6.5660111876277724E-02 a      1048     0    42     1    23
 -5.1062911206657791E-01 a      1049     0    42     1    24
  3.0064668768277847E-01 a      1050     0    42     1    25
  1.5273700459719880E-01 a      1051     0    43     1     1
 -1.3313890362523989E-01 a      1052     0    43     1     2
 -1.2077946221540065E-01 a      1053     0    43     1     3
  8.0853282488107508E-03 a      1054     0    43     1     4
  5.9585237232781800E-02 a      1055     0    43     1     5
 -3.3620417085599236E-01 a      1056     0    43     1     6
  5.8046762419151236E-02 a      1057     0    43     1     7
 -1.2335902635290739E-02 a      1058     0    43     1     8
  2.1749539355008446E-01 a      1059     0    43     1     9
 -2.1958988457265396E-01 a      1060     0    43     1    10
  2.2959432039445304E-01 a      1061     0    43     1    11
  2.2221217266519425E-01 a      1062     0    43     1    12
 -3.1332753093320960E-02 a      1063     0    43     1    13
  6.9391683487356276E-02 a      1064     0    43     1    14
  7.1452423852319362E-03 a      1065     0    43     1    15
  6.8914763436397047E-02 a      1066     0    43     1    16
  2.9989421027156771E-01 a      1067     0    43     1    17
  4.5999082890134053E-02 a      1068     0    43     1    18
 -7.1671258430116555E-02 a      1069     0    43     1    19
 -1.3704065280922509E-01 a      1070     0    43     1    20
  4.0645266863816164E-02 a      1071     0    43     1    21
  2.5334826500461483E-01 a      1072     0    43     1    22
  1.4934623037121292E-01 a      1073     0    43     1    23
  6.8147967393985140E-02 a      1074     0    43     1    24
  3.2836033433772155E-01 a      1075     0    43     1    25
  3.2617792526557343E-01 a      1076     0    44     1     1
  2.4410275168484175E-01 a      1077     0    44     1     2
  6.4499026206865900E-02 a      1078     0    44     1     3
 -1.6596917392211176E-02 a      1079     0    44     1     4
 -1.1569154815388545E-01 a      1080     0    44     1     5
 -2.0908480950283231E-02 a      1081     0    44     1     6
 -5.5247420797336230E-02 a      1082     0    44     1     7
 -8.9119213273446490E-02 a      1083     0    44     1     8
 -3.3711981882370318E-02 a      1084     0    44     1     9
  2.0290939691887781E-02 a      1085     0    44     1    10
  6.7769842213858206E-02 a      1086     0    44     1    11
  6.4130831861867361E-03 a      1087     0    44     1    12
 -1.1139036843891467E-01 a      1088     0    44     1    13
  6.5740269801025097E-02 a      1089     0    44     1    14
 -6.4653414383680302E-02 a      1090     0    44     1    15
 -2.4673957834254862E-01 a      1091     0    44     1    16
 -2.2486528788805002E-01 a      1092     0    44     1    17
 -8.8296718229997004E-02 a      1093     0    44     1    18
 -6.9135219724018218E-02 a      1094     0    44     1    19
  1.1192887045521327E-01 a      1095     0    44     1    20
 -1.5982507297732323E-01 a      1096     0    44     1    21
 -8.2087213486894198E-02 a      1097     0    44     1    22
  6.8422121139163393E-03 a      1098     0    44     1    23
  4.7330906575922668E-03 a      1099     0    44     1    24
 -2.0505566497174346E-02 a      1100     0    44     1    25
  4.3577216846132277E-01 a      1101     0    45     1     1
 -2.2867037906115997E-01 a      1102     0    45     1     2
 -2.3667079126007326E-01 a      1103     0    45     1     3
  2.8827428864794269E-01 a      1104     0    45     1     4
  1.9599354716170625E-01 a      1105     0    45     1     5
  1.3881490027043628E-01 a      1106     0    45     1     6
  1.6853962430647393E-01 a      1107     0    45     1     7
 -1.1613855879389673E-01 a      1108     0    45     1     8
  1.2812229079458955E-02 a      1109     0    45     1     9
 -2.2426038467061270E-02 a      1110     0    45     1    10
  9.1162247122000523E-02 a      1111     0    45     1    11
  8.8249496638590177E-02 a      1112     0    45     1    12
 -1.4145195808398278E-01 a      1113     0    45     1    13
 -2.0798654379903334E-01 a      1114     0    45     1    14
  2.2180676362642555E-02 a      1115     0    45     1    15
  2.4522864054705570E-01 a      1116     0    45     1    16
 -2.6995644091628190E-01 a      1117     0    45     1    17
 -3.5715088935535677E-01 a      1118     0    45     1    18
  2.8889233584075746E-01 a      1119     0    45     1    19
 -1.0336573925460298E-01 a      1120     0    45     1    20
  9.5826863512493157E-02 a      1121     0    45     1    21
  3.9777219255071494E-01 a      1122     0    45     1    22
  1.0402109531445061E-01 a      1123     0    45     1    23
  7.2755337429718334E-02 a      1124     0    45     1    24
  2.3729114163031195E-02 a      1125     0    45     1    25
 -1.5966601043890485E-01 a      1126     0    46     1     1
  1.2645646056119769E-01 a      1127     0    46     1     2
 -3.1056761711534240E-02 a      1128     0    46     1     3
  1.3547022427105609E-01 a      1129     0    46     1     4
 -2.1142986739193750E-01 a      1130     0    46     1     5
  2.0833933299311905E-01 a      1131     0    46     1     6
 -2.4610973318487173E-01 a      1132     0    46     1     7
 -1.0630604718316778E-02 a      1133     0    46     1     8
  7.9436167437989078E-02 a      1134     0    46     1     9
  1.8626221936517051E-01 a      1135     0    46     1    10
 -6.2947638818457372E-02 a      1136     0    46     1    11
  7.5312116645994090E-02 a      1137     0    46     1    12
  1.3105226137479845E-01 a      1138     0    46     1    13
 -1.8756844053271599E-01 a      1139     0    46     1    14
 -3.7851915850850931E-02 a      1140     0    46     1    15
 -1.8916991835522398E-01 a      1141     0    46     1    16
 -7.4658694744403759E-02 a      1142     0    46     1    17
 -7.3291922442134769E-02 a      1143     0    46     1    18
 -1.3159584580179937E-01 a      1144     0    46     1    19
  1.4810083356129342E-01 a      1145     0    46     1    20
 -3.0053190418719601E-03 a      1146     0    46     1    21
 -4.2046602143703371E-02 a      1147     0    46     1    22
  9.8359690806758202E-02 a      1148     0    46     1    23
 -7.9961060520369526E-02 a      1149     0    46     1    24
  2.8102765949511534E-02 a      1150     0    46     1    25
 -5.7158972800835074E-02 a      1151     0    47     1     1
  7.9068101103956664E-02 a      1152     0    47     1     2
 -9.7401090591893724E-02 a      1153     0    47     1     3
 -2.3651438582452396E-02 a      1154     0    47     1     4
  3.2655253283613780E-02 a      1155     0    47     1     5
  1.3598064507017052E-01 a      1156     0    47     1     6
  1.1589295021026101E-01 a      1157     0    47     1     7
 -8.8567075782949020E-02 a      1158     0    47     1     8
  8.1553726840172619E-02 a      1159     0    47     1     9
 -5.9605554240304372E-02 a      1160     0    47     1    10
 -3.9676119920905611E-02 a      1161     0    47     1    11
  8.9944350317160082E-02 a      1162     0    47     1    12
 -4.0159731881207125E-02 a      1163     0    47     1    13
  1.2313209802105481E-01 a      1164     0    47     1    14
 -1.0385300156412948E-01 a      1165     0    47     1    15
  2.1363039654072102E-02 a      1166     0    47     1    16
 -1.7323063479632386E-01 a      1167     0    47     1    17
 -2.5962404117602748E-02 a      1168     0    47     1    18
  8.9747227509623023E-02 a      1169     0    47     1    19
 -4.2655211277335271E-02 a      1170     0    47     1    20
  2.3796974122199832E-02 a      1171     0    47     1    21
  2.3372675591595417E-02 a      1172     0    47     1    22
  5.9137294389338055E-03 a      1173     0    47     1    23
 -7.5982178139383225E-02 a      1174     0    47     1    24
  4.8877697158207445E-02 a      1175     0    47     1    25
 -1.9394904063169363E-01 a      1176     0    48     1     1
  6.6266798174326076E-03 a      1177     0    48     1     2
  1.3346537880292023E-01 a      1178     0    48     1     3
 -8.6404460621124418E-02 a      1179     0    48     1     4
 -8.7285201812413823E-02 a      1180     0    48     1     5
 -4.6672175926742138E-02 a      1181     0    48     1     6
  1.0455194167218004E-01 a      1182     0    48     1     7
  1.8782881734953588E-01 a      1183     0    48     1     8
  2.1171099988453904E-01 a      1184     0    48     1     9
 -1.6939386484547922E-01 a      1185     0    48     1    10
  4.8802582852806989E-02 a      1186     0    48     1    11
 -9.6862613329948180E-02 a      1187     0    48     1    12
  1.4235099835828666E-01 a      1188     0    48     1    13
  8.2780902852659238E-02 a      1189     0    48     1    14
  6.5002091844562404E-02 a      1190     0    48     1    15
  2.1576394727182518E-01 a      1191     0    48     1    16
 -2.6366871816877805E-02 a      1192     0    48     1    17
 -1.4147777308304764E-02 a      1193     0    48     1    18
  1.2159580960158317E-01 a      1194     0    48     1    19
  6.7204047537129047E-03 a      1195     0    48     1    20
 -8.1454622244115191E-02 a      1196     0    48     1    21
 -4.6497425392615012E-02 a      1197     0    48     1    22
 -2.4438640285345981E-02 a      1198     0    48     1    23
 -1.7362077350814828E-01 a      1199     0    48     1    24
  1.6147005787290344E-01 a      1200     0    48     1    25
 -2.0329577762456405E-02 a      1201     0    49     1     1
  1.7068722417275692E-01 a      1202     0    49     1     2
 -8.9435605586254945E-03 a      1203     0    49     1     3
 -1.1093477459562279E-01 a      1204     0    49     1     4
 -9.8417129266182860E-02 a      1205     0    49     1     5
  4.6572134569457795E-02 a      1206     0    49     1     6
 -1.6232231246822515E-01 a      1207     0    49     1     7
  1.9188746010415727E-02 a      1208     0    49     1     8
  5.6122425982892223E-02 a      1209     0    49     1     9
 -1.0566869086421260E-01 a      1210     0    49     1    10
  5.2249209953242753E-02 a      1211     0    49     1    11
  1.1087436568125493E-01 a      1212     0    49     1    12
  6.0122758841902657E-02 a      1213     0    49     1    13
 -2.5577641287667020E-02 a      1214     0    49     1    14
 -2.5080143679164085E-02 a      1215     0    49     1    15
 -1.4461343348798072E-01 a      1216     0    49     1    16
 -1.1526672601970592E-01 a      1217     0    49     1    17
 -6.1843906147354286E-02 a      1218     0    49     1    18
  1.0090815327996301E-01 a      1219     0    49     1    19
  8.0602147346442415E-02 a      1220     0    49     1    20
 -6.4986650188531392E-02 a      1221     0    49     1    21
  6.4206052383287632E-03 a      1222     0    49     1    22
 -1.0293032336641808E-01 a      1223     0    49     1    23
 -4.5354710616214100E-02 a      1224     0    49     1    24
  6.1677408310689019E-02 a      1225     0    49     1    25
 -4.6353762284365968E-02 a      1226     0    50     1     1
 -3.7821183779370521E-02 a      1227     0    50     1     2
 -4.3367890361371758E-02 a      1228     0    50     1     3
  9.8665593061603454E-02 a      1229     0    50     1     4
 -1.7607130770639717E-01 a      1230     0    50     1     5
 -6.2242046376546699E-02 a      1231     0    50     1     6
 -1.7354557151634815E-02 a      1232     0    50     1     7
 -6.8583066775000978E-02 a      1233     0    50     1     8
  1.4884230376730095E-01 a      1234     0    50     1     9
  1.1186269457392503E-01 a      1235     0    50     1    10
  1.1760576107550484E-01 a      1236     0    50     1    11
 -7.4696546908995173E-02 a      1237     0    50     1    12
  3.5628163697674145E-02 a      1238     0    50     1    13
  5.0809671333840109E-02 a      1239     0    50     1    14
  2.7074420540281394E-02 a      1240     0    50     1    15
  8.1284421748132260E-02 a      1241     0    50     1    16
 -1.1236903164894937E-02 a      1242     0    50     1    17
 -3.0294663224465487E-02 a      1243     0    50     1    18
 -4.0775752507229229E-02 a      1244     0    50     1    19
 -3.5057518196268726E-02 a      1245     0    50     1    20
 -6.2939275724439567E-02 a      1246     0    50     1    21
  1.0695664344540165E-01 a      1247     0    50     1    22
 -8.0355801927533929E-02 a      1248     0    50     1    23
 -1.7891782192974168E-01 a      1249     0    50     1    24
 -4.9233300573963912E-02 a      1250     0    50     1    25
  1.3040887712977325E-01 a      1251     0    51     1     1
 -3.4739824347495285E-01 a      1252     0    51     1     2
  8.3013643364965681E-02 a      1253     0    51     1     3
  2.1104622047280799E-01 a      1254     0    51     1     4
  2.5145004250423564E-01 a      1255     0    51     1     5
 -3.0924546873580488E-01 a      1256     0    51     1     6
  3.0840048657161129E-01 a      1257     0    51     1     7
  2.2945769807343191E-01 a      1258     0    51     1     8
 -3.2979744377753101E-01 a      1259     0    51     1     9
  2.6381489506320698E-02 a      1260     0    51     1    10
 -4.4930175474737200E-01 a      1261     0    51     1    11
 -1.8403269285577523E-02 a      1262     0    51     1    12
  1.2140677688828687E-01 a      1263     0    51     1    13
  9.7579301717514097E-02 a      1264     0    51     1    14
 -1.8435051922158596E-01 a      1265     0    51     1    15
  2.9934565642764122E-01 a      1266     0    51     1    16
  3.4899803183794842E-01 a      1267     0    51     1    17
  3.7193738188238673E-01 a      1268     0    51     1    18
 -5.3536671691084914E-01 a      1269     0    51     1    19
  1.3428303742415884E-01 a      1270     0    51     1    20
  7.5776280238111005E-01 a      1271     0    51     1    21
  3.6213787798869163E-01 a      1272     0    51     1    22
  1.9546913306471583E-01 a      1273     0    51     1    23
  5.9156760182988877E-01 a      1274     0    51     1    24
  2.9406320708762579E-01 a      1275     0    51     1    25
 -2.7312335873675786E-01 a      1276     0    52     1     1
 -6.6766217206479878E-02 a      1277     0    52     1     2
 -7.3246329608208216E-01 a      1278     0    52     1     3
 -7.2039861095106031E-02 a      1279     0    52     1     4
 -7.3103756950279075E-01 a      1280     0    52     1     5
 -4.8798846362026341E-03 a      1281     0    52     1     6
 -4.6626582650765408E-01 a      1282     0    52     1     7
 -7.5636908026176763E-01 a      1283     0    52     1     8
  3.0578088511655321E-01 a      1284     0    52     1     9
  1.4893955011208318E-01 a      1285     0    52     1    10
  2.0398729076948149E-01 a      1286     0    52     1    11
  4.7551730297090604E-03 a      1287     0    52     1    12
 -9.0131028110479183E-01 a      1288     0    52     1    13
 -2.0315741951255809E-01 a      1289     0    52     1    14
  1.0503089588498335E-01 a      1290     0    52     1    15
  2.3521372521704129E-01 a      1291     0    52     1    16
 -5.5873178713443494E-02 a      1292     0    52     1    17
  3.3059862613585839E-01 a      1293     0    52     1    18
  7.4490469975803586E-01 a      1294     0    52     1    19
  4.0902381964062137E-03 a      1295     0    52     1    20
 -8.7821439200653689E-02 a      1296     0    52     1    21
  1.1730796593582841E-01 a      1297     0    52     1    22
 -8.3529696310474766E-01 a      1298     0    52     1    23
 -6.3542149073482157E-01 a      1299     0    52     1    24
 -3.7539842314252125E-01 a      1300     0    52     1    25
 -3.5078686337340415E-01 a      1301     0    53     1     1
 -1.7529416538922946E-01 a      1302     0    53     1     2
 -1.9580559999193567E-01 a      1303     0    53     1     3
 -1.9051445947175050E-01 a      1304     0    53     1     4
  4.1064204795628015E-02 a      1305     0    53     1     5
 -1.1481703211473178E-01 a      1306     0    53     1     6
  3.2254492493781844E-01 a      1307     0    53     1     7
  1.2094443074889669E-01 a      1308     0    53     1     8
 -1.9095525377809733E-01 a      1309     0    53     1     9
 -2.0034993201864512E-01 a      1310     0    53     1    10
 -6.5278208500506599E-02 a      1311     0    53     1    11
  1.6846372851225555E-01 a      1312     0    53     1    12
 -9.6828015474253060E-04 a      1313     0    53     1    13
  1.8728089750005450E-01 a      1314     0    53     1    14
 -1.1767871622755962E-02 a      1315     0    53     1    15
 -1.7916269620324127E-03 a      1316     0    53     1    16
 -1.7094394651998321E-01 a      1317     0    53     1    17
 -1.3054523363537246E-01 a      1318     0    53     1    18
  1.2838260169279164E-02 a      1319     0    53     1    19
  2.7057699773406485E-01 a      1320     0    53     1    20
  1.4183255879970549E-01 a      1321     0    53     1    21
 -2.6895938755506790E-02 a      1322     0    53     1    22
 -8.5209392612702786E-02 a      1323     0    53     1    23
 -7.4877903418770653E-02 a      1324     0    53     1    24
 -2.2295421900237392E-01 a      1325     0    53     1    25
  2.4590338744549536E-02 a      1326     0    54     1     1
 -4.0494246162489755E-01 a      1327     0    54     1     2
  1.3513335610800364E-01 a      1328     0    54     1     3
 -3.1133292219973133E-02 a      1329     0    54     1     4
  2.3055035753384426E-01 a      1330     0    54     1     5
 -2.7900572146814028E-02 a      1331     0    54     1     6
 -4.5320551955293692E-02 a      1332     0    54     1     7
 -1.7789511757974660E-02 a      1333     0    54     1     8
  1.5906068856937247E-01 a      1334     0    54     1     9
 -6.5210275137872115E-02 a      1335     0    54     1    10
 -4.5629796740329673E-02 a      1336     0    54     1    11
  4.1885533442700622E-02 a      1337     0    54     1    12
  1.1310686165906747E-02 a      1338     0    54     1    13
 -1.5064070015531802E-01 a      1339     0    54     1    14
 -1.2222858735389949E-01 a      1340     0    54     1    15
  1.3835167757399577E-01 a      1341     0    54     1    16
  1.2168927296350593E-01 a      1342     0    54     1    17
  2.5413082180501467E-01 a      1343     0    54     1    18
  2.0206729026289305E-01 a      1344     0    54     1    19
 -6.0459245630089649E-02 a      1345     0    54     1    20
 -1.1510989602538120E-01 a      1346     0    54     1    21
 -1.9793239022697820E-01 a      1347     0    54     1    22
 -1.2952169935344338E-01 a      1348     0    54     1    23
 -8.6456960988371800E-02 a      1349     0    54     1    24
 -5.0742698213318012E-02 a      1350     0    54     1    25
 -4.2971868896095960E-01 a      1351     0    55     1     1
  2.3906169869836072E-01 a      1352     0    55     1     2
  1.3130036092586897E-01 a      1353     0    55     1     3
 -3.0116451578837378E-01 a      1354     0    55     1     4
  2.2646019237306921E-02 a      1355     0    55     1     5
 -3.4143248644690948E-02 a      1356     0    55     1     6
 -1.9540969534871819E-01 a      1357     0    55     1     7
  3.0832477267473141E-01 a      1358     0    55     1     8
 -1.3198534635485876E-01 a      1359     0    55     1     9
  9.8814195866047602E-02 a      1360     0    55     1    10
  1.9690855302480537E-01 a      1361     0    55     1    11
 -2.1922368699882965E-02 a      1362     0    55     1    12
  7.2707335665846518E-01 a      1363     0    55     1    13
  1.6997430019256357E-01 a      1364     0    55     1    14
 -8.5112724581683938E-02 a      1365     0    55     1    15
 -5.7541672237805030E-01 a      1366     0    55     1    16
  3.8857241606763632E-01 a      1367     0    55     1    17
  5.2947472251010086E-01 a      1368     0    55     1    18
 -2.7305989772211475E-01 a      1369     0    55     1    19
  3.0572585928064333E-02 a      1370     0    55     1    20
 -9.5013901605205564E-02 a      1371     0    55     1    21
 -3.0817591170666814E-01 a      1372     0    55     1    22
 -2.5407981554434966E-01 a      1373     0    55     1    23
  3.8578704322246943E-02 a      1374     0    55     1    24
 -1.0414758752314256E-01 a      1375     0    55     1    25
  2.2001574303702479E-01 a      1376     0    56     1     1
  2.7570195937109104E-02 a      1377     0    56     1     2
 -2.5604878647098067E-02 a      1378     0    56     1     3
 -2.0745829748022884E-01 a      1379     0    56     1     4
  2.6756361694253793E-02 a      1380     0    56     1     5
 -2.4720814563390828E-01 a      1381     0    56     1     6
  5.6824339631818016E-02 a      1382     0    56     1     7
 -1.0197679977620182E-01 a      1383     0    56     1     8
 -1.9978589976498613E-02 a      1384     0    56     1     9
 -1.7077721842774493E-01 a      1385     0    56     1    10
  6.9568038089378240E-02 a      1386     0    56     1    11
  1.6789229759616825E-01 a      1387     0    56     1    12
 -1.9079792207754045E-01 a      1388     0    56     1    13
 -7.3995901706766787E-02 a      1389     0    56     1    14
 -2.9704413484741106E-03 a      1390     0    56     1    15
  6.6683082053747053E-02 a      1391     0    56     1    16
  1.2219897621293439E-01 a      1392     0    56     1    17
  1.0212669469326685E-01 a      1393     0    56     1    18
  1.9876337779200151E-01 a      1394     0    56     1    19
 -1.1384253114103673E-01 a      1395     0    56     1    20
 -9.5904884063061718E-02 a      1396     0    56     1    21
 -8.9428249587866007E-02 a      1397     0    56     1    22
 -5.0533721149119609E-02 a      1398     0    56     1    23
  1.1018171883040198E-01 a      1399     0    56     1    24
 -1.2118267721580117E-02 a      1400     0    56     1    25
 -9.6948010736382720E-02 a      1401     0    57     1     1
  1.0984120637545400E-02 a      1402     0    57     1     2
 -3.9895497445226878E-02 a      1403     0    57     1     3
  3.8656234506912218E-02 a      1404     0    57     1     4
 -1.2333458244586001E-01 a      1405     0    57     1     5
 -5.0927319594202561E-02 a      1406     0    57     1     6
 -6.0353909751013027E-02 a      1407     0    57     1     7
  1.1150809406792861E-01 a      1408     0    57     1     8
 -2.3727155793360512E-02 a      1409     0    57     1     9
 -3.5969053304328119E-02 a      1410     0    57     1    10
  4.2126177031153310E-02 a      1411     0    57     1    11
  1.3859841862179118E-01 a      1412     0    57     1    12
  1.3380053286722959E-01 a      1413     0    57     1    13
 -6.4643164290450514E-02 a      1414     0    57     1    14
 -4.6796423232310813E-02 a      1415     0    57     1    15
 -1.0230822827033080E-01 a      1416     0    57     1    16
  2.4246481883259030E-01 a      1417     0    57     1    17
 -8.7286887830386184E-02 a      1418     0    57     1    18
 -1.1609581993672335E-01 a      1419     0    57     1    19
  8.2375674950573283E-02 a      1420     0    57     1    20
  2.3643926636666153E-02 a      1421     0    57     1    21
  4.8070432918800254E-02 a      1422     0    57     1    22
 -8.7981481626651287E-02 a      1423     0    57     1    23
  1.7943184209752835E-01 a      1424     0    57     1    24
 -3.3759148218479806E-02 a      1425     0    57     1    25
  4.8708524890371266E-02 a      1426     0    58     1     1
 -2.0301190468388214E-02 a      1427     0    58     1     2
 -2.3444780233088663E-01 a      1428     0    58     1     3
  6.1029991069462095E-02 a      1429     0    58     1     4
  1.2521076871373735E-01 a      1430     0    58     1     5
 -1.0620793743053688E-02 a      1431     0    58     1     6
 -1.4248162392194680E-01 a      1432     0    58     1     7
 -1.4992676022025961E-01 a      1433     0    58     1     8
  5.3146363472069615E-02 a      1434     0    58     1     9
  1.2358809077794855E-01 a      1435     0    58     1    10
 -1.2287261017002293E-02 a      1436     0    58     1    11
  2.4317405391710167E-01 a      1437     0    58     1    12
 -5.6790863007290235E-02 a      1438     0    58     1    13
  1.2171037844968073E-01 a      1439     0    58     1    14
  8.3506176369816006E-03 a      1440     0    58     1    15
 -6.3011993462638555E-02 a      1441     0    58     1    16
  2.6654898868299393E-01 a      1442     0    58     1    17
  4.0905880948385535E-02 a      1443     0    58     1    18
 -1.5888576229170173E-01 a      1444     0    58     1    19
 -1.0566746721922292E-01 a      1445     0    58     1    20
  1.6730003720413050E-01 a      1446     0    58     1    21
  2.7830152619451271E-01 a      1447     0    58     1    22
 -7.8862812889169395E-02 a      1448     0    58     1    23
  1.3967448931294224E-01 a      1449     0    58     1    24
 -3.0411168050982290E-02 a      1450     0    58     1    25
  1.9304141863648362E-02 a      1451     0    59     1     1
 -2.5654959785954284E-01 a      1452     0    59     1     2
 -6.7216995134741039E-02 a      1453     0    59     1     3
 -6.6567484111613104E-02 a      1454     0    59     1     4
  1.0833220360796043E-01 a      1455     0    59     1     5
 -2.7285052563121281E-01 a      1456     0    59     1     6
  1.0946419161521727E-01 a      1457     0    59     1     7
 -2.9245464990256813E-02 a      1458     0    59     1     8
  8.2035650983462508E-02 a      1459     0    59     1     9
  1.0543773906534648E-01 a      1460     0    59     1    10
 -4.1883823236384989E-02 a      1461     0    59     1    11
  2.6098766170460842E-02 a      1462     0    59     1    12
 -7.4136660725750717E-02 a      1463     0    59     1    13
 -2.9252567268653928E-01 a      1464     0    59     1    14
 -1.2392707366709971E-01 a      1465     0    59     1    15
 -1.9863165848304903E-01 a      1466     0    59     1    16
  9.0603124641843627E-02 a      1467     0    59     1    17
  1.7486757843736889E-01 a      1468     0    59     1    18
 -2.7727901779095596E-02 a      1469     0    59     1    19
  3.5451050913771195E-02 a      1470     0    59     1    20
 -1.0919680212035279E-02 a      1471     0    59     1    21
  1.0769364436788975E-01 a      1472     0    59     1    22
  1.9289085774529013E-01 a      1473     0    59     1    23
 -7.6708112879617079E-03 a      1474     0    59     1    24
 -1.0448642732699995E-01 a      1475     0    59     1    25
 -1.3384672037322017E-02 a      1476     0    60     1     1
 -9.3272354778988154E-02 a      1477     0    60     1     2
  5.5156901739380683E-02 a      1478     0    60     1     3
 -7.9346432233205005E-02 a      1479     0    60     1     4
  1.3283919221368026E-01 a      1480     0    60     1     5
 -2.0276459355292123E-01 a      1481     0    60     1     6
  4.7377544214914788E-02 a      1482     0    60     1     7
  2.3708629728341705E-02 a      1483     0    60     1     8
 -1.1919864187733002E-01 a      1484     0    60     1     9
  1.3248301543803889E-01 a      1485     0    60     1    10
  1.4393952862733150E-01 a      1486     0    60     1    11
 -2.4527484187920304E-01 a      1487     0    60     1    12
  1.7649952340248284E-02 a      1488     0    60     1    13
  5.9739378427870558E-03 a      1489     0    60     1    14
 -5.4453841892037204E-02 a      1490     0    60     1    15
 -1.6750421212489830E-01 a      1491     0    60     1    16
  7.9962896639971456E-03 a      1492     0    60     1    17
 -2.6480290551767388E-01 a      1493     0    60     1    18
  2.3986351457441848E-02 a      1494     0    60     1    19
  9.6461200166970518E-02 a      1495     0    60     1    20
 -6.7609620435164594E-02 a      1496     0    60     1    21
 -8.7143580830144979E-02 a      1497     0    60     1    22
  8.4375798711626010E-02 a      1498     0    60     1    23
  1.2607636602289607E-01 a      1499     0    60     1    24
  8.7610112827717898E-02 a      1500     0    60     1    25
 -9.5394324714888398E-03 a      1501     0    61     1     1
  2.0749627140073587E-01 a      1502     0    61     1     2
  7.8284220143949612E-01 a      1503     0    61     1     3
 -2.6250329145917162E-01 a      1504     0    61     1     4
  2.9016576408551470E-01 a      1505     0    61     1     5
  4.3507844019576775E-01 a      1506     0    61     1     6
 -2.0773223525207099E-01 a      1507     0    61     1     7
 -1.6854704509973156E-02 a      1508     0    61     1     8
 -4.8466194658922268E-02 a      1509     0    61     1     9
 -1.1949218772815644E-01 a      1510     0    61     1    10
  2.6852640367116144E-03 a      1511     0    61     1    11
 -3.2328354752075134E-01 a      1512     0    61     1    12
 -7.8425734217188681E-02 a      1513     0    61     1    13
  1.2888749600096991E-02 a      1514     0    61     1    14
 -1.4896792220162591E-01 a      1515     0    61     1    15
  8.4539882896955201E-02 a      1516     0    61     1    16
 -1.8437734085367008E-01 a      1517     0    61     1    17
 -1.9923651834172684E-01 a      1518     0    61     1    18
  2.0098392564520673E-01 a      1519     0    61     1    19
  2.7844534518664493E-03 a      1520     0    61     1    20
 -1.2026131600298925E-01 a      1521     0    61     1    21
 -5.2103532008800990E-01 a      1522     0    61     1    22
 -1.7358952548893763E-01 a      1523     0    61     1    23
  5.8348439689108045E-01 a      1524     0    61     1    24
  9.5637872744839036E-02 a      1525     0    61     1    25
  1.1549410135075993E-02 a      1526     0    62     1     1
 -6.7995410019542069E-02 a      1527     0    62     1     2
 -6.8496167003273634E-01 a      1528     0    62     1     3
 -2.2829808703048354E-01 a      1529     0    62     1     4
 -2.6539231700026861E-01 a      1530     0    62     1     5
  1.6600860275087950E-01 a      1531     0    62     1     6
 -1.8009185584090488E-02 a      1532     0    62     1     7
 -2.1678175789744256E-01 a      1533     0    62     1     8
  1.1616165008218508E-01 a      1534     0    62     1     9
 -2.9416913382700549E-01 a      1535     0    62     1    10
 -1.9316807153241305E-01 a      1536     0    62     1    11
  3.7896956360973511E-02 a      1537     0    62     1    12
 -2.6051756952281663E-01 a      1538     0    62     1    13
 -3.2406793351509172E-01 a      1539     0    62     1    14
  1.6029463305610700E-01 a      1540     0    62     1    15
  5.4075527831055500E-02 a      1541     0    62     1    16
  1.6136518476549772E-01 a      1542     0    62     1    17
  1.7526540798656928E-01 a      1543     0    62     1    18
 -2.5402617505973157E-01 a      1544     0    62     1    19
 -1.8282031094726089E-01 a      1545     0    62     1    20
  7.9328335351179377E-02 a      1546     0    62     1    21
  1.9453975495286446E-01 a      1547     0    62     1    22
  3.7167705850782318E-01 a      1548     0    62     1    23
 -1.8477146959034546E-01 a      1549     0    62     1    24
  1.5023854355742378E-01 a      1550     0    62     1    25
 -1.6594835953609741E-01 a      1551     0    63     1     1
 -1.5718716938517482E-01 a      1552     0    63     1     2
  1.5987513184259349E-02 a      1553     0    63     1     3
 -9.6028751925282776E-02 a      1554     0    63     1     4
 -8.7375586006005895E-03 a      1555     0    63     1     5
  1.2582347868316757E-01 a      1556     0    63     1     6
 -1.1927752913524392E-01 a      1557     0    63     1     7
 -2.3824188144149314E-02 a      1558     0    63     1     8
 -2.9311070507120529E-01 a      1559     0    63     1     9
  1.9300769612042412E-01 a      1560     0    63     1    10
 -2.4712023660752574E-03 a      1561     0    63     1    11
 -2.0110412802883085E-01 a      1562     0    63     1    12
 -4.3243967521840898E-02 a      1563     0    63     1    13
 -5.5166519982188841E-02 a      1564     0    63     1    14
  3.8829823878665112E-02 a      1565     0    63     1    15
 -3.9540583606142138E-01 a      1566     0    63     1    16
 -3.6455923880879154E-01 a      1567     0    63     1    17
 -6.7276724993704073E-02 a      1568     0    63     1    18
  5.4662503422026054E-02 a      1569     0    63     1    19
  4.4744028314056945E-02 a      1570     0    63     1    20
 -1.1806710583572511E-01 a      1571     0    63     1    21
 -2.0630513539539178E-01 a      1572     0    63     1    22
  4.6953414463435185E-02 a      1573     0    63     1    23
  5.0451075423851117E-03 a      1574     0    63     1    24
 -2.4727121223369844E-01 a      1575     0    63     1    25
  1.8488566799443015E-01 a      1576     0    64     1     1
 -1.4426454311580400E-01 a      1577     0    64     1     2
 -2.3118261947505742E-02 a      1578     0    64     1     3
 -8.7790720209842267E-04 a      1579     0    64     1     4
  2.3780407481884192E-02 a      1580     0    64     1     5
 -3.2770840334386896E-02 a      1581     0    64     1     6
  1.2112694203135531E-01 a      1582     0    64     1     7
 -7.2495800258877918E-02 a      1583     0    64     1     8
  2.3008672365023597E-01 a      1584     0    64     1     9
 -2.3203009007724379E-01 a      1585     0    64     1    10
 -1.2243303597070916E-02 a      1586     0    64     1    11
  5.0579195926067362E-02 a      1587     0    64     1    12
 -5.4617730284895376E-03 a      1588     0    64     1    13
  7.4237612628186567E-02 a      1589     0    64     1    14
  1.4586270131521892E-01 a      1590     0    64     1    15
  8.8298753279410336E-02 a      1591     0    64     1    16
  7.6956179844986802E-02 a      1592     0    64     1    17
  5.7276405261782973E-02 a      1593     0    64     1    18
 -2.7809549773705981E-02 a      1594     0    64     1    19
 -1.1342655219037283E-01 a      1595     0    64     1    20
 -1.2589419247237549E-01 a      1596     0    64     1    21
  2.6516950021175056E-02 a      1597     0    64     1    22
  1.5291485189967707E-01 a      1598     0    64     1    23
 -4.8599109799730630E-02 a      1599     0    64     1    24
  1.8936900954385669E-01 a      1600     0    64     1    25
  5.3099576795118369E-02 a      1601     0    65     1     1
  1.0979469578722090E-02 a      1602     0    65     1     2
  1.5587998054629482E-01 a      1603     0    65     1     3
  1.2076032845188324E-01 a      1604     0    65     1     4
 -6.1547186453915756E-02 a      1605     0    65     1     5
  1.3629005263140284E-01 a      1606     0    65     1     6
  5.4415186670172859E-02 a      1607     0    65     1     7
  1.5897927879051907E-02 a      1608     0    65     1     8
 -2.1330483920987101E-01 a      1609     0    65     1     9
 -2.9086550723399768E-01 a      1610     0    65     1    10
  7.2702677223846907E-02 a      1611     0    65     1    11
 -7.7530755705664534E-02 a      1612     0    65     1    12
  6.7252034125287838E-02 a      1613     0    65     1    13
 -3.9161088597276031E-02 a      1614     0    65     1    14
 -2.8678600900434933E-02 a      1615     0    65     1    15
 -1.7100256836660627E-01 a      1616     0    65     1    16
 -1.5327914522456426E-01 a      1617     0    65     1    17
  1.3418423486861109E-01 a      1618     0    65     1    18
  6.6992556035475638E-03 a      1619     0    65     1    19
  2.7499676731435940E-02 a      1620     0    65     1    20
 -6.8961445825740125E-02 a      1621     0    65     1    21
 -8.6045162966686586E-02 a      1622     0    65     1    22
  6.8200409054483492E-04 a      1623     0    65     1    23
