################################################################################
# Neural network connection values (weights and biases).
################################################################################
# Col  Name       Description
################################################################################
# 1    connection Neural network connection value.
# 2    t          Connection type (a = weight, b = bias).
# 3    index      Index enumerating weights.
# 4    l_s        Starting point layer (end point layer for biases).
# 5    n_s        Starting point neuron in starting layer (end point neuron for biases).
# 6    l_e        End point layer.
# 7    n_e        End point neuron in end layer.
################################################################################
#                      1 2         3     4     5     6     7
#             connection t     index   l_s   n_s   l_e   n_e
############################################################
  5.8876595164187480E-02 a         1     0     1     1     1
 -1.1881401522378000E-01 a         2     0     1     1     2
  4.4863750154990792E-02 a         3     0     1     1     3
 -1.6121717852993644E-01 a         4     0     1     1     4
  2.0943919687228701E-01 a         5     0     1     1     5
 -1.4245761510097868E-01 a         6     0     1     1     6
 -7.5347464825545954E-02 a         7     0     1     1     7
 -4.1275341400784864E-02 a         8     0     1     1     8
  1.3563307297688312E-01 a         9     0     1     1     9
 -1.8558217034409838E-01 a        10     0     1     1    10
  2.2695535216644033E-01 a        11     0     1     1    11
  1.1861069319513945E-01 a        12     0     1     1    12
 -1.1329731752780460E-01 a        13     0     1     1    13
  8.1179135732572252E-02 a        14     0     1     1    14
 -1.6117231627185172E-01 a        15     0     1     1    15
 -1.0562344401148663E-01 a        16     0     1     1    16
  7.6068318142234401E-02 a        17     0     1     1    17
  7.2737214085494800E-02 a        18     0     1     1    18
  2.8102676014396376E-02 a        19     0     1     1    19
  1.0840169710949954E-01 a        20     0     1     1    20
  1.1145882865929493E-01 a        21     0     1     1    21
  1.3765490889784684E-01 a        22     0     1     1    22
  4.1317188361580774E-04 a        23     0     1     1    23
 -1.5339583987969715E-01 a        24     0     1     1    24
  1.5536032141039061E-02 a        25     0     1     1    25
  9.6069302209273996E-02 a        26     0     2     1     1
 -8.9688418032679351E-02 a        27     0     2     1     2
 -5.2658112209203398E-02 a        28     0     2     1     3
 -4.9169171699129467E-02 a        29     0     2     1     4
 -5.9462304100320121E-02 a        30     0     2     1     5
  1.6545896821185430E-01 a        31     0     2     1     6
  3.7270438233912864E-02 a        32     0     2     1     7
 -6.8525659384073276E-02 a        33     0     2     1     8
  2.5268667260884926E-02 a        34     0     2     1     9
 -1.5758669332447697E-01 a        35     0     2     1    10
  1.6881270754740482E-01 a        36     0     2     1    11
  5.5372173756560443E-02 a        37     0     2     1    12
  1.7088568686500282E-02 a        38     0     2     1    13
  2.4317911011708326E-02 a        39     0     2     1    14
 -1.2791100664403662E-01 a        40     0     2     1    15
 -2.8641401587284515E-01 a        41     0     2     1    16
  6.0556123320019403E-02 a        42     0     2     1    17
  1.3907827460138544E-01 a        43     0     2     1    18
 -5.4909325893533305E-02 a        44     0     2     1    19
  2.1506514001006111E-01 a        45     0     2     1    20
 -1.3143366267878781E-01 a        46     0     2     1    21
 -5.1051960872581258E-02 a        47     0     2     1    22
 -8.5526168170644290E-02 a        48     0     2     1    23
  1.8236876955004688E-01 a        49     0     2     1    24
 -9.5235035957162414E-02 a        50     0     2     1    25
 -1.7436679263904315E-02 a        51     0     3     1     1
  2.8358709864603534E-02 a        52     0     3     1     2
  1.2586691423193180E-01 a        53     0     3     1     3
  7.5041133102177974E-03 a        54     0     3     1     4
  7.5861459269757486E-02 a        55     0     3     1     5
  7.1305024003965628E-02 a        56     0     3     1     6
 -3.5973644676713212E-02 a        57     0     3     1     7
  2.5506800782523979E-02 a        58     0     3     1     8
 -1.5912237552394087E-01 a        59     0     3     1     9
 -1.6713538289842164E-01 a        60     0     3     1    10
  2.5486827362065281E-02 a        61     0     3     1    11
 -1.5058157394695239E-02 a        62     0     3     1    12
 -1.6407421954484896E-01 a        63     0     3     1    13
 -8.1494478779768315E-02 a        64     0     3     1    14
 -1.8892006497202549E-01 a        65     0     3     1    15
 -2.0503655002873006E-02 a        66     0     3     1    16
  7.2658014964568696E-02 a        67     0     3     1    17
  9.3600419300017806E-02 a        68     0     3     1    18
  6.5871119291401090E-02 a        69     0     3     1    19
 -1.0286075640487378E-01 a        70     0     3     1    20
  1.3329161437344042E-01 a        71     0     3     1    21
  7.5710920502055037E-02 a        72     0     3     1    22
  7.8863494862401101E-02 a        73     0     3     1    23
 -6.9787515381579540E-02 a        74     0     3     1    24
 -1.9976156094660849E-01 a        75     0     3     1    25
 -1.9599325461371574E-02 a        76     0     4     1     1
  1.1894636757308334E-01 a        77     0     4     1     2
 -2.1198145279609443E-03 a        78     0     4     1     3
 -8.5913658595694262E-03 a        79     0     4     1     4
  8.2274328292903418E-02 a        80     0     4     1     5
 -2.4855065387175115E-01 a        81     0     4     1     6
  3.7268387839075934E-02 a        82     0     4     1     7
 -1.7063807563081057E-01 a        83     0     4     1     8
  5.0897777271539189E-03 a        84     0     4     1     9
 -5.7214443307359975E-02 a        85     0     4     1    10
 -1.6540184372045147E-01 a        86     0     4     1    11
 -3.9262069257053394E-03 a        87     0     4     1    12
 -1.1943966557712214E-02 a        88     0     4     1    13
  9.6597950630147485E-03 a        89     0     4     1    14
 -6.3874479031714629E-02 a        90     0     4     1    15
  2.4165010350670535E-02 a        91     0     4     1    16
  2.3833371648480259E-01 a        92     0     4     1    17
  4.0556034967615610E-02 a        93     0     4     1    18
 -8.1089934173429828E-02 a        94     0     4     1    19
 -1.7822415893962135E-01 a        95     0     4     1    20
  1.7054546472639978E-01 a        96     0     4     1    21
 -2.4143994271536695E-01 a        97     0     4     1    22
  1.2803513618274961E-01 a        98     0     4     1    23
  1.6653825397368896E-01 a        99     0     4     1    24
  1.1293562380376111E-02 a       100     0     4     1    25
  1.1455447842237472E-01 a       101     0     5     1     1
  9.6705415324030587E-03 a       102     0     5     1     2
 -1.5456558873864062E-01 a       103     0     5     1     3
  2.4889810974276333E-01 a       104     0     5     1     4
  2.0097748896628208E-02 a       105     0     5     1     5
  1.5936491072869441E-01 a       106     0     5     1     6
 -1.7559383994209163E-01 a       107     0     5     1     7
  2.0190405197744868E-01 a       108     0     5     1     8
  1.4261422187474773E-01 a       109     0     5     1     9
  2.9227286336937448E-02 a       110     0     5     1    10
 -2.0907111732856096E-01 a       111     0     5     1    11
  1.8398305039372759E-02 a       112     0     5     1    12
 -2.3556165663733145E-01 a       113     0     5     1    13
 -1.2046726860676686E-01 a       114     0     5     1    14
  2.6071744866241681E-01 a       115     0     5     1    15
  2.4113956898936989E-01 a       116     0     5     1    16
  7.6594384645912977E-02 a       117     0     5     1    17
 -4.3063827068806002E-02 a       118     0     5     1    18
 -9.9101966597995288E-03 a       119     0     5     1    19
 -1.3896410871435502E-01 a       120     0     5     1    20
 -7.5899228557410603E-02 a       121     0     5     1    21
 -4.2629582386477211E-02 a       122     0     5     1    22
  5.4138086451060358E-02 a       123     0     5     1    23
  2.1401117789534618E-01 a       124     0     5     1    24
  5.4723964844133388E-02 a       125     0     5     1    25
 -1.0139482715413857E-01 a       126     0     6     1     1
  9.1706673918976231E-02 a       127     0     6     1     2
  1.5075520450130869E-01 a       128     0     6     1     3
 -3.4743009357312046E-02 a       129     0     6     1     4
 -8.0519187214825719E-02 a       130     0     6     1     5
 -2.0979518915956116E-01 a       131     0     6     1     6
 -8.6343404588751269E-02 a       132     0     6     1     7
  3.5394989125356719E-03 a       133     0     6     1     8
 -1.7456612281241077E-01 a       134     0     6     1     9
  5.8920695388482443E-02 a       135     0     6     1    10
 -2.5288637546474790E-01 a       136     0     6     1    11
  1.3796657913717714E-01 a       137     0     6     1    12
  2.2517348082957578E-02 a       138     0     6     1    13
 -1.1619953178390513E-01 a       139     0     6     1    14
  2.1203020782923521E-01 a       140     0     6     1    15
 -1.4303059661555817E-01 a       141     0     6     1    16
  2.0662749947272283E-02 a       142     0     6     1    17
 -1.3668811502293548E-02 a       143     0     6     1    18
  2.3975445316209418E-01 a       144     0     6     1    19
 -1.0650612487026904E-01 a       145     0     6     1    20
  6.3778195836632925E-02 a       146     0     6     1    21
 -4.1739292937983966E-02 a       147     0     6     1    22
 -1.2001916362737858E-02 a       148     0     6     1    23
 -1.1039362759012496E-01 a       149     0     6     1    24
 -2.4348182088629239E-01 a       150     0     6     1    25
  2.5931295534543736E-02 a       151     0     7     1     1
  2.3923051549311201E-02 a       152     0     7     1     2
  1.1054820137789279E-01 a       153     0     7     1     3
 -8.5006051754923262E-02 a       154     0     7     1     4
 -1.7606014184709742E-01 a       155     0     7     1     5
 -1.0568263707631401E-01 a       156     0     7     1     6
  1.5498990971344209E-01 a       157     0     7     1     7
 -1.5709120921244613E-01 a       158     0     7     1     8
  9.7677640239175564E-02 a       159     0     7     1     9
  2.0795107098028437E-01 a       160     0     7     1    10
  1.3072375382284637E-01 a       161     0     7     1    11
  1.1354974127453733E-01 a       162     0     7     1    12
  4.6886231688689529E-03 a       163     0     7     1    13
  4.7162584869777008E-02 a       164     0     7     1    14
  6.7133432785124819E-02 a       165     0     7     1    15
  5.5169705208008665E-02 a       166     0     7     1    16
 -1.7092678069842185E-01 a       167     0     7     1    17
 -9.4635076659860845E-02 a       168     0     7     1    18
  6.1978746657536048E-02 a       169     0     7     1    19
  3.4727447530783953E-02 a       170     0     7     1    20
 -1.4468406062522951E-01 a       171     0     7     1    21
  2.3777155512896930E-01 a       172     0     7     1    22
 -1.7593476648289891E-02 a       173     0     7     1    23
  3.7174154649617389E-02 a       174     0     7     1    24
 -9.5323725325443337E-02 a       175     0     7     1    25
 -1.5553344527804397E-01 a       176     0     8     1     1
  1.6519121975275181E-01 a       177     0     8     1     2
  2.0718693421029230E-01 a       178     0     8     1     3
  7.8916322800757652E-02 a       179     0     8     1     4
 -1.5659160568308800E-01 a       180     0     8     1     5
  1.7338221402127285E-01 a       181     0     8     1     6
 -3.6409009713830612E-02 a       182     0     8     1     7
  1.8864327081455162E-01 a       183     0     8     1     8
 -8.3199013706551986E-02 a       184     0     8     1     9
 -2.0772692368140677E-02 a       185     0     8     1    10
 -1.3371908346550773E-01 a       186     0     8     1    11
 -5.4118366085626368E-02 a       187     0     8     1    12
  8.9579506314324944E-02 a       188     0     8     1    13
 -3.6656688502608302E-02 a       189     0     8     1    14
 -5.9650463507587001E-02 a       190     0     8     1    15
 -2.2587431838717367E-01 a       191     0     8     1    16
 -2.0837027582934273E-01 a       192     0     8     1    17
 -6.7915352055623671E-02 a       193     0     8     1    18
 -4.1438672668749711E-02 a       194     0     8     1    19
  1.0364153305342352E-01 a       195     0     8     1    20
  5.0222932096914710E-02 a       196     0     8     1    21
 -1.4994642014194420E-01 a       197     0     8     1    22
 -1.5322528795606885E-01 a       198     0     8     1    23
 -1.2375126582999426E-04 a       199     0     8     1    24
 -2.6376729452060560E-01 a       200     0     8     1    25
  5.1649092904244942E-01 a       201     0     9     1     1
 -5.5667103474915124E-02 a       202     0     9     1     2
  8.8531067472220726E-02 a       203     0     9     1     3
  2.9984167360194608E-01 a       204     0     9     1     4
 -9.0919258550883855E-02 a       205     0     9     1     5
 -1.7034198503240466E-01 a       206     0     9     1     6
 -2.8243089081247902E-01 a       207     0     9     1     7
 -8.8326197657469227E-02 a       208     0     9     1     8
 -2.5094508561548379E-02 a       209     0     9     1     9
  4.3931029753706809E-02 a       210     0     9     1    10
  2.7217437476411638E-01 a       211     0     9     1    11
 -3.5389499807796231E-02 a       212     0     9     1    12
 -8.7397072320224561E-02 a       213     0     9     1    13
 -1.9743669517617152E-02 a       214     0     9     1    14
 -2.3636607555169789E-02 a       215     0     9     1    15
 -1.6587763909340913E-01 a       216     0     9     1    16
 -2.7043533588633997E-02 a       217     0     9     1    17
 -2.8645870343498799E-02 a       218     0     9     1    18
 -1.6651550564119985E-01 a       219     0     9     1    19
 -2.5819849001225892E-01 a       220     0     9     1    20
 -2.5552013645806021E-01 a       221     0     9     1    21
 -1.8151558416772620E-01 a       222     0     9     1    22
 -1.3278758235508353E-01 a       223     0     9     1    23
 -3.2729905992752118E-03 a       224     0     9     1    24
  4.1772132487724194E-05 a       225     0     9     1    25
 -1.4025666188607946E-01 a       226     0    10     1     1
 -1.5064685454280347E-01 a       227     0    10     1     2
 -1.1582804643909875E-01 a       228     0    10     1     3
  1.4174726276652991E-01 a       229     0    10     1     4
 -2.2580963081558431E-01 a       230     0    10     1     5
  1.6822359474588899E-01 a       231     0    10     1     6
 -8.2684774191404409E-02 a       232     0    10     1     7
  2.1001042813794293E-02 a       233     0    10     1     8
 -2.6700027956352668E-01 a       234     0    10     1     9
  1.8275638387680385E-02 a       235     0    10     1    10
 -2.4306792791213874E-01 a       236     0    10     1    11
 -1.6390510561821620E-01 a       237     0    10     1    12
  1.5940555481365809E-01 a       238     0    10     1    13
 -1.8192767007071428E-01 a       239     0    10     1    14
 -2.8115285337906615E-01 a       240     0    10     1    15
  4.0137837869252506E-03 a       241     0    10     1    16
 -2.4399390870511176E-01 a       242     0    10     1    17
  4.3515032023558331E-02 a       243     0    10     1    18
  6.6640395507105904E-02 a       244     0    10     1    19
  1.2117290729889345E-01 a       245     0    10     1    20
  3.2314089437052784E-01 a       246     0    10     1    21
  3.2046240127803785E-02 a       247     0    10     1    22
  2.8057116968681201E-01 a       248     0    10     1    23
  4.5022161036569606E-02 a       249     0    10     1    24
  1.8486169985600226E-01 a       250     0    10     1    25
  3.7210552233898431E-01 a       251     0    11     1     1
 -2.1970362542117369E-01 a       252     0    11     1     2
 -1.2633171468582016E-01 a       253     0    11     1     3
  2.7464370751377426E-01 a       254     0    11     1     4
 -2.7383594911813075E-01 a       255     0    11     1     5
  1.0431997458121120E-01 a       256     0    11     1     6
  8.5957941048180608E-02 a       257     0    11     1     7
  2.4405744822263059E-01 a       258     0    11     1     8
  2.3454496318860185E-01 a       259     0    11     1     9
 -1.6068196488551273E-01 a       260     0    11     1    10
 -2.9920038922121039E-01 a       261     0    11     1    11
 -6.3132297066776699E-02 a       262     0    11     1    12
  3.1613831901681888E-01 a       263     0    11     1    13
  8.4747563743006349E-02 a       264     0    11     1    14
  7.8664269457479244E-02 a       265     0    11     1    15
  6.0480408563339416E-02 a       266     0    11     1    16
  3.0319803962488867E-01 a       267     0    11     1    17
  6.5968785460735632E-02 a       268     0    11     1    18
 -1.1583648786922131E-01 a       269     0    11     1    19
 -1.2532234648818652E-01 a       270     0    11     1    20
  1.9385281756132922E-01 a       271     0    11     1    21
  6.9720272579183215E-02 a       272     0    11     1    22
 -5.3000896072984069E-03 a       273     0    11     1    23
  2.3374146373347623E-01 a       274     0    11     1    24
 -6.1016779791786636E-02 a       275     0    11     1    25
  1.7455148818903904E-01 a       276     0    12     1     1
  2.3100522917195482E-01 a       277     0    12     1     2
 -2.9442364636849502E-02 a       278     0    12     1     3
  6.8843177684798113E-02 a       279     0    12     1     4
 -2.1768421608806560E-01 a       280     0    12     1     5
  4.2013818066845197E-02 a       281     0    12     1     6
  5.1258220566966932E-02 a       282     0    12     1     7
 -1.1157209777989469E-01 a       283     0    12     1     8
 -2.6547253067980520E-01 a       284     0    12     1     9
  1.9524083955039920E-01 a       285     0    12     1    10
 -8.5755626074898214E-02 a       286     0    12     1    11
 -1.3779744839460617E-01 a       287     0    12     1    12
  1.0405759215710056E-01 a       288     0    12     1    13
 -4.1223825497957736E-02 a       289     0    12     1    14
 -2.7016023991457255E-01 a       290     0    12     1    15
 -1.0084778055393497E-01 a       291     0    12     1    16
 -1.0494611764476564E-01 a       292     0    12     1    17
  1.3794276216311535E-01 a       293     0    12     1    18
  7.0710052148816843E-02 a       294     0    12     1    19
 -1.1256784140443808E-02 a       295     0    12     1    20
 -7.5120278197159671E-04 a       296     0    12     1    21
  7.5547406960716934E-02 a       297     0    12     1    22
 -5.3121852534720126E-02 a       298     0    12     1    23
 -2.5601177207061438E-03 a       299     0    12     1    24
 -2.0595558281559723E-01 a       300     0    12     1    25
  2.2282024065415018E-01 a       301     0    13     1     1
  1.3435933919479429E-01 a       302     0    13     1     2
 -2.0376635860950731E-01 a       303     0    13     1     3
  1.1569850509487205E-01 a       304     0    13     1     4
  4.0885323978524159E-02 a       305     0    13     1     5
 -1.0227672782972520E-01 a       306     0    13     1     6
 -2.5158191998064289E-01 a       307     0    13     1     7
  9.5903809069369059E-02 a       308     0    13     1     8
  1.4815619126823570E-01 a       309     0    13     1     9
 -3.3839205324492577E-01 a       310     0    13     1    10
  1.5652221072485581E-01 a       311     0    13     1    11
  2.3166073760300249E-01 a       312     0    13     1    12
  2.7829434834878453E-01 a       313     0    13     1    13
  1.5063191295578243E-01 a       314     0    13     1    14
 -1.3705460367548633E-02 a       315     0    13     1    15
 -6.8811917169946260E-03 a       316     0    13     1    16
 -2.3898753650723756E-01 a       317     0    13     1    17
  1.4266856936568384E-01 a       318     0    13     1    18
  3.2030507847905543E-01 a       319     0    13     1    19
 -8.1853882955683840E-02 a       320     0    13     1    20
 -7.5081942112726077E-02 a       321     0    13     1    21
  2.6813494577526786E-01 a       322     0    13     1    22
 -2.0425205084674888E-01 a       323     0    13     1    23
  1.5008065522472133E-01 a       324     0    13     1    24
 -1.8771906231056911E-02 a       325     0    13     1    25
 -1.2290364699062907E-01 a       326     0    14     1     1
  5.9563688233507127E-02 a       327     0    14     1     2
  2.9084568893379403E-02 a       328     0    14     1     3
  9.1000108525871287E-02 a       329     0    14     1     4
 -4.0480609267039808E-02 a       330     0    14     1     5
 -8.5942515200536265E-02 a       331     0    14     1     6
  6.8913822247064813E-02 a       332     0    14     1     7
 -6.1698701112849336E-03 a       333     0    14     1     8
  2.1182721330779380E-01 a       334     0    14     1     9
  6.8507072061700633E-02 a       335     0    14     1    10
  2.5482676375773600E-01 a       336     0    14     1    11
 -1.3896576086591722E-01 a       337     0    14     1    12
 -3.2578724767987767E-02 a       338     0    14     1    13
  1.3221865014637535E-01 a       339     0    14     1    14
  1.3384688890493499E-01 a       340     0    14     1    15
  4.0658145659661404E-01 a       341     0    14     1    16
 -1.4920823610836007E-01 a       342     0    14     1    17
  3.1915975442458611E-02 a       343     0    14     1    18
 -2.7182233849659432E-01 a       344     0    14     1    19
 -3.0224913409825901E-02 a       345     0    14     1    20
  5.8425491986726252E-02 a       346     0    14     1    21
 -3.1854307308859175E-01 a       347     0    14     1    22
 -2.8256986778404783E-02 a       348     0    14     1    23
 -1.6847350885531026E-01 a       349     0    14     1    24
 -4.5091267426447749E-02 a       350     0    14     1    25
  2.3903662372488024E-01 a       351     0    15     1     1
  7.0646153997027200E-02 a       352     0    15     1     2
  2.9158588977361757E-02 a       353     0    15     1     3
 -4.6518606031505226E-02 a       354     0    15     1     4
 -2.2760055072990287E-01 a       355     0    15     1     5
  2.5103085246688034E-01 a       356     0    15     1     6
 -1.9930219592593482E-01 a       357     0    15     1     7
 -2.2445954005704435E-01 a       358     0    15     1     8
  2.6693243556781510E-01 a       359     0    15     1     9
 -3.5391471656622248E-01 a       360     0    15     1    10
  1.1072649788198623E-01 a       361     0    15     1    11
  1.0726517866096856E-01 a       362     0    15     1    12
  4.5614964204217218E-01 a       363     0    15     1    13
 -2.1491088704107331E-01 a       364     0    15     1    14
 -1.7024009611636762E-01 a       365     0    15     1    15
 -1.7081494781196430E-01 a       366     0    15     1    16
  1.3033748940785514E-01 a       367     0    15     1    17
  4.3772533068739301E-02 a       368     0    15     1    18
  2.2145310549208538E-01 a       369     0    15     1    19
 -2.4540597119806143E-01 a       370     0    15     1    20
 -1.0276285068705700E-02 a       371     0    15     1    21
 -5.9012213941020179E-02 a       372     0    15     1    22
  7.8908395690280048E-02 a       373     0    15     1    23
 -3.5994308195802382E-01 a       374     0    15     1    24
 -3.6192637295164015E-01 a       375     0    15     1    25
  1.1483169743660338E-02 a       376     0    16     1     1
  1.3743212505641067E-01 a       377     0    16     1     2
  2.3076114405040310E-01 a       378     0    16     1     3
 -1.6143030827139118E-01 a       379     0    16     1     4
  1.6400498199130328E-01 a       380     0    16     1     5
 -2.7833796589527382E-01 a       381     0    16     1     6
 -6.2076664428535391E-02 a       382     0    16     1     7
  1.0943252688516816E-01 a       383     0    16     1     8
  1.7058757430647921E-02 a       384     0    16     1     9
 -3.6187322091083080E-02 a       385     0    16     1    10
 -2.2506742292228279E-01 a       386     0    16     1    11
  1.3580484549497457E-01 a       387     0    16     1    12
 -3.2884508699065840E-01 a       388     0    16     1    13
 -2.7524500138964760E-02 a       389     0    16     1    14
  2.8251946488495316E-01 a       390     0    16     1    15
  2.1924690436351527E-01 a       391     0    16     1    16
 -2.6602359868371822E-01 a       392     0    16     1    17
 -8.6738008689398641E-02 a       393     0    16     1    18
  1.2099395448471008E-01 a       394     0    16     1    19
 -2.0448013169342150E-01 a       395     0    16     1    20
 -1.6751064306869998E-01 a       396     0    16     1    21
 -1.5233712681925105E-01 a       397     0    16     1    22
 -5.0106141458076306E-02 a       398     0    16     1    23
 -1.0193984883545265E-01 a       399     0    16     1    24
  1.5297831626710570E-01 a       400     0    16     1    25
  3.1182594957107485E-01 a       401     0    17     1     1
  5.0603615711551331E-01 a       402     0    17     1     2
  2.9092128387878163E-01 a       403     0    17     1     3
 -4.7349168665575959E-02 a       404     0    17     1     4
  2.6124207615086487E-01 a       405     0    17     1     5
 -3.3854065381621216E-02 a       406     0    17     1     6
 -7.8500492771557587E-02 a       407     0    17     1     7
 -5.3129068027918364E-02 a       408     0    17     1     8
  8.7016666928848976E-02 a       409     0    17     1     9
 -2.3341653474685831E-01 a       410     0    17     1    10
  3.3343446185629094E-01 a       411     0    17     1    11
  2.3523725095075740E-01 a       412     0    17     1    12
  4.5481709054541786E-01 a       413     0    17     1    13
  2.9819038262413416E-02 a       414     0    17     1    14
  4.6978943066437212E-02 a       415     0    17     1    15
  3.1428809293836496E-01 a       416     0    17     1    16
 -1.2043872542890781E-01 a       417     0    17     1    17
 -6.5999196725930187E-02 a       418     0    17     1    18
 -8.6706024204670062E-03 a       419     0    17     1    19
  3.4666619299335615E-02 a       420     0    17     1    20
 -2.7712004766723713E-01 a       421     0    17     1    21
 -1.8165087195053942E-01 a       422     0    17     1    22
  8.8776535133295392E-02 a       423     0    17     1    23
  6.0555733531083580E-02 a       424     0    17     1    24
 -1.5529190534467940E-01 a       425     0    17     1    25
  6.1296624332124752E-02 a       426     0    18     1     1
 -1.9563052198150020E-04 a       427     0    18     1     2
 -2.3411034417402313E-01 a       428     0    18     1     3
 -2.2056309602083377E-01 a       429     0    18     1     4
 -2.6096485708242911E-01 a       430     0    18     1     5
  6.5365191592623079E-02 a       431     0    18     1     6
  8.8476362551752161E-02 a       432     0    18     1     7
  1.8058849378038377E-01 a       433     0    18     1     8
 -1.1843871902312889E-01 a       434     0    18     1     9
  2.1513383298643038E-02 a       435     0    18     1    10
  2.5355783575207919E-01 a       436     0    18     1    11
  1.1246459350444003E-01 a       437     0    18     1    12
 -1.1904338314893811E-01 a       438     0    18     1    13
  6.5242633936094391E-02 a       439     0    18     1    14
  2.2183049928984794E-01 a       440     0    18     1    15
  4.0704088636654499E-02 a       441     0    18     1    16
  1.3838530334873350E-01 a       442     0    18     1    17
  2.0167546846428042E-01 a       443     0    18     1    18
  9.4272665059398908E-02 a       444     0    18     1    19
  1.6080507525488896E-01 a       445     0    18     1    20
  1.7191675222933625E-01 a       446     0    18     1    21
 -2.2632809074639795E-01 a       447     0    18     1    22
  1.2000252929171960E-01 a       448     0    18     1    23
 -3.0669067454288745E-01 a       449     0    18     1    24
  1.8581071245338696E-01 a       450     0    18     1    25
  4.1899438879523110E-01 a       451     0    19     1     1
 -1.9878114594714635E-01 a       452     0    19     1     2
  3.4076730535860728E-01 a       453     0    19     1     3
  1.6092857095080679E-01 a       454     0    19     1     4
 -4.0818548294726670E-01 a       455     0    19     1     5
 -8.0790839641610337E-02 a       456     0    19     1     6
 -2.1591516668077935E-02 a       457     0    19     1     7
 -5.8790797274485117E-04 a       458     0    19     1     8
  1.5844607862526194E-01 a       459     0    19     1     9
  1.9977258035096390E-01 a       460     0    19     1    10
  5.2269872015139704E-02 a       461     0    19     1    11
  1.2408505720863780E-01 a       462     0    19     1    12
  2.5677338312755005E-01 a       463     0    19     1    13
 -8.2679312151524090E-02 a       464     0    19     1    14
  7.0150438841810880E-02 a       465     0    19     1    15
 -8.7289650839924751E-02 a       466     0    19     1    16
  2.7925231090924052E-01 a       467     0    19     1    17
 -1.1281551621185368E-01 a       468     0    19     1    18
  1.1761615313826004E-01 a       469     0    19     1    19
 -1.8066510464592272E-02 a       470     0    19     1    20
  1.6484825630241243E-01 a       471     0    19     1    21
 -2.7211251342691956E-01 a       472     0    19     1    22
 -1.2883874736003165E-01 a       473     0    19     1    23
  1.1314754357991795E-01 a       474     0    19     1    24
  6.3639756782885235E-02 a       475     0    19     1    25
 -1.4796148656524394E-02 a       476     0    20     1     1
 -2.0287546243576454E-02 a       477     0    20     1     2
 -1.6117676037319112E-01 a       478     0    20     1     3
  6.7977966935720141E-02 a       479     0    20     1     4
 -1.8526610026967233E-01 a       480     0    20     1     5
  2.0917700167550089E-02 a       481     0    20     1     6
  1.3271904248236449E-01 a       482     0    20     1     7
 -2.2363334014319548E-02 a       483     0    20     1     8
 -1.6504804974897810E-01 a       484     0    20     1     9
  3.2364876495067549E-03 a       485     0    20     1    10
  5.9187428861120377E-02 a       486     0    20     1    11
 -1.0358504035492323E-01 a       487     0    20     1    12
 -2.6356348318773692E-01 a       488     0    20     1    13
 -1.5544078902941788E-01 a       489     0    20     1    14
  1.7239993155255035E-01 a       490     0    20     1    15
 -1.3036807960173954E-01 a       491     0    20     1    16
 -1.7406386020825146E-01 a       492     0    20     1    17
 -9.2992884223693548E-02 a       493     0    20     1    18
 -2.4759380404673859E-01 a       494     0    20     1    19
  1.2340470567733204E-01 a       495     0    20     1    20
 -9.3370704305211927E-03 a       496     0    20     1    21
 -4.2034308611654983E-02 a       497     0    20     1    22
 -1.0496651335654868E-01 a       498     0    20     1    23
 -1.5721495931976873E-02 a       499     0    20     1    24
 -1.7589111703399973E-01 a       500     0    20     1    25
 -1.1983403018441039E-02 a       501     0    21     1     1
 -2.2606709862841162E-01 a       502     0    21     1     2
  2.3714943450631555E-02 a       503     0    21     1     3
  3.4656549164121070E-01 a       504     0    21     1     4
 -1.4958495874730784E-01 a       505     0    21     1     5
  1.6936112113847035E-01 a       506     0    21     1     6
 -1.2060182536070985E-01 a       507     0    21     1     7
  3.2034639357299402E-02 a       508     0    21     1     8
  5.7626810071365400E-02 a       509     0    21     1     9
 -1.5494307334899385E-01 a       510     0    21     1    10
  2.0855349366469952E-01 a       511     0    21     1    11
  8.2110097130927290E-02 a       512     0    21     1    12
  2.6723877703563226E-01 a       513     0    21     1    13
  1.8685335666083672E-01 a       514     0    21     1    14
 -2.1483215340232673E-01 a       515     0    21     1    15
  4.0257731899340193E-01 a       516     0    21     1    16
  7.7148351242089699E-02 a       517     0    21     1    17
  1.4198993117757974E-01 a       518     0    21     1    18
 -5.8176701436578410E-02 a       519     0    21     1    19
  1.3598520448423787E-01 a       520     0    21     1    20
 -2.5315143556157244E-01 a       521     0    21     1    21
 -5.9441560844685146E-02 a       522     0    21     1    22
  2.9258142340641623E-02 a       523     0    21     1    23
  1.0878823563975720E-01 a       524     0    21     1    24
 -1.3877586466660061E-01 a       525     0    21     1    25
 -2.8148561702130898E-01 a       526     0    22     1     1
 -1.7942811584534321E-01 a       527     0    22     1     2
 -1.9147909262136952E-02 a       528     0    22     1     3
 -4.7016035590525074E-01 a       529     0    22     1     4
  1.2295280463856956E-01 a       530     0    22     1     5
 -8.0456725835892196E-02 a       531     0    22     1     6
  2.6417967480860516E-01 a       532     0    22     1     7
  1.0240083910437062E-01 a       533     0    22     1     8
  2.0672367822590099E-01 a       534     0    22     1     9
  2.0480499139894251E-01 a       535     0    22     1    10
  1.8011684002549025E-01 a       536     0    22     1    11
  3.5724470455455676E-03 a       537     0    22     1    12
 -4.4956359685852099E-01 a       538     0    22     1    13
 -2.4247752446348597E-01 a       539     0    22     1    14
  1.9863692413328427E-01 a       540     0    22     1    15
  1.6664794331134039E-01 a       541     0    22     1    16
 -1.3380004025214087E-01 a       542     0    22     1    17
 -1.8299332540885260E-01 a       543     0    22     1    18
  3.0326144700009220E-02 a       544     0    22     1    19
  3.1543282820883228E-02 a       545     0    22     1    20
  1.7259165194269266E-01 a       546     0    22     1    21
 -8.1046701059026366E-02 a       547     0    22     1    22
  1.0626932406356655E-01 a       548     0    22     1    23
 -2.6007621307080198E-01 a       549     0    22     1    24
  8.4038792784562208E-02 a       550     0    22     1    25
  1.3110747874121603E-01 a       551     0    23     1     1
  8.3829133300342445E-02 a       552     0    23     1     2
 -7.2803935859028807E-02 a       553     0    23     1     3
  1.9188275222521128E-01 a       554     0    23     1     4
 -3.4097268612938131E-02 a       555     0    23     1     5
 -7.8302660931772516E-02 a       556     0    23     1     6
  1.2708025907297044E-01 a       557     0    23     1     7
  4.0078771950178248E-02 a       558     0    23     1     8
 -1.6106079931095862E-01 a       559     0    23     1     9
 -1.1788306162192298E-01 a       560     0    23     1    10
  2.1395582519246140E-01 a       561     0    23     1    11
  1.0681987011705781E-01 a       562     0    23     1    12
  5.9738537455100515E-01 a       563     0    23     1    13
  2.0254278949136090E-01 a       564     0    23     1    14
 -1.4791434852514085E-01 a       565     0    23     1    15
  8.5072374736706147E-02 a       566     0    23     1    16
 -2.3082154334871885E-01 a       567     0    23     1    17
  2.1360779456782511E-01 a       568     0    23     1    18
  1.8178769648970923E-03 a       569     0    23     1    19
  2.1732196485922226E-01 a       570     0    23     1    20
 -2.4682543555621633E-01 a       571     0    23     1    21
  6.6847780879578170E-03 a       572     0    23     1    22
  1.9476906501725380E-01 a       573     0    23     1    23
  1.1960004848957709E-01 a       574     0    23     1    24
 -2.2916464200211514E-01 a       575     0    23     1    25
  1.5401629479733303E-01 a       576     0    24     1     1
 -1.8039413566811235E-01 a       577     0    24     1     2
 -3.2022365117427937E-01 a       578     0    24     1     3
 -3.7984924542046078E-01 a       579     0    24     1     4
  7.0033196327204700E-02 a       580     0    24     1     5
 -2.3189913965435677E-01 a       581     0    24     1     6
  1.9536966067166089E-01 a       582     0    24     1     7
  6.1652326437354535E-02 a       583     0    24     1     8
 -7.5545008070325104E-02 a       584     0    24     1     9
  1.1072914727009547E-01 a       585     0    24     1    10
 -5.4304844926863396E-02 a       586     0    24     1    11
 -7.4585768371085048E-02 a       587     0    24     1    12
  4.0228563840337385E-02 a       588     0    24     1    13
  2.5339613937754094E-03 a       589     0    24     1    14
  2.5313494590183100E-01 a       590     0    24     1    15
  3.0007696438920501E-02 a       591     0    24     1    16
 -1.9731789015038606E-01 a       592     0    24     1    17
  1.4728893340708768E-01 a       593     0    24     1    18
  4.8658162245703580E-02 a       594     0    24     1    19
  1.5689853406349426E-02 a       595     0    24     1    20
  1.3261150277294129E-01 a       596     0    24     1    21
 -1.5714632268253775E-01 a       597     0    24     1    22
  4.3077649721983399E-02 a       598     0    24     1    23
 -1.1336184803735549E-01 a       599     0    24     1    24
  1.9903369966385395E-01 a       600     0    24     1    25
  2.0295759377272311E-02 a       601     0    25     1     1
 -3.1967274973620291E-01 a       602     0    25     1     2
 -1.4288462848258335E-01 a       603     0    25     1     3
  1.8123673195698667E-01 a       604     0    25     1     4
  2.4254029408595865E-02 a       605     0    25     1     5
 -2.5049677525912972E-01 a       606     0    25     1     6
 -1.8594304340321732E-01 a       607     0    25     1     7
 -1.0601943513620880E-01 a       608     0    25     1     8
 -1.8996366156152902E-01 a       609     0    25     1     9
 -1.5429879199231419E-01 a       610     0    25     1    10
 -2.6951164232686224E-02 a       611     0    25     1    11
 -2.8423623890473142E-02 a       612     0    25     1    12
  3.8641496478448834E-01 a       613     0    25     1    13
 -3.0583256619774499E-02 a       614     0    25     1    14
  3.5994521038424834E-02 a       615     0    25     1    15
  4.7241933529592751E-02 a       616     0    25     1    16
  1.4816344382623803E-01 a       617     0    25     1    17
 -1.6908112274762496E-01 a       618     0    25     1    18
 -3.1784097877484617E-02 a       619     0    25     1    19
 -7.8782392091062359E-02 a       620     0    25     1    20
  9.4620405968759425E-02 a       621     0    25     1    21
  9.0564608015119577E-02 a       622     0    25     1    22
  1.9014079054051922E-01 a       623     0    25     1    23
  1.0544862618200511E-01 a       624     0    25     1    24
  1.2000640563970975E-01 a       625     0    25     1    25
  1.6054225913944775E-01 a       626     0    26     1     1
 -3.0189243729194670E-01 a       627     0    26     1     2
 -1.3347692223235486E-01 a       628     0    26     1     3
 -2.6977064099226239E-01 a       629     0    26     1     4
 -1.5375944496291763E-01 a       630     0    26     1     5
 -1.2145567512696749E-02 a       631     0    26     1     6
  1.5139276576381627E-01 a       632     0    26     1     7
  1.4310885124044151E-01 a       633     0    26     1     8
  2.0680742211139799E-01 a       634     0    26     1     9
  6.0720770739378024E-02 a       635     0    26     1    10
  1.2567742163996398E-01 a       636     0    26     1    11
  2.8193624861351727E-02 a       637     0    26     1    12
 -1.9385660607650759E-02 a       638     0    26     1    13
  5.5211024741293240E-02 a       639     0    26     1    14
  1.5754085324540723E-01 a       640     0    26     1    15
 -2.1325235484549518E-01 a       641     0    26     1    16
  7.7388334854189573E-03 a       642     0    26     1    17
  2.6615853382696855E-02 a       643     0    26     1    18
  7.8237806533895754E-02 a       644     0    26     1    19
 -2.3135602939458549E-01 a       645     0    26     1    20
  8.7405214350374058E-02 a       646     0    26     1    21
 -2.8412355268474482E-01 a       647     0    26     1    22
  3.1417852857931312E-02 a       648     0    26     1    23
  8.5062851909550406E-03 a       649     0    26     1    24
 -1.5486347658208544E-01 a       650     0    26     1    25
  8.1878708912440715E-02 a       651     0    27     1     1
 -8.5464642655681308E-02 a       652     0    27     1     2
  1.3900660260513961E-01 a       653     0    27     1     3
 -1.8559913677722389E-01 a       654     0    27     1     4
  1.6894428596174291E-01 a       655     0    27     1     5
  1.6757588161643841E-01 a       656     0    27     1     6
 -3.2375686226889500E-03 a       657     0    27     1     7
  3.7934927074229380E-02 a       658     0    27     1     8
  1.5438723865200794E-03 a       659     0    27     1     9
  8.5953229423527136E-02 a       660     0    27     1    10
  1.7059974098282393E-01 a       661     0    27     1    11
  2.1030313631453534E-01 a       662     0    27     1    12
  3.0313501297855556E-02 a       663     0    27     1    13
 -1.5345939686942375E-01 a       664     0    27     1    14
  2.5788975910836354E-01 a       665     0    27     1    15
 -4.3755864696943772E-02 a       666     0    27     1    16
  1.7530239747600385E-01 a       667     0    27     1    17
 -3.8142947855998643E-02 a       668     0    27     1    18
  4.1704156750438703E-02 a       669     0    27     1    19
  1.5159703265744720E-01 a       670     0    27     1    20
  3.5859060608794908E-02 a       671     0    27     1    21
 -6.8158707982914429E-02 a       672     0    27     1    22
 -2.3616136898894736E-02 a       673     0    27     1    23
 -1.4696229493424171E-01 a       674     0    27     1    24
  6.4985844184811875E-02 a       675     0    27     1    25
 -1.7624374762976455E-01 a       676     0    28     1     1
 -2.9890077702622392E-01 a       677     0    28     1     2
 -2.5108103886374111E-01 a       678     0    28     1     3
 -7.8597162350275779E-02 a       679     0    28     1     4
 -4.0995899681540666E-02 a       680     0    28     1     5
 -1.5156129225499307E-01 a       681     0    28     1     6
 -3.4547373995825409E-01 a       682     0    28     1     7
  1.5204661572552747E-01 a       683     0    28     1     8
 -3.7738684621672007E-02 a       684     0    28     1     9
 -3.0252803292930484E-02 a       685     0    28     1    10
  4.5756958860384045E-01 a       686     0    28     1    11
  1.6671932226911482E-01 a       687     0    28     1    12
 -2.6509562770026474E-01 a       688     0    28     1    13
  2.2296784462499792E-02 a       689     0    28     1    14
 -4.9694674109804701E-02 a       690     0    28     1    15
 -4.9163511587673231E-01 a       691     0    28     1    16
 -1.4066663741813615E-01 a       692     0    28     1    17
 -1.5082393564033866E-01 a       693     0    28     1    18
  5.8606258028579154E-02 a       694     0    28     1    19
 -2.4777548910210795E-01 a       695     0    28     1    20
  2.3982760282602936E-01 a       696     0    28     1    21
 -1.5385061650260073E-01 a       697     0    28     1    22
 -1.8995216092876330E-01 a       698     0    28     1    23
  1.0272929804402428E-03 a       699     0    28     1    24
 -9.0763270597698065E-02 a       700     0    28     1    25
  2.8703518504730907E-01 a       701     0    29     1     1
  1.4412029376624516E-01 a       702     0    29     1     2
  8.2220706966790857E-03 a       703     0    29     1     3
  5.4123496267838085E-02 a       704     0    29     1     4
 -8.7936533789264262E-02 a       705     0    29     1     5
  2.7025307208797317E-01 a       706     0    29     1     6
 -1.1025426871487375E-01 a       707     0    29     1     7
 -3.0600848932747646E-02 a       708     0    29     1     8
  4.6807081222828062E-02 a       709     0    29     1     9
  6.3728995658844545E-02 a       710     0    29     1    10
  8.0166247308573288E-02 a       711     0    29     1    11
 -2.2728842880471785E-02 a       712     0    29     1    12
  2.2003156820169323E-01 a       713     0    29     1    13
  3.1234559883998486E-01 a       714     0    29     1    14
 -3.9480699313927947E-02 a       715     0    29     1    15
  1.5276575865314412E-01 a       716     0    29     1    16
 -5.2756966243808621E-02 a       717     0    29     1    17
  2.6686537322157627E-01 a       718     0    29     1    18
 -1.3450043742289244E-01 a       719     0    29     1    19
  2.4888082405208808E-01 a       720     0    29     1    20
 -2.4081496018623791E-01 a       721     0    29     1    21
 -3.0925511662236452E-02 a       722     0    29     1    22
 -5.2717134128967461E-02 a       723     0    29     1    23
 -8.2233888883756226E-02 a       724     0    29     1    24
 -1.2888524532848136E-01 a       725     0    29     1    25
 -2.4052619574141612E-01 a       726     0    30     1     1
  1.3239451605095018E-01 a       727     0    30     1     2
 -1.9801067099490352E-01 a       728     0    30     1     3
 -5.6622526686226880E-03 a       729     0    30     1     4
  1.1119167379071586E-01 a       730     0    30     1     5
 -4.4682453734074923E-02 a       731     0    30     1     6
  2.0359929952373909E-01 a       732     0    30     1     7
 -9.2779608377015252E-02 a       733     0    30     1     8
  9.1744364306808504E-02 a       734     0    30     1     9
 -9.2907797199627190E-02 a       735     0    30     1    10
 -3.7792049452221255E-02 a       736     0    30     1    11
 -9.2241537971796628E-02 a       737     0    30     1    12
 -1.5230890401563660E-01 a       738     0    30     1    13
 -2.7510758893571824E-01 a       739     0    30     1    14
  9.8571785889848801E-02 a       740     0    30     1    15
  2.8245774546101950E-02 a       741     0    30     1    16
 -2.3365377871582857E-01 a       742     0    30     1    17
  8.4865369065116145E-02 a       743     0    30     1    18
 -2.5956585916952355E-02 a       744     0    30     1    19
 -9.9415734525386282E-02 a       745     0    30     1    20
 -2.4776028425131276E-02 a       746     0    30     1    21
  5.4519064853779553E-02 a       747     0    30     1    22
 -6.4390991608999693E-02 a       748     0    30     1    23
 -6.7490030282868929E-02 a       749     0    30     1    24
  5.0278330466460930E-01 a       750     0    30     1    25
  2.1495121142787232E-02 a       751     0    31     1     1
 -3.7437991387348868E-01 a       752     0    31     1     2
  1.3143992533764981E-01 a       753     0    31     1     3
  1.4812662809485092E-01 a       754     0    31     1     4
  4.0473882887015353E-02 a       755     0    31     1     5
 -5.1212913185869326E-02 a       756     0    31     1     6
  1.3690212786045669E-01 a       757     0    31     1     7
 -4.5949087621333894E-02 a       758     0    31     1     8
 -2.7525125450697404E-02 a       759     0    31     1     9
  7.5408374072364101E-02 a       760     0    31     1    10
 -2.0387871185219575E-01 a       761     0    31     1    11
 -1.2820768879745533E-02 a       762     0    31     1    12
  2.9052335275596153E-01 a       763     0    31     1    13
  1.2482874377655270E-01 a       764     0    31     1    14
 -1.1159076286126726E-01 a       765     0    31     1    15
  9.3805379625866950E-02 a       766     0    31     1    16
  1.2927607729285501E-01 a       767     0    31     1    17
  8.5264108839357047E-02 a       768     0    31     1    18
 -1.2755078385169644E-01 a       769     0    31     1    19
 -2.4238622791208565E-02 a       770     0    31     1    20
 -2.0030289192930936E-01 a       771     0    31     1    21
 -5.2104648235616249E-03 a       772     0    31     1    22
 -3.1243671869573852E-01 a       773     0    31     1    23
  2.0061681008737062E-01 a       774     0    31     1    24
 -2.6155851249106182E-01 a       775     0    31     1    25
 -1.1036221060103696E-01 a       776     0    32     1     1
 -2.9405904170842423E-01 a       777     0    32     1     2
  1.3153079543618812E-01 a       778     0    32     1     3
 -4.2538972150675408E-01 a       779     0    32     1     4
 -1.2175456301444100E-02 a       780     0    32     1     5
  6.9351382459350325E-02 a       781     0    32     1     6
  2.4454243607474815E-01 a       782     0    32     1     7
 -8.9203330269704714E-02 a       783     0    32     1     8
  2.4440698827490118E-01 a       784     0    32     1     9
  1.7648507167229333E-01 a       785     0    32     1    10
  3.7728197829883853E-01 a       786     0    32     1    11
 -9.0874892320382136E-02 a       787     0    32     1    12
 -2.4583726431098477E-01 a       788     0    32     1    13
 -5.8299921529228839E-02 a       789     0    32     1    14
 -4.6636730608274793E-02 a       790     0    32     1    15
 -3.6907433031689141E-01 a       791     0    32     1    16
  1.4515818919836695E-01 a       792     0    32     1    17
  3.8374310829905597E-02 a       793     0    32     1    18
 -7.3920796706033853E-02 a       794     0    32     1    19
 -1.0488859287266225E-01 a       795     0    32     1    20
  1.6273444105672991E-01 a       796     0    32     1    21
 -1.5451532056422379E-01 a       797     0    32     1    22
 -9.6040866466335695E-02 a       798     0    32     1    23
  2.6892066391969905E-03 a       799     0    32     1    24
  1.9820044014072863E-01 a       800     0    32     1    25
 -1.4382477880505565E-01 a       801     0    33     1     1
  5.1342831476534090E-01 a       802     0    33     1     2
  2.6840545614041800E-01 a       803     0    33     1     3
  1.5545315645894084E-01 a       804     0    33     1     4
  7.7450863179324314E-02 a       805     0    33     1     5
 -1.6810503995572249E-01 a       806     0    33     1     6
  2.1553193608822299E-01 a       807     0    33     1     7
 -2.3487690695397027E-02 a       808     0    33     1     8
 -3.5881812317719591E-01 a       809     0    33     1     9
 -5.2176768902212421E-02 a       810     0    33     1    10
 -5.4873750375686772E-02 a       811     0    33     1    11
  4.5484049400661780E-02 a       812     0    33     1    12
 -1.1334359953552303E-01 a       813     0    33     1    13
 -3.0997719362141372E-02 a       814     0    33     1    14
 -5.5012720983133784E-02 a       815     0    33     1    15
 -3.1912782589747835E-01 a       816     0    33     1    16
 -3.4304035702455499E-01 a       817     0    33     1    17
 -1.4911634003423183E-01 a       818     0    33     1    18
  2.2950887224845045E-02 a       819     0    33     1    19
 -5.3848695874267827E-02 a       820     0    33     1    20
  2.6788123068611924E-01 a       821     0    33     1    21
  1.1911842276332306E-01 a       822     0    33     1    22
  8.3688179542256158E-02 a       823     0    33     1    23
 -7.5562525557055588E-02 a       824     0    33     1    24
 -1.3609445366735748E-01 a       825     0    33     1    25
  2.1926965403400278E-02 a       826     0    34     1     1
 -5.4720490764467236E-02 a       827     0    34     1     2
  7.5036412242569855E-03 a       828     0    34     1     3
 -6.9962468173781669E-02 a       829     0    34     1     4
  8.0906819500779673E-02 a       830     0    34     1     5
 -1.0456770657870455E-01 a       831     0    34     1     6
 -4.3100023421874738E-02 a       832     0    34     1     7
  1.3809959082992782E-01 a       833     0    34     1     8
  1.9102617095117524E-02 a       834     0    34     1     9
  5.1623882139219632E-02 a       835     0    34     1    10
 -6.7016556947260275E-02 a       836     0    34     1    11
 -5.5334071839925766E-02 a       837     0    34     1    12
 -2.9635365886856540E-02 a       838     0    34     1    13
  2.5275875638797524E-01 a       839     0    34     1    14
 -8.6627451659933297E-02 a       840     0    34     1    15
 -1.4739843853915521E-01 a       841     0    34     1    16
 -3.1138756528956196E-01 a       842     0    34     1    17
 -1.0265009746606026E-01 a       843     0    34     1    18
 -1.1383539681717043E-01 a       844     0    34     1    19
 -2.4251038298756691E-01 a       845     0    34     1    20
 -9.8340955773792080E-03 a       846     0    34     1    21
  2.8429151913283879E-01 a       847     0    34     1    22
 -2.2212903055440389E-01 a       848     0    34     1    23
  1.4982806787325148E-01 a       849     0    34     1    24
 -1.4032400408401596E-01 a       850     0    34     1    25
  1.7011300576633033E-03 a       851     0    35     1     1
  5.6863128030174771E-02 a       852     0    35     1     2
 -1.5727482444055360E-01 a       853     0    35     1     3
  2.3472494714864012E-02 a       854     0    35     1     4
  9.5071707022294824E-02 a       855     0    35     1     5
 -3.8809949449538743E-02 a       856     0    35     1     6
 -2.2963362901358843E-02 a       857     0    35     1     7
  4.8311294791251166E-02 a       858     0    35     1     8
 -2.0633221570499244E-01 a       859     0    35     1     9
 -1.3004609501220663E-01 a       860     0    35     1    10
  1.2889019724779899E-01 a       861     0    35     1    11
  1.6132034053723435E-02 a       862     0    35     1    12
 -5.1388029860060518E-02 a       863     0    35     1    13
  6.3411083210635752E-02 a       864     0    35     1    14
  3.8552466481258575E-02 a       865     0    35     1    15
 -2.0646733896572123E-01 a       866     0    35     1    16
 -2.3032383948007429E-01 a       867     0    35     1    17
 -7.8338815986050706E-02 a       868     0    35     1    18
 -1.8343529530675665E-01 a       869     0    35     1    19
 -1.3907976824358817E-01 a       870     0    35     1    20
  8.6601752327890996E-02 a       871     0    35     1    21
 -3.2715401953863626E-01 a       872     0    35     1    22
  5.3404655997538663E-03 a       873     0    35     1    23
 -6.5096626316058670E-02 a       874     0    35     1    24
 -7.2360558899469379E-02 a       875     0    35     1    25
  8.6417554809907760E-02 a       876     0    36     1     1
  2.1289467427916521E-02 a       877     0    36     1     2
 -4.1946305804090790E-02 a       878     0    36     1     3
  1.6556689268213068E-01 a       879     0    36     1     4
 -3.8773088562199611E-03 a       880     0    36     1     5
  5.5013139275247973E-02 a       881     0    36     1     6
  2.7121422333198128E-02 a       882     0    36     1     7
 -1.1831420915728514E-02 a       883     0    36     1     8
  4.6883537920699055E-02 a       884     0    36     1     9
 -3.8990544646605597E-02 a       885     0    36     1    10
  2.8312941635700913E-02 a       886     0    36     1    11
 -2.6253079809188767E-02 a       887     0    36     1    12
  8.5900380368241300E-03 a       888     0    36     1    13
 -7.6697127331048109E-02 a       889     0    36     1    14
  6.8166178148449177E-02 a       890     0    36     1    15
 -7.0910491110067572E-02 a       891     0    36     1    16
 -7.7141750484247970E-02 a       892     0    36     1    17
  7.9932709520327022E-02 a       893     0    36     1    18
  1.7949267392449342E-01 a       894     0    36     1    19
  2.1304841941091973E-02 a       895     0    36     1    20
 -4.6861024408307667E-02 a       896     0    36     1    21
  1.5958330750502330E-02 a       897     0    36     1    22
  3.3256834983155265E-02 a       898     0    36     1    23
 -4.7903217045558256E-02 a       899     0    36     1    24
  1.1340835646596506E-01 a       900     0    36     1    25
  1.1371242217903578E-01 a       901     0    37     1     1
  2.1124272136711314E-01 a       902     0    37     1     2
 -6.5804661515664565E-03 a       903     0    37     1     3
  2.5801336716851109E-01 a       904     0    37     1     4
  1.9985437833861741E-01 a       905     0    37     1     5
  1.3963822546546492E-01 a       906     0    37     1     6
 -6.8524996234180874E-02 a       907     0    37     1     7
 -1.4373298742613469E-02 a       908     0    37     1     8
 -1.8370544592757063E-01 a       909     0    37     1     9
  1.5881889938366103E-01 a       910     0    37     1    10
  7.3268468576898102E-02 a       911     0    37     1    11
 -6.4933949415737796E-02 a       912     0    37     1    12
  1.5447083088988062E-01 a       913     0    37     1    13
  3.5189910081654625E-02 a       914     0    37     1    14
  1.5738672828012071E-01 a       915     0    37     1    15
  3.5442706801910424E-02 a       916     0    37     1    16
 -2.8849865460975266E-01 a       917     0    37     1    17
  4.9639755808531638E-02 a       918     0    37     1    18
 -6.5901889360873211E-02 a       919     0    37     1    19
  1.8378274501183950E-01 a       920     0    37     1    20
 -1.7325575170935012E-01 a       921     0    37     1    21
 -3.3544815157310010E-01 a       922     0    37     1    22
  9.5668625441161614E-02 a       923     0    37     1    23
 -3.1589600074033157E-02 a       924     0    37     1    24
  1.1066193635900186E-01 a       925     0    37     1    25
 -2.3696558101084866E-02 a       926     0    38     1     1
  2.0229041692238306E-01 a       927     0    38     1     2
 -2.5641814153238018E-01 a       928     0    38     1     3
 -1.4163929838079599E-02 a       929     0    38     1     4
 -8.7284207111135742E-02 a       930     0    38     1     5
 -6.3626554972776903E-02 a       931     0    38     1     6
  7.6488545187783294E-02 a       932     0    38     1     7
 -3.1429352108833228E-02 a       933     0    38     1     8
 -1.1391787078158803E-01 a       934     0    38     1     9
 -6.7329500128774131E-02 a       935     0    38     1    10
 -1.2956813357924324E-01 a       936     0    38     1    11
 -7.7362884150926126E-02 a       937     0    38     1    12
  7.2291634742105843E-02 a       938     0    38     1    13
 -1.0633429938853201E-01 a       939     0    38     1    14
  8.7179964246013403E-02 a       940     0    38     1    15
  6.7737762434563198E-02 a       941     0    38     1    16
 -1.0926234708886026E-02 a       942     0    38     1    17
  4.9658611460620401E-02 a       943     0    38     1    18
 -3.6389688002906040E-02 a       944     0    38     1    19
 -2.6403309243221595E-01 a       945     0    38     1    20
 -1.3476826241838538E-01 a       946     0    38     1    21
 -1.3578863010209707E-01 a       947     0    38     1    22
 -4.7786132999658518E-02 a       948     0    38     1    23
  4.2909990714888206E-02 a       949     0    38     1    24
  8.3185903726573543E-02 a       950     0    38     1    25
  7.9944362447828085E-02 a       951     0    39     1     1
  1.0165330697194315E-01 a       952     0    39     1     2
 -7.5020431188877218E-02 a       953     0    39     1     3
  3.1577111291814802E-01 a       954     0    39     1     4
  3.9193388505888355E-02 a       955     0    39     1     5
  9.8073592277953772E-02 a       956     0    39     1     6
  1.8125284366674699E-01 a       957     0    39     1     7
 -5.0711808877473473E-02 a       958     0    39     1     8
 -1.4760699624283696E-01 a       959     0    39     1     9
  1.3106462342202793E-01 a       960     0    39     1    10
 -9.5371568691302144E-02 a       961     0    39     1    11
  1.3499408801933966E-02 a       962     0    39     1    12
  1.6951583567006084E-01 a       963     0    39     1    13
 -5.2790487127122657E-02 a       964     0    39     1    14
  1.1295553593340164E-01 a       965     0    39     1    15
  1.6199313165512413E-01 a       966     0    39     1    16
  1.9397720259549608E-01 a       967     0    39     1    17
  9.7080490660198304E-02 a       968     0    39     1    18
 -2.8877694116746032E-02 a       969     0    39     1    19
  2.0851253742192960E-01 a       970     0    39     1    20
 -1.4013806448932356E-01 a       971     0    39     1    21
  2.6861677559217409E-02 a       972     0    39     1    22
  2.6131854213554129E-01 a       973     0    39     1    23
  6.8889946978172911E-02 a       974     0    39     1    24
  1.5463638341805266E-01 a       975     0    39     1    25
 -5.6950143391249604E-02 a       976     0    40     1     1
  3.3241607025627784E-02 a       977     0    40     1     2
 -2.0641237463402190E-01 a       978     0    40     1     3
  1.1753493833092023E-02 a       979     0    40     1     4
  1.8060308731100400E-02 a       980     0    40     1     5
 -1.4487050677083405E-01 a       981     0    40     1     6
 -1.4472923377972141E-01 a       982     0    40     1     7
 -5.9635625897022676E-02 a       983     0    40     1     8
 -1.2227546197014827E-01 a       984     0    40     1     9
  8.1484548145026366E-03 a       985     0    40     1    10
 -6.4060543681801016E-02 a       986     0    40     1    11
 -2.2613568358590592E-02 a       987     0    40     1    12
  8.6510188961739523E-02 a       988     0    40     1    13
 -3.0596740309163366E-02 a       989     0    40     1    14
  7.1849695624857726E-02 a       990     0    40     1    15
 -1.9948582710872398E-01 a       991     0    40     1    16
  8.6033732417441722E-02 a       992     0    40     1    17
  8.2187860310050309E-04 a       993     0    40     1    18
 -1.6214595451626043E-01 a       994     0    40     1    19
 -1.5419480097120067E-01 a       995     0    40     1    20
  3.5823479900911046E-02 a       996     0    40     1    21
 -2.5271214562241218E-01 a       997     0    40     1    22
 -8.1812089667546370E-02 a       998     0    40     1    23
  1.5239327222673654E-01 a       999     0    40     1    24
  5.6900383039247250E-02 a      1000     0    40     1    25
 -1.0090768588329056E-01 a      1001     0    41     1     1
 -1.7363352840349464E-01 a      1002     0    41     1     2
 -7.1121967128841279E-02 a      1003     0    41     1     3
 -9.5447868570630520E-03 a      1004     0    41     1     4
  4.5918175570497127E-01 a      1005     0    41     1     5
  1.4919613104923481E-02 a      1006     0    41     1     6
 -1.3343414804931744E-02 a      1007     0    41     1     7
 -1.5374096393658768E-01 a      1008     0    41     1     8
 -9.1261470349297158E-02 a      1009     0    41     1     9
 -1.7519548181647007E-01 a      1010     0    41     1    10
  3.7850210249336630E-02 a      1011     0    41     1    11
 -6.8580458806119085E-02 a      1012     0    41     1    12
 -2.4174115723092316E-03 a      1013     0    41     1    13
 -9.7311349997496480E-02 a      1014     0    41     1    14
 -1.7152541513363795E-01 a      1015     0    41     1    15
 -1.6706181457484340E-01 a      1016     0    41     1    16
 -7.4520996217487978E-02 a      1017     0    41     1    17
 -4.7232150674569838E-02 a      1018     0    41     1    18
 -3.7032123599104805E-01 a      1019     0    41     1    19
 -1.8170217507644409E-01 a      1020     0    41     1    20
 -8.8199506306552142E-02 a      1021     0    41     1    21
  3.2278424013807017E-01 a      1022     0    41     1    22
 -3.0166723346583829E-01 a      1023     0    41     1    23
 -2.0297418868237210E-01 a      1024     0    41     1    24
  2.0888764012010114E-01 a      1025     0    41     1    25
  9.9273632347260957E-02 a      1026     0    42     1     1
 -6.2930411267889008E-02 a      1027     0    42     1     2
 -1.5349934178408847E-01 a      1028     0    42     1     3
  4.9419839980028621E-02 a      1029     0    42     1     4
  4.8600383299197403E-01 a      1030     0    42     1     5
 -1.7421628684374571E-01 a      1031     0    42     1     6
 -1.9137923915145443E-02 a      1032     0    42     1     7
  1.2811373712770471E-01 a      1033     0    42     1     8
 -1.4606459121667191E-02 a      1034     0    42     1     9
 -1.2159628502087237E-01 a      1035     0    42     1    10
  3.3481129876121557E-01 a      1036     0    42     1    11
  2.4867116645540790E-01 a      1037     0    42     1    12
 -3.5847145327368754E-02 a      1038     0    42     1    13
  1.2583571922896847E-01 a      1039     0    42     1    14
  4.2685456354778661E-02 a      1040     0    42     1    15
 -2.5584664681961228E-01 a      1041     0    42     1    16
  4.2816411846836974E-02 a      1042     0    42     1    17
  2.7862083154178308E-01 a      1043     0    42     1    18
  2.5013388019009930E-01 a      1044     0    42     1    19
 -2.5913015864198485E-01 a      1045     0    42     1    20
  2.1907905281004256E-01 a      1046     0    42     1    21
 -3.1172204857482022E-01 a      1047     0    42     1    22
 -8.5790579737001924E-02 a      1048     0    42     1    23
  3.0103826731524475E-01 a      1049     0    42     1    24
 -1.6796001939605693E-02 a      1050     0    42     1    25
  7.1571357621894455E-03 a      1051     0    43     1     1
 -1.1775435133472156E-01 a      1052     0    43     1     2
  3.5345096261635217E-01 a      1053     0    43     1     3
 -1.7342268593549509E-01 a      1054     0    43     1     4
  1.4835393368848448E-03 a      1055     0    43     1     5
  3.5996880577432994E-01 a      1056     0    43     1     6
 -8.3480396990136818E-02 a      1057     0    43     1     7
  2.4350654910159822E-01 a      1058     0    43     1     8
  2.6162473916958956E-01 a      1059     0    43     1     9
 -8.7285958298867802E-02 a      1060     0    43     1    10
 -2.9024253437306920E-02 a      1061     0    43     1    11
 -7.6188398529250176E-02 a      1062     0    43     1    12
 -3.3917508961239413E-02 a      1063     0    43     1    13
 -1.8410425979392472E-01 a      1064     0    43     1    14
  3.6009585938983885E-01 a      1065     0    43     1    15
 -2.1899259279772781E-01 a      1066     0    43     1    16
  1.4522296029725937E-01 a      1067     0    43     1    17
 -8.2791405880123556E-02 a      1068     0    43     1    18
  1.5249426065453939E-02 a      1069     0    43     1    19
 -1.1978236846077898E-01 a      1070     0    43     1    20
  5.6177048716756751E-02 a      1071     0    43     1    21
  1.2253898092269384E-01 a      1072     0    43     1    22
 -1.5191935018084002E-01 a      1073     0    43     1    23
 -2.3180653638751141E-02 a      1074     0    43     1    24
 -9.4553003376863357E-02 a      1075     0    43     1    25
 -2.0534481038569953E-02 a      1076     0    44     1     1
 -6.3621475291063712E-02 a      1077     0    44     1     2
 -1.3223344375633667E-01 a      1078     0    44     1     3
  2.2063866080683428E-01 a      1079     0    44     1     4
 -2.6644507474535417E-01 a      1080     0    44     1     5
 -2.2381489686791645E-02 a      1081     0    44     1     6
 -6.3276945157079309E-02 a      1082     0    44     1     7
  1.7826126239531344E-02 a      1083     0    44     1     8
 -6.7016175544608592E-02 a      1084     0    44     1     9
 -1.9576713483884645E-01 a      1085     0    44     1    10
  1.1748932690721363E-01 a      1086     0    44     1    11
 -1.8673633801804820E-01 a      1087     0    44     1    12
 -2.3637923771515968E-03 a      1088     0    44     1    13
 -2.6311992302301390E-01 a      1089     0    44     1    14
  9.7404331779213357E-02 a      1090     0    44     1    15
  7.5008830605029594E-02 a      1091     0    44     1    16
 -4.9194217146022033E-02 a      1092     0    44     1    17
 -3.5220527106651603E-03 a      1093     0    44     1    18
  1.2190212332300933E-01 a      1094     0    44     1    19
  1.3840952784255942E-01 a      1095     0    44     1    20
 -9.4538438022987628E-02 a      1096     0    44     1    21
 -6.2635848030066762E-02 a      1097     0    44     1    22
  2.1589108121851158E-01 a      1098     0    44     1    23
  1.1581418052749665E-01 a      1099     0    44     1    24
  6.8465627099030674E-02 a      1100     0    44     1    25
  1.8603818306979693E-02 a      1101     0    45     1     1
  8.4406329199335647E-02 a      1102     0    45     1     2
  1.1373372928240214E-02 a      1103     0    45     1     3
 -2.2374323713125202E-01 a      1104     0    45     1     4
 -1.8335350331890196E-01 a      1105     0    45     1     5
  1.9911165084354623E-01 a      1106     0    45     1     6
  1.6930111312336277E-01 a      1107     0    45     1     7
 -2.3135241788159247E-02 a      1108     0    45     1     8
  1.5536229314347936E-04 a      1109     0    45     1     9
  1.3522349408423909E-01 a      1110     0    45     1    10
  2.2317853666986645E-01 a      1111     0    45     1    11
  9.9460470850341362E-02 a      1112     0    45     1    12
  6.9675223561804972E-02 a      1113     0    45     1    13
  2.1845841924164228E-01 a      1114     0    45     1    14
 -1.0269537617641544E-01 a      1115     0    45     1    15
 -1.0363228199182981E-01 a      1116     0    45     1    16
  1.4383156744416062E-01 a      1117     0    45     1    17
 -1.1435911542078782E-01 a      1118     0    45     1    18
 -4.8985512191773807E-02 a      1119     0    45     1    19
  1.6068040433348429E-01 a      1120     0    45     1    20
  1.6580684254751762E-01 a      1121     0    45     1    21
  4.3308976669893348E-02 a      1122     0    45     1    22
  2.5488765444096162E-01 a      1123     0    45     1    23
  1.2680524788786150E-02 a      1124     0    45     1    24
 -2.6009728402857563E-01 a      1125     0    45     1    25
 -9.3639025001736962E-03 a      1126     0    46     1     1
 -2.0566244866092018E-02 a      1127     0    46     1     2
 -1.2273954426395454E-01 a      1128     0    46     1     3
  2.0539067707230316E-01 a      1129     0    46     1     4
  8.9674220366708926E-02 a      1130     0    46     1     5
 -2.2942108323127333E-01 a      1131     0    46     1     6
  4.6850495236613172E-02 a      1132     0    46     1     7
 -1.7202848715418656E-01 a      1133     0    46     1     8
 -3.1805764700105166E-01 a      1134     0    46     1     9
  2.2025010649957941E-01 a      1135     0    46     1    10
  6.6493339510696914E-02 a      1136     0    46     1    11
  1.6413707040406093E-03 a      1137     0    46     1    12
  2.0445544458115358E-02 a      1138     0    46     1    13
  3.6014521832245426E-02 a      1139     0    46     1    14
 -1.4388526979485769E-01 a      1140     0    46     1    15
  1.4103763283778264E-01 a      1141     0    46     1    16
  2.4259020401588280E-01 a      1142     0    46     1    17
 -2.8542027851228627E-03 a      1143     0    46     1    18
  4.4491406937649962E-02 a      1144     0    46     1    19
 -5.8467488253711494E-02 a      1145     0    46     1    20
  9.2301847884829286E-02 a      1146     0    46     1    21
 -4.6149039592129404E-02 a      1147     0    46     1    22
 -1.1631053803191849E-01 a      1148     0    46     1    23
  2.8364477578102398E-01 a      1149     0    46     1    24
  8.0268812440687329E-02 a      1150     0    46     1    25
 -4.0826645229906977E-02 a      1151     0    47     1     1
  2.3850375276298543E-02 a      1152     0    47     1     2
  3.9929738696978932E-02 a      1153     0    47     1     3
 -2.2612666561912895E-02 a      1154     0    47     1     4
  1.3828289840512259E-01 a      1155     0    47     1     5
  1.8780216638676187E-01 a      1156     0    47     1     6
  1.9121408104823989E-01 a      1157     0    47     1     7
 -4.1754511146187764E-02 a      1158     0    47     1     8
  1.7515626465746098E-01 a      1159     0    47     1     9
  9.3394486364607371E-02 a      1160     0    47     1    10
  1.7989232703734235E-02 a      1161     0    47     1    11
 -8.1925119399716945E-02 a      1162     0    47     1    12
 -3.3215773710971473E-02 a      1163     0    47     1    13
 -9.6108596346330330E-02 a      1164     0    47     1    14
 -2.0830419138983655E-01 a      1165     0    47     1    15
  1.7951076146166822E-01 a      1166     0    47     1    16
  1.6598378663010183E-01 a      1167     0    47     1    17
  7.2119171054192660E-02 a      1168     0    47     1    18
  2.6939524015135613E-01 a      1169     0    47     1    19
  9.8583407080686612E-03 a      1170     0    47     1    20
  6.1886403859089598E-03 a      1171     0    47     1    21
  1.5589370703699032E-01 a      1172     0    47     1    22
  2.3096892244227929E-01 a      1173     0    47     1    23
 -1.5836960637775488E-01 a      1174     0    47     1    24
  1.3762509043374788E-01 a      1175     0    47     1    25
  1.5643599230264385E-01 a      1176     0    48     1     1
  1.3973512795794790E-01 a      1177     0    48     1     2
 -2.3891863266402141E-01 a      1178     0    48     1     3
  1.2829248171930888E-02 a      1179     0    48     1     4
  3.3892306981491893E-01 a      1180     0    48     1     5
 -1.2379540356347002E-01 a      1181     0    48     1     6
  1.3127970272353159E-01 a      1182     0    48     1     7
  2.2887512709428015E-01 a      1183     0    48     1     8
  1.5897068464450517E-01 a      1184     0    48     1     9
 -2.3017670236916510E-01 a      1185     0    48     1    10
  1.5857220672040134E-01 a      1186     0    48     1    11
 -3.2276989784886051E-01 a      1187     0    48     1    12
 -1.1655579557658240E-01 a      1188     0    48     1    13
 -3.0417972809438326E-01 a      1189     0    48     1    14
  8.4719216482530446E-02 a      1190     0    48     1    15
 -9.3747761372050903E-02 a      1191     0    48     1    16
 -1.1945781130529066E-01 a      1192     0    48     1    17
  2.9313816434118650E-01 a      1193     0    48     1    18
 -6.2706189628359540E-02 a      1194     0    48     1    19
 -8.8253008477688535E-02 a      1195     0    48     1    20
 -1.3629184640872963E-01 a      1196     0    48     1    21
  2.2877433046159670E-01 a      1197     0    48     1    22
  4.9507519909860687E-02 a      1198     0    48     1    23
 -1.6476402539079738E-01 a      1199     0    48     1    24
  1.2204193429361836E-01 a      1200     0    48     1    25
 -1.6892438341838562E-01 a      1201     0    49     1     1
 -1.7218569261575270E-01 a      1202     0    49     1     2
 -9.2038291936012248E-02 a      1203     0    49     1     3
  2.3886963228618937E-02 a      1204     0    49     1     4
 -6.3067842275868133E-02 a      1205     0    49     1     5
  1.9309893459778177E-01 a      1206     0    49     1     6
  7.6153030470016439E-02 a      1207     0    49     1     7
  6.7731038617498129E-02 a      1208     0    49     1     8
  1.6034950136990364E-01 a      1209     0    49     1     9
 -2.0369276641275991E-01 a      1210     0    49     1    10
 -7.0619227478411262E-02 a      1211     0    49     1    11
  4.7284548041343924E-02 a      1212     0    49     1    12
  6.7724295392722039E-02 a      1213     0    49     1    13
  8.6977144817255991E-02 a      1214     0    49     1    14
 -9.2244752381383313E-02 a      1215     0    49     1    15
  3.1213383099009046E-01 a      1216     0    49     1    16
  1.9517355525517671E-01 a      1217     0    49     1    17
 -1.0810134235414291E-01 a      1218     0    49     1    18
  1.5252221765386167E-01 a      1219     0    49     1    19
 -8.4578998177114922E-02 a      1220     0    49     1    20
 -2.0282242172822681E-01 a      1221     0    49     1    21
  1.8526543215348526E-01 a      1222     0    49     1    22
  6.7236382666593320E-02 a      1223     0    49     1    23
  3.0128803771114898E-01 a      1224     0    49     1    24
  2.2165820487719279E-01 a      1225     0    49     1    25
  4.1610843375769688E-02 a      1226     0    50     1     1
 -2.9599656907509150E-03 a      1227     0    50     1     2
  1.3073441914236672E-01 a      1228     0    50     1     3
  1.2182899983408418E-01 a      1229     0    50     1     4
  1.8040901843837401E-01 a      1230     0    50     1     5
  1.4580430964446967E-01 a      1231     0    50     1     6
  3.8726944400814471E-02 a      1232     0    50     1     7
 -1.8029928872487011E-01 a      1233     0    50     1     8
  3.6446941868062972E-02 a      1234     0    50     1     9
  1.3568726253822133E-01 a      1235     0    50     1    10
  1.0575918428557617E-01 a      1236     0    50     1    11
 -2.1585873188982524E-01 a      1237     0    50     1    12
 -2.2445060403137718E-01 a      1238     0    50     1    13
  9.7090803027081493E-02 a      1239     0    50     1    14
 -1.1637287297730967E-01 a      1240     0    50     1    15
 -3.7659532381946642E-01 a      1241     0    50     1    16
  2.3621375389817462E-01 a      1242     0    50     1    17
  7.3923492988295883E-02 a      1243     0    50     1    18
 -1.7068019085844396E-01 a      1244     0    50     1    19
  1.6587120759514412E-01 a      1245     0    50     1    20
 -1.7733503625806391E-02 a      1246     0    50     1    21
 -8.2764533263044050E-03 a      1247     0    50     1    22
 -1.0705588542331196E-01 a      1248     0    50     1    23
  1.1504314844613710E-01 a      1249     0    50     1    24
  6.4566724982281359E-02 a      1250     0    50     1    25
  2.8631353361700240E-01 a      1251     0    51     1     1
  2.2804089899607730E-01 a      1252     0    51     1     2
 -1.1476286502635670E-01 a      1253     0    51     1     3
 -2.5911494425531159E-02 a      1254     0    51     1     4
  3.3782347429321430E-02 a      1255     0    51     1     5
 -1.4869997370399924E-02 a      1256     0    51     1     6
 -7.3148731287838178E-02 a      1257     0    51     1     7
  1.7145057090844046E-01 a      1258     0    51     1     8
  1.7255612877155344E-01 a      1259     0    51     1     9
  1.3096151517865881E-01 a      1260     0    51     1    10
 -1.1920397155414345E-01 a      1261     0    51     1    11
 -5.9827527399472898E-02 a      1262     0    51     1    12
  8.5648301397476631E-02 a      1263     0    51     1    13
  1.7507190458581559E-01 a      1264     0    51     1    14
 -3.9687889930826753E-02 a      1265     0    51     1    15
 -2.5253360896169991E-01 a      1266     0    51     1    16
  1.0676402247228545E-01 a      1267     0    51     1    17
 -1.1496584345945600E-01 a      1268     0    51     1    18
 -1.2753409415478978E-01 a      1269     0    51     1    19
 -2.3701431492850297E-01 a      1270     0    51     1    20
  1.1971153767974489E-01 a      1271     0    51     1    21
  1.3228957597836113E-02 a      1272     0    51     1    22
 -4.8494260604215966E-02 a      1273     0    51     1    23
  1.6123601914863706E-01 a      1274     0    51     1    24
  1.9707896889797860E-01 a      1275     0    51     1    25
 -5.1136342195160600E-01 a      1276     0    52     1     1
 -6.8143119461168231E-02 a      1277     0    52     1     2
  2.3821885007907981E-03 a      1278     0    52     1     3
 -4.3321583323167384E-01 a      1279     0    52     1     4
  8.8551968813329510E-02 a      1280     0    52     1     5
  4.9926513983030310E-03 a      1281     0    52     1     6
  1.2686118282051054E-01 a      1282     0    52     1     7
 -4.1999622626060301E-02 a      1283     0    52     1     8
  1.0380063739623724E-01 a      1284     0    52     1     9
  2.0906470938213639E-01 a      1285     0    52     1    10
  1.1423863078166513E-01 a      1286     0    52     1    11
 -3.7784451421880094E-01 a      1287     0    52     1    12
 -9.1410356112672619E-02 a      1288     0    52     1    13
  3.6439633204122746E-02 a      1289     0    52     1    14
 -8.1231538396065710E-03 a      1290     0    52     1    15
 -5.7685933014998997E-02 a      1291     0    52     1    16
  2.5979972115034561E-01 a      1292     0    52     1    17
  1.2027687225140238E-01 a      1293     0    52     1    18
 -1.1448659707171199E-01 a      1294     0    52     1    19
  5.3809791763549511E-02 a      1295     0    52     1    20
 -1.6522997931951999E-01 a      1296     0    52     1    21
  1.1471046207018080E-02 a      1297     0    52     1    22
  1.9887189902792266E-01 a      1298     0    52     1    23
 -1.0037174707555749E-01 a      1299     0    52     1    24
  3.1576589686182216E-01 a      1300     0    52     1    25
  2.5352963348109153E-01 a      1301     0    53     1     1
 -5.7733572081403881E-02 a      1302     0    53     1     2
 -2.7217724398344079E-01 a      1303     0    53     1     3
  5.2307019792241279E-03 a      1304     0    53     1     4
 -8.8654967692724015E-03 a      1305     0    53     1     5
 -1.3088821946081661E-01 a      1306     0    53     1     6
  4.1944458537173102E-02 a      1307     0    53     1     7
 -3.1714500867355042E-02 a      1308     0    53     1     8
 -8.5438437112196300E-02 a      1309     0    53     1     9
  9.5047742134586236E-02 a      1310     0    53     1    10
  1.2771708876240542E-01 a      1311     0    53     1    11
  1.0700200646109494E-01 a      1312     0    53     1    12
 -1.0603407657074192E-01 a      1313     0    53     1    13
  8.8825155528595656E-02 a      1314     0    53     1    14
  9.7790480046130071E-02 a      1315     0    53     1    15
  2.1200205018884924E-01 a      1316     0    53     1    16
 -1.5946425896552871E-01 a      1317     0    53     1    17
  1.6446693920438318E-01 a      1318     0    53     1    18
 -7.3246204816768690E-02 a      1319     0    53     1    19
  1.5910427027019550E-01 a      1320     0    53     1    20
 -1.9747896643489718E-01 a      1321     0    53     1    21
 -1.5718199559355003E-01 a      1322     0    53     1    22
  2.8986984965796864E-01 a      1323     0    53     1    23
 -5.6737537817228789E-02 a      1324     0    53     1    24
 -1.0540425802248668E-02 a      1325     0    53     1    25
  3.4652918819583212E-02 a      1326     0    54     1     1
  1.6151795283506032E-01 a      1327     0    54     1     2
 -9.0193551756430942E-02 a      1328     0    54     1     3
 -1.6518924483516653E-01 a      1329     0    54     1     4
  2.1661921593572983E-01 a      1330     0    54     1     5
  8.9900268111015216E-02 a      1331     0    54     1     6
 -1.5936921794756620E-01 a      1332     0    54     1     7
 -9.0838637404105069E-02 a      1333     0    54     1     8
  1.3597212769539702E-01 a      1334     0    54     1     9
  1.2735488557777561E-01 a      1335     0    54     1    10
 -1.0212900961360347E-01 a      1336     0    54     1    11
  1.7135327028755637E-01 a      1337     0    54     1    12
  1.9677439535049907E-01 a      1338     0    54     1    13
  1.8190249214258569E-01 a      1339     0    54     1    14
 -8.3955602643676283E-02 a      1340     0    54     1    15
  2.1625865255026014E-01 a      1341     0    54     1    16
  1.0707676672471150E-01 a      1342     0    54     1    17
  1.7000724767420394E-01 a      1343     0    54     1    18
 -1.1448590447736567E-01 a      1344     0    54     1    19
 -8.9375039014835927E-02 a      1345     0    54     1    20
  8.0131043352909048E-02 a      1346     0    54     1    21
  1.9096561184657812E-01 a      1347     0    54     1    22
  2.3257297427092389E-02 a      1348     0    54     1    23
 -4.9604437410325240E-02 a      1349     0    54     1    24
  9.8221571164595817E-02 a      1350     0    54     1    25
  2.0051622053492028E-02 a      1351     0    55     1     1
 -1.5547369609159578E-01 a      1352     0    55     1     2
  2.0747938292949056E-01 a      1353     0    55     1     3
 -1.5486395516878682E-01 a      1354     0    55     1     4
  6.1494369587209143E-02 a      1355     0    55     1     5
 -2.2999721848077445E-01 a      1356     0    55     1     6
  5.1929918706642202E-02 a      1357     0    55     1     7
 -2.0075748938270996E-01 a      1358     0    55     1     8
  6.0317915150757122E-02 a      1359     0    55     1     9
 -8.7869466945420624E-02 a      1360     0    55     1    10
  1.9823397843573826E-01 a      1361     0    55     1    11
 -1.1273171038930006E-01 a      1362     0    55     1    12
  1.1001539228570914E-01 a      1363     0    55     1    13
 -1.1289950629747973E-01 a      1364     0    55     1    14
 -1.5049589985968354E-01 a      1365     0    55     1    15
  2.3659711103388572E-02 a      1366     0    55     1    16
 -7.0409723353357309E-02 a      1367     0    55     1    17
 -4.4585075637502192E-02 a      1368     0    55     1    18
  3.1211504699038752E-02 a      1369     0    55     1    19
 -2.7515701986504287E-01 a      1370     0    55     1    20
  1.6621964520038207E-01 a      1371     0    55     1    21
 -1.6470461412598333E-01 a      1372     0    55     1    22
 -2.2508536220447758E-01 a      1373     0    55     1    23
  2.0159943284123341E-01 a      1374     0    55     1    24
  1.4516271526298727E-01 a      1375     0    55     1    25
 -1.3816435578919731E-01 a      1376     0    56     1     1
  7.8533887294824190E-02 a      1377     0    56     1     2
 -5.6276786448701981E-02 a      1378     0    56     1     3
 -2.6411765661103637E-01 a      1379     0    56     1     4
  2.2500572870990596E-01 a      1380     0    56     1     5
  5.8273558481223398E-02 a      1381     0    56     1     6
  8.7160962769330316E-02 a      1382     0    56     1     7
  8.0312935126126042E-02 a      1383     0    56     1     8
  1.1254650054334353E-01 a      1384     0    56     1     9
 -1.1364030862457565E-01 a      1385     0    56     1    10
  5.9439538517338054E-02 a      1386     0    56     1    11
 -1.4840632084299132E-01 a      1387     0    56     1    12
 -1.3834136390048873E-01 a      1388     0    56     1    13
 -7.0129931010997348E-02 a      1389     0    56     1    14
 -4.4286387592394616E-02 a      1390     0    56     1    15
  2.4685718559196254E-01 a      1391     0    56     1    16
 -2.6873093651433262E-02 a      1392     0    56     1    17
 -1.4604156092568826E-01 a      1393     0    56     1    18
  3.2395975569034133E-02 a      1394     0    56     1    19
 -1.6918415937227457E-01 a      1395     0    56     1    20
  1.8569322333315572E-02 a      1396     0    56     1    21
 -5.2409586447692211E-02 a      1397     0    56     1    22
  8.7380680022051543E-02 a      1398     0    56     1    23
 -1.7499007846192163E-01 a      1399     0    56     1    24
  1.8347871647673339E-01 a      1400     0    56     1    25
 -2.0618787005253891E-02 a      1401     0    57     1     1
 -2.1375177687262892E-01 a      1402     0    57     1     2
  2.9474819077635911E-01 a      1403     0    57     1     3
  1.8325108459490616E-01 a      1404     0    57     1     4
  3.3844849890495819E-02 a      1405     0    57     1     5
 -1.2774973368798212E-01 a      1406     0    57     1     6
 -1.1705549711072499E-01 a      1407     0    57     1     7
 -6.2654883952166271E-02 a      1408     0    57     1     8
 -1.0912859629258986E-01 a      1409     0    57     1     9
 -9.7603461245118192E-02 a      1410     0    57     1    10
 -8.2827633402652312E-02 a      1411     0    57     1    11
 -3.8262315005167358E-02 a      1412     0    57     1    12
 -1.1607020295802269E-01 a      1413     0    57     1    13
  1.3448256163327041E-01 a      1414     0    57     1    14
 -6.8977831419046787E-02 a      1415     0    57     1    15
 -2.1789007264079247E-02 a      1416     0    57     1    16
 -2.8986713633799910E-01 a      1417     0    57     1    17
  2.9755596726591907E-02 a      1418     0    57     1    18
 -1.4941535937839615E-01 a      1419     0    57     1    19
  1.0011148408862098E-02 a      1420     0    57     1    20
 -1.1849613275861320E-01 a      1421     0    57     1    21
  9.5253178046210835E-02 a      1422     0    57     1    22
 -1.6296240023310482E-01 a      1423     0    57     1    23
  6.1809080398878287E-02 a      1424     0    57     1    24
 -1.8171601034407689E-01 a      1425     0    57     1    25
 -9.9715702083540692E-02 a      1426     0    58     1     1
  4.5942981569806321E-02 a      1427     0    58     1     2
  1.6444875206094975E-01 a      1428     0    58     1     3
  2.2558235508418045E-01 a      1429     0    58     1     4
 -1.5318266538353104E-01 a      1430     0    58     1     5
  1.0719947952881785E-01 a      1431     0    58     1     6
 -2.7078955467123200E-02 a      1432     0    58     1     7
 -1.7432127685388644E-02 a      1433     0    58     1     8
  1.2123969732557541E-01 a      1434     0    58     1     9
 -6.6836180157684208E-02 a      1435     0    58     1    10
 -1.4773933379126683E-01 a      1436     0    58     1    11
 -4.9983960909892808E-02 a      1437     0    58     1    12
 -2.4208071243534141E-01 a      1438     0    58     1    13
  2.0725804353961685E-01 a      1439     0    58     1    14
 -6.7160461863001786E-02 a      1440     0    58     1    15
  3.1741898016309548E-02 a      1441     0    58     1    16
 -1.9806522601862914E-01 a      1442     0    58     1    17
 -9.5291499777663269E-02 a      1443     0    58     1    18
  1.0437210134236801E-02 a      1444     0    58     1    19
 -1.5105031123823567E-01 a      1445     0    58     1    20
 -1.0282080682354465E-01 a      1446     0    58     1    21
  2.3980133875534812E-01 a      1447     0    58     1    22
 -3.3302713879904489E-03 a      1448     0    58     1    23
 -1.6351568128822333E-01 a      1449     0    58     1    24
  4.3576644294438922E-02 a      1450     0    58     1    25
 -2.0650885981707470E-01 a      1451     0    59     1     1
 -1.1951578304867458E-01 a      1452     0    59     1     2
 -1.9787834123447270E-01 a      1453     0    59     1     3
  1.1134929731972426E-01 a      1454     0    59     1     4
 -3.0536101858436328E-02 a      1455     0    59     1     5
  2.1217483363542763E-01 a      1456     0    59     1     6
  1.3940198635288481E-01 a      1457     0    59     1     7
 -4.3156047555678589E-03 a      1458     0    59     1     8
 -1.1294578995071201E-01 a      1459     0    59     1     9
 -4.5636198891806312E-02 a      1460     0    59     1    10
  5.8095557136456887E-03 a      1461     0    59     1    11
 -2.6700211016778824E-01 a      1462     0    59     1    12
  1.6584714690973146E-01 a      1463     0    59     1    13
 -7.0610843389567635E-02 a      1464     0    59     1    14
  2.1720349535464997E-01 a      1465     0    59     1    15
  3.5658490615465394E-01 a      1466     0    59     1    16
  3.0000492078771918E-01 a      1467     0    59     1    17
 -4.3234800679499610E-03 a      1468     0    59     1    18
 -1.7753987493871345E-01 a      1469     0    59     1    19
  2.7990101680351565E-01 a      1470     0    59     1    20
 -3.0803623743645783E-02 a      1471     0    59     1    21
 -2.9035055596456188E-01 a      1472     0    59     1    22
 -1.2129515071260025E-01 a      1473     0    59     1    23
 -7.1847866909552888E-02 a      1474     0    59     1    24
 -6.4860479098561047E-02 a      1475     0    59     1    25
 -1.9671256348913389E-02 a      1476     0    60     1     1
 -1.4799924414988669E-01 a      1477     0    60     1     2
 -3.3888916634273847E-02 a      1478     0    60     1     3
 -1.1280420708262910E-01 a      1479     0    60     1     4
  1.4653154258436360E-01 a      1480     0    60     1     5
 -5.2265127385206285E-02 a      1481     0    60     1     6
 -1.3737137784539377E-01 a      1482     0    60     1     7
  1.4735489453811296E-01 a      1483     0    60     1     8
  1.0220700727338937E-01 a      1484     0    60     1     9
 -9.5446794091365111E-02 a      1485     0    60     1    10
  1.7617083967243827E-01 a      1486     0    60     1    11
  2.4851826198279003E-01 a      1487     0    60     1    12
  8.6304549825987245E-02 a      1488     0    60     1    13
  8.4608428197784011E-02 a      1489     0    60     1    14
 -6.1806830983384124E-02 a      1490     0    60     1    15
 -1.1063691917992598E-01 a      1491     0    60     1    16
 -1.9008269462844465E-01 a      1492     0    60     1    17
 -4.4065934878874898E-02 a      1493     0    60     1    18
  1.6251077291228422E-01 a      1494     0    60     1    19
 -1.9854639569460719E-01 a      1495     0    60     1    20
 -3.0832896619801889E-02 a      1496     0    60     1    21
 -7.2980056112074115E-02 a      1497     0    60     1    22
 -1.4034640822201131E-02 a      1498     0    60     1    23
 -1.8257454437811907E-01 a      1499     0    60     1    24
 -1.0320330986306052E-02 a      1500     0    60     1    25
 -2.6127864086149550E-02 a      1501     0    61     1     1
 -8.4085537167115115E-02 a      1502     0    61     1     2
 -1.8655495669520894E-01 a      1503     0    61     1     3
 -1.0122776182956759E-01 a      1504     0    61     1     4
 -4.1729754401188666E-02 a      1505     0    61     1     5
  1.6351705472703856E-02 a      1506     0    61     1     6
  6.5855207912681610E-02 a      1507     0    61     1     7
  7.9673222065990021E-02 a      1508     0    61     1     8
  1.4460219225945727E-02 a      1509     0    61     1     9
 -1.6298527017535214E-01 a      1510     0    61     1    10
 -4.1326252878783769E-02 a      1511     0    61     1    11
  2.0607192901708138E-01 a      1512     0    61     1    12
  1.0278958201699626E-01 a      1513     0    61     1    13
  3.2710580118316950E-02 a      1514     0    61     1    14
  1.0715154842199268E-01 a      1515     0    61     1    15
 -4.7903721229940555E-01 a      1516     0    61     1    16
 -9.9867637053084310E-02 a      1517     0    61     1    17
 -3.4688887483255632E-02 a      1518     0    61     1    18
  2.8197615318723931E-02 a      1519     0    61     1    19
  1.6281875308445148E-01 a      1520     0    61     1    20
  1.3708216129240972E-01 a      1521     0    61     1    21
  3.8514251961830737E-01 a      1522     0    61     1    22
  1.5980917525530858E-01 a      1523     0    61     1    23
  1.6187701342734134E-01 a      1524     0    61     1    24
  8.3033250619906403E-04 a      1525     0    61     1    25
  1.1037107163521734E-01 a      1526     0    62     1     1
  1.6167339883769374E-01 a      1527     0    62     1     2
  5.9704539391197214E-02 a      1528     0    62     1     3
  2.1532233001509385E-01 a      1529     0    62     1     4
  1.3747910835650173E-01 a      1530     0    62     1     5
  2.6055824609166701E-02 a      1531     0    62     1     6
  1.4405401243269272E-01 a      1532     0    62     1     7
 -1.0842626924651383E-01 a      1533     0    62     1     8
 -2.1355073373701675E-01 a      1534     0    62     1     9
  1.5942063906708567E-01 a      1535     0    62     1    10
  2.3072465731162092E-01 a      1536     0    62     1    11
 -6.2272397984944404E-02 a      1537     0    62     1    12
 -1.9170079267080614E-01 a      1538     0    62     1    13
  1.1948419233836606E-01 a      1539     0    62     1    14
  1.1014166124703743E-01 a      1540     0    62     1    15
  6.2136404913837394E-02 a      1541     0    62     1    16
 -2.4665036762208309E-01 a      1542     0    62     1    17
  5.5631520487361516E-02 a      1543     0    62     1    18
 -7.5500072588059047E-02 a      1544     0    62     1    19
 -6.6856569166982805E-03 a      1545     0    62     1    20
 -9.6311212972591681E-02 a      1546     0    62     1    21
 -3.6917854127730088E-01 a      1547     0    62     1    22
 -7.1155700827297330E-02 a      1548     0    62     1    23
  5.4273795493212243E-03 a      1549     0    62     1    24
  8.2365635911840165E-02 a      1550     0    62     1    25
  2.4484037459980214E-02 a      1551     0    63     1     1
 -1.5486792570186581E-01 a      1552     0    63     1     2
 -6.6839811462813717E-02 a      1553     0    63     1     3
  1.8851137750794278E-02 a      1554     0    63     1     4
 -2.0460620935875579E-01 a      1555     0    63     1     5
 -8.8939868135739800E-02 a      1556     0    63     1     6
 -1.2760784096584496E-01 a      1557     0    63     1     7
 -8.4304541941472994E-02 a      1558     0    63     1     8
 -7.8796603148990160E-02 a      1559     0    63     1     9
  8.7874534304474422E-02 a      1560     0    63     1    10
 -9.5499455210009201E-02 a      1561     0    63     1    11
  1.0932943133199556E-02 a      1562     0    63     1    12
  3.3539732093083710E-02 a      1563     0    63     1    13
 -9.4663629968932822E-03 a      1564     0    63     1    14
  6.3153287454113818E-02 a      1565     0    63     1    15
 -3.7706690093057091E-02 a      1566     0    63     1    16
 -1.5752807242309264E-01 a      1567     0    63     1    17
  2.4803649851341241E-02 a      1568     0    63     1    18
  1.0795653969039592E-02 a      1569     0    63     1    19
 -1.2656491092400607E-02 a      1570     0    63     1    20
  5.9519491533125496E-02 a      1571     0    63     1    21
  1.6991502741322967E-01 a      1572     0    63     1    22
 -1.7482180759329613E-01 a      1573     0    63     1    23
 -1.5216828112268482E-01 a      1574     0    63     1    24
 -1.4640837494874765E-02 a      1575     0    63     1    25
 -7.3751944191072560E-02 a      1576     0    64     1     1
  1.9821211453754900E-01 a      1577     0    64     1     2
  2.4179768787065931E-01 a      1578     0    64     1     3
 -3.0598937689144425E-02 a      1579     0    64     1     4
  7.5558273031236300E-02 a      1580     0    64     1     5
 -1.1088072597330132E-03 a      1581     0    64     1     6
  1.0115541849926535E-01 a      1582     0    64     1     7
 -3.2140036120934293E-03 a      1583     0    64     1     8
  7.4163209527312077E-02 a      1584     0    64     1     9
 -8.7396222266581097E-04 a      1585     0    64     1    10
 -5.4701855186650966E-02 a      1586     0    64     1    11
 -8.6223331042047505E-02 a      1587     0    64     1    12
 -8.8622535204650854E-02 a      1588     0    64     1    13
  1.1200194481743532E-01 a      1589     0    64     1    14
 -3.1584066192427990E-01 a      1590     0    64     1    15
  1.5038433495114197E-02 a      1591     0    64     1    16
 -1.3587618640260204E-01 a      1592     0    64     1    17
  1.4979883866731386E-02 a      1593     0    64     1    18
  8.0691386230672013E-02 a      1594     0    64     1    19
 -1.6088629937628976E-01 a      1595     0    64     1    20
  1.1972813057420127E-01 a      1596     0    64     1    21
  2.2574458370588285E-01 a      1597     0    64     1    22
  6.8031237900970362E-02 a      1598     0    64     1    23
  5.9108590269003981E-02 a      1599     0    64     1    24
 -1.0272552425678262E-01 a      1600     0    64     1    25
 -7.8714710352482203E-02 a      1601     0    65     1     1
  1.6788398463193055E-01 a      1602     0    65     1     2
 -7.3427871163064609E-03 a      1603     0    65     1     3
 -1.5770932324812240E-01 a      1604     0    65     1     4
 -4.8838311014916092E-02 a      1605     0    65     1     5
 -2.5568081919276071E-02 a      1606     0    65     1     6
  2.2434869632021792E-02 a      1607     0    65     1     7
  9.3393342124056394E-02 a      1608     0    65     1     8
  2.0392864373190295E-01 a      1609     0    65     1     9
 -5.8643010954020393E-02 a      1610     0    65     1    10
 -2.4106474529895386E-01 a      1611     0    65     1    11
  2.0587624676859796E-02 a      1612     0    65     1    12
  2.7552757840945469E-01 a      1613     0    65     1    13
 -8.8186797696705496E-02 a      1614     0    65     1    14
 -6.3054980655445847E-02 a      1615     0    65     1    15
  4.0061984978989357E-02 a      1616     0    65     1    16
  5.8848077550074582E-02 a      1617     0    65     1    17
 -1.7124799564667653E-01 a      1618     0    65     1    18
  3.0575863769834150E-02 a      1619     0    65     1    19
  1.2375091852593136E-01 a      1620     0    65     1    20
  2.4997546543918951E-02 a      1621     0    65     1    21
  1.5168880740503568E-01 a      1622     0    65     1    22
  1.9822323688328836E-01 a      1623     0    65     1    23
