################################################################################
# Neural network connection values (weights and biases).
################################################################################
# Col  Name       Description
################################################################################
# 1    connection Neural network connection value.
# 2    t          Connection type (a = weight, b = bias).
# 3    index      Index enumerating weights.
# 4    l_s        Starting point layer (end point layer for biases).
# 5    n_s        Starting point neuron in starting layer (end point neuron for biases).
# 6    l_e        End point layer.
# 7    n_e        End point neuron in end layer.
################################################################################
#                      1 2         3     4     5     6     7
#             connection t     index   l_s   n_s   l_e   n_e
############################################################
 -1.0091290610036457E-01 a         1     0     1     1     1
  7.7348960400653297E-02 a         2     0     1     1     2
 -7.5364607299732114E-02 a         3     0     1     1     3
 -2.7886337960473379E-01 a         4     0     1     1     4
 -1.3604262797086150E-01 a         5     0     1     1     5
 -2.8657129132879250E-01 a         6     0     1     1     6
 -2.4832834026781966E-01 a         7     0     1     1     7
 -1.1391619699500874E-01 a         8     0     1     1     8
 -3.4631328421242329E-02 a         9     0     1     1     9
  1.6319795601533522E-02 a        10     0     1     1    10
 -8.0116223396923619E-02 a        11     0     1     1    11
 -2.4710384931603141E-01 a        12     0     1     1    12
  2.5789549256442806E-01 a        13     0     1     1    13
  4.7246048430189206E-03 a        14     0     1     1    14
  3.1514703530651711E-01 a        15     0     1     1    15
 -6.4949553427142342E-02 a        16     0     1     1    16
  1.3907519338987323E-01 a        17     0     1     1    17
 -1.1643989442024087E-01 a        18     0     1     1    18
  1.1514606335571555E-01 a        19     0     1     1    19
 -1.8989931185971118E-01 a        20     0     1     1    20
  2.4710920460174762E-01 a        21     0     1     1    21
 -4.6982644453908887E-02 a        22     0     1     1    22
  5.5677120283074935E-02 a        23     0     1     1    23
 -1.4973747622510100E-01 a        24     0     1     1    24
  9.7679471024335801E-02 a        25     0     1     1    25
  1.8619449322346739E-02 a        26     0     2     1     1
  1.8012794874984750E-02 a        27     0     2     1     2
  1.2787579906030544E-01 a        28     0     2     1     3
  1.2225276503718276E-01 a        29     0     2     1     4
 -1.1553749630076822E-01 a        30     0     2     1     5
 -3.6012397883898972E-03 a        31     0     2     1     6
 -7.7027699551510745E-02 a        32     0     2     1     7
  1.1466913839364523E-01 a        33     0     2     1     8
  1.1222594148546414E-01 a        34     0     2     1     9
  4.0320052978075407E-02 a        35     0     2     1    10
  1.0894520644239432E-01 a        36     0     2     1    11
  1.0345236715607301E-01 a        37     0     2     1    12
 -1.6939368352096623E-01 a        38     0     2     1    13
 -2.2247716430779257E-01 a        39     0     2     1    14
  3.2544109068503091E-01 a        40     0     2     1    15
  2.5368446759994567E-02 a        41     0     2     1    16
 -8.8142338090796538E-02 a        42     0     2     1    17
 -1.0738133743703211E-02 a        43     0     2     1    18
 -1.9735466298692501E-02 a        44     0     2     1    19
 -5.9281016134356219E-02 a        45     0     2     1    20
 -1.3730613706963965E-01 a        46     0     2     1    21
 -3.5172073210668960E-02 a        47     0     2     1    22
  1.7457896928475303E-01 a        48     0     2     1    23
  1.4280270596963154E-01 a        49     0     2     1    24
 -1.3426922113831327E-01 a        50     0     2     1    25
  7.5603628320484909E-02 a        51     0     3     1     1
  1.1558218248449756E-02 a        52     0     3     1     2
 -2.3822341631804622E-01 a        53     0     3     1     3
 -1.6697817828006739E-01 a        54     0     3     1     4
  1.7048711801454539E-01 a        55     0     3     1     5
  8.3272405584195637E-03 a        56     0     3     1     6
 -1.3923949453539267E-01 a        57     0     3     1     7
  5.2551578406454441E-02 a        58     0     3     1     8
  5.6464772240936621E-02 a        59     0     3     1     9
  6.7330618603989714E-02 a        60     0     3     1    10
 -4.9232356710597468E-02 a        61     0     3     1    11
 -1.1135339036189518E-01 a        62     0     3     1    12
 -1.0295253377645970E-01 a        63     0     3     1    13
 -8.6420210752371635E-02 a        64     0     3     1    14
 -1.8819598725461906E-02 a        65     0     3     1    15
  6.0577556344211796E-02 a        66     0     3     1    16
 -1.7513915518311829E-01 a        67     0     3     1    17
 -2.3353572416044319E-03 a        68     0     3     1    18
  7.2761989519978592E-03 a        69     0     3     1    19
 -6.9244426322649447E-02 a        70     0     3     1    20
 -1.5023591130990638E-01 a        71     0     3     1    21
 -1.1230683774458032E-01 a        72     0     3     1    22
  2.7570899476870553E-02 a        73     0     3     1    23
  5.8054905650772669E-02 a        74     0     3     1    24
 -1.4395882620896788E-01 a        75     0     3     1    25
 -3.1617343934684211E-02 a        76     0     4     1     1
  5.8331427990696468E-02 a        77     0     4     1     2
 -4.8031382607741750E-02 a        78     0     4     1     3
 -1.4733636433587288E-01 a        79     0     4     1     4
  2.7802960048938058E-01 a        80     0     4     1     5
  1.1037937014476663E-01 a        81     0     4     1     6
 -5.1566250898983895E-04 a        82     0     4     1     7
  6.1562269867168354E-02 a        83     0     4     1     8
 -4.9417525887147399E-03 a        84     0     4     1     9
  1.7358745479518236E-02 a        85     0     4     1    10
 -9.6946162658730975E-02 a        86     0     4     1    11
  1.2156998958806371E-01 a        87     0     4     1    12
 -3.0011570372455006E-02 a        88     0     4     1    13
 -8.3679432151370428E-02 a        89     0     4     1    14
  6.5131262957418556E-02 a        90     0     4     1    15
 -8.1973048501462337E-02 a        91     0     4     1    16
  5.0972722383288191E-02 a        92     0     4     1    17
 -7.0007916610466403E-02 a        93     0     4     1    18
 -6.2970744190753037E-03 a        94     0     4     1    19
 -4.6242244318830082E-02 a        95     0     4     1    20
 -1.5246889821216766E-01 a        96     0     4     1    21
 -1.2371433971613793E-01 a        97     0     4     1    22
  3.1566488907615348E-02 a        98     0     4     1    23
  6.7588340780507109E-03 a        99     0     4     1    24
 -2.0267736388233970E-01 a       100     0     4     1    25
 -7.0848259216982720E-02 a       101     0     5     1     1
 -1.7410544455480090E-01 a       102     0     5     1     2
  1.9578090446804397E-01 a       103     0     5     1     3
  4.1453975681398941E-02 a       104     0     5     1     4
 -2.6777023372536096E-02 a       105     0     5     1     5
  1.9617362452583692E-01 a       106     0     5     1     6
  2.8713965863862084E-02 a       107     0     5     1     7
 -1.1967784604243326E-01 a       108     0     5     1     8
  6.9741856374135680E-03 a       109     0     5     1     9
  1.3277426482800103E-01 a       110     0     5     1    10
 -4.6465234933632499E-02 a       111     0     5     1    11
 -1.4221900986339459E-01 a       112     0     5     1    12
 -2.0470972155118236E-01 a       113     0     5     1    13
  1.2750596270643244E-01 a       114     0     5     1    14
  3.5985777566619415E-02 a       115     0     5     1    15
  1.1770602111443811E-01 a       116     0     5     1    16
 -1.6680155556835471E-01 a       117     0     5     1    17
  8.8486198381664272E-02 a       118     0     5     1    18
 -1.2767107880052198E-01 a       119     0     5     1    19
  7.8207454783067426E-02 a       120     0     5     1    20
 -1.8937524108828502E-02 a       121     0     5     1    21
 -1.0513523869355228E-01 a       122     0     5     1    22
 -3.4765736771872321E-02 a       123     0     5     1    23
  1.4682261104349286E-03 a       124     0     5     1    24
  1.5958457932480766E-01 a       125     0     5     1    25
 -8.2513171403421112E-02 a       126     0     6     1     1
  1.1051123801280301E-01 a       127     0     6     1     2
 -9.0857599938682615E-02 a       128     0     6     1     3
  7.7201844459838811E-02 a       129     0     6     1     4
 -5.6349659857279473E-02 a       130     0     6     1     5
 -3.3122251784099152E-02 a       131     0     6     1     6
  9.8799826929868342E-02 a       132     0     6     1     7
 -3.3216500029891651E-03 a       133     0     6     1     8
 -1.0466976738227529E-01 a       134     0     6     1     9
  6.1393739977307800E-02 a       135     0     6     1    10
 -5.9842774465221078E-02 a       136     0     6     1    11
  3.7246898923377188E-02 a       137     0     6     1    12
 -1.0421969391574895E-02 a       138     0     6     1    13
  2.0014839440255683E-01 a       139     0     6     1    14
 -2.0798366222892131E-01 a       140     0     6     1    15
  1.3977683303020136E-01 a       141     0     6     1    16
  3.5460718705622257E-01 a       142     0     6     1    17
  1.1435691332204947E-01 a       143     0     6     1    18
 -1.6145028385701604E-01 a       144     0     6     1    19
 -1.3441009639296825E-01 a       145     0     6     1    20
  3.1329866166359653E-02 a       146     0     6     1    21
  1.2245017775967447E-01 a       147     0     6     1    22
 -2.0505064777142288E-02 a       148     0     6     1    23
 -2.0556989605006798E-01 a       149     0     6     1    24
  1.3802999370340557E-01 a       150     0     6     1    25
 -1.3493071774893656E-01 a       151     0     7     1     1
  2.4099479350994265E-02 a       152     0     7     1     2
  5.4730358363015548E-02 a       153     0     7     1     3
 -1.5038263684878837E-02 a       154     0     7     1     4
 -1.2424747826832006E-01 a       155     0     7     1     5
 -1.3346275755594086E-01 a       156     0     7     1     6
  1.5187450014693937E-01 a       157     0     7     1     7
  1.2635098380123089E-01 a       158     0     7     1     8
 -2.8491022393328510E-02 a       159     0     7     1     9
 -7.8295027844429613E-02 a       160     0     7     1    10
 -1.2458780862054490E-01 a       161     0     7     1    11
  4.8574777508107861E-02 a       162     0     7     1    12
  1.3177396855181792E-01 a       163     0     7     1    13
  1.6687151842713199E-01 a       164     0     7     1    14
 -1.4674934357845823E-01 a       165     0     7     1    15
  6.0502529413061112E-02 a       166     0     7     1    16
  4.0029906404498113E-02 a       167     0     7     1    17
 -2.4186852111489198E-02 a       168     0     7     1    18
  2.0930381084184546E-02 a       169     0     7     1    19
  1.1620131343280295E-01 a       170     0     7     1    20
 -2.7333910239011112E-02 a       171     0     7     1    21
  1.0994072233992791E-01 a       172     0     7     1    22
  1.2680559216897492E-02 a       173     0     7     1    23
 -5.9317866527610751E-02 a       174     0     7     1    24
 -1.3601766925459916E-01 a       175     0     7     1    25
  2.0738630461052881E-02 a       176     0     8     1     1
  6.2072971237089943E-02 a       177     0     8     1     2
 -1.5652694138387649E-01 a       178     0     8     1     3
 -2.5129919042801700E-02 a       179     0     8     1     4
  1.5006242920880743E-02 a       180     0     8     1     5
  8.5640303502611231E-02 a       181     0     8     1     6
 -2.6244003427059859E-01 a       182     0     8     1     7
  6.5935805647381995E-02 a       183     0     8     1     8
  3.8639221819803726E-02 a       184     0     8     1     9
 -2.2555817385528470E-01 a       185     0     8     1    10
  1.7199954175288629E-01 a       186     0     8     1    11
  1.1240519626401237E-01 a       187     0     8     1    12
  2.5204420041125619E-01 a       188     0     8     1    13
  1.7297191733858358E-01 a       189     0     8     1    14
 -8.5102031745376838E-02 a       190     0     8     1    15
  1.7595634629494775E-01 a       191     0     8     1    16
 -2.6661321121505804E-01 a       192     0     8     1    17
  9.1891354627351970E-02 a       193     0     8     1    18
  1.3398617766760570E-01 a       194     0     8     1    19
  2.2232325562997568E-01 a       195     0     8     1    20
 -1.8571804426117222E-01 a       196     0     8     1    21
  9.3653736531814483E-02 a       197     0     8     1    22
 -4.9182425698194199E-02 a       198     0     8     1    23
 -7.4836458526006122E-03 a       199     0     8     1    24
 -3.4053289413512905E-02 a       200     0     8     1    25
  3.6553689658250565E-02 a       201     0     9     1     1
  3.4018618747891097E-02 a       202     0     9     1     2
  7.3883805628029778E-02 a       203     0     9     1     3
  1.0600082532176193E-01 a       204     0     9     1     4
  8.0187335673814211E-02 a       205     0     9     1     5
 -1.3780602854504603E-01 a       206     0     9     1     6
  2.7568422619925145E-02 a       207     0     9     1     7
 -2.2675338323809257E-02 a       208     0     9     1     8
  5.3949185518046588E-02 a       209     0     9     1     9
 -5.0517297572326314E-02 a       210     0     9     1    10
  1.5132146391194032E-01 a       211     0     9     1    11
 -2.8709457718502071E-02 a       212     0     9     1    12
  2.7899855636162658E-02 a       213     0     9     1    13
  2.4035794886978734E-01 a       214     0     9     1    14
 -2.3120497558407463E-02 a       215     0     9     1    15
 -8.9301751204872964E-02 a       216     0     9     1    16
 -5.8224938502835829E-03 a       217     0     9     1    17
  5.5759526684683085E-02 a       218     0     9     1    18
  1.0830545691509277E-01 a       219     0     9     1    19
 -2.7159632962875681E-02 a       220     0     9     1    20
 -1.0065618208116693E-01 a       221     0     9     1    21
  1.4546071312809564E-01 a       222     0     9     1    22
  1.2057450742218345E-02 a       223     0     9     1    23
 -1.3478210400371787E-01 a       224     0     9     1    24
  5.7974426593025714E-02 a       225     0     9     1    25
  1.5259700385855132E-01 a       226     0    10     1     1
  2.1321389705380059E-01 a       227     0    10     1     2
  8.0026719199180127E-02 a       228     0    10     1     3
  3.6779097946573097E-01 a       229     0    10     1     4
 -2.1993464987419575E-01 a       230     0    10     1     5
  9.0750038681644551E-03 a       231     0    10     1     6
 -1.6735380895362176E-01 a       232     0    10     1     7
  2.2870853865884784E-02 a       233     0    10     1     8
 -7.3259672316936267E-02 a       234     0    10     1     9
 -1.0901774133817320E-02 a       235     0    10     1    10
 -8.3131252095856839E-02 a       236     0    10     1    11
  1.0112185135645917E-01 a       237     0    10     1    12
 -1.5552883947029106E-01 a       238     0    10     1    13
  2.4494923562727242E-02 a       239     0    10     1    14
  1.5603362761742928E-01 a       240     0    10     1    15
 -1.2487505106008671E-01 a       241     0    10     1    16
  6.3823070303434606E-02 a       242     0    10     1    17
 -4.8468082571194095E-02 a       243     0    10     1    18
 -1.2601200101406856E-01 a       244     0    10     1    19
 -9.1375737904011753E-02 a       245     0    10     1    20
  1.6319795751746957E-01 a       246     0    10     1    21
  1.0645078740894255E-01 a       247     0    10     1    22
 -8.8943743046014392E-02 a       248     0    10     1    23
  3.8749655482857032E-01 a       249     0    10     1    24
  1.7007352054822569E-01 a       250     0    10     1    25
 -9.4972346975583377E-02 a       251     0    11     1     1
 -7.4322689443975895E-02 a       252     0    11     1     2
 -8.1567534505846459E-02 a       253     0    11     1     3
 -1.6116351519290896E-02 a       254     0    11     1     4
  1.2709509000380712E-02 a       255     0    11     1     5
 -4.4088548915878073E-02 a       256     0    11     1     6
 -1.2474970729399652E-02 a       257     0    11     1     7
  1.4258913533172626E-01 a       258     0    11     1     8
  1.3426463302509403E-02 a       259     0    11     1     9
 -1.2095613966347768E-01 a       260     0    11     1    10
  4.2352729027810711E-02 a       261     0    11     1    11
  5.6515797775872692E-02 a       262     0    11     1    12
  1.1303205259173525E-01 a       263     0    11     1    13
  1.4698235577759525E-02 a       264     0    11     1    14
  2.2480249723715809E-01 a       265     0    11     1    15
  7.5788977564528057E-02 a       266     0    11     1    16
  7.8382287003670725E-02 a       267     0    11     1    17
  1.7968712042127685E-01 a       268     0    11     1    18
 -1.3385746750032657E-01 a       269     0    11     1    19
 -2.6248795768123892E-03 a       270     0    11     1    20
 -1.1485004830058768E-01 a       271     0    11     1    21
 -1.0535812178286245E-01 a       272     0    11     1    22
  4.6284419680285988E-02 a       273     0    11     1    23
 -3.1012283756026304E-01 a       274     0    11     1    24
  1.3066887957120163E-01 a       275     0    11     1    25
  2.2446992518059962E-02 a       276     0    12     1     1
 -2.2982824117390155E-01 a       277     0    12     1     2
  1.0482179001051976E-01 a       278     0    12     1     3
  1.2022703478505627E-01 a       279     0    12     1     4
 -4.3801797228137279E-01 a       280     0    12     1     5
 -1.0945835224888473E-02 a       281     0    12     1     6
  1.2708140946131369E-01 a       282     0    12     1     7
 -3.5727608193883625E-02 a       283     0    12     1     8
  1.0560662844594429E-01 a       284     0    12     1     9
  6.5098155822649370E-02 a       285     0    12     1    10
  8.4580209601846826E-02 a       286     0    12     1    11
  1.5334934237350212E-01 a       287     0    12     1    12
 -1.3208271184203813E-01 a       288     0    12     1    13
  2.2609204814920758E-01 a       289     0    12     1    14
 -1.2831151549724537E-01 a       290     0    12     1    15
 -8.7693941465874156E-02 a       291     0    12     1    16
  1.2183047436595974E-01 a       292     0    12     1    17
 -1.5504127482878518E-02 a       293     0    12     1    18
 -9.1383822784790056E-02 a       294     0    12     1    19
 -4.9344775582594119E-02 a       295     0    12     1    20
  2.5501231732036028E-01 a       296     0    12     1    21
 -1.5314477844675839E-01 a       297     0    12     1    22
  1.5466571521813965E-01 a       298     0    12     1    23
  1.7003577501196472E-02 a       299     0    12     1    24
  3.0456596903303185E-01 a       300     0    12     1    25
 -4.6024665713701299E-02 a       301     0    13     1     1
 -1.6647966994262209E-01 a       302     0    13     1     2
  2.4638569498179558E-01 a       303     0    13     1     3
  2.5966434196428212E-01 a       304     0    13     1     4
 -5.4986884956229276E-02 a       305     0    13     1     5
 -1.7406465189629006E-01 a       306     0    13     1     6
 -7.4624929428351991E-03 a       307     0    13     1     7
 -1.7236995086086529E-01 a       308     0    13     1     8
 -8.1868414600202777E-02 a       309     0    13     1     9
 -2.0643029926897846E-01 a       310     0    13     1    10
 -8.8453327080166413E-02 a       311     0    13     1    11
 -9.2921854759222891E-02 a       312     0    13     1    12
 -9.1805221397977158E-02 a       313     0    13     1    13
 -1.5365496731984835E-01 a       314     0    13     1    14
 -4.9629183499959713E-02 a       315     0    13     1    15
  9.1477163680069210E-02 a       316     0    13     1    16
  1.2500716195036499E-02 a       317     0    13     1    17
  1.4920194419500765E-01 a       318     0    13     1    18
 -4.4358525500679791E-01 a       319     0    13     1    19
  3.4039931571254990E-02 a       320     0    13     1    20
 -1.3297185704875997E-01 a       321     0    13     1    21
  1.1062633750239421E-01 a       322     0    13     1    22
 -3.4626539839873188E-01 a       323     0    13     1    23
 -1.1109087526905055E-01 a       324     0    13     1    24
  1.2472954810063820E-01 a       325     0    13     1    25
  1.3457808346336306E-01 a       326     0    14     1     1
 -3.5758928661780029E-02 a       327     0    14     1     2
  1.4607118118389825E-01 a       328     0    14     1     3
  2.6532457528884218E-01 a       329     0    14     1     4
 -3.9981287705149332E-02 a       330     0    14     1     5
 -2.1959615139686006E-01 a       331     0    14     1     6
 -7.4662525182327397E-02 a       332     0    14     1     7
  1.1516094478188095E-01 a       333     0    14     1     8
 -1.3502208940085755E-01 a       334     0    14     1     9
 -5.0700499800541879E-02 a       335     0    14     1    10
  4.5424603717711079E-02 a       336     0    14     1    11
  1.4091107647706791E-01 a       337     0    14     1    12
 -7.4771213480614232E-02 a       338     0    14     1    13
 -2.0942147318303059E-01 a       339     0    14     1    14
  5.8800945011235548E-02 a       340     0    14     1    15
 -5.8118536227112876E-02 a       341     0    14     1    16
 -2.8798147122286427E-01 a       342     0    14     1    17
 -6.5327830556512409E-02 a       343     0    14     1    18
 -5.3267358933240055E-02 a       344     0    14     1    19
  1.4391042229737106E-02 a       345     0    14     1    20
 -1.1539403938841894E-01 a       346     0    14     1    21
  1.3697843302031476E-01 a       347     0    14     1    22
  4.7269976286461113E-01 a       348     0    14     1    23
  5.4557631337429158E-01 a       349     0    14     1    24
  6.8457918354452363E-02 a       350     0    14     1    25
 -1.0547179614856064E-01 a       351     0    15     1     1
  9.3304048102131054E-03 a       352     0    15     1     2
 -5.1002267197915029E-02 a       353     0    15     1     3
  3.9259992001903075E-02 a       354     0    15     1     4
  1.4536300068357030E-02 a       355     0    15     1     5
  2.5772999261541202E-01 a       356     0    15     1     6
  1.3911617908710197E-02 a       357     0    15     1     7
  2.2318748670549041E-01 a       358     0    15     1     8
  3.2264137048513136E-02 a       359     0    15     1     9
 -2.9366569863365909E-02 a       360     0    15     1    10
 -1.5649064401654514E-01 a       361     0    15     1    11
 -1.9986946455755000E-01 a       362     0    15     1    12
 -2.7791229389964894E-02 a       363     0    15     1    13
 -1.5183667396401035E-01 a       364     0    15     1    14
 -1.8130928897703408E-01 a       365     0    15     1    15
  9.9674082855654877E-02 a       366     0    15     1    16
 -2.2399664599045085E-01 a       367     0    15     1    17
  8.3599118805047237E-02 a       368     0    15     1    18
  5.4534024791755321E-02 a       369     0    15     1    19
  1.6516382917634753E-01 a       370     0    15     1    20
 -5.2004339335748606E-02 a       371     0    15     1    21
 -8.1367998343628359E-02 a       372     0    15     1    22
  1.6236924491927252E-01 a       373     0    15     1    23
  1.7926161974146222E-02 a       374     0    15     1    24
 -1.1794473820467270E-01 a       375     0    15     1    25
  2.2426284465241619E-01 a       376     0    16     1     1
  3.6659248565300617E-01 a       377     0    16     1     2
  1.8643247152829270E-01 a       378     0    16     1     3
 -1.0536768668140793E-01 a       379     0    16     1     4
 -1.3079325836000655E-01 a       380     0    16     1     5
 -3.0471326158442980E-01 a       381     0    16     1     6
  2.4288817203917745E-02 a       382     0    16     1     7
  1.4504827350674129E-01 a       383     0    16     1     8
 -1.7491711193102230E-01 a       384     0    16     1     9
 -1.1062295522580621E-02 a       385     0    16     1    10
 -3.3117146824634035E-02 a       386     0    16     1    11
  2.0846232932362527E-01 a       387     0    16     1    12
 -2.9411915480921114E-01 a       388     0    16     1    13
 -1.5502477411071017E-01 a       389     0    16     1    14
  1.3008019458480222E-01 a       390     0    16     1    15
 -2.0759063996796684E-01 a       391     0    16     1    16
 -2.3488518903002686E-01 a       392     0    16     1    17
  2.4879283547960668E-01 a       393     0    16     1    18
 -1.7168334803449603E-01 a       394     0    16     1    19
  5.8095882280690729E-02 a       395     0    16     1    20
  4.2836143432382068E-02 a       396     0    16     1    21
  5.1086272375425706E-02 a       397     0    16     1    22
  2.1357014936894994E-01 a       398     0    16     1    23
  1.3122528083979129E-01 a       399     0    16     1    24
  2.2144255860527243E-01 a       400     0    16     1    25
 -2.4246617302744553E-03 a       401     0    17     1     1
  1.0132569939549609E-01 a       402     0    17     1     2
  1.8007627678346305E-01 a       403     0    17     1     3
 -3.0953582126612728E-02 a       404     0    17     1     4
  1.6379302503905596E-01 a       405     0    17     1     5
 -1.0590974808933469E-01 a       406     0    17     1     6
 -1.7064726895382637E-01 a       407     0    17     1     7
  6.6303477620737891E-02 a       408     0    17     1     8
 -1.7990279846196452E-01 a       409     0    17     1     9
  2.6805502102235940E-02 a       410     0    17     1    10
 -1.2056111927853269E-01 a       411     0    17     1    11
 -1.5449548953739659E-01 a       412     0    17     1    12
  3.1293363160698484E-01 a       413     0    17     1    13
  1.8416575815991079E-01 a       414     0    17     1    14
 -1.8926137148138725E-01 a       415     0    17     1    15
 -1.7480073497253384E-01 a       416     0    17     1    16
 -7.7035472459263017E-03 a       417     0    17     1    17
  9.6365071199688193E-02 a       418     0    17     1    18
 -4.1281990778489083E-02 a       419     0    17     1    19
 -5.9354617229300820E-02 a       420     0    17     1    20
  1.7742038292189927E-01 a       421     0    17     1    21
 -9.0479630474289918E-02 a       422     0    17     1    22
 -2.2233578169273213E-01 a       423     0    17     1    23
 -5.3036601178645992E-01 a       424     0    17     1    24
  1.2576776455517880E-01 a       425     0    17     1    25
  4.1536030954664474E-02 a       426     0    18     1     1
  2.6017575790592194E-02 a       427     0    18     1     2
 -6.2256483036399468E-02 a       428     0    18     1     3
  5.7098802442779584E-01 a       429     0    18     1     4
 -2.8280545609847818E-01 a       430     0    18     1     5
 -2.4464586594727972E-01 a       431     0    18     1     6
  1.3610913037286643E-01 a       432     0    18     1     7
 -2.9154445764957456E-02 a       433     0    18     1     8
 -1.0049007381927630E-01 a       434     0    18     1     9
  6.6620735176456684E-04 a       435     0    18     1    10
  9.8644521695521459E-03 a       436     0    18     1    11
  2.3107714714298033E-01 a       437     0    18     1    12
 -2.3137878071254628E-01 a       438     0    18     1    13
 -2.9247335322307044E-01 a       439     0    18     1    14
 -6.7813602667497710E-02 a       440     0    18     1    15
 -1.7291430344244511E-02 a       441     0    18     1    16
  2.4094378732730024E-01 a       442     0    18     1    17
 -6.6004888675212411E-02 a       443     0    18     1    18
  9.9241424193992317E-02 a       444     0    18     1    19
  3.7587897306110250E-02 a       445     0    18     1    20
  1.1558982955789524E-01 a       446     0    18     1    21
 -8.5066454885159848E-02 a       447     0    18     1    22
  4.1205386895758273E-01 a       448     0    18     1    23
  3.1696579757909371E-01 a       449     0    18     1    24
  2.5608459723320703E-01 a       450     0    18     1    25
  1.8736190709964359E-03 a       451     0    19     1     1
  3.9625826978802771E-02 a       452     0    19     1     2
  9.1070113528135280E-02 a       453     0    19     1     3
 -4.7021358193820089E-03 a       454     0    19     1     4
 -1.4731150853744232E-01 a       455     0    19     1     5
 -2.5071591236853624E-01 a       456     0    19     1     6
 -8.7807557675075240E-02 a       457     0    19     1     7
  8.8111989910179073E-02 a       458     0    19     1     8
 -2.4178290104287587E-02 a       459     0    19     1     9
  9.7115064202112650E-03 a       460     0    19     1    10
 -1.3520311572455135E-01 a       461     0    19     1    11
  1.6264770336406639E-03 a       462     0    19     1    12
 -7.6590537929996316E-02 a       463     0    19     1    13
 -3.8087925754722841E-02 a       464     0    19     1    14
 -8.4429014276050762E-02 a       465     0    19     1    15
 -1.3903284792220252E-01 a       466     0    19     1    16
 -5.7601983487975614E-02 a       467     0    19     1    17
 -5.6842368960240870E-02 a       468     0    19     1    18
 -1.1282724411375336E-01 a       469     0    19     1    19
 -2.7266188156750965E-01 a       470     0    19     1    20
 -7.4056478200430098E-02 a       471     0    19     1    21
  6.7161424807190909E-02 a       472     0    19     1    22
 -1.1522981035906260E-01 a       473     0    19     1    23
 -2.9731725217631300E-01 a       474     0    19     1    24
 -4.5867225493940754E-02 a       475     0    19     1    25
  6.5203740223413742E-02 a       476     0    20     1     1
  6.8856927649075333E-02 a       477     0    20     1     2
  4.4159492431578309E-02 a       478     0    20     1     3
 -1.4512348679058612E-01 a       479     0    20     1     4
  1.9856205087055709E-01 a       480     0    20     1     5
 -5.5352707358877443E-02 a       481     0    20     1     6
 -1.5874834642541338E-01 a       482     0    20     1     7
 -1.9423031768319155E-02 a       483     0    20     1     8
  6.4785686684617996E-02 a       484     0    20     1     9
 -1.0644151640020356E-01 a       485     0    20     1    10
  2.6316852855174294E-01 a       486     0    20     1    11
  2.5113918688199832E-01 a       487     0    20     1    12
 -1.1997766927645967E-01 a       488     0    20     1    13
  9.3780864638373665E-02 a       489     0    20     1    14
  1.5182486643826484E-01 a       490     0    20     1    15
  6.2160397606739574E-02 a       491     0    20     1    16
 -4.7531681629918693E-02 a       492     0    20     1    17
 -8.0374727410091509E-02 a       493     0    20     1    18
  5.5832949188975552E-03 a       494     0    20     1    19
  7.0015529109926700E-02 a       495     0    20     1    20
  1.6570882096522968E-01 a       496     0    20     1    21
 -1.7383605738059982E-01 a       497     0    20     1    22
  3.3374499264251112E-01 a       498     0    20     1    23
  2.3897338429174977E-01 a       499     0    20     1    24
 -1.5682102091471373E-01 a       500     0    20     1    25
  6.7806880030405942E-02 a       501     0    21     1     1
  8.9146082599196833E-02 a       502     0    21     1     2
  1.0083934785907056E-01 a       503     0    21     1     3
 -7.2125678327475878E-02 a       504     0    21     1     4
  2.4598088959854164E-01 a       505     0    21     1     5
 -1.5236337782284953E-01 a       506     0    21     1     6
  2.5696700040404353E-02 a       507     0    21     1     7
 -4.7774247236457422E-02 a       508     0    21     1     8
  2.5536798382748411E-03 a       509     0    21     1     9
 -1.6882797083287718E-01 a       510     0    21     1    10
 -3.6469156432633487E-02 a       511     0    21     1    11
  6.3526857895870231E-02 a       512     0    21     1    12
  2.5931963736468255E-01 a       513     0    21     1    13
  1.4409145747552043E-01 a       514     0    21     1    14
  2.5410910713565046E-02 a       515     0    21     1    15
 -4.2153495743020901E-02 a       516     0    21     1    16
  6.1250919657070156E-02 a       517     0    21     1    17
  2.0744599355984736E-01 a       518     0    21     1    18
 -5.1074085984407747E-01 a       519     0    21     1    19
 -1.1680840742691899E-01 a       520     0    21     1    20
  4.4863922973316490E-02 a       521     0    21     1    21
  2.0712005060074218E-01 a       522     0    21     1    22
 -2.3055482964964277E-01 a       523     0    21     1    23
 -1.9110967879996985E-01 a       524     0    21     1    24
  1.4733610728278765E-02 a       525     0    21     1    25
 -7.4045281050814482E-02 a       526     0    22     1     1
 -5.4193524329609914E-03 a       527     0    22     1     2
 -9.7976924022063774E-02 a       528     0    22     1     3
 -4.2215750969748550E-01 a       529     0    22     1     4
 -2.2649464493342170E-02 a       530     0    22     1     5
 -1.8841210294685679E-01 a       531     0    22     1     6
 -1.3022326411268453E-01 a       532     0    22     1     7
 -2.2365204555304566E-02 a       533     0    22     1     8
  3.5876594051784630E-02 a       534     0    22     1     9
  1.4693858288634132E-01 a       535     0    22     1    10
  1.5365015373411530E-02 a       536     0    22     1    11
 -2.4304335068705868E-01 a       537     0    22     1    12
 -4.1253620694223458E-01 a       538     0    22     1    13
  1.2385943359089856E-01 a       539     0    22     1    14
 -7.8758317055940760E-03 a       540     0    22     1    15
  2.5193916555289303E-01 a       541     0    22     1    16
  6.4050556927324398E-01 a       542     0    22     1    17
  2.8105530598364455E-02 a       543     0    22     1    18
 -1.6052303458720021E-02 a       544     0    22     1    19
  4.3491687217987948E-03 a       545     0    22     1    20
 -9.9975919432996524E-02 a       546     0    22     1    21
  7.3217289391040496E-02 a       547     0    22     1    22
  4.1189811357061556E-01 a       548     0    22     1    23
  2.4876190117383759E-01 a       549     0    22     1    24
  1.8765746210940454E-01 a       550     0    22     1    25
 -1.4230439646570797E-01 a       551     0    23     1     1
  8.6857573821631839E-02 a       552     0    23     1     2
  1.3915586416122250E-01 a       553     0    23     1     3
  3.7808338835763344E-02 a       554     0    23     1     4
 -1.4323528578137970E-01 a       555     0    23     1     5
 -2.6952650221783968E-03 a       556     0    23     1     6
  2.5396522833117324E-01 a       557     0    23     1     7
  1.4589961097478024E-01 a       558     0    23     1     8
  1.5925157425816053E-01 a       559     0    23     1     9
 -9.7673724631745409E-02 a       560     0    23     1    10
 -1.4539275951796565E-01 a       561     0    23     1    11
 -1.8929964442244188E-01 a       562     0    23     1    12
  7.4822872168441778E-03 a       563     0    23     1    13
 -3.0900190964924339E-02 a       564     0    23     1    14
 -3.5922051386288628E-01 a       565     0    23     1    15
  1.7511114272678158E-01 a       566     0    23     1    16
 -1.4981313604759622E-01 a       567     0    23     1    17
  1.8245086677157901E-01 a       568     0    23     1    18
 -6.4974049605584394E-02 a       569     0    23     1    19
  9.9174060636134154E-02 a       570     0    23     1    20
 -1.5757140033343653E-01 a       571     0    23     1    21
  3.5488245836273864E-02 a       572     0    23     1    22
 -3.1428039275285535E-01 a       573     0    23     1    23
 -1.4416021284525482E-01 a       574     0    23     1    24
 -1.3862670440831060E-01 a       575     0    23     1    25
 -3.3010131328787259E-02 a       576     0    24     1     1
 -3.9583459273966157E-02 a       577     0    24     1     2
  1.0471736389126068E-01 a       578     0    24     1     3
  8.4168863288620860E-02 a       579     0    24     1     4
  1.8684310565910425E-01 a       580     0    24     1     5
 -1.6390741463276801E-01 a       581     0    24     1     6
  7.6244514894347956E-02 a       582     0    24     1     7
 -3.1763078695818188E-02 a       583     0    24     1     8
  5.4150869659038481E-02 a       584     0    24     1     9
  7.8105962425209258E-02 a       585     0    24     1    10
 -2.6274895859985221E-02 a       586     0    24     1    11
  2.3162370953101119E-01 a       587     0    24     1    12
 -1.8001121589395674E-01 a       588     0    24     1    13
  5.5953470363639443E-02 a       589     0    24     1    14
 -7.0322470780990784E-02 a       590     0    24     1    15
  1.0500888538968486E-01 a       591     0    24     1    16
  1.4007647265754672E-01 a       592     0    24     1    17
  6.3373427453002812E-02 a       593     0    24     1    18
  5.1337760539485341E-02 a       594     0    24     1    19
  6.8786966173550582E-02 a       595     0    24     1    20
  1.8346342544368452E-01 a       596     0    24     1    21
  1.8248051346954855E-01 a       597     0    24     1    22
  2.4088165003222314E-01 a       598     0    24     1    23
  2.0521345256349069E-01 a       599     0    24     1    24
  3.7799374778196748E-01 a       600     0    24     1    25
 -1.6506520944839103E-03 a       601     0    25     1     1
 -1.4556832843505221E-01 a       602     0    25     1     2
 -6.2250153080820525E-03 a       603     0    25     1     3
  4.7356169388043445E-01 a       604     0    25     1     4
  1.1193854693649581E-01 a       605     0    25     1     5
 -1.0385373988633055E-01 a       606     0    25     1     6
 -2.9189036684893743E-01 a       607     0    25     1     7
  2.3377442268968834E-01 a       608     0    25     1     8
 -1.4564161057485198E-01 a       609     0    25     1     9
 -1.4703972836965537E-01 a       610     0    25     1    10
 -1.4236630872826644E-01 a       611     0    25     1    11
 -2.8917827311627349E-02 a       612     0    25     1    12
  1.3460109302953327E-01 a       613     0    25     1    13
 -1.0897318948477996E-01 a       614     0    25     1    14
  1.4692888968967963E-01 a       615     0    25     1    15
 -8.7799518290993389E-02 a       616     0    25     1    16
 -3.9741011768138862E-01 a       617     0    25     1    17
 -5.3327037413566508E-02 a       618     0    25     1    18
 -1.9219011905227501E-01 a       619     0    25     1    19
  2.0370854505265004E-02 a       620     0    25     1    20
  5.8246684937313761E-02 a       621     0    25     1    21
 -3.9731202322398573E-02 a       622     0    25     1    22
 -3.0749840339744294E-01 a       623     0    25     1    23
 -1.5803459145810445E-01 a       624     0    25     1    24
 -6.5562651771112326E-02 a       625     0    25     1    25
 -1.2799710701373281E-02 a       626     0    26     1     1
  7.5299527053985888E-03 a       627     0    26     1     2
  2.1692663770866957E-01 a       628     0    26     1     3
  3.3224727826857609E-01 a       629     0    26     1     4
  5.4821113693743102E-02 a       630     0    26     1     5
 -1.9778966915171114E-01 a       631     0    26     1     6
  8.7693074210806032E-03 a       632     0    26     1     7
  1.5473469333814663E-01 a       633     0    26     1     8
 -1.6685041519761180E-02 a       634     0    26     1     9
 -4.1718607347352207E-02 a       635     0    26     1    10
  3.7677381466104914E-02 a       636     0    26     1    11
  1.3610762524165151E-01 a       637     0    26     1    12
 -5.9870686114486711E-02 a       638     0    26     1    13
 -1.0086431128337899E-01 a       639     0    26     1    14
  1.7201213012857475E-02 a       640     0    26     1    15
 -9.3873697832736348E-03 a       641     0    26     1    16
  2.0378567687893168E-01 a       642     0    26     1    17
 -1.4782430777559882E-01 a       643     0    26     1    18
  4.9858355988263835E-03 a       644     0    26     1    19
 -1.3820408351372862E-02 a       645     0    26     1    20
  1.5929734493100218E-02 a       646     0    26     1    21
 -2.7934785586560908E-02 a       647     0    26     1    22
  2.5683541862088660E-01 a       648     0    26     1    23
  3.8107356289270850E-01 a       649     0    26     1    24
  1.3638730961111503E-01 a       650     0    26     1    25
 -7.2700935136993078E-02 a       651     0    27     1     1
 -6.8262481104287814E-02 a       652     0    27     1     2
 -1.4839095245163625E-01 a       653     0    27     1     3
 -8.1550273710456422E-02 a       654     0    27     1     4
 -2.0305377380849302E-01 a       655     0    27     1     5
  1.6574727345949331E-01 a       656     0    27     1     6
 -1.8073406095630054E-01 a       657     0    27     1     7
  7.9780042263097262E-02 a       658     0    27     1     8
 -1.0175848458355187E-01 a       659     0    27     1     9
 -9.4773981095572210E-02 a       660     0    27     1    10
 -2.7615584138084995E-03 a       661     0    27     1    11
 -3.0279986618084731E-01 a       662     0    27     1    12
  3.0338507369543027E-01 a       663     0    27     1    13
  3.1239126658545646E-01 a       664     0    27     1    14
  1.1933452909265757E-01 a       665     0    27     1    15
  1.3995657532640118E-01 a       666     0    27     1    16
 -6.2049122536498601E-02 a       667     0    27     1    17
 -1.1974482862874690E-01 a       668     0    27     1    18
  1.0644102604949551E-01 a       669     0    27     1    19
 -6.7358388655656382E-02 a       670     0    27     1    20
 -3.1616238962776005E-01 a       671     0    27     1    21
  1.5649635675175771E-01 a       672     0    27     1    22
 -2.4559862502517751E-01 a       673     0    27     1    23
 -3.5623095192424292E-01 a       674     0    27     1    24
 -2.7842919607883798E-01 a       675     0    27     1    25
  6.1889058932071352E-04 a       676     0    28     1     1
  3.4245317236219069E-02 a       677     0    28     1     2
  2.5020123521372662E-02 a       678     0    28     1     3
 -7.5465253934525342E-02 a       679     0    28     1     4
  7.0392926016956047E-03 a       680     0    28     1     5
 -3.9201086874281095E-02 a       681     0    28     1     6
 -3.9191640873104942E-02 a       682     0    28     1     7
 -3.7233255944135908E-02 a       683     0    28     1     8
 -6.0997882853671116E-02 a       684     0    28     1     9
  7.7471995540468061E-02 a       685     0    28     1    10
  1.4032326196915260E-01 a       686     0    28     1    11
  1.1305709692999380E-01 a       687     0    28     1    12
  5.2346971069878465E-03 a       688     0    28     1    13
 -1.5630648201164760E-01 a       689     0    28     1    14
 -1.2209948793015779E-01 a       690     0    28     1    15
 -5.8809922881368493E-02 a       691     0    28     1    16
  8.7295817934647021E-03 a       692     0    28     1    17
 -2.2872258633738391E-02 a       693     0    28     1    18
 -6.3145887452980817E-02 a       694     0    28     1    19
 -1.0086119748779701E-01 a       695     0    28     1    20
  9.8863838670646423E-02 a       696     0    28     1    21
 -1.4900355128684123E-01 a       697     0    28     1    22
  1.9532087274169169E-01 a       698     0    28     1    23
  1.2037062191959755E-01 a       699     0    28     1    24
  3.0002438880193699E-03 a       700     0    28     1    25
 -2.6796097142307081E-02 a       701     0    29     1     1
  4.2692714741728255E-02 a       702     0    29     1     2
  1.7881005064963856E-02 a       703     0    29     1     3
  1.4720022976266317E-01 a       704     0    29     1     4
 -1.5881153393582956E-01 a       705     0    29     1     5
 -2.5315986495448833E-01 a       706     0    29     1     6
  1.4259362068954792E-01 a       707     0    29     1     7
 -7.8935950217050646E-02 a       708     0    29     1     8
 -7.7905073989263315E-04 a       709     0    29     1     9
  2.0826393965222212E-03 a       710     0    29     1    10
 -1.1235101080884259E-01 a       711     0    29     1    11
 -9.8917493882222179E-02 a       712     0    29     1    12
  8.1664963032128876E-02 a       713     0    29     1    13
 -8.8870917900123417E-03 a       714     0    29     1    14
  2.0501554029468907E-01 a       715     0    29     1    15
 -2.7991718540810306E-01 a       716     0    29     1    16
  4.2326585536631961E-02 a       717     0    29     1    17
  1.4836195418050946E-01 a       718     0    29     1    18
 -5.5436500841865986E-02 a       719     0    29     1    19
 -1.1067911076505904E-01 a       720     0    29     1    20
 -1.1112895702685845E-01 a       721     0    29     1    21
 -1.0823079985533846E-01 a       722     0    29     1    22
  1.3806044428222389E-01 a       723     0    29     1    23
 -2.8395294310562719E-01 a       724     0    29     1    24
 -1.0852923454066239E-01 a       725     0    29     1    25
 -1.9756405429759202E-01 a       726     0    30     1     1
  1.4840028788514205E-02 a       727     0    30     1     2
 -1.3589338032917636E-01 a       728     0    30     1     3
  3.3612211117291119E-01 a       729     0    30     1     4
 -1.4026757801234407E-01 a       730     0    30     1     5
 -2.8521517525038820E-01 a       731     0    30     1     6
  1.4857341954006292E-01 a       732     0    30     1     7
 -2.4308471072065738E-01 a       733     0    30     1     8
 -5.0190731552211210E-02 a       734     0    30     1     9
  4.7957116394097353E-02 a       735     0    30     1    10
  4.8324410354748701E-02 a       736     0    30     1    11
 -2.8815414628941677E-01 a       737     0    30     1    12
 -3.7903201478617719E-02 a       738     0    30     1    13
  3.8086170639164453E-02 a       739     0    30     1    14
  3.0990506767515191E-01 a       740     0    30     1    15
 -8.9770749129161831E-02 a       741     0    30     1    16
 -9.2731884892500102E-03 a       742     0    30     1    17
  1.4347377331801560E-02 a       743     0    30     1    18
  3.1303446037335134E-02 a       744     0    30     1    19
  2.0316336537363536E-02 a       745     0    30     1    20
 -2.1829771169370613E-01 a       746     0    30     1    21
  1.1299702892556716E-01 a       747     0    30     1    22
  1.3649780149307966E-01 a       748     0    30     1    23
  1.7324463681168251E-01 a       749     0    30     1    24
  2.6162762365333692E-01 a       750     0    30     1    25
  1.1138194389668150E-01 a       751     0    31     1     1
 -1.0662270010746634E-01 a       752     0    31     1     2
  1.1972161832230892E-01 a       753     0    31     1     3
 -3.1861319224188273E-01 a       754     0    31     1     4
  1.5088236744487801E-02 a       755     0    31     1     5
  4.5002069187698536E-02 a       756     0    31     1     6
 -7.4821846468907618E-02 a       757     0    31     1     7
 -2.0660033327354926E-02 a       758     0    31     1     8
 -1.9129786290880222E-02 a       759     0    31     1     9
 -5.7312546777301021E-02 a       760     0    31     1    10
  1.3626690031883718E-01 a       761     0    31     1    11
  9.7034817116691457E-02 a       762     0    31     1    12
  3.2109502984398852E-01 a       763     0    31     1    13
 -2.1077819864851188E-01 a       764     0    31     1    14
  8.6251407813544345E-02 a       765     0    31     1    15
  4.4017943269411150E-02 a       766     0    31     1    16
 -9.5765424349727624E-02 a       767     0    31     1    17
 -9.1327972222807327E-04 a       768     0    31     1    18
 -1.7203637705900016E-01 a       769     0    31     1    19
  1.0300702555615247E-01 a       770     0    31     1    20
 -2.4066021606252194E-01 a       771     0    31     1    21
 -5.7986773385387391E-03 a       772     0    31     1    22
 -3.9604712111261842E-01 a       773     0    31     1    23
 -5.7798456847269274E-02 a       774     0    31     1    24
 -5.2270204479392568E-01 a       775     0    31     1    25
  6.8616849463070326E-02 a       776     0    32     1     1
 -3.3339420820898226E-02 a       777     0    32     1     2
  4.0131208850065034E-02 a       778     0    32     1     3
  2.2197604710983046E-01 a       779     0    32     1     4
  1.1590212566170222E-01 a       780     0    32     1     5
 -2.1200582365806561E-01 a       781     0    32     1     6
  8.1582932929575636E-02 a       782     0    32     1     7
 -4.9579928559658974E-02 a       783     0    32     1     8
  9.9531748460007910E-02 a       784     0    32     1     9
 -8.4572326452839866E-02 a       785     0    32     1    10
  1.2776609005730363E-01 a       786     0    32     1    11
  9.2690561744097663E-02 a       787     0    32     1    12
 -1.0458504587958746E-01 a       788     0    32     1    13
  1.0619886027450977E-01 a       789     0    32     1    14
 -1.6790782439706961E-01 a       790     0    32     1    15
 -9.6811948335082327E-04 a       791     0    32     1    16
  5.3477405264793249E-02 a       792     0    32     1    17
 -2.4241463372327441E-02 a       793     0    32     1    18
  5.0153730877735295E-02 a       794     0    32     1    19
  7.6471756708120842E-02 a       795     0    32     1    20
  2.0451475120792481E-01 a       796     0    32     1    21
  6.5909835824521534E-02 a       797     0    32     1    22
  8.0649643619983530E-02 a       798     0    32     1    23
  2.1394040151880817E-01 a       799     0    32     1    24
  2.3202286095586280E-01 a       800     0    32     1    25
  2.2047322010164058E-01 a       801     0    33     1     1
 -3.1152161126562827E-02 a       802     0    33     1     2
  1.5660079748954783E-01 a       803     0    33     1     3
 -1.5589192471104540E-01 a       804     0    33     1     4
 -2.2814597100563442E-02 a       805     0    33     1     5
  1.0581083214233623E-01 a       806     0    33     1     6
 -2.5084478250735243E-01 a       807     0    33     1     7
  8.6836611730298913E-02 a       808     0    33     1     8
 -9.2430632651485434E-02 a       809     0    33     1     9
  3.2852421141331363E-02 a       810     0    33     1    10
 -1.7695911786901618E-02 a       811     0    33     1    11
 -1.1530563087966501E-01 a       812     0    33     1    12
  9.4902675863972871E-02 a       813     0    33     1    13
  1.1668019692327324E-01 a       814     0    33     1    14
 -4.1462900272414525E-02 a       815     0    33     1    15
  2.3213753094074592E-02 a       816     0    33     1    16
  9.7509453190121942E-02 a       817     0    33     1    17
 -1.2467106775228880E-01 a       818     0    33     1    18
 -1.1824707055534987E-01 a       819     0    33     1    19
  2.2930932751333358E-02 a       820     0    33     1    20
  1.2585487399661545E-02 a       821     0    33     1    21
  1.0501200134837750E-01 a       822     0    33     1    22
 -1.9289906335384327E-01 a       823     0    33     1    23
  2.1950091828315130E-01 a       824     0    33     1    24
  2.1040492308901235E-01 a       825     0    33     1    25
  1.7418728999087668E-02 a       826     0    34     1     1
  6.7003386211220803E-02 a       827     0    34     1     2
  2.6698490724550755E-01 a       828     0    34     1     3
  1.1747119925589559E-01 a       829     0    34     1     4
 -1.7410360572327785E-01 a       830     0    34     1     5
  6.5545871042180945E-02 a       831     0    34     1     6
 -7.7826525278648362E-02 a       832     0    34     1     7
 -7.8797428504286934E-02 a       833     0    34     1     8
  4.5182348962518237E-04 a       834     0    34     1     9
  1.3262275751063796E-01 a       835     0    34     1    10
  4.0526439121573145E-02 a       836     0    34     1    11
  5.2445530010801454E-02 a       837     0    34     1    12
 -2.3450883141654297E-01 a       838     0    34     1    13
 -4.6468349255972374E-02 a       839     0    34     1    14
 -3.1892209452827669E-02 a       840     0    34     1    15
  4.2141830502443064E-02 a       841     0    34     1    16
  5.6279325329870462E-02 a       842     0    34     1    17
 -6.6341803954194506E-02 a       843     0    34     1    18
  1.3381206615363939E-01 a       844     0    34     1    19
 -7.6824150445295586E-02 a       845     0    34     1    20
 -2.7970837544889515E-01 a       846     0    34     1    21
 -1.1199718118469848E-01 a       847     0    34     1    22
  1.5409466087479079E-01 a       848     0    34     1    23
 -1.4100110758323256E-02 a       849     0    34     1    24
 -4.8029471176501345E-02 a       850     0    34     1    25
 -5.6217533474803030E-02 a       851     0    35     1     1
  2.5169241095132727E-02 a       852     0    35     1     2
 -2.2435189977284337E-01 a       853     0    35     1     3
 -1.3869319626413340E-01 a       854     0    35     1     4
  1.6774366504404642E-01 a       855     0    35     1     5
  3.4389217739134087E-02 a       856     0    35     1     6
  1.1065538912888123E-01 a       857     0    35     1     7
  6.7342339533730297E-02 a       858     0    35     1     8
  1.6279257339931158E-02 a       859     0    35     1     9
 -2.4280599325043534E-01 a       860     0    35     1    10
  4.0807453561163193E-02 a       861     0    35     1    11
  9.5513000519146643E-02 a       862     0    35     1    12
  9.1496324641690829E-02 a       863     0    35     1    13
  1.9891811985982130E-01 a       864     0    35     1    14
  1.9641004292494391E-01 a       865     0    35     1    15
 -1.1403356434521680E-01 a       866     0    35     1    16
 -1.2938725200800824E-01 a       867     0    35     1    17
 -1.0635038773218863E-01 a       868     0    35     1    18
  1.9141443923338908E-01 a       869     0    35     1    19
  4.2859780669470993E-02 a       870     0    35     1    20
  1.0618385846542346E-01 a       871     0    35     1    21
 -9.7826610970840319E-02 a       872     0    35     1    22
  3.1945049954694639E-02 a       873     0    35     1    23
  1.1041541898335245E-02 a       874     0    35     1    24
 -1.1073829072514681E-01 a       875     0    35     1    25
  1.9646821878040550E-03 a       876     0    36     1     1
  8.7221498333217587E-02 a       877     0    36     1     2
  2.2526016577925950E-01 a       878     0    36     1     3
  1.0610760370148192E-01 a       879     0    36     1     4
 -1.6382016261444651E-01 a       880     0    36     1     5
 -8.8515458355046118E-04 a       881     0    36     1     6
 -1.1261195771636569E-01 a       882     0    36     1     7
 -1.1084194419264241E-01 a       883     0    36     1     8
 -1.7225518085066222E-01 a       884     0    36     1     9
  1.5998257857606277E-01 a       885     0    36     1    10
  3.3842010930400235E-02 a       886     0    36     1    11
 -1.3409034740382966E-01 a       887     0    36     1    12
 -2.0212811185417023E-01 a       888     0    36     1    13
 -4.1356678166429045E-02 a       889     0    36     1    14
 -2.7174936581468089E-02 a       890     0    36     1    15
  1.1673116586271569E-01 a       891     0    36     1    16
  1.1359768803713813E-01 a       892     0    36     1    17
 -7.6808050622135290E-02 a       893     0    36     1    18
 -1.2266936744887971E-01 a       894     0    36     1    19
 -1.5510124391356223E-01 a       895     0    36     1    20
  4.9630059069754387E-02 a       896     0    36     1    21
  8.4753545365632718E-02 a       897     0    36     1    22
 -1.0846225583179199E-01 a       898     0    36     1    23
  8.5403261018319160E-02 a       899     0    36     1    24
 -1.0629520401511039E-01 a       900     0    36     1    25
 -6.5353408963694029E-02 a       901     0    37     1     1
 -2.3742950939166983E-02 a       902     0    37     1     2
 -2.7951192766067706E-01 a       903     0    37     1     3
  6.3537644126010887E-02 a       904     0    37     1     4
  1.8426559386761956E-01 a       905     0    37     1     5
 -2.5293054464288360E-02 a       906     0    37     1     6
 -4.0764627687408524E-02 a       907     0    37     1     7
  5.0357822072093050E-02 a       908     0    37     1     8
  4.1535259665802914E-03 a       909     0    37     1     9
 -5.7792161057167973E-02 a       910     0    37     1    10
 -3.2891917142423448E-02 a       911     0    37     1    11
  1.6566695132258957E-01 a       912     0    37     1    12
 -1.9014597584750281E-01 a       913     0    37     1    13
  4.0358473946783956E-02 a       914     0    37     1    14
 -6.6486468675512389E-02 a       915     0    37     1    15
  6.4113125834098283E-02 a       916     0    37     1    16
  8.8927671025541638E-02 a       917     0    37     1    17
  2.1376140502492629E-02 a       918     0    37     1    18
 -1.0644675445406526E-01 a       919     0    37     1    19
 -1.2024497716800368E-01 a       920     0    37     1    20
 -1.2163018869401473E-01 a       921     0    37     1    21
 -8.0125535305361206E-03 a       922     0    37     1    22
 -6.4448221640324835E-02 a       923     0    37     1    23
 -3.9947598127215891E-02 a       924     0    37     1    24
 -1.1283392049595690E-01 a       925     0    37     1    25
 -3.9171035561461273E-02 a       926     0    38     1     1
  1.2762564141904352E-02 a       927     0    38     1     2
  9.5392009022440327E-02 a       928     0    38     1     3
 -1.2249722312880606E-02 a       929     0    38     1     4
  1.5325107512502933E-01 a       930     0    38     1     5
 -2.6211499913761838E-01 a       931     0    38     1     6
  6.4816363778483502E-02 a       932     0    38     1     7
  7.3368614261912130E-02 a       933     0    38     1     8
  2.2916293031991428E-02 a       934     0    38     1     9
 -7.1843940284721505E-02 a       935     0    38     1    10
  5.3033272603781656E-02 a       936     0    38     1    11
 -1.1341410155833823E-01 a       937     0    38     1    12
 -3.2796716618385194E-03 a       938     0    38     1    13
 -5.8265983247957356E-02 a       939     0    38     1    14
 -8.8361989970173041E-02 a       940     0    38     1    15
  2.3671848545179619E-02 a       941     0    38     1    16
  1.0790495922041014E-01 a       942     0    38     1    17
  4.3965723753278792E-02 a       943     0    38     1    18
 -1.6728837996250764E-01 a       944     0    38     1    19
 -3.5639088403071131E-02 a       945     0    38     1    20
  2.6067197452403934E-01 a       946     0    38     1    21
  1.8192156764538500E-01 a       947     0    38     1    22
 -6.9535928859754993E-03 a       948     0    38     1    23
  2.1417547215840152E-01 a       949     0    38     1    24
  1.6758465315476420E-01 a       950     0    38     1    25
  4.2350227014674672E-03 a       951     0    39     1     1
  2.9567915350649093E-02 a       952     0    39     1     2
  1.9048338983899629E-01 a       953     0    39     1     3
 -2.5802242585727014E-01 a       954     0    39     1     4
 -2.0083670306840584E-01 a       955     0    39     1     5
 -2.1262584400375800E-01 a       956     0    39     1     6
  7.6481515408845874E-02 a       957     0    39     1     7
  1.0512910536969469E-01 a       958     0    39     1     8
 -8.7507376150106883E-02 a       959     0    39     1     9
  5.3854999304054081E-02 a       960     0    39     1    10
 -9.7101601917172140E-02 a       961     0    39     1    11
 -2.0555403883928569E-01 a       962     0    39     1    12
 -7.4445446865443923E-02 a       963     0    39     1    13
 -1.8537912609760294E-02 a       964     0    39     1    14
 -1.1586821941530314E-02 a       965     0    39     1    15
  1.7731345429172965E-01 a       966     0    39     1    16
  1.2081642545618996E-02 a       967     0    39     1    17
  5.7949723743753581E-02 a       968     0    39     1    18
 -1.0535575077415935E-01 a       969     0    39     1    19
 -2.7699434517994972E-02 a       970     0    39     1    20
 -9.5475585479014094E-02 a       971     0    39     1    21
  9.7872917148997790E-02 a       972     0    39     1    22
 -2.8356366269284973E-03 a       973     0    39     1    23
 -1.3388683785555980E-01 a       974     0    39     1    24
 -2.3721963953307149E-01 a       975     0    39     1    25
  3.9861701142518406E-02 a       976     0    40     1     1
 -5.1866050242783790E-02 a       977     0    40     1     2
 -4.4600702707589243E-02 a       978     0    40     1     3
 -1.0949442168025782E-01 a       979     0    40     1     4
  1.1507055467834668E-01 a       980     0    40     1     5
  4.5763805809746233E-02 a       981     0    40     1     6
 -5.7946443072099930E-02 a       982     0    40     1     7
 -1.0565139993314958E-01 a       983     0    40     1     8
  7.3929045621249745E-02 a       984     0    40     1     9
 -1.6873615116776174E-02 a       985     0    40     1    10
  2.2525409237895525E-01 a       986     0    40     1    11
  4.1477006365940615E-02 a       987     0    40     1    12
  9.3178541477587654E-02 a       988     0    40     1    13
  4.6957648780492085E-02 a       989     0    40     1    14
 -4.9679401867775114E-02 a       990     0    40     1    15
 -1.8426243961988463E-02 a       991     0    40     1    16
 -1.2633509122471501E-02 a       992     0    40     1    17
 -2.2865043133994224E-02 a       993     0    40     1    18
  1.0815390541096956E-01 a       994     0    40     1    19
  7.4948772649236176E-02 a       995     0    40     1    20
 -3.7639995181675595E-01 a       996     0    40     1    21
 -3.4325493661879009E-02 a       997     0    40     1    22
  6.4903689472819562E-02 a       998     0    40     1    23
  1.5817283201813065E-01 a       999     0    40     1    24
  1.0827170663421135E-01 a      1000     0    40     1    25
 -8.4936626411443224E-03 a      1001     0    41     1     1
 -2.2736956819758666E-01 a      1002     0    41     1     2
  1.2397149625820884E-01 a      1003     0    41     1     3
  6.7739289984358825E-02 a      1004     0    41     1     4
 -2.4734213859400345E-01 a      1005     0    41     1     5
 -5.9024136123477178E-02 a      1006     0    41     1     6
 -1.8346512986029584E-01 a      1007     0    41     1     7
  8.6603702585822367E-02 a      1008     0    41     1     8
  5.1334275968804681E-02 a      1009     0    41     1     9
  3.9142992520615444E-01 a      1010     0    41     1    10
 -1.7120525958431423E-01 a      1011     0    41     1    11
  9.4813061974566917E-02 a      1012     0    41     1    12
 -9.7319251449334190E-02 a      1013     0    41     1    13
 -5.5484652127600571E-02 a      1014     0    41     1    14
 -4.2984370966104989E-02 a      1015     0    41     1    15
  3.1135993270303447E-01 a      1016     0    41     1    16
 -2.1655961658952017E-01 a      1017     0    41     1    17
  1.6450490751593613E-01 a      1018     0    41     1    18
 -1.0807602937983909E-02 a      1019     0    41     1    19
  4.1438647094070219E-02 a      1020     0    41     1    20
 -3.2060679905708989E-02 a      1021     0    41     1    21
  5.3733688102819933E-03 a      1022     0    41     1    22
 -1.1074093447883181E-01 a      1023     0    41     1    23
 -3.2800796985237834E-01 a      1024     0    41     1    24
 -2.0060901729878702E-01 a      1025     0    41     1    25
 -1.2773376671057682E-01 a      1026     0    42     1     1
  1.1002386011846853E-01 a      1027     0    42     1     2
 -6.0325945631295674E-02 a      1028     0    42     1     3
  2.3058992617809190E-01 a      1029     0    42     1     4
  1.9083905844717400E-01 a      1030     0    42     1     5
 -1.9985659062715037E-02 a      1031     0    42     1     6
  1.2279404672494724E-02 a      1032     0    42     1     7
  1.9092140333356650E-01 a      1033     0    42     1     8
 -1.1569282902865100E-01 a      1034     0    42     1     9
  1.6335420866427017E-01 a      1035     0    42     1    10
 -8.7303278400623505E-02 a      1036     0    42     1    11
 -1.8268710798503113E-01 a      1037     0    42     1    12
 -1.2721797401378443E-01 a      1038     0    42     1    13
  7.4094977386157557E-02 a      1039     0    42     1    14
 -9.9043336334638923E-02 a      1040     0    42     1    15
 -2.0807978332804489E-01 a      1041     0    42     1    16
  2.0471166899802226E-01 a      1042     0    42     1    17
  1.2769558285629939E-01 a      1043     0    42     1    18
 -9.4283684829697983E-02 a      1044     0    42     1    19
 -3.4665231974778554E-02 a      1045     0    42     1    20
  1.9424617416159456E-02 a      1046     0    42     1    21
 -1.3872718700373701E-01 a      1047     0    42     1    22
 -9.7296965896314369E-02 a      1048     0    42     1    23
 -1.7425151613361398E-01 a      1049     0    42     1    24
  7.4187695680392754E-02 a      1050     0    42     1    25
  2.1850061077185021E-01 a      1051     0    43     1     1
  1.3173430196628860E-01 a      1052     0    43     1     2
  1.4861022337107066E-01 a      1053     0    43     1     3
  8.5214608388664348E-02 a      1054     0    43     1     4
 -1.1155027197449684E-01 a      1055     0    43     1     5
  1.2432345679217405E-01 a      1056     0    43     1     6
 -1.1677594532589428E-01 a      1057     0    43     1     7
  1.1239165847938300E-01 a      1058     0    43     1     8
  4.6477895099275579E-02 a      1059     0    43     1     9
  3.3044680752312927E-02 a      1060     0    43     1    10
  2.1749489713970453E-02 a      1061     0    43     1    11
 -1.6580504888027120E-02 a      1062     0    43     1    12
  1.0890156967655606E-03 a      1063     0    43     1    13
  5.9645259177730489E-02 a      1064     0    43     1    14
 -1.2735010989353030E-02 a      1065     0    43     1    15
  1.0307756843783532E-01 a      1066     0    43     1    16
 -1.6682337056670782E-01 a      1067     0    43     1    17
 -5.5239398330236389E-02 a      1068     0    43     1    18
 -3.4115850845783458E-01 a      1069     0    43     1    19
 -1.8129994883318252E-02 a      1070     0    43     1    20
 -2.2996114291518840E-01 a      1071     0    43     1    21
  1.4573628752891808E-02 a      1072     0    43     1    22
  2.3021335454439584E-02 a      1073     0    43     1    23
 -8.4773521534590821E-02 a      1074     0    43     1    24
  2.6589080499140688E-01 a      1075     0    43     1    25
 -1.0423245834663784E-01 a      1076     0    44     1     1
  5.1563996010081804E-02 a      1077     0    44     1     2
 -2.3290190067892808E-02 a      1078     0    44     1     3
 -2.9558825393555471E-01 a      1079     0    44     1     4
  1.8419940220241315E-01 a      1080     0    44     1     5
 -2.1037180176147721E-01 a      1081     0    44     1     6
  1.0484848021615385E-01 a      1082     0    44     1     7
  1.1541535943924869E-01 a      1083     0    44     1     8
 -9.1346842870876341E-02 a      1084     0    44     1     9
  2.9059316649652653E-02 a      1085     0    44     1    10
 -1.9065077685714360E-01 a      1086     0    44     1    11
  4.3757570829445140E-02 a      1087     0    44     1    12
  2.3488518378610035E-01 a      1088     0    44     1    13
 -1.0087147568642062E-01 a      1089     0    44     1    14
  9.8979441632549597E-02 a      1090     0    44     1    15
  8.1428697556166302E-02 a      1091     0    44     1    16
 -2.3371045406367288E-01 a      1092     0    44     1    17
  1.0127152530005880E-01 a      1093     0    44     1    18
 -2.4845607441678738E-01 a      1094     0    44     1    19
 -6.6273811814206926E-02 a      1095     0    44     1    20
 -2.4873328876135020E-01 a      1096     0    44     1    21
  1.1659952724393510E-02 a      1097     0    44     1    22
  1.7126919662162961E-02 a      1098     0    44     1    23
 -1.0755167623936929E-01 a      1099     0    44     1    24
 -5.4574249133854053E-03 a      1100     0    44     1    25
 -1.7409022225816750E-01 a      1101     0    45     1     1
 -1.1902760929736483E-01 a      1102     0    45     1     2
 -2.2190053282778319E-01 a      1103     0    45     1     3
 -1.5360044457853236E-01 a      1104     0    45     1     4
 -1.0930119035229728E-01 a      1105     0    45     1     5
 -4.1543374159957791E-02 a      1106     0    45     1     6
 -1.5961358920615584E-01 a      1107     0    45     1     7
 -2.0048175727267967E-01 a      1108     0    45     1     8
  1.1167372167482402E-01 a      1109     0    45     1     9
 -7.6237300016570836E-02 a      1110     0    45     1    10
 -7.7266526745131386E-03 a      1111     0    45     1    11
  8.6174837372001031E-02 a      1112     0    45     1    12
  1.1525345202784092E-01 a      1113     0    45     1    13
  1.3286234276698922E-01 a      1114     0    45     1    14
  2.5745604861691984E-01 a      1115     0    45     1    15
  8.9329603061709312E-02 a      1116     0    45     1    16
 -1.4435970301321421E-01 a      1117     0    45     1    17
 -1.9866768617460689E-01 a      1118     0    45     1    18
  7.0376370767236796E-02 a      1119     0    45     1    19
  6.9225931947570152E-02 a      1120     0    45     1    20
 -2.2143496622285902E-01 a      1121     0    45     1    21
 -1.3249755898103996E-01 a      1122     0    45     1    22
  2.1431223881578026E-01 a      1123     0    45     1    23
  1.7456174615152620E-01 a      1124     0    45     1    24
 -8.1667036032150170E-03 a      1125     0    45     1    25
 -1.4062416681014324E-02 a      1126     0    46     1     1
  3.9171527509925121E-02 a      1127     0    46     1     2
  3.9462385128389087E-02 a      1128     0    46     1     3
 -5.0089394776381121E-02 a      1129     0    46     1     4
  6.3358514625130410E-02 a      1130     0    46     1     5
 -3.2479950750997177E-01 a      1131     0    46     1     6
  1.7387439075965145E-03 a      1132     0    46     1     7
  4.1636254670410357E-02 a      1133     0    46     1     8
 -1.0764871429172528E-02 a      1134     0    46     1     9
  8.1947235864570880E-02 a      1135     0    46     1    10
 -2.5870457131889701E-01 a      1136     0    46     1    11
 -1.4113159534292147E-01 a      1137     0    46     1    12
 -1.7702826248781439E-01 a      1138     0    46     1    13
  2.3111732789844300E-02 a      1139     0    46     1    14
  6.1485772702886028E-02 a      1140     0    46     1    15
  4.2334607157635262E-02 a      1141     0    46     1    16
 -1.3274069440802064E-01 a      1142     0    46     1    17
 -3.8883243272146532E-02 a      1143     0    46     1    18
 -8.9975850197395388E-02 a      1144     0    46     1    19
 -1.1562323616526171E-01 a      1145     0    46     1    20
 -6.0943490210152274E-02 a      1146     0    46     1    21
 -6.6478938718120356E-02 a      1147     0    46     1    22
  6.5609406399407960E-02 a      1148     0    46     1    23
  6.6023301731383349E-02 a      1149     0    46     1    24
 -1.2277356059096636E-01 a      1150     0    46     1    25
  1.8795648149720334E-01 a      1151     0    47     1     1
 -1.1361871082829206E-01 a      1152     0    47     1     2
  6.2436171854697020E-02 a      1153     0    47     1     3
  1.8716832114080739E-01 a      1154     0    47     1     4
  7.0668615905130752E-02 a      1155     0    47     1     5
 -9.1321335674187668E-02 a      1156     0    47     1     6
 -2.3889941045246185E-01 a      1157     0    47     1     7
  5.8427153344654696E-02 a      1158     0    47     1     8
  1.0846547314535065E-01 a      1159     0    47     1     9
 -1.9597190964337843E-01 a      1160     0    47     1    10
 -1.6699553404734852E-01 a      1161     0    47     1    11
 -2.0731111314302697E-01 a      1162     0    47     1    12
 -4.1760016350850505E-02 a      1163     0    47     1    13
 -6.4619755458694070E-02 a      1164     0    47     1    14
 -3.2514932806912789E-01 a      1165     0    47     1    15
  1.9007468085986967E-01 a      1166     0    47     1    16
  7.1807310247107167E-02 a      1167     0    47     1    17
 -2.6914426869485324E-03 a      1168     0    47     1    18
  5.1700965015200738E-02 a      1169     0    47     1    19
  1.7708645255521446E-01 a      1170     0    47     1    20
  2.0935078928508633E-01 a      1171     0    47     1    21
 -2.9383582702295300E-02 a      1172     0    47     1    22
  6.9618324636037425E-03 a      1173     0    47     1    23
  3.9818317218591158E-03 a      1174     0    47     1    24
  1.0755600505833263E-01 a      1175     0    47     1    25
 -2.9061748999572139E-02 a      1176     0    48     1     1
  7.7030403461892461E-03 a      1177     0    48     1     2
 -3.3543668746886762E-01 a      1178     0    48     1     3
 -1.7360972236782995E-02 a      1179     0    48     1     4
  9.7853683975020936E-02 a      1180     0    48     1     5
 -8.7835148214809519E-03 a      1181     0    48     1     6
 -1.8401275137474041E-02 a      1182     0    48     1     7
  7.4444916634556407E-02 a      1183     0    48     1     8
  3.1950206297539099E-02 a      1184     0    48     1     9
 -1.1136084719913796E-01 a      1185     0    48     1    10
  1.4063342536713558E-01 a      1186     0    48     1    11
 -1.1671939789193099E-02 a      1187     0    48     1    12
  2.8655868473930816E-02 a      1188     0    48     1    13
  2.3102032584975518E-01 a      1189     0    48     1    14
 -9.7330379207301268E-02 a      1190     0    48     1    15
  5.8135508967226281E-02 a      1191     0    48     1    16
 -4.3851724054223142E-02 a      1192     0    48     1    17
  2.1823930683598395E-02 a      1193     0    48     1    18
  4.3633924142983178E-02 a      1194     0    48     1    19
  8.5732594428444067E-02 a      1195     0    48     1    20
 -2.6003695702215579E-01 a      1196     0    48     1    21
 -2.7049935635690952E-02 a      1197     0    48     1    22
  8.4801324494092445E-02 a      1198     0    48     1    23
  2.8208603522862776E-02 a      1199     0    48     1    24
 -1.8234032032193520E-01 a      1200     0    48     1    25
 -2.1115320506276777E-02 a      1201     0    49     1     1
 -2.1115379734953924E-01 a      1202     0    49     1     2
  2.0360393494956247E-01 a      1203     0    49     1     3
 -1.6574809002633439E-01 a      1204     0    49     1     4
  2.2304681273302931E-01 a      1205     0    49     1     5
 -7.8026046751113368E-02 a      1206     0    49     1     6
 -1.2990823959144077E-01 a      1207     0    49     1     7
 -3.0697171795394557E-01 a      1208     0    49     1     8
 -2.6649071747638331E-01 a      1209     0    49     1     9
  5.3693910957681071E-02 a      1210     0    49     1    10
 -4.3750993759641275E-02 a      1211     0    49     1    11
 -2.4461758356259564E-01 a      1212     0    49     1    12
 -1.0692740447657303E-01 a      1213     0    49     1    13
  5.6063402287235366E-02 a      1214     0    49     1    14
  4.4548371069348558E-02 a      1215     0    49     1    15
 -2.1983310664046146E-01 a      1216     0    49     1    16
 -2.5874785975374248E-01 a      1217     0    49     1    17
  3.1312856699742979E-02 a      1218     0    49     1    18
 -3.4153596900179842E-02 a      1219     0    49     1    19
  4.0701982355313304E-02 a      1220     0    49     1    20
  1.6624587185196266E-01 a      1221     0    49     1    21
  8.9801777946931838E-02 a      1222     0    49     1    22
 -7.7356768924109240E-02 a      1223     0    49     1    23
 -1.8715858471674778E-02 a      1224     0    49     1    24
  8.8152788420373995E-02 a      1225     0    49     1    25
  6.7030556348868023E-02 a      1226     0    50     1     1
 -2.2803977097305586E-01 a      1227     0    50     1     2
 -1.1720284824544513E-01 a      1228     0    50     1     3
 -2.1511360325732504E-01 a      1229     0    50     1     4
 -2.6096310353581603E-01 a      1230     0    50     1     5
 -1.0978627896673513E-02 a      1231     0    50     1     6
  1.8093447112797256E-02 a      1232     0    50     1     7
  1.7620277132241785E-01 a      1233     0    50     1     8
 -2.1090637299828391E-01 a      1234     0    50     1     9
  1.4217880041996364E-01 a      1235     0    50     1    10
  2.6550353019942452E-01 a      1236     0    50     1    11
  1.5942942956079231E-01 a      1237     0    50     1    12
  1.8077667680762094E-01 a      1238     0    50     1    13
 -2.0077355020774376E-01 a      1239     0    50     1    14
  1.2060442254440655E-01 a      1240     0    50     1    15
  1.2807084727705334E-01 a      1241     0    50     1    16
 -1.1375627936639028E-01 a      1242     0    50     1    17
  2.9329833658519343E-02 a      1243     0    50     1    18
 -2.0909419882705368E-01 a      1244     0    50     1    19
  4.1645395102376061E-02 a      1245     0    50     1    20
  1.7626205306045956E-01 a      1246     0    50     1    21
 -2.6199865674322829E-02 a      1247     0    50     1    22
  2.6515858270818216E-01 a      1248     0    50     1    23
  1.1997414191849753E-01 a      1249     0    50     1    24
  1.3938602910434281E-01 a      1250     0    50     1    25
  1.7955686666547196E-01 a      1251     0    51     1     1
 -8.1964882448686799E-02 a      1252     0    51     1     2
  1.6430081850327380E-01 a      1253     0    51     1     3
 -2.9064946602936215E-01 a      1254     0    51     1     4
 -2.4083511969715449E-02 a      1255     0    51     1     5
  1.9979355513322736E-02 a      1256     0    51     1     6
 -1.3097996622732369E-01 a      1257     0    51     1     7
 -1.5426540924485066E-01 a      1258     0    51     1     8
 -1.5581836176471551E-02 a      1259     0    51     1     9
 -6.5024988640865783E-02 a      1260     0    51     1    10
  3.6865536517834759E-02 a      1261     0    51     1    11
 -3.6501481995218038E-01 a      1262     0    51     1    12
  1.6308657410361216E-01 a      1263     0    51     1    13
 -5.0287877628891177E-02 a      1264     0    51     1    14
 -1.7427886308872767E-01 a      1265     0    51     1    15
 -8.8841145494248472E-02 a      1266     0    51     1    16
  8.8643432366444508E-02 a      1267     0    51     1    17
  1.0308810924504598E-01 a      1268     0    51     1    18
 -3.3869805032587064E-01 a      1269     0    51     1    19
 -3.5096869640458161E-02 a      1270     0    51     1    20
 -1.7507187187079179E-01 a      1271     0    51     1    21
 -5.1363859604948658E-02 a      1272     0    51     1    22
  1.4702598011435841E-01 a      1273     0    51     1    23
  5.6564157292319388E-02 a      1274     0    51     1    24
 -1.3064648303149082E-02 a      1275     0    51     1    25
 -1.1376684674470316E-02 a      1276     0    52     1     1
  4.4247786329169272E-02 a      1277     0    52     1     2
 -1.4479691153783866E-01 a      1278     0    52     1     3
  1.5085151367660923E-01 a      1279     0    52     1     4
  6.3645406156330589E-02 a      1280     0    52     1     5
  3.0832170345856283E-03 a      1281     0    52     1     6
  2.6125219127669044E-02 a      1282     0    52     1     7
  2.6685155386067233E-01 a      1283     0    52     1     8
  2.1286142992741147E-01 a      1284     0    52     1     9
  5.7530892666485482E-03 a      1285     0    52     1    10
  1.2246454185734265E-02 a      1286     0    52     1    11
  4.5406007287794231E-02 a      1287     0    52     1    12
  1.5601552963219126E-01 a      1288     0    52     1    13
 -1.3767086282186428E-01 a      1289     0    52     1    14
  5.4566360663505113E-02 a      1290     0    52     1    15
 -2.3436265131487954E-01 a      1291     0    52     1    16
 -1.0034116738631935E-01 a      1292     0    52     1    17
 -8.7800358873256587E-02 a      1293     0    52     1    18
  4.6132333516004702E-02 a      1294     0    52     1    19
 -1.8134516122103903E-01 a      1295     0    52     1    20
  1.9224601705218747E-01 a      1296     0    52     1    21
  2.7623023781932494E-02 a      1297     0    52     1    22
  1.9171363800359925E-01 a      1298     0    52     1    23
 -9.4316243867269070E-03 a      1299     0    52     1    24
 -1.4976526390812470E-01 a      1300     0    52     1    25
 -8.6051388250690863E-02 a      1301     0    53     1     1
 -2.5084248533279890E-01 a      1302     0    53     1     2
 -9.1016525753754740E-02 a      1303     0    53     1     3
 -1.4701435803574853E-01 a      1304     0    53     1     4
  6.0136717728338715E-02 a      1305     0    53     1     5
 -2.0993209588977907E-01 a      1306     0    53     1     6
 -8.1921453426671148E-02 a      1307     0    53     1     7
  3.4683245076008909E-02 a      1308     0    53     1     8
 -1.3336719903494568E-01 a      1309     0    53     1     9
  1.0435271233733442E-01 a      1310     0    53     1    10
  1.5472117857099071E-01 a      1311     0    53     1    11
 -2.4936221570733358E-01 a      1312     0    53     1    12
 -1.2307656799591499E-01 a      1313     0    53     1    13
  3.0227882618644633E-02 a      1314     0    53     1    14
 -1.7659283946949850E-01 a      1315     0    53     1    15
  1.4647162248752349E-01 a      1316     0    53     1    16
  3.6512594414561739E-01 a      1317     0    53     1    17
  2.5919704972395963E-01 a      1318     0    53     1    18
  2.4307566942944550E-01 a      1319     0    53     1    19
  4.5681557357516223E-02 a      1320     0    53     1    20
  1.1225839598917084E-01 a      1321     0    53     1    21
 -1.3306390881395394E-01 a      1322     0    53     1    22
  9.8665960606083902E-02 a      1323     0    53     1    23
  8.5011958676388291E-02 a      1324     0    53     1    24
 -2.1500903433399665E-01 a      1325     0    53     1    25
  3.6254091156122874E-02 a      1326     0    54     1     1
 -1.7354447177310689E-03 a      1327     0    54     1     2
  7.9068376768230850E-02 a      1328     0    54     1     3
  5.5432262807700389E-02 a      1329     0    54     1     4
 -1.5131329424838971E-01 a      1330     0    54     1     5
 -1.9167712786177596E-01 a      1331     0    54     1     6
 -8.0567082347680452E-02 a      1332     0    54     1     7
  1.0251312808140227E-01 a      1333     0    54     1     8
 -1.1709738616866330E-01 a      1334     0    54     1     9
  8.6108916331529256E-02 a      1335     0    54     1    10
  5.0471472493543341E-02 a      1336     0    54     1    11
 -2.0741543168903587E-01 a      1337     0    54     1    12
  1.2872314301304569E-01 a      1338     0    54     1    13
 -1.2778211034463674E-01 a      1339     0    54     1    14
 -2.7629750569657813E-01 a      1340     0    54     1    15
 -2.7972587979363844E-01 a      1341     0    54     1    16
  1.9177704861661871E-01 a      1342     0    54     1    17
  5.9864542287954035E-02 a      1343     0    54     1    18
 -4.5714504153164456E-02 a      1344     0    54     1    19
  3.0457814060140058E-03 a      1345     0    54     1    20
 -6.4515204167261336E-02 a      1346     0    54     1    21
 -5.4757258375065745E-02 a      1347     0    54     1    22
  1.0997571255315140E-01 a      1348     0    54     1    23
 -2.8086017165763651E-02 a      1349     0    54     1    24
 -1.7853089059125188E-01 a      1350     0    54     1    25
 -1.7510970787788477E-01 a      1351     0    55     1     1
  1.7400130580175732E-01 a      1352     0    55     1     2
 -3.8749098858286641E-03 a      1353     0    55     1     3
  1.0975847091086022E-01 a      1354     0    55     1     4
  2.5911541400791860E-01 a      1355     0    55     1     5
  2.6535255925049045E-01 a      1356     0    55     1     6
 -1.1043808303104012E-01 a      1357     0    55     1     7
 -1.1574123456817741E-01 a      1358     0    55     1     8
  8.9141584378402722E-02 a      1359     0    55     1     9
  1.6864310492152210E-01 a      1360     0    55     1    10
  1.5887355962489105E-01 a      1361     0    55     1    11
 -1.7872047849312972E-01 a      1362     0    55     1    12
  1.0078147540968511E-01 a      1363     0    55     1    13
 -9.1364318759054541E-02 a      1364     0    55     1    14
 -2.1165815875720670E-01 a      1365     0    55     1    15
 -4.6032956139355985E-02 a      1366     0    55     1    16
  4.7791036844362966E-01 a      1367     0    55     1    17
 -6.0966560031385876E-02 a      1368     0    55     1    18
  1.6674500711044423E-02 a      1369     0    55     1    19
 -7.4516802768227974E-02 a      1370     0    55     1    20
  1.6764357884701370E-01 a      1371     0    55     1    21
  4.7761259332916514E-02 a      1372     0    55     1    22
  8.0186288442861461E-03 a      1373     0    55     1    23
  9.4385412887311698E-02 a      1374     0    55     1    24
  2.7756085549415288E-01 a      1375     0    55     1    25
 -1.0474023331491560E-01 a      1376     0    56     1     1
 -3.2237880071326615E-02 a      1377     0    56     1     2
  1.3123414514467766E-01 a      1378     0    56     1     3
 -2.3926806059111724E-01 a      1379     0    56     1     4
 -1.0762651627354404E-01 a      1380     0    56     1     5
 -1.7610245419362559E-02 a      1381     0    56     1     6
 -8.2122963535311271E-03 a      1382     0    56     1     7
 -8.8467106852491401E-02 a      1383     0    56     1     8
 -1.1820378920260687E-01 a      1384     0    56     1     9
  1.2706389321142852E-01 a      1385     0    56     1    10
 -7.1415566990109466E-02 a      1386     0    56     1    11
  1.7752875201341295E-03 a      1387     0    56     1    12
 -1.0944239816675452E-01 a      1388     0    56     1    13
 -1.4529998187186918E-01 a      1389     0    56     1    14
  1.7294199767087789E-01 a      1390     0    56     1    15
 -2.7569872771687537E-01 a      1391     0    56     1    16
  6.5507429085042840E-02 a      1392     0    56     1    17
  1.2530865983031311E-01 a      1393     0    56     1    18
  1.7337660071252651E-02 a      1394     0    56     1    19
 -5.2853365761296296E-02 a      1395     0    56     1    20
  3.0234359979407446E-02 a      1396     0    56     1    21
  2.9078996948547176E-01 a      1397     0    56     1    22
 -1.2975424838483490E-01 a      1398     0    56     1    23
 -7.6369526667196055E-02 a      1399     0    56     1    24
  1.1391573326698061E-01 a      1400     0    56     1    25
 -9.9552685438920610E-02 a      1401     0    57     1     1
  3.0568364585922114E-02 a      1402     0    57     1     2
  1.5422932313103302E-01 a      1403     0    57     1     3
 -2.5507583988757887E-01 a      1404     0    57     1     4
  1.8933233136012993E-02 a      1405     0    57     1     5
  4.6056891158775135E-02 a      1406     0    57     1     6
  1.4359248714918155E-01 a      1407     0    57     1     7
  2.5139022940657896E-02 a      1408     0    57     1     8
 -1.5176922021383016E-01 a      1409     0    57     1     9
  3.3603725124016265E-01 a      1410     0    57     1    10
  2.9579029536050361E-01 a      1411     0    57     1    11
 -3.9505016900941603E-02 a      1412     0    57     1    12
 -2.3683415084794374E-01 a      1413     0    57     1    13
  7.0394804884131301E-02 a      1414     0    57     1    14
  3.8608593788922306E-02 a      1415     0    57     1    15
 -2.3102466127249574E-02 a      1416     0    57     1    16
  1.3858652289881845E-01 a      1417     0    57     1    17
  3.2386296030089093E-02 a      1418     0    57     1    18
 -9.8684834600982388E-02 a      1419     0    57     1    19
 -2.2605947732693732E-01 a      1420     0    57     1    20
 -1.3902831559966244E-01 a      1421     0    57     1    21
  2.9288933195019242E-03 a      1422     0    57     1    22
  1.3860221770127423E-01 a      1423     0    57     1    23
  8.1463821211317566E-02 a      1424     0    57     1    24
 -2.9368860260342328E-02 a      1425     0    57     1    25
  3.2635956437448571E-03 a      1426     0    58     1     1
  8.8640110642481271E-02 a      1427     0    58     1     2
  3.1677910827527946E-02 a      1428     0    58     1     3
 -1.4108103457011428E-01 a      1429     0    58     1     4
  1.3449265551050268E-01 a      1430     0    58     1     5
  1.3411325160971405E-01 a      1431     0    58     1     6
  2.1697655985941114E-01 a      1432     0    58     1     7
 -1.5936347847542112E-01 a      1433     0    58     1     8
 -9.0017232193015398E-02 a      1434     0    58     1     9
 -2.3377952974867416E-01 a      1435     0    58     1    10
  2.1383667591845881E-01 a      1436     0    58     1    11
 -9.6204087400329055E-02 a      1437     0    58     1    12
  1.3148077504676153E-01 a      1438     0    58     1    13
 -1.3705832999309364E-01 a      1439     0    58     1    14
 -3.1931849822192875E-02 a      1440     0    58     1    15
  2.7346541880385919E-02 a      1441     0    58     1    16
 -7.5488655016399092E-02 a      1442     0    58     1    17
 -9.4653179241843619E-02 a      1443     0    58     1    18
 -8.2108253244422863E-02 a      1444     0    58     1    19
  6.5410317576379620E-02 a      1445     0    58     1    20
 -2.5965470473856500E-01 a      1446     0    58     1    21
 -2.4806961551045936E-01 a      1447     0    58     1    22
 -4.9968299254397129E-02 a      1448     0    58     1    23
 -1.2763953487252105E-01 a      1449     0    58     1    24
  2.1558994772195767E-02 a      1450     0    58     1    25
  2.6838712220665473E-01 a      1451     0    59     1     1
  1.0519197711830720E-01 a      1452     0    59     1     2
  3.8612153149775903E-02 a      1453     0    59     1     3
 -1.2561821236075704E-01 a      1454     0    59     1     4
 -1.1547962254659115E-01 a      1455     0    59     1     5
 -2.9787773226227034E-02 a      1456     0    59     1     6
  7.8748489435255573E-02 a      1457     0    59     1     7
 -5.0524463561110830E-02 a      1458     0    59     1     8
  7.4704238113603799E-02 a      1459     0    59     1     9
 -1.4569575747420066E-01 a      1460     0    59     1    10
  1.4084025330987282E-01 a      1461     0    59     1    11
  1.0179001357539001E-01 a      1462     0    59     1    12
 -9.1932226176881255E-03 a      1463     0    59     1    13
 -7.7575995352735502E-02 a      1464     0    59     1    14
 -9.6696900122744511E-02 a      1465     0    59     1    15
  1.6383474172783692E-02 a      1466     0    59     1    16
  6.8140969975134733E-02 a      1467     0    59     1    17
 -7.1848689475852587E-02 a      1468     0    59     1    18
  9.0404638013745472E-02 a      1469     0    59     1    19
 -2.9298342680459579E-02 a      1470     0    59     1    20
 -7.3570678639157852E-02 a      1471     0    59     1    21
  2.2730818323674659E-01 a      1472     0    59     1    22
 -3.3534882669755445E-01 a      1473     0    59     1    23
 -2.2050448737122538E-01 a      1474     0    59     1    24
 -6.7131268978152220E-02 a      1475     0    59     1    25
 -1.5322662527358930E-01 a      1476     0    60     1     1
  2.2925424047363173E-04 a      1477     0    60     1     2
  1.1909107707504757E-01 a      1478     0    60     1     3
  2.3942189886818840E-01 a      1479     0    60     1     4
  1.4704396414114071E-01 a      1480     0    60     1     5
  4.5082210763739611E-02 a      1481     0    60     1     6
  5.0674874802084192E-02 a      1482     0    60     1     7
 -1.9013214495911968E-01 a      1483     0    60     1     8
  1.7638457010205327E-01 a      1484     0    60     1     9
 -7.7942181296809507E-02 a      1485     0    60     1    10
 -1.8361655719895231E-01 a      1486     0    60     1    11
  1.6578391785616983E-01 a      1487     0    60     1    12
 -1.1647321167441767E-01 a      1488     0    60     1    13
  1.3981928497999824E-01 a      1489     0    60     1    14
  1.6100125063790488E-01 a      1490     0    60     1    15
  2.8702073822784682E-02 a      1491     0    60     1    16
  2.8360464520199741E-01 a      1492     0    60     1    17
 -3.4470978895337935E-03 a      1493     0    60     1    18
  1.0044608540624131E-01 a      1494     0    60     1    19
 -1.6284257261026072E-01 a      1495     0    60     1    20
 -9.3899415882768775E-02 a      1496     0    60     1    21
  4.4577038667974751E-02 a      1497     0    60     1    22
  1.2706455589980823E-02 a      1498     0    60     1    23
 -2.5938324798069068E-01 a      1499     0    60     1    24
  1.2292197213073874E-02 a      1500     0    60     1    25
 -1.1770152087352655E-01 a      1501     0    61     1     1
 -1.2364951391475511E-02 a      1502     0    61     1     2
 -2.2114178864329648E-01 a      1503     0    61     1     3
 -1.2316723576321749E-01 a      1504     0    61     1     4
  1.0917991713798617E-01 a      1505     0    61     1     5
  8.4380093159708638E-02 a      1506     0    61     1     6
 -1.1112844329111471E-01 a      1507     0    61     1     7
 -8.7135313692163652E-02 a      1508     0    61     1     8
  1.0757121735460387E-01 a      1509     0    61     1     9
 -1.0699875525462292E-01 a      1510     0    61     1    10
 -3.5550810039653137E-02 a      1511     0    61     1    11
  1.4014030306281458E-01 a      1512     0    61     1    12
  1.7196631018814437E-01 a      1513     0    61     1    13
 -1.2704178508480379E-01 a      1514     0    61     1    14
  2.3078572491260765E-01 a      1515     0    61     1    15
 -3.4341175441656567E-02 a      1516     0    61     1    16
  1.3656101752677688E-02 a      1517     0    61     1    17
 -1.1686439403967178E-01 a      1518     0    61     1    18
  1.0003289249932015E-01 a      1519     0    61     1    19
 -2.8641713785438019E-02 a      1520     0    61     1    20
  3.0670775238503639E-01 a      1521     0    61     1    21
  2.9041457821553082E-02 a      1522     0    61     1    22
  6.0745439493573750E-02 a      1523     0    61     1    23
  1.4398850870995430E-01 a      1524     0    61     1    24
 -1.8175669494697150E-01 a      1525     0    61     1    25
 -1.2797568712433299E-01 a      1526     0    62     1     1
 -4.8457881527887339E-02 a      1527     0    62     1     2
  2.0413770581208021E-01 a      1528     0    62     1     3
 -2.8115406671225942E-02 a      1529     0    62     1     4
 -1.7905626215731446E-01 a      1530     0    62     1     5
  2.1937383316170073E-01 a      1531     0    62     1     6
  1.2076610565430448E-01 a      1532     0    62     1     7
  4.7200601726399886E-02 a      1533     0    62     1     8
 -2.9834442556549068E-01 a      1534     0    62     1     9
  2.0128448110401401E-01 a      1535     0    62     1    10
  1.7319718611505528E-02 a      1536     0    62     1    11
  1.1027001867299792E-01 a      1537     0    62     1    12
  1.5890065691510122E-01 a      1538     0    62     1    13
  1.8289642070919460E-01 a      1539     0    62     1    14
 -1.3078348034359152E-01 a      1540     0    62     1    15
 -2.5619154836822436E-02 a      1541     0    62     1    16
 -1.8179553581216468E-01 a      1542     0    62     1    17
  8.5628183475580141E-02 a      1543     0    62     1    18
 -4.3476958617100672E-02 a      1544     0    62     1    19
 -1.2754122522956848E-01 a      1545     0    62     1    20
 -1.0506741927354976E-02 a      1546     0    62     1    21
  8.6766521253791931E-02 a      1547     0    62     1    22
 -3.3264820514987969E-02 a      1548     0    62     1    23
 -2.5350107084361290E-01 a      1549     0    62     1    24
 -5.0845087361289981E-02 a      1550     0    62     1    25
 -8.8417073168605947E-02 a      1551     0    63     1     1
  1.1871036631868018E-02 a      1552     0    63     1     2
 -1.9823667104407641E-01 a      1553     0    63     1     3
 -2.1281680189180946E-02 a      1554     0    63     1     4
  3.9957056993750788E-02 a      1555     0    63     1     5
  3.1118528848117827E-01 a      1556     0    63     1     6
 -7.6562831728805902E-02 a      1557     0    63     1     7
 -6.3839102656534613E-02 a      1558     0    63     1     8
 -2.4411065317497701E-02 a      1559     0    63     1     9
  3.2602411101377519E-03 a      1560     0    63     1    10
  1.0064870426128832E-01 a      1561     0    63     1    11
 -4.3649077792684982E-02 a      1562     0    63     1    12
  1.5390807243364799E-01 a      1563     0    63     1    13
  4.3105659719374932E-02 a      1564     0    63     1    14
 -1.3168323602245294E-01 a      1565     0    63     1    15
  2.6157924833976099E-02 a      1566     0    63     1    16
  6.2635184556872198E-02 a      1567     0    63     1    17
  7.3118967536671886E-03 a      1568     0    63     1    18
  1.6152884603827622E-01 a      1569     0    63     1    19
 -6.8131085193629884E-03 a      1570     0    63     1    20
  5.5614436822873585E-02 a      1571     0    63     1    21
 -7.4359179841944123E-02 a      1572     0    63     1    22
 -3.2783968800551098E-03 a      1573     0    63     1    23
 -4.0651484413638604E-02 a      1574     0    63     1    24
 -3.6237326681232480E-02 a      1575     0    63     1    25
 -1.6874723257007201E-01 a      1576     0    64     1     1
  2.1349092877210520E-02 a      1577     0    64     1     2
  5.8403934330031555E-02 a      1578     0    64     1     3
 -1.9612815144750495E-01 a      1579     0    64     1     4
 -2.2107533091801709E-01 a      1580     0    64     1     5
 -5.7116981868114335E-02 a      1581     0    64     1     6
 -1.0516599417199232E-01 a      1582     0    64     1     7
 -1.7639890585098975E-02 a      1583     0    64     1     8
 -9.3658228457030493E-02 a      1584     0    64     1     9
 -1.0947561287568566E-01 a      1585     0    64     1    10
  5.6534174125126804E-02 a      1586     0    64     1    11
 -7.7936674907256739E-02 a      1587     0    64     1    12
  4.6523055136535901E-02 a      1588     0    64     1    13
 -3.8561122803111095E-02 a      1589     0    64     1    14
  3.7006455262268978E-02 a      1590     0    64     1    15
  1.1698934740589563E-01 a      1591     0    64     1    16
  3.0119267697974822E-02 a      1592     0    64     1    17
 -4.6605181020528977E-02 a      1593     0    64     1    18
 -4.2484558694829824E-02 a      1594     0    64     1    19
  6.3919026642501126E-02 a      1595     0    64     1    20
 -1.4056152148179810E-01 a      1596     0    64     1    21
  5.2566296231688910E-02 a      1597     0    64     1    22
  1.5627585878544927E-02 a      1598     0    64     1    23
 -8.5415047593215096E-02 a      1599     0    64     1    24
 -1.4818932634242135E-01 a      1600     0    64     1    25
  8.2479638597308044E-02 a      1601     0    65     1     1
 -9.3434682796359834E-03 a      1602     0    65     1     2
  1.3290572676961260E-01 a      1603     0    65     1     3
  1.1299095750007367E-01 a      1604     0    65     1     4
 -6.6255982146144338E-02 a      1605     0    65     1     5
 -2.1879524897613720E-02 a      1606     0    65     1     6
 -1.1680581058455090E-01 a      1607     0    65     1     7
  4.4843127717802106E-02 a      1608     0    65     1     8
  1.4372598674730250E-01 a      1609     0    65     1     9
  1.3938059980166190E-01 a      1610     0    65     1    10
  1.2080279987882900E-01 a      1611     0    65     1    11
 -3.8358976806341434E-02 a      1612     0    65     1    12
 -1.9409017503213208E-02 a      1613     0    65     1    13
 -1.6057420731272640E-01 a      1614     0    65     1    14
  1.4237283647209321E-02 a      1615     0    65     1    15
  8.9340953739467668E-02 a      1616     0    65     1    16
  9.9158332183265349E-02 a      1617     0    65     1    17
  1.8597416095603708E-02 a      1618     0    65     1    18
 -8.0103160856047177E-04 a      1619     0    65     1    19
 -5.9607313934205283E-03 a      1620     0    65     1    20
 -4.2838171586368635E-02 a      1621     0    65     1    21
 -4.6851217412965482E-02 a      1622     0    65     1    22
  1.3463053018926918E-01 a      1623     0    65     1    23
