################################################################################
# Neural network connection values (weights and biases).
################################################################################
# Col  Name       Description
################################################################################
# 1    connection Neural network connection value.
# 2    t          Connection type (a = weight, b = bias).
# 3    index      Index enumerating weights.
# 4    l_s        Starting point layer (end point layer for biases).
# 5    n_s        Starting point neuron in starting layer (end point neuron for biases).
# 6    l_e        End point layer.
# 7    n_e        End point neuron in end layer.
################################################################################
#                      1 2         3     4     5     6     7
#             connection t     index   l_s   n_s   l_e   n_e
############################################################
  1.0322988726941866E+00 a         1     0     1     1     1
  7.9394269486466906E-01 a         2     0     1     1     2
  6.4467157464743508E-01 a         3     0     1     1     3
  1.0342129775202413E-02 a         4     0     1     1     4
 -2.2250693647585570E-01 a         5     0     1     1     5
  4.3237554427297703E-01 a         6     0     1     1     6
  2.8250520780824800E-01 a         7     0     1     1     7
  1.6438670358399388E-01 a         8     0     1     1     8
 -1.5322327655086679E-01 a         9     0     1     1     9
 -2.3984657703853457E-01 a        10     0     1     1    10
 -2.7562343468166904E-04 a        11     0     1     1    11
 -1.1799109245175123E-01 a        12     0     1     1    12
  3.9858526652658127E-01 a        13     0     1     1    13
 -2.5525486246966755E-01 a        14     0     1     1    14
  2.6062326968072225E-01 a        15     0     1     1    15
  8.2009001506130729E-03 a        16     0     1     1    16
 -7.1622005109231732E-03 a        17     0     1     1    17
 -4.8657346087303616E-01 a        18     0     1     1    18
 -1.8366311699668672E-01 a        19     0     1     1    19
  1.4355198438299044E-01 a        20     0     1     1    20
  7.3365927565886391E-02 a        21     0     1     1    21
  3.1106247309698642E-01 a        22     0     1     1    22
 -8.4315666894857266E-01 a        23     0     1     1    23
  1.6898041989699999E-01 a        24     0     1     1    24
 -1.7812650202143807E-01 a        25     0     1     1    25
 -3.8385818279678802E-01 a        26     0     2     1     1
  4.8903602510821986E-01 a        27     0     2     1     2
 -1.7327645353841725E-01 a        28     0     2     1     3
  1.5777438251987361E-01 a        29     0     2     1     4
  2.3556442730602506E-01 a        30     0     2     1     5
 -8.5225583328545837E-02 a        31     0     2     1     6
 -4.8722100683491754E-01 a        32     0     2     1     7
 -4.3257860275039667E-01 a        33     0     2     1     8
 -1.2139926999217711E-01 a        34     0     2     1     9
 -7.9720637353715862E-01 a        35     0     2     1    10
 -2.1133921999823185E-01 a        36     0     2     1    11
 -2.5085329615872447E-02 a        37     0     2     1    12
 -8.1554918296018325E-02 a        38     0     2     1    13
  6.1120730957626601E-01 a        39     0     2     1    14
 -5.3019786037701667E-02 a        40     0     2     1    15
  2.3424475526720022E-02 a        41     0     2     1    16
 -4.0687637160295631E-01 a        42     0     2     1    17
  2.1355434834216738E-01 a        43     0     2     1    18
 -5.7680024704009036E-01 a        44     0     2     1    19
 -5.4063916233627080E-02 a        45     0     2     1    20
  4.2865279675625444E-02 a        46     0     2     1    21
 -1.7805564298178880E-01 a        47     0     2     1    22
  2.7386440784729754E-01 a        48     0     2     1    23
 -5.7839771973360321E-01 a        49     0     2     1    24
 -4.2053532407867905E-01 a        50     0     2     1    25
  1.9994564073697321E-01 a        51     0     3     1     1
 -2.5849400908340042E-01 a        52     0     3     1     2
  2.4915478192464496E-01 a        53     0     3     1     3
 -4.5699021358654751E-02 a        54     0     3     1     4
  1.1159123923046490E-03 a        55     0     3     1     5
 -2.4296595253067596E-01 a        56     0     3     1     6
  1.5619342632952599E-01 a        57     0     3     1     7
  7.4474832823034132E-02 a        58     0     3     1     8
  2.1554353242236157E-01 a        59     0     3     1     9
  1.9970359840013654E-01 a        60     0     3     1    10
  1.5396448755532330E-01 a        61     0     3     1    11
  2.4421424346682363E-01 a        62     0     3     1    12
 -2.5759758660066528E-01 a        63     0     3     1    13
  3.3317273837319673E-02 a        64     0     3     1    14
  1.6041163236561440E-01 a        65     0     3     1    15
 -6.6062270735513740E-02 a        66     0     3     1    16
 -1.0542979770153558E-02 a        67     0     3     1    17
  5.3750963137863657E-02 a        68     0     3     1    18
 -1.5318268481071873E-01 a        69     0     3     1    19
 -2.0594763119159154E-01 a        70     0     3     1    20
  4.6518148320656538E-02 a        71     0     3     1    21
  3.7160372885566659E-02 a        72     0     3     1    22
 -1.5839091708832709E-01 a        73     0     3     1    23
 -1.0238589372681485E-01 a        74     0     3     1    24
 -3.1733237093819672E-02 a        75     0     3     1    25
  5.9370738563791207E-02 a        76     0     4     1     1
 -1.3759729175380105E-05 a        77     0     4     1     2
 -1.3290363412331815E-01 a        78     0     4     1     3
  1.3399688774100585E-01 a        79     0     4     1     4
 -3.4498280487888555E-02 a        80     0     4     1     5
 -1.7399287046793381E-02 a        81     0     4     1     6
 -2.8222137119701837E-02 a        82     0     4     1     7
 -9.9832202383623975E-02 a        83     0     4     1     8
  2.4455335773326748E-02 a        84     0     4     1     9
 -1.3092334413779716E-01 a        85     0     4     1    10
 -7.3387005607498584E-02 a        86     0     4     1    11
  5.7787465637156615E-02 a        87     0     4     1    12
  1.1787841969647560E-01 a        88     0     4     1    13
  3.4724576220709631E-02 a        89     0     4     1    14
  2.5429910019818116E-02 a        90     0     4     1    15
  2.0307106041747358E-01 a        91     0     4     1    16
  1.9016292036318724E-01 a        92     0     4     1    17
 -1.9249275914820362E-02 a        93     0     4     1    18
 -1.4010561730186577E-01 a        94     0     4     1    19
  9.8844448777262631E-02 a        95     0     4     1    20
 -1.3396253141445091E-01 a        96     0     4     1    21
  9.5026795711470727E-02 a        97     0     4     1    22
  2.4850704820678884E-02 a        98     0     4     1    23
  2.4219528505216747E-02 a        99     0     4     1    24
  1.1071135380787579E-01 a       100     0     4     1    25
 -7.2957037807656600E-01 a       101     0     5     1     1
 -9.6836419659192086E-01 a       102     0     5     1     2
 -4.2825630294428474E-01 a       103     0     5     1     3
 -7.0544248416750155E-01 a       104     0     5     1     4
  1.1509978227764328E+00 a       105     0     5     1     5
  2.0091538523977912E-02 a       106     0     5     1     6
 -4.3857994419768020E-01 a       107     0     5     1     7
  3.2942438022618992E-01 a       108     0     5     1     8
  5.5597387368457718E-01 a       109     0     5     1     9
  6.5740654302238977E-01 a       110     0     5     1    10
  7.2940049074501578E-01 a       111     0     5     1    11
 -1.7617486147425598E-01 a       112     0     5     1    12
 -1.0164507418383398E-01 a       113     0     5     1    13
  6.7261272733118660E-02 a       114     0     5     1    14
 -1.0529722130647365E+00 a       115     0     5     1    15
  5.0462189200821639E-01 a       116     0     5     1    16
 -3.7024262690849595E-02 a       117     0     5     1    17
 -2.5332413018925404E-01 a       118     0     5     1    18
  2.5836782052276581E-02 a       119     0     5     1    19
  2.8357934528667911E-01 a       120     0     5     1    20
  1.6462073712300913E-02 a       121     0     5     1    21
 -3.7810133587853068E-01 a       122     0     5     1    22
 -1.3492051504025202E+00 a       123     0     5     1    23
  5.1537993631283665E-03 a       124     0     5     1    24
 -6.7906684907535417E-02 a       125     0     5     1    25
  2.2270229011871676E-02 a       126     0     6     1     1
  4.5394785261684373E-01 a       127     0     6     1     2
 -5.1481791503665808E-01 a       128     0     6     1     3
  2.0160754558712785E-01 a       129     0     6     1     4
  6.8082842559054266E-02 a       130     0     6     1     5
 -6.7821805982024835E-02 a       131     0     6     1     6
 -4.8107359498116481E-02 a       132     0     6     1     7
  8.0885874929515689E-01 a       133     0     6     1     8
  8.5784647588133478E-01 a       134     0     6     1     9
 -8.2988017208146081E-02 a       135     0     6     1    10
  2.1272579826932048E-01 a       136     0     6     1    11
  9.2290604574833762E-02 a       137     0     6     1    12
  6.9296855778425884E-02 a       138     0     6     1    13
 -4.6848048722426378E-01 a       139     0     6     1    14
  5.6001386932395786E-02 a       140     0     6     1    15
 -3.3321887165956904E-01 a       141     0     6     1    16
  5.8610401858123939E-01 a       142     0     6     1    17
 -2.0437089808879039E-01 a       143     0     6     1    18
  1.0438524721929174E-01 a       144     0     6     1    19
  6.3430766014215989E-02 a       145     0     6     1    20
  1.6704575131417779E-01 a       146     0     6     1    21
 -2.3567489849769388E-01 a       147     0     6     1    22
  2.3917729052237557E-01 a       148     0     6     1    23
 -8.6821283889593148E-02 a       149     0     6     1    24
  5.4396834509041780E-01 a       150     0     6     1    25
 -2.9342577650683566E-01 a       151     0     7     1     1
  5.5729370219264253E-02 a       152     0     7     1     2
 -1.0262782043418503E-01 a       153     0     7     1     3
  1.0634224057402299E-01 a       154     0     7     1     4
  1.3509737328497595E-01 a       155     0     7     1     5
 -1.8805160898313225E-01 a       156     0     7     1     6
 -1.2195819970137893E-01 a       157     0     7     1     7
 -3.5031981104620018E-02 a       158     0     7     1     8
 -1.2605051934553327E-01 a       159     0     7     1     9
 -8.5226901902185445E-02 a       160     0     7     1    10
  1.4894606449134912E-01 a       161     0     7     1    11
 -1.6329702182643241E-01 a       162     0     7     1    12
  1.4685248295199008E-01 a       163     0     7     1    13
 -9.0959870949920470E-03 a       164     0     7     1    14
 -4.7171167329993755E-02 a       165     0     7     1    15
  1.2962678542813541E-01 a       166     0     7     1    16
  1.0118114470635334E-01 a       167     0     7     1    17
  2.3547097912995765E-01 a       168     0     7     1    18
  1.9361041523269884E-01 a       169     0     7     1    19
 -2.4406050233963117E-01 a       170     0     7     1    20
 -5.8012078209834774E-03 a       171     0     7     1    21
  2.1916940668626195E-01 a       172     0     7     1    22
 -2.1794061664086711E-01 a       173     0     7     1    23
  8.6501707582919654E-02 a       174     0     7     1    24
  4.6216202758194096E-02 a       175     0     7     1    25
 -1.1088405172782299E-01 a       176     0     8     1     1
  1.6137698534699746E-01 a       177     0     8     1     2
  2.8059432140720531E-02 a       178     0     8     1     3
  1.1287395919151914E-01 a       179     0     8     1     4
 -1.5055107501365642E-01 a       180     0     8     1     5
  5.4168920213473496E-03 a       181     0     8     1     6
 -1.0525082887106751E-01 a       182     0     8     1     7
  2.1184251783095726E-01 a       183     0     8     1     8
  2.6872619245671875E-01 a       184     0     8     1     9
 -1.5155065152656300E-01 a       185     0     8     1    10
  1.1366465030527427E-01 a       186     0     8     1    11
  1.2471560401331697E-02 a       187     0     8     1    12
 -9.6814447029463596E-02 a       188     0     8     1    13
 -9.6134191292456775E-02 a       189     0     8     1    14
 -1.0570769335634797E-01 a       190     0     8     1    15
 -3.4346197640583401E-02 a       191     0     8     1    16
 -1.6787912028350946E-01 a       192     0     8     1    17
 -2.4537955258683583E-01 a       193     0     8     1    18
  7.8122365832297438E-02 a       194     0     8     1    19
  2.1146574092577801E-02 a       195     0     8     1    20
  1.1690995033975864E-01 a       196     0     8     1    21
 -3.4227154159373651E-03 a       197     0     8     1    22
  3.8638596348060737E-02 a       198     0     8     1    23
  1.5897654641431357E-02 a       199     0     8     1    24
  4.8156945790366522E-02 a       200     0     8     1    25
 -3.3538438170742291E-01 a       201     0     9     1     1
  9.0764124681740652E-02 a       202     0     9     1     2
  2.4789084526273383E-01 a       203     0     9     1     3
  1.7141205612298527E-01 a       204     0     9     1     4
 -4.2033491793550287E-01 a       205     0     9     1     5
 -1.4865613908021785E-01 a       206     0     9     1     6
  4.2836525073245540E-01 a       207     0     9     1     7
 -7.2484730745865766E-01 a       208     0     9     1     8
  1.9577484490470878E-01 a       209     0     9     1     9
 -6.4366551725712429E-02 a       210     0     9     1    10
 -5.8360046597081405E-01 a       211     0     9     1    11
  4.5977840605590070E-01 a       212     0     9     1    12
  4.0637752319437248E-01 a       213     0     9     1    13
  1.9425786432545444E-02 a       214     0     9     1    14
  8.7676958456023146E-01 a       215     0     9     1    15
  1.4594038839164650E-01 a       216     0     9     1    16
  2.5189296246965470E-01 a       217     0     9     1    17
 -2.6468994104421945E-01 a       218     0     9     1    18
 -2.0203986051848916E-01 a       219     0     9     1    19
  2.0988725634562935E-01 a       220     0     9     1    20
  1.5645800864283906E-02 a       221     0     9     1    21
  7.7683148012688708E-01 a       222     0     9     1    22
  1.3766591306066052E+00 a       223     0     9     1    23
  2.4231180892383097E-01 a       224     0     9     1    24
  1.9478999980026446E-02 a       225     0     9     1    25
  7.5015231467744400E-02 a       226     0    10     1     1
  1.7644018609754458E-01 a       227     0    10     1     2
  1.6696524381357322E-02 a       228     0    10     1     3
 -9.3681940793527083E-02 a       229     0    10     1     4
 -8.0887183934809204E-02 a       230     0    10     1     5
 -1.0839109671220860E-01 a       231     0    10     1     6
 -1.5468420622088778E-02 a       232     0    10     1     7
  8.4033582772572765E-02 a       233     0    10     1     8
  3.8508255090032828E-01 a       234     0    10     1     9
 -9.8369066839792962E-02 a       235     0    10     1    10
 -1.0758219466431584E-02 a       236     0    10     1    11
  3.7339516675853879E-01 a       237     0    10     1    12
 -3.1957325454092900E-01 a       238     0    10     1    13
  3.2882824183670223E-01 a       239     0    10     1    14
  7.4507523120813476E-02 a       240     0    10     1    15
 -4.0891667528261552E-02 a       241     0    10     1    16
 -1.7923203018283032E-01 a       242     0    10     1    17
  2.3266992232056499E-01 a       243     0    10     1    18
  2.2196125101998507E-01 a       244     0    10     1    19
 -1.3048885214232678E-01 a       245     0    10     1    20
  1.2364737046183664E-01 a       246     0    10     1    21
 -4.6367127392027296E-01 a       247     0    10     1    22
  1.4985403424432051E-01 a       248     0    10     1    23
 -2.7195854275767334E-01 a       249     0    10     1    24
 -3.2667974295165980E-01 a       250     0    10     1    25
 -8.4908165435639615E-02 a       251     0    11     1     1
 -1.7640749162609732E-02 a       252     0    11     1     2
 -4.8109123872893796E-02 a       253     0    11     1     3
 -1.0633896720395497E-01 a       254     0    11     1     4
 -1.9980877641581365E-02 a       255     0    11     1     5
  1.6949376098515770E-01 a       256     0    11     1     6
 -8.8971536894006439E-03 a       257     0    11     1     7
 -1.0971983614762589E-02 a       258     0    11     1     8
 -1.3175472141524336E-01 a       259     0    11     1     9
  5.0770241119700063E-02 a       260     0    11     1    10
  3.8827459046487565E-02 a       261     0    11     1    11
  1.4967404728361036E-01 a       262     0    11     1    12
  1.2399297636973129E-01 a       263     0    11     1    13
  1.3328002915624063E-01 a       264     0    11     1    14
 -2.3790039778144142E-02 a       265     0    11     1    15
 -8.3831268914184326E-02 a       266     0    11     1    16
  1.0477092769448558E-01 a       267     0    11     1    17
 -1.0303785925009182E-01 a       268     0    11     1    18
 -7.7573248432278849E-02 a       269     0    11     1    19
  3.8330511454105931E-01 a       270     0    11     1    20
  1.2842772615806497E-01 a       271     0    11     1    21
 -1.3546388800550629E-01 a       272     0    11     1    22
  1.7903754790218046E-01 a       273     0    11     1    23
  6.4501120990205663E-02 a       274     0    11     1    24
 -5.1591684711956416E-02 a       275     0    11     1    25
  1.8321211754239033E-02 a       276     0    12     1     1
  1.1155162481886567E-01 a       277     0    12     1     2
 -2.9967135544797729E-01 a       278     0    12     1     3
  2.4464673859132475E-03 a       279     0    12     1     4
 -3.6232505191489857E-02 a       280     0    12     1     5
  1.2013766627693765E-02 a       281     0    12     1     6
  8.0992412149999249E-02 a       282     0    12     1     7
  6.8689122055030805E-02 a       283     0    12     1     8
  1.6669791066264900E-01 a       284     0    12     1     9
 -2.0287030251172709E-02 a       285     0    12     1    10
 -2.6915867837956340E-03 a       286     0    12     1    11
  1.5588790561346221E-02 a       287     0    12     1    12
 -5.6765641833765562E-02 a       288     0    12     1    13
 -9.4244105799457689E-02 a       289     0    12     1    14
  8.2135928302289232E-02 a       290     0    12     1    15
  1.0565872227159671E-01 a       291     0    12     1    16
  2.1368790859466757E-01 a       292     0    12     1    17
 -2.4137108451138448E-01 a       293     0    12     1    18
 -1.3262954550026632E-01 a       294     0    12     1    19
 -1.1140498359667647E-01 a       295     0    12     1    20
  1.1619837394161078E-01 a       296     0    12     1    21
 -7.7999875331130897E-02 a       297     0    12     1    22
  2.2015798659256117E-01 a       298     0    12     1    23
 -1.7729420410747365E-01 a       299     0    12     1    24
  9.1969630892927381E-02 a       300     0    12     1    25
  3.9084738052409468E-01 a       301     0    13     1     1
 -1.7240566818913794E-01 a       302     0    13     1     2
 -1.0751405509965503E-01 a       303     0    13     1     3
 -1.5681549030761530E-01 a       304     0    13     1     4
  1.9314721834854651E-01 a       305     0    13     1     5
  1.7671326579618177E-01 a       306     0    13     1     6
 -1.8803990067017537E-01 a       307     0    13     1     7
  4.9383398984262550E-01 a       308     0    13     1     8
 -2.8960194539933715E-01 a       309     0    13     1     9
 -1.6027543588795143E-01 a       310     0    13     1    10
  4.7746166090709685E-01 a       311     0    13     1    11
 -1.5971749912145383E-01 a       312     0    13     1    12
  2.6959292710312105E-01 a       313     0    13     1    13
 -6.3807018633592047E-02 a       314     0    13     1    14
 -9.1235177916245513E-01 a       315     0    13     1    15
  1.5091889291176394E-01 a       316     0    13     1    16
  2.5353982746878773E-01 a       317     0    13     1    17
 -5.9229815349262516E-01 a       318     0    13     1    18
 -8.6554906199951029E-02 a       319     0    13     1    19
 -1.1865195027711491E-02 a       320     0    13     1    20
 -2.3129327671316535E-02 a       321     0    13     1    21
 -2.5718608706260454E-01 a       322     0    13     1    22
 -1.2709733081700856E+00 a       323     0    13     1    23
 -4.0270704207439244E-02 a       324     0    13     1    24
 -3.2419325971327875E-03 a       325     0    13     1    25
  1.7345553607936531E-01 a       326     0    14     1     1
  1.9151502946633514E-01 a       327     0    14     1     2
 -3.6032898057413709E-01 a       328     0    14     1     3
  4.4685343075247116E-02 a       329     0    14     1     4
  1.7514344088581288E-01 a       330     0    14     1     5
  1.7146149334544225E-01 a       331     0    14     1     6
 -2.4504872654400531E-01 a       332     0    14     1     7
  2.7325689062401082E-01 a       333     0    14     1     8
  6.8689652996770809E-02 a       334     0    14     1     9
 -2.8378420211582389E-01 a       335     0    14     1    10
  2.1442490192901450E-03 a       336     0    14     1    11
 -1.1195775670310947E-01 a       337     0    14     1    12
 -1.7056914886052768E-01 a       338     0    14     1    13
 -2.8510119854007254E-01 a       339     0    14     1    14
  9.1651525838453499E-02 a       340     0    14     1    15
 -1.1625694300373920E-01 a       341     0    14     1    16
 -9.8208241180243044E-02 a       342     0    14     1    17
 -9.7021207907997509E-02 a       343     0    14     1    18
 -3.3741239008402701E-02 a       344     0    14     1    19
  7.8275281634958463E-02 a       345     0    14     1    20
  2.7480305275237621E-01 a       346     0    14     1    21
 -7.8019194926720520E-02 a       347     0    14     1    22
  1.6720257853519055E-01 a       348     0    14     1    23
  2.0221758532997718E-02 a       349     0    14     1    24
  1.2502273979915338E-01 a       350     0    14     1    25
  1.0030042693295048E-01 a       351     0    15     1     1
 -7.5133078921121824E-02 a       352     0    15     1     2
  1.1829522039272662E-01 a       353     0    15     1     3
 -1.5555305572904204E-01 a       354     0    15     1     4
  2.6321035866138064E-02 a       355     0    15     1     5
  1.0977296714445564E-01 a       356     0    15     1     6
  4.3592220086640474E-02 a       357     0    15     1     7
 -2.0293240481621216E-01 a       358     0    15     1     8
  2.4087430558240405E-01 a       359     0    15     1     9
  1.8174004817714201E-01 a       360     0    15     1    10
 -4.6421763785589919E-03 a       361     0    15     1    11
 -1.3472775036866888E-01 a       362     0    15     1    12
  1.8458675512624667E-01 a       363     0    15     1    13
 -1.7631488773543643E-02 a       364     0    15     1    14
 -1.1749608534938883E-02 a       365     0    15     1    15
 -1.6862791341610231E-01 a       366     0    15     1    16
  8.6628279562890889E-02 a       367     0    15     1    17
 -4.7216568036943921E-02 a       368     0    15     1    18
  1.8630030676992797E-02 a       369     0    15     1    19
  7.2073257819542547E-02 a       370     0    15     1    20
 -2.2522717641429081E-02 a       371     0    15     1    21
  2.2074403933565079E-01 a       372     0    15     1    22
 -1.4423275898365542E-01 a       373     0    15     1    23
  7.2877359839801665E-03 a       374     0    15     1    24
 -1.4367545268663726E-01 a       375     0    15     1    25
 -9.4239849350580593E-02 a       376     0    16     1     1
  1.4889598203821811E-01 a       377     0    16     1     2
  9.6557842832173016E-02 a       378     0    16     1     3
 -1.6944151069363138E-02 a       379     0    16     1     4
 -1.0943693408253080E-01 a       380     0    16     1     5
 -1.4188155713450545E-01 a       381     0    16     1     6
 -1.1236963569190907E-01 a       382     0    16     1     7
  1.5383509706450232E-01 a       383     0    16     1     8
  2.5454513811356366E-01 a       384     0    16     1     9
 -2.3717342018756901E-01 a       385     0    16     1    10
 -1.0635654569382615E-01 a       386     0    16     1    11
  7.3501927020742833E-02 a       387     0    16     1    12
 -7.0487394156556915E-02 a       388     0    16     1    13
  4.8375989322760181E-02 a       389     0    16     1    14
 -1.4376477191858323E-02 a       390     0    16     1    15
 -1.2071117339462953E-01 a       391     0    16     1    16
 -1.5491716926638321E-01 a       392     0    16     1    17
 -1.9804589692693217E-01 a       393     0    16     1    18
  1.5500321132827866E-01 a       394     0    16     1    19
  1.5288261663240188E-01 a       395     0    16     1    20
  1.8745536704071972E-01 a       396     0    16     1    21
 -1.5360629910176166E-01 a       397     0    16     1    22
  5.4485492558860232E-02 a       398     0    16     1    23
 -3.6129429270014127E-02 a       399     0    16     1    24
  6.5503456441379657E-02 a       400     0    16     1    25
 -6.2003752364867604E-01 a       401     0    17     1     1
 -2.1693993093628683E-01 a       402     0    17     1     2
  1.7519634929901162E-01 a       403     0    17     1     3
 -1.2115554871082157E-01 a       404     0    17     1     4
  3.5074199814657631E-01 a       405     0    17     1     5
  1.6071744655592729E-01 a       406     0    17     1     6
  1.7958538033568297E-02 a       407     0    17     1     7
 -5.4745970068073491E-01 a       408     0    17     1     8
  6.0700594352993309E-01 a       409     0    17     1     9
  9.1463824954496253E-01 a       410     0    17     1    10
 -1.1173725712190294E-01 a       411     0    17     1    11
  1.9471967322464515E-01 a       412     0    17     1    12
  2.3720137119758802E-01 a       413     0    17     1    13
  1.1178375973587000E-01 a       414     0    17     1    14
  2.8001649788658273E-01 a       415     0    17     1    15
  2.1164557773399567E-01 a       416     0    17     1    16
 -5.8957797435010589E-02 a       417     0    17     1    17
 -8.9192456866552805E-02 a       418     0    17     1    18
 -6.5071870381196426E-02 a       419     0    17     1    19
  2.2111645990551426E-01 a       420     0    17     1    20
 -1.5270503382609801E-01 a       421     0    17     1    21
  4.6352380490546036E-01 a       422     0    17     1    22
  2.5797373441976584E-01 a       423     0    17     1    23
  2.9809644262057888E-01 a       424     0    17     1    24
 -8.4267865164138783E-02 a       425     0    17     1    25
 -7.6655771437549716E-02 a       426     0    18     1     1
  1.2864615967150647E-01 a       427     0    18     1     2
 -4.3380322171578410E-02 a       428     0    18     1     3
 -8.9515792819935602E-02 a       429     0    18     1     4
 -4.8835599246776634E-03 a       430     0    18     1     5
 -2.7567011043051665E-01 a       431     0    18     1     6
  6.0166186441518207E-02 a       432     0    18     1     7
  1.7997387939927895E-01 a       433     0    18     1     8
  1.8298241295465117E-01 a       434     0    18     1     9
 -1.9979322287325282E-01 a       435     0    18     1    10
 -1.3264161084606210E-01 a       436     0    18     1    11
  1.1382816322988680E-01 a       437     0    18     1    12
 -1.1933639558339407E-01 a       438     0    18     1    13
  1.2294241916152721E-01 a       439     0    18     1    14
  1.9379906330485086E-01 a       440     0    18     1    15
 -2.6908899208560949E-01 a       441     0    18     1    16
 -1.5577248147953937E-01 a       442     0    18     1    17
 -1.2385240594529075E-01 a       443     0    18     1    18
  2.3830719599354969E-01 a       444     0    18     1    19
 -1.9013460271724608E-01 a       445     0    18     1    20
  2.5639415242732594E-01 a       446     0    18     1    21
 -4.7372994759589054E-01 a       447     0    18     1    22
  5.3271188740048103E-02 a       448     0    18     1    23
 -3.6058675272828372E-01 a       449     0    18     1    24
 -6.8468588863295599E-02 a       450     0    18     1    25
 -9.0297166594229220E-02 a       451     0    19     1     1
  8.1332898528896410E-03 a       452     0    19     1     2
 -8.0046658647955543E-02 a       453     0    19     1     3
  2.2560809499165238E-01 a       454     0    19     1     4
  5.7738440732799573E-02 a       455     0    19     1     5
  6.0952480625049543E-02 a       456     0    19     1     6
 -2.4190980354805033E-01 a       457     0    19     1     7
  1.1753777894755904E-03 a       458     0    19     1     8
 -7.9950004192086588E-02 a       459     0    19     1     9
  1.6828814982962981E-01 a       460     0    19     1    10
  1.0451888413481703E-02 a       461     0    19     1    11
 -2.3897942211948148E-02 a       462     0    19     1    12
  1.6504367055427727E-01 a       463     0    19     1    13
  6.4735154443300233E-02 a       464     0    19     1    14
 -5.0225294641480192E-02 a       465     0    19     1    15
  1.8546974206531905E-01 a       466     0    19     1    16
 -1.2302878922438063E-02 a       467     0    19     1    17
 -1.5940214969254485E-01 a       468     0    19     1    18
  3.5254958160627028E-02 a       469     0    19     1    19
 -5.1585273003782225E-02 a       470     0    19     1    20
  5.7257199631090230E-02 a       471     0    19     1    21
 -5.3404825596460336E-02 a       472     0    19     1    22
  1.6512818156265183E-02 a       473     0    19     1    23
  1.1457881719660643E-01 a       474     0    19     1    24
  1.4657539684920079E-01 a       475     0    19     1    25
 -2.2014787681830902E-02 a       476     0    20     1     1
 -5.7175351547210887E-02 a       477     0    20     1     2
 -2.1953869269909951E-01 a       478     0    20     1     3
 -9.6023383584997124E-02 a       479     0    20     1     4
  8.3867218629565074E-02 a       480     0    20     1     5
  1.2121620280376318E-01 a       481     0    20     1     6
  6.7191983182946835E-02 a       482     0    20     1     7
 -1.7642588254120775E-03 a       483     0    20     1     8
 -3.9419282742954406E-02 a       484     0    20     1     9
 -4.6291202824357287E-02 a       485     0    20     1    10
  9.7403985056265921E-02 a       486     0    20     1    11
 -1.6516074568182385E-02 a       487     0    20     1    12
  9.2205912589834130E-03 a       488     0    20     1    13
 -1.2111160733344631E-01 a       489     0    20     1    14
  5.6400204252123755E-02 a       490     0    20     1    15
  1.0614585757814886E-01 a       491     0    20     1    16
  1.6563455072179351E-02 a       492     0    20     1    17
 -2.1393743978664843E-02 a       493     0    20     1    18
 -7.7410537706872451E-02 a       494     0    20     1    19
 -2.4553999029502928E-02 a       495     0    20     1    20
  1.0713140512887535E-01 a       496     0    20     1    21
 -4.3238814327572372E-02 a       497     0    20     1    22
 -3.8102295912531968E-02 a       498     0    20     1    23
 -7.8184065894945462E-02 a       499     0    20     1    24
 -3.2124200574532712E-02 a       500     0    20     1    25
  5.5319423257109435E-01 a       501     0    21     1     1
  1.2770947578201308E-01 a       502     0    21     1     2
 -9.0558466131028498E-02 a       503     0    21     1     3
  1.4712703870251731E-01 a       504     0    21     1     4
 -3.2301556106242341E-01 a       505     0    21     1     5
  2.0843566683750783E-01 a       506     0    21     1     6
 -1.1776242391692046E-01 a       507     0    21     1     7
  1.5902831766563888E-01 a       508     0    21     1     8
 -3.8205455684552181E-01 a       509     0    21     1     9
 -2.3564322715092190E-01 a       510     0    21     1    10
  8.0719954340234462E-02 a       511     0    21     1    11
 -5.7201055675239663E-02 a       512     0    21     1    12
  2.9943138429280108E-01 a       513     0    21     1    13
 -4.9861966646159550E-02 a       514     0    21     1    14
 -3.4054695068020674E-01 a       515     0    21     1    15
 -1.5329681454830088E-01 a       516     0    21     1    16
  2.3733905843539574E-01 a       517     0    21     1    17
 -1.2586806862988464E-01 a       518     0    21     1    18
  2.3662337113042344E-03 a       519     0    21     1    19
 -3.3863515316708720E-01 a       520     0    21     1    20
 -1.1948524509675820E-01 a       521     0    21     1    21
 -1.2112408871196381E-01 a       522     0    21     1    22
 -2.6306310638869962E-01 a       523     0    21     1    23
 -3.6601923119950273E-02 a       524     0    21     1    24
 -2.0543539198575083E-02 a       525     0    21     1    25
 -5.7178910174428707E-02 a       526     0    22     1     1
 -1.6285702831539905E-02 a       527     0    22     1     2
 -7.9947319687802609E-02 a       528     0    22     1     3
 -4.1991489289679496E-02 a       529     0    22     1     4
  7.7938249096835222E-02 a       530     0    22     1     5
 -2.3053319292060878E-01 a       531     0    22     1     6
  1.0949695182166767E-02 a       532     0    22     1     7
  1.7251374445506754E-01 a       533     0    22     1     8
  1.6076404201231274E-02 a       534     0    22     1     9
 -4.1251022453590641E-01 a       535     0    22     1    10
  4.5820568181883015E-02 a       536     0    22     1    11
 -7.2399893238615357E-02 a       537     0    22     1    12
 -1.8653980210081098E-01 a       538     0    22     1    13
 -1.0045248949401785E-01 a       539     0    22     1    14
  1.3400545126895844E-01 a       540     0    22     1    15
  2.0463680054580793E-01 a       541     0    22     1    16
 -8.1941987859735152E-02 a       542     0    22     1    17
  2.3237921448244392E-01 a       543     0    22     1    18
 -9.6752643891084150E-02 a       544     0    22     1    19
  2.6021385352146009E-01 a       545     0    22     1    20
  5.2056800888802199E-02 a       546     0    22     1    21
  7.5607123878366406E-02 a       547     0    22     1    22
  1.5810012793184899E-01 a       548     0    22     1    23
  9.1748180354459558E-02 a       549     0    22     1    24
  6.4505897754381550E-02 a       550     0    22     1    25
  1.7442035194570940E-01 a       551     0    23     1     1
 -8.6048031674028469E-02 a       552     0    23     1     2
  1.6921117573837263E-01 a       553     0    23     1     3
  2.0705921358921880E-02 a       554     0    23     1     4
 -1.3050071746584507E-01 a       555     0    23     1     5
  1.6168610994867180E-01 a       556     0    23     1     6
  1.5478263403424633E-01 a       557     0    23     1     7
 -2.1452510562662128E-01 a       558     0    23     1     8
 -4.7752398718187037E-03 a       559     0    23     1     9
  1.8169006545263461E-01 a       560     0    23     1    10
 -4.8558976053839173E-02 a       561     0    23     1    11
  4.5137949892420592E-02 a       562     0    23     1    12
  1.4883869739531502E-01 a       563     0    23     1    13
 -5.3951507213731327E-02 a       564     0    23     1    14
 -8.4663706088331153E-02 a       565     0    23     1    15
 -1.8468835059133312E-01 a       566     0    23     1    16
  1.4679787347832096E-01 a       567     0    23     1    17
  9.6120365404583893E-02 a       568     0    23     1    18
 -1.3126970545773273E-01 a       569     0    23     1    19
 -1.5608378574029166E-01 a       570     0    23     1    20
 -2.7577100417724948E-01 a       571     0    23     1    21
  2.3336388867734370E-01 a       572     0    23     1    22
 -1.0763762872202126E-01 a       573     0    23     1    23
  3.0695298925200173E-02 a       574     0    23     1    24
 -6.8525825395353263E-02 a       575     0    23     1    25
 -6.9994938179352095E-02 a       576     0    24     1     1
  9.7997041159861211E-04 a       577     0    24     1     2
  6.8220650794166629E-02 a       578     0    24     1     3
  6.2058461427238285E-03 a       579     0    24     1     4
 -6.0748896254749121E-02 a       580     0    24     1     5
 -3.6814860676342176E-01 a       581     0    24     1     6
  5.7562732455719419E-02 a       582     0    24     1     7
  1.1295201747432988E-01 a       583     0    24     1     8
  1.2130548272982047E-01 a       584     0    24     1     9
 -3.2001073606280717E-01 a       585     0    24     1    10
 -8.8388403907788765E-02 a       586     0    24     1    11
 -4.7613474613040191E-02 a       587     0    24     1    12
 -2.1519629284662858E-01 a       588     0    24     1    13
  4.7011848093019443E-04 a       589     0    24     1    14
  1.6926746963929870E-01 a       590     0    24     1    15
 -1.1758466839343626E-01 a       591     0    24     1    16
 -1.5039539721930723E-01 a       592     0    24     1    17
 -1.5775479770385442E-01 a       593     0    24     1    18
  1.1290200526694159E-01 a       594     0    24     1    19
 -9.4399717844575418E-02 a       595     0    24     1    20
  2.1941442102530992E-01 a       596     0    24     1    21
 -1.2512538583276661E-01 a       597     0    24     1    22
  2.1720980510968738E-01 a       598     0    24     1    23
 -1.6582556233616827E-01 a       599     0    24     1    24
  4.8322449081316485E-02 a       600     0    24     1    25
 -3.0861878485397837E-01 a       601     0    25     1     1
 -1.3546484032933681E-01 a       602     0    25     1     2
  6.5842162324991807E-02 a       603     0    25     1     3
 -3.3285605414830687E-02 a       604     0    25     1     4
  3.0275259372483887E-01 a       605     0    25     1     5
  1.8393207278138773E-01 a       606     0    25     1     6
 -4.9155310824004643E-02 a       607     0    25     1     7
 -2.8265469530447018E-01 a       608     0    25     1     8
  2.7060575687052801E-01 a       609     0    25     1     9
  6.4331003602763071E-01 a       610     0    25     1    10
  1.2165065311689056E-01 a       611     0    25     1    11
  2.2344091781669368E-02 a       612     0    25     1    12
 -1.1759215677305764E-01 a       613     0    25     1    13
  7.9456810459438629E-02 a       614     0    25     1    14
  7.0657533431586927E-02 a       615     0    25     1    15
  6.7621356841863101E-02 a       616     0    25     1    16
 -1.1228765150850527E-01 a       617     0    25     1    17
 -8.3595996533377098E-02 a       618     0    25     1    18
  8.6595616248413040E-02 a       619     0    25     1    19
 -2.3351930977611131E-02 a       620     0    25     1    20
  1.1481328771778211E-01 a       621     0    25     1    21
  1.2854521704387994E-01 a       622     0    25     1    22
 -1.0225493768392742E-02 a       623     0    25     1    23
  8.0420314555610217E-02 a       624     0    25     1    24
 -6.9602005202895195E-02 a       625     0    25     1    25
 -1.4275880150603432E-01 a       626     0    26     1     1
  5.1789198357283378E-02 a       627     0    26     1     2
 -1.3046645810408529E-02 a       628     0    26     1     3
 -2.1193735786544679E-01 a       629     0    26     1     4
 -3.6376404306408754E-02 a       630     0    26     1     5
 -1.6349148503182762E-01 a       631     0    26     1     6
  1.2670210082885264E-01 a       632     0    26     1     7
  6.0904863678254498E-02 a       633     0    26     1     8
  7.7879495171924709E-03 a       634     0    26     1     9
 -1.4882783186413026E-01 a       635     0    26     1    10
 -4.9955607223907780E-02 a       636     0    26     1    11
  5.2245954475512106E-02 a       637     0    26     1    12
 -1.0411431981424332E-01 a       638     0    26     1    13
  2.2720680074105964E-03 a       639     0    26     1    14
  7.8683685633008052E-02 a       640     0    26     1    15
 -1.3884897975587485E-01 a       641     0    26     1    16
 -7.1956899563110230E-02 a       642     0    26     1    17
 -2.5064357129494036E-01 a       643     0    26     1    18
  2.5081865793882906E-02 a       644     0    26     1    19
  3.4319864398171841E-02 a       645     0    26     1    20
  1.3071283061781794E-01 a       646     0    26     1    21
 -1.1652149923425553E-01 a       647     0    26     1    22
 -3.8344622151575532E-02 a       648     0    26     1    23
 -1.8546687924209729E-01 a       649     0    26     1    24
  4.5215846073322928E-02 a       650     0    26     1    25
 -1.0515906983986342E-01 a       651     0    27     1     1
  7.7956327064528555E-02 a       652     0    27     1     2
 -1.0648449477322500E-01 a       653     0    27     1     3
  1.4474951676217557E-01 a       654     0    27     1     4
  1.4983004408799880E-01 a       655     0    27     1     5
  7.0391419415945872E-02 a       656     0    27     1     6
 -2.8503773912354602E-01 a       657     0    27     1     7
  3.2615127710862141E-02 a       658     0    27     1     8
  6.9532985858678925E-02 a       659     0    27     1     9
  1.0530322951440127E-01 a       660     0    27     1    10
  2.0757126817454175E-02 a       661     0    27     1    11
 -1.6563832458858713E-01 a       662     0    27     1    12
  7.0514338529840404E-02 a       663     0    27     1    13
  3.2191745667749613E-02 a       664     0    27     1    14
 -8.2173404190664004E-02 a       665     0    27     1    15
  6.3015933687555439E-02 a       666     0    27     1    16
 -1.1189885981479317E-01 a       667     0    27     1    17
 -1.4769509391689073E-01 a       668     0    27     1    18
  1.2466731404240929E-01 a       669     0    27     1    19
  1.6334126610713232E-03 a       670     0    27     1    20
  1.8015260336084662E-01 a       671     0    27     1    21
 -9.6475655986456355E-02 a       672     0    27     1    22
  4.4025250704256905E-02 a       673     0    27     1    23
  8.8784358998925728E-02 a       674     0    27     1    24
  4.6028574422700020E-03 a       675     0    27     1    25
 -1.1536025918858908E-01 a       676     0    28     1     1
  3.6299044417388578E-02 a       677     0    28     1     2
 -8.2317949802848331E-02 a       678     0    28     1     3
 -1.4654261032007670E-01 a       679     0    28     1     4
 -5.2368676628105598E-02 a       680     0    28     1     5
  1.8756042963180050E-01 a       681     0    28     1     6
  6.1903882710020786E-02 a       682     0    28     1     7
 -2.1754682354584071E-02 a       683     0    28     1     8
 -1.6056456853486961E-01 a       684     0    28     1     9
  6.7227975235536882E-03 a       685     0    28     1    10
  9.2382958458438372E-02 a       686     0    28     1    11
  1.2783140966382958E-01 a       687     0    28     1    12
  8.8182256943930559E-02 a       688     0    28     1    13
 -3.5751039967563346E-03 a       689     0    28     1    14
 -3.7837275576842272E-02 a       690     0    28     1    15
  4.0729991278417192E-02 a       691     0    28     1    16
  6.7265428542498951E-02 a       692     0    28     1    17
  1.5089643868063657E-01 a       693     0    28     1    18
 -9.8352422348063906E-02 a       694     0    28     1    19
  2.0874540719751811E-01 a       695     0    28     1    20
 -1.7191946204504024E-02 a       696     0    28     1    21
  5.8756998602951305E-02 a       697     0    28     1    22
 -1.8662808232341258E-01 a       698     0    28     1    23
  2.1914765819687571E-02 a       699     0    28     1    24
 -6.0467434581700907E-03 a       700     0    28     1    25
  3.3140073350080373E-01 a       701     0    29     1     1
  1.3146571010427066E-01 a       702     0    29     1     2
  1.2033090366146498E-02 a       703     0    29     1     3
  2.6309888403171749E-01 a       704     0    29     1     4
 -2.5106876530533695E-01 a       705     0    29     1     5
  1.8500806054361105E-01 a       706     0    29     1     6
 -1.1986053076742727E-01 a       707     0    29     1     7
  5.5664482946116242E-02 a       708     0    29     1     8
 -1.1194721357264116E-01 a       709     0    29     1     9
 -2.3994412150338172E-02 a       710     0    29     1    10
 -7.7154004914364110E-02 a       711     0    29     1    11
  4.4337527127574654E-02 a       712     0    29     1    12
  1.5270383820169253E-01 a       713     0    29     1    13
  1.9967651477689075E-02 a       714     0    29     1    14
 -2.3493790289558264E-01 a       715     0    29     1    15
 -1.8424485250854242E-01 a       716     0    29     1    16
  2.2674920469444168E-01 a       717     0    29     1    17
  1.7151798973959548E-02 a       718     0    29     1    18
  1.4595614075919911E-02 a       719     0    29     1    19
 -5.0297785049843155E-02 a       720     0    29     1    20
 -1.7071840497796659E-01 a       721     0    29     1    21
 -6.3239748677219251E-02 a       722     0    29     1    22
 -4.0918502400032995E-02 a       723     0    29     1    23
  4.9990095096279406E-02 a       724     0    29     1    24
 -1.0881300899207103E-01 a       725     0    29     1    25
 -3.2243072952307689E-02 a       726     0    30     1     1
 -5.8660883817825922E-02 a       727     0    30     1     2
 -7.1595882392707158E-02 a       728     0    30     1     3
 -1.4898070623360890E-01 a       729     0    30     1     4
  4.7569501166225117E-02 a       730     0    30     1     5
 -2.2139494824698883E-01 a       731     0    30     1     6
  7.4446000339281337E-02 a       732     0    30     1     7
  1.0361365226281928E-01 a       733     0    30     1     8
  3.3072605617330698E-02 a       734     0    30     1     9
 -3.9891280958685532E-01 a       735     0    30     1    10
  1.1328730727246758E-02 a       736     0    30     1    11
 -5.1020222543487169E-02 a       737     0    30     1    12
 -7.6004547713375586E-02 a       738     0    30     1    13
 -5.8311775800338313E-02 a       739     0    30     1    14
  1.4425608368167836E-01 a       740     0    30     1    15
  1.8517744532647343E-01 a       741     0    30     1    16
 -5.5506414002178768E-02 a       742     0    30     1    17
  2.1555992079632527E-01 a       743     0    30     1    18
 -5.4343714925049171E-02 a       744     0    30     1    19
  1.1212847195295557E-01 a       745     0    30     1    20
  4.1213398808202954E-02 a       746     0    30     1    21
  2.1451838176832352E-02 a       747     0    30     1    22
  1.6081401171669932E-01 a       748     0    30     1    23
  1.0572949277316107E-02 a       749     0    30     1    24
  5.2601838477244291E-02 a       750     0    30     1    25
  2.3619868752894121E-01 a       751     0    31     1     1
 -4.1167415891184930E-02 a       752     0    31     1     2
  7.1089659092894705E-02 a       753     0    31     1     3
 -7.0368871621870291E-02 a       754     0    31     1     4
 -1.6404160190154535E-01 a       755     0    31     1     5
  1.3444328958842525E-01 a       756     0    31     1     6
  1.5670058483560972E-01 a       757     0    31     1     7
 -1.5399708147459090E-01 a       758     0    31     1     8
 -2.0013723552217321E-02 a       759     0    31     1     9
  1.7755886826394418E-01 a       760     0    31     1    10
 -8.4085399280294459E-02 a       761     0    31     1    11
  1.2514673669378062E-01 a       762     0    31     1    12
  3.8251350231693772E-02 a       763     0    31     1    13
 -8.9774575716510228E-03 a       764     0    31     1    14
  2.1675371431894068E-02 a       765     0    31     1    15
 -6.8645950801219144E-02 a       766     0    31     1    16
  1.8584226607400728E-01 a       767     0    31     1    17
 -3.7789221906415504E-03 a       768     0    31     1    18
 -5.9618583976474696E-02 a       769     0    31     1    19
 -7.5867080225348854E-02 a       770     0    31     1    20
 -2.2136419291288750E-01 a       771     0    31     1    21
  9.5870037351038592E-02 a       772     0    31     1    22
 -1.0300948859955171E-01 a       773     0    31     1    23
 -3.1779449658130808E-02 a       774     0    31     1    24
  5.0620892691636880E-02 a       775     0    31     1    25
 -5.7151675689543602E-02 a       776     0    32     1     1
 -9.9483897741862351E-02 a       777     0    32     1     2
  6.3849268624053213E-02 a       778     0    32     1     3
  1.4698488259300905E-02 a       779     0    32     1     4
  2.1154104828948278E-01 a       780     0    32     1     5
 -3.8307664811505071E-01 a       781     0    32     1     6
  9.4947088788390095E-04 a       782     0    32     1     7
  1.5708750103058358E-01 a       783     0    32     1     8
  1.0408323340127336E-01 a       784     0    32     1     9
 -1.6207906771852149E-01 a       785     0    32     1    10
  5.9551014087101742E-03 a       786     0    32     1    11
 -1.8016983217679980E-01 a       787     0    32     1    12
 -1.3716517874608000E-01 a       788     0    32     1    13
 -1.4843727425794153E-02 a       789     0    32     1    14
  8.1787435725014498E-02 a       790     0    32     1    15
  8.4978456732367508E-02 a       791     0    32     1    16
 -1.4142056757045451E-01 a       792     0    32     1    17
  2.8598376819973577E-02 a       793     0    32     1    18
  3.9794977987432895E-02 a       794     0    32     1    19
 -5.0090438721722266E-02 a       795     0    32     1    20
  7.3743941121465970E-02 a       796     0    32     1    21
 -6.3016542437736828E-02 a       797     0    32     1    22
  1.5540657701916730E-01 a       798     0    32     1    23
 -2.3357860251182253E-02 a       799     0    32     1    24
 -6.6123527747586827E-03 a       800     0    32     1    25
 -9.8533878493081359E-02 a       801     0    33     1     1
 -9.5370707711250988E-02 a       802     0    33     1     2
  4.2931839093716291E-03 a       803     0    33     1     3
  3.4103436851120515E-02 a       804     0    33     1     4
  6.7587314684632041E-02 a       805     0    33     1     5
 -4.9009152340700184E-02 a       806     0    33     1     6
  4.8981462232828343E-02 a       807     0    33     1     7
 -8.8776375998413384E-02 a       808     0    33     1     8
 -1.0893356746475465E-02 a       809     0    33     1     9
  1.1466348853997702E-01 a       810     0    33     1    10
  1.3054642851942635E-03 a       811     0    33     1    11
 -2.7948958350148916E-02 a       812     0    33     1    12
 -6.8546500253353201E-03 a       813     0    33     1    13
 -1.5945289413991554E-02 a       814     0    33     1    14
  1.2504449910524834E-01 a       815     0    33     1    15
  1.0784755844591598E-01 a       816     0    33     1    16
 -8.7979615643523773E-02 a       817     0    33     1    17
 -1.0092268574875472E-02 a       818     0    33     1    18
  1.8827294089651403E-03 a       819     0    33     1    19
 -1.7515697803521693E-01 a       820     0    33     1    20
  1.9013849713857212E-02 a       821     0    33     1    21
  5.3061971950280097E-02 a       822     0    33     1    22
  2.6705278090113763E-02 a       823     0    33     1    23
 -2.1850374074815573E-02 a       824     0    33     1    24
  9.4795010068762564E-02 a       825     0    33     1    25
 -5.5095855732479604E-02 a       826     0    34     1     1
  2.6161322211918338E-02 a       827     0    34     1     2
  2.1683444076964979E-02 a       828     0    34     1     3
 -2.6946344034253916E-02 a       829     0    34     1     4
  1.1403933254047470E-02 a       830     0    34     1     5
  5.5852689182380760E-02 a       831     0    34     1     6
 -8.7874117844117319E-03 a       832     0    34     1     7
 -1.7496229513021985E-02 a       833     0    34     1     8
 -1.1121310374431381E-02 a       834     0    34     1     9
  1.1364094170463161E-01 a       835     0    34     1    10
  3.8169360039062229E-03 a       836     0    34     1    11
  1.0303132537772592E-02 a       837     0    34     1    12
  4.4470547138761543E-02 a       838     0    34     1    13
  5.6205024493894001E-03 a       839     0    34     1    14
 -4.7528118387951991E-02 a       840     0    34     1    15
 -8.4486732496529021E-02 a       841     0    34     1    16
 -2.8537286070462634E-02 a       842     0    34     1    17
 -7.6072880857747271E-02 a       843     0    34     1    18
  1.8074958979240059E-03 a       844     0    34     1    19
  5.2655415761461988E-02 a       845     0    34     1    20
  2.5441270885494850E-02 a       846     0    34     1    21
 -1.9880266031803838E-02 a       847     0    34     1    22
 -1.0719667093947806E-01 a       848     0    34     1    23
 -3.1090557538098806E-02 a       849     0    34     1    24
 -1.2269327398303774E-02 a       850     0    34     1    25
 -1.3849357864005260E-01 a       851     0    35     1     1
  2.8775247612492137E-02 a       852     0    35     1     2
 -1.2110297504940533E-02 a       853     0    35     1     3
  1.8098984166542964E-01 a       854     0    35     1     4
  4.3326303210652527E-02 a       855     0    35     1     5
 -6.4471618014217288E-02 a       856     0    35     1     6
 -1.1608409334707144E-01 a       857     0    35     1     7
  5.3914177121761477E-02 a       858     0    35     1     8
 -3.6839560226371831E-02 a       859     0    35     1     9
 -9.9320342772753131E-02 a       860     0    35     1    10
  2.9463777011596737E-02 a       861     0    35     1    11
 -1.0825899959904400E-01 a       862     0    35     1    12
  3.5366809881800305E-02 a       863     0    35     1    13
 -1.7724039699571505E-03 a       864     0    35     1    14
 -1.4005446110198615E-02 a       865     0    35     1    15
 -1.9964806037360588E-02 a       866     0    35     1    16
 -1.4950714841320459E-01 a       867     0    35     1    17
 -4.8883443827145566E-02 a       868     0    35     1    18
  3.7121493602309555E-02 a       869     0    35     1    19
 -1.2563939828584492E-01 a       870     0    35     1    20
  1.4055002298942804E-01 a       871     0    35     1    21
 -3.5451383262162836E-02 a       872     0    35     1    22
  1.0754024461978480E-01 a       873     0    35     1    23
  1.5527696750905363E-02 a       874     0    35     1    24
 -2.5347747491104262E-02 a       875     0    35     1    25
  2.9453180892324699E-02 a       876     0    36     1     1
  5.4445539620383031E-02 a       877     0    36     1     2
 -6.4538122637777834E-02 a       878     0    36     1     3
 -8.5136380321656865E-02 a       879     0    36     1     4
 -1.7958518376644486E-01 a       880     0    36     1     5
  2.0165548638972855E-01 a       881     0    36     1     6
  4.1959218598440887E-02 a       882     0    36     1     7
 -9.7706841537932451E-02 a       883     0    36     1     8
 -1.8694640421893716E-02 a       884     0    36     1     9
 -2.6533704241282256E-02 a       885     0    36     1    10
 -4.0853846442068693E-02 a       886     0    36     1    11
  1.3492580257652015E-01 a       887     0    36     1    12
  2.8757678986600005E-02 a       888     0    36     1    13
 -1.2930524681349798E-02 a       889     0    36     1    14
  7.1804815372988814E-03 a       890     0    36     1    15
 -8.4170427218384303E-02 a       891     0    36     1    16
  8.0906817426080829E-02 a       892     0    36     1    17
 -6.8297607686056333E-02 a       893     0    36     1    18
 -1.7211281462194559E-02 a       894     0    36     1    19
  3.7618595609094800E-02 a       895     0    36     1    20
  2.5077986160437271E-02 a       896     0    36     1    21
  8.3929870329328173E-03 a       897     0    36     1    22
 -5.1786804611859652E-02 a       898     0    36     1    23
 -5.4098206066065829E-02 a       899     0    36     1    24
  2.7233794157612706E-02 a       900     0    36     1    25
  7.7736975617253928E-02 a       901     0    37     1     1
  4.2020229717939846E-02 a       902     0    37     1     2
  3.1082300544823187E-02 a       903     0    37     1     3
  1.2837863165481742E-01 a       904     0    37     1     4
 -6.9813482351912384E-02 a       905     0    37     1     5
  8.1168114467732547E-02 a       906     0    37     1     6
 -5.3158856242172488E-02 a       907     0    37     1     7
 -6.8850898039033506E-03 a       908     0    37     1     8
  1.7057473523606776E-02 a       909     0    37     1     9
  7.7968384194930920E-02 a       910     0    37     1    10
 -2.7077340416690257E-02 a       911     0    37     1    11
  4.8520244937533569E-02 a       912     0    37     1    12
 -1.1781106071836526E-02 a       913     0    37     1    13
  2.5925198765423367E-02 a       914     0    37     1    14
 -8.6620343646195475E-02 a       915     0    37     1    15
 -4.6751551559207592E-02 a       916     0    37     1    16
  7.2595825609303805E-02 a       917     0    37     1    17
 -2.8950820112278019E-02 a       918     0    37     1    18
  4.4054454378391643E-03 a       919     0    37     1    19
 -3.9912322150778203E-02 a       920     0    37     1    20
 -8.1220470578649534E-02 a       921     0    37     1    21
  6.6566742793739237E-03 a       922     0    37     1    22
 -2.7797215850696624E-02 a       923     0    37     1    23
  5.0027194658623077E-02 a       924     0    37     1    24
 -4.1308887260940098E-02 a       925     0    37     1    25
 -6.2938854765303568E-03 a       926     0    38     1     1
 -2.8107361000198873E-02 a       927     0    38     1     2
 -6.1413601790847996E-02 a       928     0    38     1     3
 -1.4369031995448731E-01 a       929     0    38     1     4
  3.2122164764385397E-02 a       930     0    38     1     5
 -1.1242814456075843E-01 a       931     0    38     1     6
  6.9024844593857507E-02 a       932     0    38     1     7
  5.3852507912252441E-02 a       933     0    38     1     8
  2.8384674306300026E-02 a       934     0    38     1     9
 -2.4764333524593732E-01 a       935     0    38     1    10
  3.3456927502125713E-02 a       936     0    38     1    11
  5.7063810065737432E-03 a       937     0    38     1    12
 -9.0212179061965353E-02 a       938     0    38     1    13
 -2.4242973147601068E-02 a       939     0    38     1    14
  8.0397422584979700E-02 a       940     0    38     1    15
  6.8826705033551025E-02 a       941     0    38     1    16
 -4.5151864437722299E-03 a       942     0    38     1    17
  2.1303058650071437E-02 a       943     0    38     1    18
 -6.2311837546142881E-03 a       944     0    38     1    19
  5.5319902007083956E-02 a       945     0    38     1    20
  9.1491241881938135E-02 a       946     0    38     1    21
 -2.4682374864785337E-02 a       947     0    38     1    22
  8.6553420264730396E-02 a       948     0    38     1    23
 -4.5083435917370747E-02 a       949     0    38     1    24
  2.7408133955850660E-02 a       950     0    38     1    25
  1.1992405516307941E-01 a       951     0    39     1     1
  1.8633962357140654E-02 a       952     0    39     1     2
 -2.3849292232293463E-02 a       953     0    39     1     3
 -3.3085433594192443E-02 a       954     0    39     1     4
 -2.6375377312074049E-02 a       955     0    39     1     5
  1.6154978561197883E-01 a       956     0    39     1     6
 -1.6189320696692031E-02 a       957     0    39     1     7
 -8.6607785605545690E-02 a       958     0    39     1     8
  2.9797482966471334E-02 a       959     0    39     1     9
  1.5298550056634291E-01 a       960     0    39     1    10
 -5.9544392156813404E-02 a       961     0    39     1    11
  7.1050508622797579E-03 a       962     0    39     1    12
  1.5181399813379227E-02 a       963     0    39     1    13
  6.2237436784409643E-03 a       964     0    39     1    14
 -3.3564174392411279E-02 a       965     0    39     1    15
 -3.3882229114943971E-02 a       966     0    39     1    16
  9.8814323073878524E-02 a       967     0    39     1    17
 -4.3984931622023611E-02 a       968     0    39     1    18
  1.7054880027290723E-02 a       969     0    39     1    19
  7.7461290263377516E-02 a       970     0    39     1    20
 -5.4159788735930199E-02 a       971     0    39     1    21
  3.7394287913052253E-03 a       972     0    39     1    22
 -4.2808867031881623E-02 a       973     0    39     1    23
  1.9516348259728908E-02 a       974     0    39     1    24
  1.1318469998150825E-02 a       975     0    39     1    25
 -7.6830541188898357E-02 a       976     0    40     1     1
 -5.0087008993611432E-02 a       977     0    40     1     2
  3.7975149704788359E-02 a       978     0    40     1     3
  1.4939328942290362E-02 a       979     0    40     1     4
  1.3404850275599395E-01 a       980     0    40     1     5
 -1.6327383482411187E-01 a       981     0    40     1     6
 -1.1951219150628028E-03 a       982     0    40     1     7
  8.9873824808659172E-02 a       983     0    40     1     8
  1.4657604064953872E-03 a       984     0    40     1     9
 -7.4364217356154838E-02 a       985     0    40     1    10
  5.5877812667498132E-02 a       986     0    40     1    11
 -6.6196534090323583E-02 a       987     0    40     1    12
 -8.7056241211629377E-03 a       988     0    40     1    13
  5.5046667226445146E-04 a       989     0    40     1    14
 -4.3520747016153639E-03 a       990     0    40     1    15
  7.8884125435060057E-02 a       991     0    40     1    16
 -5.5322577026053366E-02 a       992     0    40     1    17
  1.1853805079757201E-01 a       993     0    40     1    18
 -2.0343514341913390E-02 a       994     0    40     1    19
  3.2763822356541517E-02 a       995     0    40     1    20
  2.1737822452229071E-02 a       996     0    40     1    21
 -6.7865697744002021E-03 a       997     0    40     1    22
  2.6375436306591872E-02 a       998     0    40     1    23
  2.0634511681260684E-02 a       999     0    40     1    24
 -5.5829815449068391E-03 a      1000     0    40     1    25
 -1.1717679479587075E-01 a      1001     0    41     1     1
 -1.8556952228347082E-01 a      1002     0    41     1     2
  2.4991459141721908E-01 a      1003     0    41     1     3
  1.5995519957289669E-01 a      1004     0    41     1     4
  1.8055578502324901E-01 a      1005     0    41     1     5
 -2.6373616321636786E-02 a      1006     0    41     1     6
 -4.0094682931069564E-01 a      1007     0    41     1     7
 -1.9679919291107076E-01 a      1008     0    41     1     8
 -4.2394992351504418E-01 a      1009     0    41     1     9
  6.6384062670942412E-01 a      1010     0    41     1    10
 -2.7327373312123143E-01 a      1011     0    41     1    11
 -7.4618737701597959E-01 a      1012     0    41     1    12
  3.4932087777489768E-01 a      1013     0    41     1    13
 -4.9006289231582109E-02 a      1014     0    41     1    14
  1.3996455189547996E-01 a      1015     0    41     1    15
 -1.1663226813438704E-01 a      1016     0    41     1    16
 -1.1068199602277487E-01 a      1017     0    41     1    17
  4.9862788677576203E-01 a      1018     0    41     1    18
  3.7655142994637408E-01 a      1019     0    41     1    19
  1.5571564535113899E-01 a      1020     0    41     1    20
  1.8699693546304252E-01 a      1021     0    41     1    21
 -3.4995521136887342E-01 a      1022     0    41     1    22
 -3.9498433286950468E-01 a      1023     0    41     1    23
 -8.3384217837502425E-02 a      1024     0    41     1    24
  2.4602412668035228E-02 a      1025     0    41     1    25
  5.5097638291464957E-01 a      1026     0    42     1     1
  8.2713709281596925E-01 a      1027     0    42     1     2
 -3.0759080759561241E-01 a      1028     0    42     1     3
 -6.6348250778276807E-01 a      1029     0    42     1     4
 -1.6696945726967619E-01 a      1030     0    42     1     5
  9.2250974032804356E-01 a      1031     0    42     1     6
 -1.1166589101672311E-01 a      1032     0    42     1     7
  4.4659894824716806E-01 a      1033     0    42     1     8
  4.5255546053466422E-01 a      1034     0    42     1     9
  4.1536951442076886E-01 a      1035     0    42     1    10
  1.0537050943822801E-01 a      1036     0    42     1    11
  1.9025880343321849E-02 a      1037     0    42     1    12
 -3.5798316740598496E-01 a      1038     0    42     1    13
 -1.9376275793137410E-01 a      1039     0    42     1    14
 -4.7115106753814856E-01 a      1040     0    42     1    15
  5.4083161916102615E-02 a      1041     0    42     1    16
 -6.4320136422302820E-01 a      1042     0    42     1    17
 -6.8824871046175107E-01 a      1043     0    42     1    18
 -3.6853225186697203E-01 a      1044     0    42     1    19
 -6.6568015892662827E-02 a      1045     0    42     1    20
 -7.4175366081859184E-01 a      1046     0    42     1    21
  1.9884187431697442E-01 a      1047     0    42     1    22
  1.9357781844508587E-01 a      1048     0    42     1    23
  6.3699010657218003E-02 a      1049     0    42     1    24
  5.2662887216566590E-02 a      1050     0    42     1    25
 -1.2895613583500379E-01 a      1051     0    43     1     1
 -8.0605357207967548E-02 a      1052     0    43     1     2
 -4.4536350974173085E-02 a      1053     0    43     1     3
  1.4555500578949776E-01 a      1054     0    43     1     4
 -1.1769810789534604E-01 a      1055     0    43     1     5
  2.6954567219479912E-02 a      1056     0    43     1     6
 -1.4879913015449282E-02 a      1057     0    43     1     7
 -1.8987323850463372E-01 a      1058     0    43     1     8
 -2.5860125195911476E-01 a      1059     0    43     1     9
 -3.2186069853682886E-02 a      1060     0    43     1    10
 -1.8239717995946103E-01 a      1061     0    43     1    11
 -1.3779681189146073E-01 a      1062     0    43     1    12
  1.1972665170957401E-01 a      1063     0    43     1    13
 -6.7386809879204021E-02 a      1064     0    43     1    14
  1.3896542397153586E-01 a      1065     0    43     1    15
 -8.8314020568653007E-02 a      1066     0    43     1    16
 -4.3471869916196521E-03 a      1067     0    43     1    17
  3.1078919883980843E-01 a      1068     0    43     1    18
  1.2965259566225851E-01 a      1069     0    43     1    19
  3.3655586309882995E-02 a      1070     0    43     1    20
  7.4469171923503913E-02 a      1071     0    43     1    21
 -1.7193218210963024E-01 a      1072     0    43     1    22
 -3.6217807274367117E-02 a      1073     0    43     1    23
 -1.0099426263930313E-01 a      1074     0    43     1    24
  6.9048406590703302E-03 a      1075     0    43     1    25
  5.9478065661562447E-02 a      1076     0    44     1     1
  1.4384301978343805E-01 a      1077     0    44     1     2
 -1.9263278836721600E-02 a      1078     0    44     1     3
 -1.7392347830754082E-01 a      1079     0    44     1     4
 -1.2880351493220077E-01 a      1080     0    44     1     5
  1.2737413884228324E-01 a      1081     0    44     1     6
  1.7303286103633252E-02 a      1082     0    44     1     7
  1.1619385062638493E-01 a      1083     0    44     1     8
 -1.6170061850098755E-01 a      1084     0    44     1     9
  1.8580782681038072E-01 a      1085     0    44     1    10
  1.8237422029342826E-01 a      1086     0    44     1    11
  8.4730477841645682E-02 a      1087     0    44     1    12
 -1.7542672932809877E-01 a      1088     0    44     1    13
 -5.1232391167739859E-02 a      1089     0    44     1    14
 -6.0889628086627595E-02 a      1090     0    44     1    15
  5.1670347696030662E-03 a      1091     0    44     1    16
 -1.3917318364635320E-01 a      1092     0    44     1    17
 -1.5737806158357645E-01 a      1093     0    44     1    18
 -6.7010857097945770E-02 a      1094     0    44     1    19
 -1.4486848259791493E-01 a      1095     0    44     1    20
 -1.9890001378520646E-02 a      1096     0    44     1    21
  5.3713614115955738E-02 a      1097     0    44     1    22
  1.1570241660065966E-01 a      1098     0    44     1    23
 -5.1807264213440014E-02 a      1099     0    44     1    24
 -7.7647159801501567E-02 a      1100     0    44     1    25
 -5.5617861485235498E-01 a      1101     0    45     1     1
 -5.4887755406508276E-01 a      1102     0    45     1     2
  6.9333124051730199E-01 a      1103     0    45     1     3
  3.9888518640408738E-01 a      1104     0    45     1     4
 -2.5926177581655280E-01 a      1105     0    45     1     5
 -4.9340460215878323E-01 a      1106     0    45     1     6
  3.0970049910734782E-01 a      1107     0    45     1     7
 -5.8658753909055483E-01 a      1108     0    45     1     8
 -9.3298825098226290E-01 a      1109     0    45     1     9
  2.1240362168171351E-01 a      1110     0    45     1    10
 -1.8226112547276455E-01 a      1111     0    45     1    11
 -6.7868922027013423E-01 a      1112     0    45     1    12
  2.4510196065309217E-01 a      1113     0    45     1    13
  1.6597617165912329E-01 a      1114     0    45     1    14
  1.9355233499596666E-01 a      1115     0    45     1    15
  6.9211299816058211E-02 a      1116     0    45     1    16
  1.6843547617309787E-02 a      1117     0    45     1    17
 -1.4944875536542263E-01 a      1118     0    45     1    18
  4.3450610621147148E-02 a      1119     0    45     1    19
  2.2728736563368770E-01 a      1120     0    45     1    20
  1.8300166703945764E-01 a      1121     0    45     1    21
  4.4777343376817402E-01 a      1122     0    45     1    22
 -3.4306581940912678E-01 a      1123     0    45     1    23
  7.3926585859699620E-02 a      1124     0    45     1    24
  6.3149608162964527E-02 a      1125     0    45     1    25
  2.9841471782811396E-01 a      1126     0    46     1     1
  1.0166834453852330E-01 a      1127     0    46     1     2
  1.6565281909709958E-02 a      1128     0    46     1     3
 -3.4014847218670152E-01 a      1129     0    46     1     4
  1.4049217864549676E-01 a      1130     0    46     1     5
  2.5253203207096842E-01 a      1131     0    46     1     6
  1.6212210250441850E-01 a      1132     0    46     1     7
  4.2548452764738440E-02 a      1133     0    46     1     8
  1.2580905814876481E-01 a      1134     0    46     1     9
  2.2940006960789230E-01 a      1135     0    46     1    10
 -3.5345566267368379E-02 a      1136     0    46     1    11
 -2.7271075931937067E-01 a      1137     0    46     1    12
 -9.7990830319278133E-02 a      1138     0    46     1    13
 -8.8024199103365203E-02 a      1139     0    46     1    14
 -1.4655561579084977E-01 a      1140     0    46     1    15
  1.0569490618957024E-01 a      1141     0    46     1    16
 -1.5614896283259685E-01 a      1142     0    46     1    17
 -2.2740880372181879E-01 a      1143     0    46     1    18
 -5.1307553664419192E-02 a      1144     0    46     1    19
  1.1462331408537382E-01 a      1145     0    46     1    20
 -1.5526163062242743E-01 a      1146     0    46     1    21
 -8.3485311320085839E-02 a      1147     0    46     1    22
 -6.7186845543844825E-02 a      1148     0    46     1    23
  1.0190904077436107E-02 a      1149     0    46     1    24
  4.1300769161705199E-02 a      1150     0    46     1    25
  9.1847129064156055E-02 a      1151     0    47     1     1
 -2.0595547779480020E-01 a      1152     0    47     1     2
  3.8735336575147594E-01 a      1153     0    47     1     3
  3.5646973688364669E-01 a      1154     0    47     1     4
  3.4836293950686720E-01 a      1155     0    47     1     5
 -1.5237988800605778E-01 a      1156     0    47     1     6
  2.9808968795657090E-02 a      1157     0    47     1     7
 -1.9167975036894877E-01 a      1158     0    47     1     8
 -2.4583971900659782E-01 a      1159     0    47     1     9
  3.1822571328237320E-01 a      1160     0    47     1    10
  6.6271696350127182E-02 a      1161     0    47     1    11
 -3.8329245539599366E-01 a      1162     0    47     1    12
  2.9184328859692233E-02 a      1163     0    47     1    13
  1.7538554731128136E-01 a      1164     0    47     1    14
 -1.6533204888174415E-02 a      1165     0    47     1    15
  6.5984350484532606E-02 a      1166     0    47     1    16
 -8.3393336986199981E-02 a      1167     0    47     1    17
  1.3334958124955523E-01 a      1168     0    47     1    18
  4.0385916600512904E-02 a      1169     0    47     1    19
  3.6328221391063958E-01 a      1170     0    47     1    20
 -1.7051595044046918E-03 a      1171     0    47     1    21
  2.0318416527881605E-01 a      1172     0    47     1    22
 -1.4230063692435041E-01 a      1173     0    47     1    23
  1.3071709009395252E-01 a      1174     0    47     1    24
 -3.6627186443876213E-02 a      1175     0    47     1    25
 -7.5658192550401959E-02 a      1176     0    48     1     1
 -3.5984006702204634E-02 a      1177     0    48     1     2
  9.3370715713394753E-02 a      1178     0    48     1     3
  2.8114847396020447E-02 a      1179     0    48     1     4
 -5.2228321913178812E-02 a      1180     0    48     1     5
 -7.1271615076935732E-02 a      1181     0    48     1     6
 -1.1152323494277194E-02 a      1182     0    48     1     7
  4.8937809035836465E-02 a      1183     0    48     1     8
  6.7897183916776918E-02 a      1184     0    48     1     9
 -2.9093259404756336E-02 a      1185     0    48     1    10
  1.1740113140840006E-02 a      1186     0    48     1    11
 -1.4457984250497102E-02 a      1187     0    48     1    12
  7.7299133649846877E-02 a      1188     0    48     1    13
 -1.3221962203138343E-02 a      1189     0    48     1    14
  2.5747569696499807E-02 a      1190     0    48     1    15
  5.2047540368988454E-02 a      1191     0    48     1    16
 -4.4488934455198317E-02 a      1192     0    48     1    17
  6.5718112737130990E-02 a      1193     0    48     1    18
 -7.8052911048611368E-02 a      1194     0    48     1    19
 -2.4682635001646691E-01 a      1195     0    48     1    20
  1.7857563103560337E-01 a      1196     0    48     1    21
  5.0671906428732531E-02 a      1197     0    48     1    22
  8.9478820682541663E-02 a      1198     0    48     1    23
 -8.0476010111945259E-02 a      1199     0    48     1    24
  2.0724608390832643E-02 a      1200     0    48     1    25
  2.5091017762533463E-01 a      1201     0    49     1     1
  1.0541106000623529E-01 a      1202     0    49     1     2
 -4.4445659754211077E-03 a      1203     0    49     1     3
  2.0520815078926383E-01 a      1204     0    49     1     4
 -4.0564296326074764E-02 a      1205     0    49     1     5
  1.7672076576857773E-01 a      1206     0    49     1     6
 -8.9111367241845943E-02 a      1207     0    49     1     7
 -1.5258594093052569E-02 a      1208     0    49     1     8
 -5.2337300227662087E-02 a      1209     0    49     1     9
 -6.9387960556662340E-02 a      1210     0    49     1    10
 -2.0853026141889075E-01 a      1211     0    49     1    11
 -1.1843700370208742E-01 a      1212     0    49     1    12
  1.2503485037990239E-01 a      1213     0    49     1    13
 -2.2439554179263265E-03 a      1214     0    49     1    14
 -4.2449254803661754E-02 a      1215     0    49     1    15
  2.2607304660325495E-01 a      1216     0    49     1    16
 -1.2208020360331676E-01 a      1217     0    49     1    17
 -9.7436861078186443E-02 a      1218     0    49     1    18
  3.1619038070324571E-03 a      1219     0    49     1    19
 -1.3943335738095897E-01 a      1220     0    49     1    20
 -2.5276376465049150E-01 a      1221     0    49     1    21
 -4.6728506001523189E-04 a      1222     0    49     1    22
 -1.3973801980565061E-02 a      1223     0    49     1    23
  1.6198041498836183E-01 a      1224     0    49     1    24
  1.4270098390057478E-01 a      1225     0    49     1    25
 -1.1363243808781409E-01 a      1226     0    50     1     1
 -8.5182350059835987E-02 a      1227     0    50     1     2
  6.7405339376226822E-02 a      1228     0    50     1     3
 -4.8085385691605392E-02 a      1229     0    50     1     4
  1.3772326646188446E-01 a      1230     0    50     1     5
  1.2945921083547068E-01 a      1231     0    50     1     6
  8.7997458510160487E-03 a      1232     0    50     1     7
 -1.2654855884960800E-01 a      1233     0    50     1     8
 -1.9013898301290938E-02 a      1234     0    50     1     9
  1.6957623246588382E-01 a      1235     0    50     1    10
 -9.0668372702141523E-02 a      1236     0    50     1    11
 -2.0381057766462252E-01 a      1237     0    50     1    12
  1.3413477105447410E-03 a      1238     0    50     1    13
  3.5551912947410794E-02 a      1239     0    50     1    14
 -1.6965525443252855E-01 a      1240     0    50     1    15
  6.1456734089966353E-02 a      1241     0    50     1    16
 -1.2164606130295839E-01 a      1242     0    50     1    17
  2.2300571742546463E-01 a      1243     0    50     1    18
  4.4597447910528438E-03 a      1244     0    50     1    19
  2.8834127266672668E-02 a      1245     0    50     1    20
  1.0618265430536324E-01 a      1246     0    50     1    21
 -1.9240521025084056E-02 a      1247     0    50     1    22
 -2.8996852837529796E-02 a      1248     0    50     1    23
  6.9547778163754889E-02 a      1249     0    50     1    24
 -1.1865092765096773E-01 a      1250     0    50     1    25
 -3.5765654879684033E-01 a      1251     0    51     1     1
  1.8772498382508368E-01 a      1252     0    51     1     2
 -3.1986871599682598E-01 a      1253     0    51     1     3
  6.5486444527432602E-02 a      1254     0    51     1     4
 -2.1074397735721948E-01 a      1255     0    51     1     5
 -2.8508315628539649E-01 a      1256     0    51     1     6
  4.4421692936205270E-01 a      1257     0    51     1     7
 -8.6194279283835593E-02 a      1258     0    51     1     8
 -3.2820932965707567E-02 a      1259     0    51     1     9
 -6.2866967386304295E-01 a      1260     0    51     1    10
  1.5181717149525381E-01 a      1261     0    51     1    11
  4.6924381943404936E-01 a      1262     0    51     1    12
  7.5889936456190174E-02 a      1263     0    51     1    13
  2.6975324616016205E-01 a      1264     0    51     1    14
  4.4136688001164731E-01 a      1265     0    51     1    15
  8.5679155345912320E-02 a      1266     0    51     1    16
  1.4668584461242976E-01 a      1267     0    51     1    17
 -2.9483122515972258E-02 a      1268     0    51     1    18
 -1.7199759341701928E-01 a      1269     0    51     1    19
 -1.0390126698403852E-01 a      1270     0    51     1    20
  2.2554256802162240E-01 a      1271     0    51     1    21
  1.8586212944722594E-01 a      1272     0    51     1    22
  4.1867575518538697E-01 a      1273     0    51     1    23
  7.9592109763279822E-02 a      1274     0    51     1    24
  3.4822109048735139E-01 a      1275     0    51     1    25
  4.8992916499689776E-01 a      1276     0    52     1     1
 -9.8523770218026929E-01 a      1277     0    52     1     2
  7.9127050692293577E-01 a      1278     0    52     1     3
  7.3162471169800114E-01 a      1279     0    52     1     4
 -8.2825430283499493E-02 a      1280     0    52     1     5
 -4.1226934564468409E-01 a      1281     0    52     1     6
 -7.2285305783614151E-01 a      1282     0    52     1     7
  3.2281136816067085E-01 a      1283     0    52     1     8
  5.2392883094747067E-01 a      1284     0    52     1     9
 -1.0753464960832417E+00 a      1285     0    52     1    10
 -5.7953689627473082E-01 a      1286     0    52     1    11
  3.8626789449514826E-01 a      1287     0    52     1    12
 -4.1133426663285809E-02 a      1288     0    52     1    13
 -4.1837621635762329E-01 a      1289     0    52     1    14
 -6.7367302321161804E-01 a      1290     0    52     1    15
 -3.5239597083743573E-01 a      1291     0    52     1    16
  3.0315754960496738E-01 a      1292     0    52     1    17
  1.0125689890819214E+00 a      1293     0    52     1    18
  2.6248365535342849E-01 a      1294     0    52     1    19
 -3.3493592659762533E-01 a      1295     0    52     1    20
  6.6530284845032717E-01 a      1296     0    52     1    21
 -4.3015291319263349E-01 a      1297     0    52     1    22
 -5.0319685871057407E-01 a      1298     0    52     1    23
 -5.0856312595521835E-01 a      1299     0    52     1    24
 -5.8097505943270733E-01 a      1300     0    52     1    25
 -5.1415219863950250E-02 a      1301     0    53     1     1
  3.1460988928468311E-02 a      1302     0    53     1     2
  4.2894806253539024E-02 a      1303     0    53     1     3
 -2.3315898726435710E-01 a      1304     0    53     1     4
  9.4005611484120344E-02 a      1305     0    53     1     5
 -2.1125681030495036E-01 a      1306     0    53     1     6
 -1.3017326917582100E-02 a      1307     0    53     1     7
  1.1348227203810952E-01 a      1308     0    53     1     8
  2.2245557609962480E-01 a      1309     0    53     1     9
 -9.9093931270907404E-02 a      1310     0    53     1    10
  1.1211560741725553E-01 a      1311     0    53     1    11
  5.7073084596598198E-02 a      1312     0    53     1    12
  1.6425927896605741E-02 a      1313     0    53     1    13
  8.6613162845124506E-02 a      1314     0    53     1    14
  3.7778922808699407E-03 a      1315     0    53     1    15
  3.8583608840982525E-02 a      1316     0    53     1    16
 -2.9256004686473099E-02 a      1317     0    53     1    17
  1.2155302069480158E-01 a      1318     0    53     1    18
 -7.9522771604143852E-02 a      1319     0    53     1    19
 -2.1756397184334875E-01 a      1320     0    53     1    20
  7.7051301723322377E-02 a      1321     0    53     1    21
  1.1641938893496520E-01 a      1322     0    53     1    22
  8.6390653049899221E-02 a      1323     0    53     1    23
  4.0808392639845280E-02 a      1324     0    53     1    24
  4.1041755665716939E-02 a      1325     0    53     1    25
  1.7524702839866332E-01 a      1326     0    54     1     1
  2.0568961443259811E-02 a      1327     0    54     1     2
  9.5351108491727801E-03 a      1328     0    54     1     3
  1.8911115359801867E-01 a      1329     0    54     1     4
 -1.6338973491219727E-01 a      1330     0    54     1     5
 -7.9472207736553960E-02 a      1331     0    54     1     6
 -1.6561392053046048E-01 a      1332     0    54     1     7
 -7.1848429489135446E-02 a      1333     0    54     1     8
 -1.2783558232406398E-02 a      1334     0    54     1     9
 -9.7777115508838899E-02 a      1335     0    54     1    10
 -3.2199241448095600E-01 a      1336     0    54     1    11
 -1.5856667057340365E-01 a      1337     0    54     1    12
  1.7622498159527636E-01 a      1338     0    54     1    13
 -1.9446254256718441E-02 a      1339     0    54     1    14
  1.4016936358972565E-01 a      1340     0    54     1    15
 -2.6779475151589799E-01 a      1341     0    54     1    16
 -4.8953070019907528E-02 a      1342     0    54     1    17
 -1.6508594793433459E-02 a      1343     0    54     1    18
  1.9695155056710389E-01 a      1344     0    54     1    19
 -2.5611443962329855E-01 a      1345     0    54     1    20
  5.8262862128252116E-02 a      1346     0    54     1    21
 -1.6701436537021003E-01 a      1347     0    54     1    22
 -8.2332213421497991E-02 a      1348     0    54     1    23
 -8.4586459608264247E-02 a      1349     0    54     1    24
  1.5613433200384986E-02 a      1350     0    54     1    25
 -2.3089034580545198E-01 a      1351     0    55     1     1
  4.6962442101367091E-01 a      1352     0    55     1     2
 -5.4720405336067834E-01 a      1353     0    55     1     3
 -5.5295607456485685E-01 a      1354     0    55     1     4
  2.2337588944452191E-01 a      1355     0    55     1     5
  5.3569222971989829E-02 a      1356     0    55     1     6
  2.3515717795683391E-01 a      1357     0    55     1     7
  9.5310808809616430E-04 a      1358     0    55     1     8
 -2.4447682972905321E-02 a      1359     0    55     1     9
  1.7271488741336619E-01 a      1360     0    55     1    10
  6.2197577297781359E-01 a      1361     0    55     1    11
  2.9127200249251789E-01 a      1362     0    55     1    12
 -2.3673429011987696E-01 a      1363     0    55     1    13
  1.3144192007020589E-01 a      1364     0    55     1    14
  6.6345308225427585E-02 a      1365     0    55     1    15
 -1.3521240006759772E-01 a      1366     0    55     1    16
  1.1426150007090266E-01 a      1367     0    55     1    17
 -2.0277291739186590E-02 a      1368     0    55     1    18
 -2.9212850919702708E-02 a      1369     0    55     1    19
  1.1328697071018809E-02 a      1370     0    55     1    20
 -9.3369348575198616E-02 a      1371     0    55     1    21
  1.4751011959515647E-01 a      1372     0    55     1    22
  2.4872811129811070E-01 a      1373     0    55     1    23
  1.8635402644508681E-01 a      1374     0    55     1    24
 -7.1143270358780208E-02 a      1375     0    55     1    25
 -1.1943720344798160E-01 a      1376     0    56     1     1
 -4.7750909164961504E-02 a      1377     0    56     1     2
  2.8877310341988534E-02 a      1378     0    56     1     3
  4.0056521984711929E-01 a      1379     0    56     1     4
 -7.6288943134773177E-02 a      1380     0    56     1     5
 -1.2818024669456635E-01 a      1381     0    56     1     6
 -1.5968279379644570E-01 a      1382     0    56     1     7
  1.6135167662603567E-01 a      1383     0    56     1     8
 -4.1778671908816220E-02 a      1384     0    56     1     9
 -2.4857457658180890E-01 a      1385     0    56     1    10
  4.5408625119381318E-02 a      1386     0    56     1    11
  3.0609193715452904E-01 a      1387     0    56     1    12
 -1.1321052160308484E-01 a      1388     0    56     1    13
 -1.0935688467550048E-01 a      1389     0    56     1    14
 -1.0896991593271338E-01 a      1390     0    56     1    15
  5.0749503811624928E-02 a      1391     0    56     1    16
 -2.9195841391624688E-02 a      1392     0    56     1    17
 -2.7281080027696536E-01 a      1393     0    56     1    18
 -1.4432975878350116E-01 a      1394     0    56     1    19
 -1.5547599919909655E-01 a      1395     0    56     1    20
 -5.2372767233956077E-02 a      1396     0    56     1    21
  1.7064702392833703E-01 a      1397     0    56     1    22
 -4.8157384354129439E-02 a      1398     0    56     1    23
  5.6781639129987660E-03 a      1399     0    56     1    24
  5.6223351128138366E-02 a      1400     0    56     1    25
 -2.2971938239191578E-01 a      1401     0    57     1     1
  3.2243250199499507E-03 a      1402     0    57     1     2
 -1.2634294228764714E-01 a      1403     0    57     1     3
 -2.0169281851381715E-01 a      1404     0    57     1     4
  1.1394287707379559E-01 a      1405     0    57     1     5
 -3.6221864952983543E-03 a      1406     0    57     1     6
  7.0399611413302240E-02 a      1407     0    57     1     7
  3.2233121708394631E-02 a      1408     0    57     1     8
  2.6308815669510971E-05 a      1409     0    57     1     9
  2.7370417351199400E-02 a      1410     0    57     1    10
  1.3119815825003928E-01 a      1411     0    57     1    11
  1.3144210621239066E-01 a      1412     0    57     1    12
  6.7919869565880614E-02 a      1413     0    57     1    13
  3.9925533415011920E-02 a      1414     0    57     1    14
 -5.5151683845190244E-02 a      1415     0    57     1    15
  8.1324542284045218E-02 a      1416     0    57     1    16
  1.4660929750632273E-01 a      1417     0    57     1    17
  2.2998811068146119E-01 a      1418     0    57     1    18
 -6.9902518715309780E-02 a      1419     0    57     1    19
  8.2732855733928981E-02 a      1420     0    57     1    20
 -1.9105024502247167E-01 a      1421     0    57     1    21
  7.3077926466852974E-02 a      1422     0    57     1    22
 -4.1519573103265740E-02 a      1423     0    57     1    23
  1.4940293531201454E-01 a      1424     0    57     1    24
 -4.2141462978681689E-02 a      1425     0    57     1    25
  4.8071499256199766E-02 a      1426     0    58     1     1
 -8.4356131604834114E-02 a      1427     0    58     1     2
 -5.0147003634579128E-02 a      1428     0    58     1     3
  2.2347231887592300E-02 a      1429     0    58     1     4
 -3.8094619345813562E-02 a      1430     0    58     1     5
  3.5567495026278866E-02 a      1431     0    58     1     6
  1.4102044844013031E-02 a      1432     0    58     1     7
 -1.6186086412176734E-01 a      1433     0    58     1     8
 -4.2796113968450566E-02 a      1434     0    58     1     9
 -7.4605197230053003E-02 a      1435     0    58     1    10
 -1.2839434498261815E-01 a      1436     0    58     1    11
  2.8894280994220461E-02 a      1437     0    58     1    12
  1.4706256882025232E-01 a      1438     0    58     1    13
 -5.4405347177877816E-02 a      1439     0    58     1    14
 -3.0507037269800138E-02 a      1440     0    58     1    15
  2.8358822969649491E-02 a      1441     0    58     1    16
  6.5744355010943223E-02 a      1442     0    58     1    17
  5.7301040597022714E-02 a      1443     0    58     1    18
  3.5062794161401463E-02 a      1444     0    58     1    19
  1.0584283279715430E-01 a      1445     0    58     1    20
 -2.6571003011848809E-01 a      1446     0    58     1    21
  1.2822756323957836E-02 a      1447     0    58     1    22
 -1.1082577500688144E-01 a      1448     0    58     1    23
  9.1290648607384936E-02 a      1449     0    58     1    24
  8.7643528896139536E-02 a      1450     0    58     1    25
 -4.9236988377551985E-02 a      1451     0    59     1     1
 -8.3944723285973022E-02 a      1452     0    59     1     2
 -7.3579150068363922E-03 a      1453     0    59     1     3
 -2.4112789953831723E-01 a      1454     0    59     1     4
 -1.1193321636966660E-01 a      1455     0    59     1     5
 -4.8430333550174794E-02 a      1456     0    59     1     6
 -1.4958544886532732E-01 a      1457     0    59     1     7
  7.8601198944243153E-02 a      1458     0    59     1     8
  1.1638968932932326E-02 a      1459     0    59     1     9
  1.4755596355763304E-01 a      1460     0    59     1    10
 -1.7955159658180606E-02 a      1461     0    59     1    11
  1.5292320351840893E-01 a      1462     0    59     1    12
  1.9027387429173254E-01 a      1463     0    59     1    13
 -6.8715657194394708E-02 a      1464     0    59     1    14
  3.8775749482852881E-02 a      1465     0    59     1    15
 -1.8814526441341151E-01 a      1466     0    59     1    16
  1.4505824192917291E-01 a      1467     0    59     1    17
 -1.6627842936271853E-01 a      1468     0    59     1    18
  8.2668301918012669E-03 a      1469     0    59     1    19
  1.4921259559253833E-01 a      1470     0    59     1    20
 -1.3229962936186546E-01 a      1471     0    59     1    21
 -1.3270956959613059E-01 a      1472     0    59     1    22
  6.8838650611282123E-02 a      1473     0    59     1    23
 -1.0767807807646906E-01 a      1474     0    59     1    24
 -6.6791521563547826E-02 a      1475     0    59     1    25
  1.5219642887942073E-01 a      1476     0    60     1     1
 -9.1531741626867877E-03 a      1477     0    60     1     2
 -7.3227948904499338E-02 a      1478     0    60     1     3
  1.3523966490756908E-01 a      1479     0    60     1     4
 -4.8129894079853290E-02 a      1480     0    60     1     5
 -5.9881070816257882E-02 a      1481     0    60     1     6
 -6.0662659537861548E-02 a      1482     0    60     1     7
  4.2884206729039073E-02 a      1483     0    60     1     8
 -3.7186714174009365E-02 a      1484     0    60     1     9
 -9.2643113435304292E-02 a      1485     0    60     1    10
  8.7192224223435838E-02 a      1486     0    60     1    11
  1.6058500083419314E-01 a      1487     0    60     1    12
  4.2992366365841542E-02 a      1488     0    60     1    13
 -5.5815040818264501E-02 a      1489     0    60     1    14
  1.5784634399847339E-01 a      1490     0    60     1    15
 -8.6112786289545048E-03 a      1491     0    60     1    16
  9.2925955124675996E-02 a      1492     0    60     1    17
  8.3784024707060575E-03 a      1493     0    60     1    18
 -1.0676667350139257E-02 a      1494     0    60     1    19
 -4.0466530383836470E-02 a      1495     0    60     1    20
 -1.3281922844611224E-01 a      1496     0    60     1    21
  5.0167733166171936E-02 a      1497     0    60     1    22
  5.0643753716961976E-02 a      1498     0    60     1    23
 -6.6836616385682918E-02 a      1499     0    60     1    24
  1.6894266159125773E-01 a      1500     0    60     1    25
 -4.2386355130255980E-02 a      1501     0    61     1     1
  1.5434850616131295E-02 a      1502     0    61     1     2
 -2.2466546966519906E-02 a      1503     0    61     1     3
  8.4126726145947850E-02 a      1504     0    61     1     4
 -6.9129288024704309E-03 a      1505     0    61     1     5
  2.0710974452224109E-02 a      1506     0    61     1     6
 -3.5310313859897434E-02 a      1507     0    61     1     7
 -7.1999270014044495E-03 a      1508     0    61     1     8
 -1.4891185433815321E-01 a      1509     0    61     1     9
  3.4781120352707001E-02 a      1510     0    61     1    10
  5.7759509887881685E-02 a      1511     0    61     1    11
  3.6448057386658905E-02 a      1512     0    61     1    12
  5.5566027042080191E-02 a      1513     0    61     1    13
  6.0254245867379819E-02 a      1514     0    61     1    14
  2.8230313153961843E-02 a      1515     0    61     1    15
 -7.4336680134128752E-02 a      1516     0    61     1    16
 -5.3007018965318736E-03 a      1517     0    61     1    17
  2.3470651348786289E-01 a      1518     0    61     1    18
  5.3461872202231711E-02 a      1519     0    61     1    19
 -6.7175873322843124E-02 a      1520     0    61     1    20
  1.6356097868660155E-01 a      1521     0    61     1    21
 -5.6540604533776961E-02 a      1522     0    61     1    22
  5.2397062961752644E-02 a      1523     0    61     1    23
 -4.7111255066135012E-02 a      1524     0    61     1    24
 -1.8496417944352547E-03 a      1525     0    61     1    25
 -3.7713065506604547E-02 a      1526     0    62     1     1
  5.4026428622609521E-02 a      1527     0    62     1     2
 -1.0011793801738568E-02 a      1528     0    62     1     3
 -1.3077615163286505E-02 a      1529     0    62     1     4
  1.9082881513421336E-02 a      1530     0    62     1     5
 -3.5960848465108171E-02 a      1531     0    62     1     6
  5.6277743988160406E-02 a      1532     0    62     1     7
  1.3658522367971030E-02 a      1533     0    62     1     8
  1.1700328250641132E-01 a      1534     0    62     1     9
 -1.8641127238124250E-01 a      1535     0    62     1    10
 -1.6857575594516231E-02 a      1536     0    62     1    11
 -1.9778087915154723E-02 a      1537     0    62     1    12
 -5.1360306215219820E-01 a      1538     0    62     1    13
 -6.5837790336831958E-02 a      1539     0    62     1    14
 -7.0961595436450225E-02 a      1540     0    62     1    15
 -2.5819713818925216E-01 a      1541     0    62     1    16
 -9.3702367779366955E-02 a      1542     0    62     1    17
 -1.0444291080585827E-01 a      1543     0    62     1    18
  2.6365145712915660E-02 a      1544     0    62     1    19
 -8.8576486683965647E-03 a      1545     0    62     1    20
  4.0044088784445764E-02 a      1546     0    62     1    21
  8.1291561162858197E-02 a      1547     0    62     1    22
 -6.5632069965822160E-02 a      1548     0    62     1    23
  2.3302523739354614E-02 a      1549     0    62     1    24
 -2.6315643939731542E-01 a      1550     0    62     1    25
 -6.7203521352370149E-02 a      1551     0    63     1     1
  4.4407482681873500E-02 a      1552     0    63     1     2
  4.2099894261527125E-02 a      1553     0    63     1     3
  4.0205858494281738E-02 a      1554     0    63     1     4
  3.9933556165869133E-02 a      1555     0    63     1     5
 -9.3690272446970563E-02 a      1556     0    63     1     6
 -1.2129007048222140E-01 a      1557     0    63     1     7
  6.2903949768618989E-02 a      1558     0    63     1     8
 -2.7397241308289863E-03 a      1559     0    63     1     9
 -3.9148859617862748E-02 a      1560     0    63     1    10
  2.7337486136983186E-02 a      1561     0    63     1    11
  8.0804851217331584E-03 a      1562     0    63     1    12
 -1.5971053436679032E-02 a      1563     0    63     1    13
  5.4837250030453824E-02 a      1564     0    63     1    14
 -5.8698151244075764E-02 a      1565     0    63     1    15
 -1.1817849481567946E-01 a      1566     0    63     1    16
 -8.9988305216910272E-02 a      1567     0    63     1    17
  1.3974488574169364E-01 a      1568     0    63     1    18
  6.3246296450400211E-02 a      1569     0    63     1    19
 -9.3303658651866031E-02 a      1570     0    63     1    20
  1.8719580794912780E-01 a      1571     0    63     1    21
 -1.4476342917767928E-03 a      1572     0    63     1    22
  7.1924523913905830E-02 a      1573     0    63     1    23
 -1.6340688340236959E-02 a      1574     0    63     1    24
 -5.3274149663677176E-02 a      1575     0    63     1    25
 -5.6477340857448349E-02 a      1576     0    64     1     1
  1.5142973944414185E-02 a      1577     0    64     1     2
  1.0372067267298926E-02 a      1578     0    64     1     3
  1.2705343098591601E-01 a      1579     0    64     1     4
 -1.2016999473383790E-01 a      1580     0    64     1     5
 -1.2632423804278764E-01 a      1581     0    64     1     6
 -5.1893067433999143E-02 a      1582     0    64     1     7
 -4.9820124403029296E-03 a      1583     0    64     1     8
 -6.4642799756968270E-03 a      1584     0    64     1     9
 -6.8443416841575316E-02 a      1585     0    64     1    10
 -1.6088226059974581E-01 a      1586     0    64     1    11
  3.0595666180921778E-03 a      1587     0    64     1    12
  2.8667950152074413E-02 a      1588     0    64     1    13
 -5.7630613600691220E-03 a      1589     0    64     1    14
  4.6503190255590646E-02 a      1590     0    64     1    15
 -5.5425318962146329E-02 a      1591     0    64     1    16
  1.5752691444438104E-02 a      1592     0    64     1    17
  1.2447322255713612E-01 a      1593     0    64     1    18
  4.9805633887409891E-02 a      1594     0    64     1    19
 -2.5077881853994499E-01 a      1595     0    64     1    20
 -1.4392004495986524E-01 a      1596     0    64     1    21
 -2.5025262293093653E-02 a      1597     0    64     1    22
 -7.0764723805581659E-02 a      1598     0    64     1    23
  1.4371827559998296E-02 a      1599     0    64     1    24
  4.7151240569398449E-02 a      1600     0    64     1    25
  1.1759546079623656E-01 a      1601     0    65     1     1
  8.8057490979846498E-02 a      1602     0    65     1     2
  1.6120659688543260E-04 a      1603     0    65     1     3
  8.5012191993340064E-02 a      1604     0    65     1     4
  2.8320226913539476E-03 a      1605     0    65     1     5
 -8.3435487155062715E-02 a      1606     0    65     1     6
 -2.9271156365377832E-01 a      1607     0    65     1     7
 -5.7774378707771204E-02 a      1608     0    65     1     8
  1.3665830363287446E-01 a      1609     0    65     1     9
  2.4174873777241451E-01 a      1610     0    65     1    10
  3.4921391300413790E-01 a      1611     0    65     1    11
  4.8992102433350351E-02 a      1612     0    65     1    12
  8.6786015678345207E-02 a      1613     0    65     1    13
  1.4642749945356071E-03 a      1614     0    65     1    14
 -8.6180735831212135E-02 a      1615     0    65     1    15
  1.1166800333656755E-01 a      1616     0    65     1    16
  4.3449343689473639E-02 a      1617     0    65     1    17
 -6.6143870436461388E-02 a      1618     0    65     1    18
  6.1565749667084932E-02 a      1619     0    65     1    19
 -1.9041936046981608E-01 a      1620     0    65     1    20
  2.3757282206782990E-01 a      1621     0    65     1    21
  4.5765659345808250E-02 a      1622     0    65     1    22
  1.7897299610904285E-01 a      1623     0    65     1    23
