################################################################################
# Neural network connection values (weights and biases).
################################################################################
# Col  Name       Description
################################################################################
# 1    connection Neural network connection value.
# 2    t          Connection type (a = weight, b = bias).
# 3    index      Index enumerating weights.
# 4    l_s        Starting point layer (end point layer for biases).
# 5    n_s        Starting point neuron in starting layer (end point neuron for biases).
# 6    l_e        End point layer.
# 7    n_e        End point neuron in end layer.
################################################################################
#                      1 2         3     4     5     6     7
#             connection t     index   l_s   n_s   l_e   n_e
############################################################
 -5.4421709154208485E-02 a         1     0     1     1     1
 -1.4901110051143721E-01 a         2     0     1     1     2
  1.4772454626834022E-01 a         3     0     1     1     3
  9.6927688156037195E-02 a         4     0     1     1     4
 -7.4384282771720505E-03 a         5     0     1     1     5
 -1.6737030035082942E-01 a         6     0     1     1     6
 -7.2101527930425818E-02 a         7     0     1     1     7
  2.0698829287356252E-01 a         8     0     1     1     8
  3.8170430950872601E-02 a         9     0     1     1     9
  1.6189810351044363E-02 a        10     0     1     1    10
 -1.2977329409104644E-02 a        11     0     1     1    11
 -2.5313209214956615E-02 a        12     0     1     1    12
 -1.7102607117592897E-01 a        13     0     1     1    13
 -5.5610209639340498E-02 a        14     0     1     1    14
 -3.2985939414256049E-01 a        15     0     1     1    15
  2.1575618111482026E-01 a        16     0     1     1    16
 -1.0546561850844650E-01 a        17     0     1     1    17
 -1.0276494565913252E-01 a        18     0     1     1    18
 -2.0266000443274879E-01 a        19     0     1     1    19
 -1.4854278493327230E-01 a        20     0     1     1    20
  6.8836589581440483E-02 a        21     0     1     1    21
 -1.7086924242767637E-01 a        22     0     1     1    22
 -9.9412654772005504E-02 a        23     0     1     1    23
 -1.9835065572431404E-01 a        24     0     1     1    24
  6.9766406292107105E-02 a        25     0     1     1    25
  1.3670120399889366E-01 a        26     0     2     1     1
 -1.5120782020126089E-01 a        27     0     2     1     2
 -3.9662897035701028E-02 a        28     0     2     1     3
  1.5677776948656291E-01 a        29     0     2     1     4
 -1.1911604180605806E-01 a        30     0     2     1     5
  1.6335061116197466E-01 a        31     0     2     1     6
 -7.8319684886649532E-02 a        32     0     2     1     7
  9.8386191579868540E-02 a        33     0     2     1     8
 -4.1910073889776078E-02 a        34     0     2     1     9
  3.3310867123635276E-03 a        35     0     2     1    10
 -1.6106045553503209E-01 a        36     0     2     1    11
  1.2059582151374239E-02 a        37     0     2     1    12
  9.1128515994100753E-02 a        38     0     2     1    13
  1.7983718310014513E-01 a        39     0     2     1    14
 -1.4181094615412176E-01 a        40     0     2     1    15
  1.0211382217338774E-01 a        41     0     2     1    16
 -2.2071449229205090E-01 a        42     0     2     1    17
 -1.1289509383448056E-01 a        43     0     2     1    18
 -5.8129432295460533E-02 a        44     0     2     1    19
 -2.1772245225983369E-01 a        45     0     2     1    20
 -1.5809741494971061E-01 a        46     0     2     1    21
  2.0996600625102082E-02 a        47     0     2     1    22
  3.1324251088119558E-02 a        48     0     2     1    23
  8.6225283436420594E-02 a        49     0     2     1    24
  2.0093370791629622E-01 a        50     0     2     1    25
  5.2460512880608032E-02 a        51     0     3     1     1
  9.4405060918851119E-03 a        52     0     3     1     2
  2.3097101286294705E-01 a        53     0     3     1     3
  8.9958530800807943E-02 a        54     0     3     1     4
  1.1492734545848272E-01 a        55     0     3     1     5
  5.3297196750100480E-02 a        56     0     3     1     6
 -3.1448544164450455E-02 a        57     0     3     1     7
  3.8653477111708756E-01 a        58     0     3     1     8
 -1.8560539405896295E-01 a        59     0     3     1     9
  2.3230165647831152E-01 a        60     0     3     1    10
 -6.2693200994241277E-02 a        61     0     3     1    11
 -6.6635193871319720E-02 a        62     0     3     1    12
 -8.6469771762063427E-02 a        63     0     3     1    13
 -1.3327816429605793E-01 a        64     0     3     1    14
 -1.6793677033776225E-01 a        65     0     3     1    15
  9.5618890057683082E-03 a        66     0     3     1    16
  7.5011899666000258E-03 a        67     0     3     1    17
  1.6504206971265026E-01 a        68     0     3     1    18
  5.4362043172608225E-02 a        69     0     3     1    19
 -2.8466752846586844E-02 a        70     0     3     1    20
 -4.3124347702802934E-02 a        71     0     3     1    21
  3.5556541315702336E-02 a        72     0     3     1    22
 -1.2268390721650310E-01 a        73     0     3     1    23
  2.7921519416163609E-02 a        74     0     3     1    24
 -7.0492967161352005E-02 a        75     0     3     1    25
 -1.0279065042962181E-01 a        76     0     4     1     1
 -1.2636041337575077E-01 a        77     0     4     1     2
 -1.1625585630999616E-02 a        78     0     4     1     3
  9.9619925279940735E-02 a        79     0     4     1     4
  1.1245585286230250E-02 a        80     0     4     1     5
  1.8230491614720953E-01 a        81     0     4     1     6
  7.9493563155941371E-03 a        82     0     4     1     7
 -2.0171070721096904E-01 a        83     0     4     1     8
 -2.4342080355854634E-01 a        84     0     4     1     9
 -1.9692564621703618E-02 a        85     0     4     1    10
 -9.0424553927043863E-02 a        86     0     4     1    11
  3.2949373888939697E-02 a        87     0     4     1    12
  3.8168350390527267E-02 a        88     0     4     1    13
  6.4523650729037360E-02 a        89     0     4     1    14
 -1.4562663696967679E-01 a        90     0     4     1    15
  1.4569720914859571E-01 a        91     0     4     1    16
 -5.3357113428349527E-02 a        92     0     4     1    17
 -1.5353348287621352E-01 a        93     0     4     1    18
 -1.4697040500135014E-01 a        94     0     4     1    19
 -6.2692870252067708E-03 a        95     0     4     1    20
 -4.8791831568999550E-02 a        96     0     4     1    21
  1.2427597304307052E-01 a        97     0     4     1    22
  6.1857371408246223E-02 a        98     0     4     1    23
  7.7963900073302589E-02 a        99     0     4     1    24
 -5.1810692683993693E-02 a       100     0     4     1    25
  4.0736869615650498E-02 a       101     0     5     1     1
 -1.0067827481536734E-01 a       102     0     5     1     2
 -1.0292576878327808E-01 a       103     0     5     1     3
  2.0718349508916498E-01 a       104     0     5     1     4
 -3.2340772468396270E-02 a       105     0     5     1     5
 -4.2602395956002848E-02 a       106     0     5     1     6
  2.7364873477225785E-02 a       107     0     5     1     7
 -1.0535887780809626E-01 a       108     0     5     1     8
 -7.7160083408563855E-03 a       109     0     5     1     9
 -4.2498948126731155E-02 a       110     0     5     1    10
 -1.2819496601715449E-01 a       111     0     5     1    11
  8.8214421048787517E-02 a       112     0     5     1    12
  4.9820323497908901E-02 a       113     0     5     1    13
  5.4908860313456105E-02 a       114     0     5     1    14
 -2.7197900687727979E-02 a       115     0     5     1    15
 -3.1065050702651348E-01 a       116     0     5     1    16
  7.6629538873202591E-02 a       117     0     5     1    17
  2.1439290965857979E-01 a       118     0     5     1    18
 -6.0862249570598242E-02 a       119     0     5     1    19
  1.9822637799951054E-01 a       120     0     5     1    20
 -8.9771341090303450E-02 a       121     0     5     1    21
  1.1788479439646778E-01 a       122     0     5     1    22
  1.2702220385654864E-01 a       123     0     5     1    23
  5.9041760182762117E-02 a       124     0     5     1    24
  3.3245238660563264E-01 a       125     0     5     1    25
  6.7053875287016909E-02 a       126     0     6     1     1
  9.5873640839989741E-02 a       127     0     6     1     2
  1.6114910278527303E-01 a       128     0     6     1     3
 -1.0890600640880688E-01 a       129     0     6     1     4
  1.0056212522837855E-01 a       130     0     6     1     5
  8.5365830438605919E-02 a       131     0     6     1     6
  2.5090302606680143E-01 a       132     0     6     1     7
 -2.1609477092794185E-01 a       133     0     6     1     8
  5.6943893953636124E-02 a       134     0     6     1     9
  4.9857136823470476E-02 a       135     0     6     1    10
  3.7078318085980383E-01 a       136     0     6     1    11
 -1.1196267834549659E-01 a       137     0     6     1    12
  4.9465379800489769E-04 a       138     0     6     1    13
 -1.4074928728634184E-01 a       139     0     6     1    14
 -8.0407524601413330E-02 a       140     0     6     1    15
  9.1978833280531552E-02 a       141     0     6     1    16
  2.0553091240171192E-01 a       142     0     6     1    17
  2.6470066576854639E-01 a       143     0     6     1    18
  1.2958292845771693E-01 a       144     0     6     1    19
  1.2976351505677894E-01 a       145     0     6     1    20
  1.0887075120125704E-01 a       146     0     6     1    21
 -1.2523142811713087E-01 a       147     0     6     1    22
 -1.2118128343848522E-01 a       148     0     6     1    23
 -8.6729078409749846E-03 a       149     0     6     1    24
 -1.2622306690439916E-01 a       150     0     6     1    25
  1.5362251502960544E-01 a       151     0     7     1     1
  1.6990519882762201E-01 a       152     0     7     1     2
  2.1359086797857513E-01 a       153     0     7     1     3
 -1.1709976402500070E-01 a       154     0     7     1     4
 -3.3401555991596936E-02 a       155     0     7     1     5
 -1.4658099082425075E-02 a       156     0     7     1     6
  1.0706587376004346E-02 a       157     0     7     1     7
  8.4131271711592695E-02 a       158     0     7     1     8
  2.6330449882808438E-01 a       159     0     7     1     9
 -1.6230582708271468E-01 a       160     0     7     1    10
  1.7614371031879938E-01 a       161     0     7     1    11
  1.9816009623100456E-01 a       162     0     7     1    12
 -5.3703609050269357E-02 a       163     0     7     1    13
 -6.6129236816644899E-02 a       164     0     7     1    14
 -1.1150568407082576E-01 a       165     0     7     1    15
 -1.4451664345657084E-01 a       166     0     7     1    16
  5.6835846100906265E-02 a       167     0     7     1    17
 -3.6735792255960673E-02 a       168     0     7     1    18
  2.3115635284731931E-01 a       169     0     7     1    19
 -1.3836719723591953E-01 a       170     0     7     1    20
 -6.8399438813778093E-02 a       171     0     7     1    21
  1.1631189003131454E-01 a       172     0     7     1    22
  1.8060121779651889E-01 a       173     0     7     1    23
 -1.6233514344932913E-02 a       174     0     7     1    24
 -3.0681365437107314E-02 a       175     0     7     1    25
  2.0697138743205434E-01 a       176     0     8     1     1
 -1.1591986553096940E-02 a       177     0     8     1     2
 -5.2142085475807731E-02 a       178     0     8     1     3
 -9.9396113769536207E-02 a       179     0     8     1     4
 -1.3627775295252539E-01 a       180     0     8     1     5
 -1.3481557430617869E-01 a       181     0     8     1     6
  3.7334326895993544E-02 a       182     0     8     1     7
  1.3633830239072600E-01 a       183     0     8     1     8
  2.2618590975097611E-01 a       184     0     8     1     9
 -2.7029177730243145E-02 a       185     0     8     1    10
 -4.3541562427729030E-03 a       186     0     8     1    11
 -8.5264394861924928E-02 a       187     0     8     1    12
 -5.4133588701223465E-02 a       188     0     8     1    13
  7.8695830428218080E-02 a       189     0     8     1    14
 -1.8627535771936266E-01 a       190     0     8     1    15
 -9.8819504925233455E-03 a       191     0     8     1    16
  5.6399761254095210E-02 a       192     0     8     1    17
 -1.9692955504463602E-01 a       193     0     8     1    18
 -3.2345355478114741E-02 a       194     0     8     1    19
  1.9515577388310998E-01 a       195     0     8     1    20
 -5.9779790529995200E-02 a       196     0     8     1    21
 -3.5288571736685709E-01 a       197     0     8     1    22
 -8.6121886548291421E-02 a       198     0     8     1    23
 -4.4312025051040635E-02 a       199     0     8     1    24
  1.0196396311654363E-01 a       200     0     8     1    25
  5.0902216484806501E-02 a       201     0     9     1     1
  1.9467283228012494E-01 a       202     0     9     1     2
 -1.2886475377440118E-01 a       203     0     9     1     3
 -1.2811408187823600E-01 a       204     0     9     1     4
  6.3005540067800320E-02 a       205     0     9     1     5
 -8.7214989236125806E-02 a       206     0     9     1     6
 -9.5139683207171852E-02 a       207     0     9     1     7
 -1.9339777763925470E-02 a       208     0     9     1     8
  6.2624210294829383E-02 a       209     0     9     1     9
  1.1317665733054857E-01 a       210     0     9     1    10
 -1.0498198947278627E-01 a       211     0     9     1    11
  7.3661093290953591E-02 a       212     0     9     1    12
  3.0530883833051033E-02 a       213     0     9     1    13
 -1.2367151998851109E-02 a       214     0     9     1    14
  2.4230955893222952E-01 a       215     0     9     1    15
  1.1838523050181421E-01 a       216     0     9     1    16
 -4.2212427145353879E-02 a       217     0     9     1    17
 -1.8899759496202587E-01 a       218     0     9     1    18
 -5.8144411323517775E-02 a       219     0     9     1    19
 -2.0162072437680752E-02 a       220     0     9     1    20
 -6.5431411108427776E-02 a       221     0     9     1    21
 -3.5000799245381077E-03 a       222     0     9     1    22
 -8.2628887845104332E-02 a       223     0     9     1    23
 -2.6278213972561651E-02 a       224     0     9     1    24
 -5.5915555484410739E-02 a       225     0     9     1    25
  1.2474836378600148E-03 a       226     0    10     1     1
  4.7097751080528924E-02 a       227     0    10     1     2
 -1.7244722862325912E-01 a       228     0    10     1     3
  2.0808401438494639E-01 a       229     0    10     1     4
  2.2866656508982799E-02 a       230     0    10     1     5
 -2.2733911014740121E-01 a       231     0    10     1     6
 -3.3214971149216010E-02 a       232     0    10     1     7
 -4.2112229414180365E-02 a       233     0    10     1     8
 -1.4675421414667125E-01 a       234     0    10     1     9
  2.0397896216338102E-02 a       235     0    10     1    10
  1.4878634247306017E-03 a       236     0    10     1    11
  1.6482671573392835E-01 a       237     0    10     1    12
  7.3694589644711693E-03 a       238     0    10     1    13
  6.7663028136866712E-02 a       239     0    10     1    14
 -1.3159319188528765E-01 a       240     0    10     1    15
 -5.2835278422543208E-02 a       241     0    10     1    16
 -3.0099939099995326E-04 a       242     0    10     1    17
  2.5490211948792474E-01 a       243     0    10     1    18
  4.3400564248233665E-02 a       244     0    10     1    19
 -6.3184294044916073E-02 a       245     0    10     1    20
 -1.0832179730929700E-01 a       246     0    10     1    21
 -1.8381521904243814E-01 a       247     0    10     1    22
 -4.7059488362661939E-02 a       248     0    10     1    23
  3.2424900134568957E-01 a       249     0    10     1    24
 -2.1768010255720596E-01 a       250     0    10     1    25
  1.1901184318651550E-01 a       251     0    11     1     1
 -1.2651368809674618E-01 a       252     0    11     1     2
 -1.7711462814427739E-01 a       253     0    11     1     3
 -1.0006793073748740E-01 a       254     0    11     1     4
 -3.6211980890584465E-02 a       255     0    11     1     5
 -2.7698202104799791E-01 a       256     0    11     1     6
 -1.1061999758075813E-01 a       257     0    11     1     7
 -6.7179114153433958E-02 a       258     0    11     1     8
 -8.6652570274770260E-02 a       259     0    11     1     9
  1.0957990982990090E-01 a       260     0    11     1    10
  1.8387496781273516E-01 a       261     0    11     1    11
 -2.3311769634405238E-01 a       262     0    11     1    12
 -8.8415989642604675E-03 a       263     0    11     1    13
  2.0446694481903505E-01 a       264     0    11     1    14
  3.9959847890374336E-02 a       265     0    11     1    15
  1.8661544691003437E-01 a       266     0    11     1    16
 -8.0000212773043283E-02 a       267     0    11     1    17
 -1.8987261285660009E-01 a       268     0    11     1    18
 -2.2460438181124878E-01 a       269     0    11     1    19
 -8.7061447181879442E-02 a       270     0    11     1    20
  7.4735186528919195E-02 a       271     0    11     1    21
 -7.1454132100607193E-02 a       272     0    11     1    22
 -1.7158759713021890E-01 a       273     0    11     1    23
 -1.5379310489164981E-02 a       274     0    11     1    24
  7.7794688135569598E-02 a       275     0    11     1    25
 -2.9359199127137986E-01 a       276     0    12     1     1
  1.4413536042623573E-01 a       277     0    12     1     2
  1.3090922349094489E-01 a       278     0    12     1     3
  3.7391912799677635E-01 a       279     0    12     1     4
  2.9573352616168330E-01 a       280     0    12     1     5
 -4.9112693816519087E-02 a       281     0    12     1     6
 -1.2399032986479509E-01 a       282     0    12     1     7
 -2.4316650043418899E-02 a       283     0    12     1     8
 -3.1790544605817650E-02 a       284     0    12     1     9
  1.1835619990237858E-01 a       285     0    12     1    10
  1.1938415270493655E-01 a       286     0    12     1    11
 -5.4348460764192981E-02 a       287     0    12     1    12
  2.7822543606050837E-01 a       288     0    12     1    13
  2.6800984950753137E-01 a       289     0    12     1    14
 -1.0152652371611132E-01 a       290     0    12     1    15
 -1.5500294082871061E-01 a       291     0    12     1    16
 -2.5358245645980670E-01 a       292     0    12     1    17
 -1.2321745211851642E-01 a       293     0    12     1    18
  1.3467708204581855E-01 a       294     0    12     1    19
 -6.3301140568751593E-02 a       295     0    12     1    20
 -2.0304465208170758E-01 a       296     0    12     1    21
  5.8226258130674100E-02 a       297     0    12     1    22
 -1.1258553147685353E-01 a       298     0    12     1    23
  5.6292452201596808E-02 a       299     0    12     1    24
  1.1663935895906852E-01 a       300     0    12     1    25
  1.6159936580968579E-01 a       301     0    13     1     1
 -1.3505805425373475E-02 a       302     0    13     1     2
 -1.5934083780498465E-01 a       303     0    13     1     3
 -1.6386475378683235E-01 a       304     0    13     1     4
 -4.5314240573648322E-02 a       305     0    13     1     5
 -1.2697093290029302E-01 a       306     0    13     1     6
 -4.1298796591210760E-02 a       307     0    13     1     7
 -3.9441861229733824E-02 a       308     0    13     1     8
 -8.0776582567234870E-02 a       309     0    13     1     9
 -1.1413453795045513E-01 a       310     0    13     1    10
 -1.1656743734082983E-01 a       311     0    13     1    11
  2.9347446014803351E-03 a       312     0    13     1    12
  9.6975542184994518E-02 a       313     0    13     1    13
  2.2354140539838582E-01 a       314     0    13     1    14
  2.9741156789661849E-01 a       315     0    13     1    15
  6.6028192999536744E-02 a       316     0    13     1    16
  1.1470427560304719E-01 a       317     0    13     1    17
 -7.6779212788634241E-02 a       318     0    13     1    18
  1.8712411392532942E-02 a       319     0    13     1    19
 -1.2494093581939494E-02 a       320     0    13     1    20
 -1.5540756963698046E-01 a       321     0    13     1    21
  5.6375468694906804E-02 a       322     0    13     1    22
  1.3988787549429207E-01 a       323     0    13     1    23
 -8.3261231618805304E-02 a       324     0    13     1    24
  2.0409032419982118E-01 a       325     0    13     1    25
  7.1309092512050323E-02 a       326     0    14     1     1
  5.2764324148310913E-02 a       327     0    14     1     2
  1.3954974713404686E-01 a       328     0    14     1     3
  4.5721818119199731E-01 a       329     0    14     1     4
  3.7571904150892304E-03 a       330     0    14     1     5
 -1.1406923503770105E-02 a       331     0    14     1     6
  2.6955243941240721E-02 a       332     0    14     1     7
 -4.5394544999047715E-02 a       333     0    14     1     8
  3.9095533945118770E-02 a       334     0    14     1     9
 -2.7082798260649105E-01 a       335     0    14     1    10
  1.7537083817398247E-01 a       336     0    14     1    11
 -4.2127793081213248E-02 a       337     0    14     1    12
  1.6990567808485951E-01 a       338     0    14     1    13
  7.7687231500126880E-02 a       339     0    14     1    14
  8.1453697210147169E-02 a       340     0    14     1    15
 -1.3032716888963059E-02 a       341     0    14     1    16
 -1.8450060468194640E-01 a       342     0    14     1    17
 -2.4897628256548765E-01 a       343     0    14     1    18
  7.5830116980209819E-02 a       344     0    14     1    19
 -1.0791690052175081E-01 a       345     0    14     1    20
 -6.2578426858102124E-02 a       346     0    14     1    21
 -2.6760564895710370E-01 a       347     0    14     1    22
 -2.1438188351901061E-02 a       348     0    14     1    23
  1.1365649577064645E-03 a       349     0    14     1    24
  5.6674475484280173E-02 a       350     0    14     1    25
  2.1162624514278097E-01 a       351     0    15     1     1
 -1.1110802023268980E-01 a       352     0    15     1     2
  2.0053413483628782E-01 a       353     0    15     1     3
  1.3505564738736781E-01 a       354     0    15     1     4
  8.7385519689731454E-03 a       355     0    15     1     5
 -1.7377490954023033E-02 a       356     0    15     1     6
  3.6163417235453944E-02 a       357     0    15     1     7
 -8.4972021398568950E-02 a       358     0    15     1     8
  1.7981901653397699E-02 a       359     0    15     1     9
 -1.5401297208365462E-02 a       360     0    15     1    10
 -2.4679708156487354E-01 a       361     0    15     1    11
 -1.5177530093789072E-02 a       362     0    15     1    12
  9.5356330029770134E-02 a       363     0    15     1    13
  6.4152351647834144E-02 a       364     0    15     1    14
 -4.3001110464545404E-02 a       365     0    15     1    15
 -8.4267201265860833E-02 a       366     0    15     1    16
  9.8441825500810612E-02 a       367     0    15     1    17
  1.0855858108368124E-01 a       368     0    15     1    18
 -8.1461955364090941E-02 a       369     0    15     1    19
  1.3245860403792961E-01 a       370     0    15     1    20
  9.3653505382069388E-02 a       371     0    15     1    21
  2.0315259991356793E-01 a       372     0    15     1    22
  2.4097571718680955E-01 a       373     0    15     1    23
  8.4322451996351439E-02 a       374     0    15     1    24
  8.7223380086509983E-02 a       375     0    15     1    25
  6.2690191282976468E-02 a       376     0    16     1     1
 -8.2245444862175873E-02 a       377     0    16     1     2
  2.4315943690349107E-01 a       378     0    16     1     3
  2.6762558426436472E-01 a       379     0    16     1     4
 -4.7725930034405520E-02 a       380     0    16     1     5
  2.9676311613997919E-01 a       381     0    16     1     6
  8.8381195760805553E-02 a       382     0    16     1     7
 -2.2488375311086928E-02 a       383     0    16     1     8
 -1.5396453057604503E-01 a       384     0    16     1     9
 -7.8378249588783352E-02 a       385     0    16     1    10
  8.9480774542310682E-02 a       386     0    16     1    11
  3.7825172565050642E-02 a       387     0    16     1    12
 -1.1357438397077571E-01 a       388     0    16     1    13
 -6.7294210514604130E-02 a       389     0    16     1    14
 -1.5174525862411625E-01 a       390     0    16     1    15
  7.2062114292569104E-02 a       391     0    16     1    16
 -3.2023457219562429E-01 a       392     0    16     1    17
  2.4725553791435921E-02 a       393     0    16     1    18
 -2.8338755750233230E-01 a       394     0    16     1    19
 -1.4691460195504949E-01 a       395     0    16     1    20
  2.1061398595250514E-02 a       396     0    16     1    21
 -1.7287331695255756E-01 a       397     0    16     1    22
  3.3628324416299718E-02 a       398     0    16     1    23
  2.1336378873811820E-01 a       399     0    16     1    24
  1.8770310716196756E-01 a       400     0    16     1    25
 -9.0513221809696218E-02 a       401     0    17     1     1
  1.8082541332375798E-01 a       402     0    17     1     2
 -1.0896557921181405E-01 a       403     0    17     1     3
 -1.4717351537954704E-01 a       404     0    17     1     4
 -3.9903450587698640E-02 a       405     0    17     1     5
 -1.2368243532573054E-02 a       406     0    17     1     6
  1.5956546208755620E-01 a       407     0    17     1     7
  3.2434002781616839E-01 a       408     0    17     1     8
 -1.3990360965069645E-01 a       409     0    17     1     9
  3.7534892232236650E-01 a       410     0    17     1    10
  1.2374892253331647E-01 a       411     0    17     1    11
  9.4972456001519677E-03 a       412     0    17     1    12
  2.0340727930066170E-03 a       413     0    17     1    13
  3.4657443069857997E-02 a       414     0    17     1    14
  1.2495083858984495E-01 a       415     0    17     1    15
  4.3773483013498315E-02 a       416     0    17     1    16
 -1.1066548975302644E-01 a       417     0    17     1    17
  3.8216574784429913E-02 a       418     0    17     1    18
  2.2265318127986836E-01 a       419     0    17     1    19
 -4.3419282962189026E-01 a       420     0    17     1    20
  4.9027956521740905E-02 a       421     0    17     1    21
  8.5926078151118729E-04 a       422     0    17     1    22
  1.8894367747407603E-01 a       423     0    17     1    23
  1.2340074034220729E-01 a       424     0    17     1    24
 -1.7532270255177582E-01 a       425     0    17     1    25
  4.3644893139496377E-01 a       426     0    18     1     1
  1.2386090474922483E-01 a       427     0    18     1     2
  5.0897240487272621E-01 a       428     0    18     1     3
  2.7527740299861903E-01 a       429     0    18     1     4
  1.4742142872304336E-02 a       430     0    18     1     5
 -2.5278517505717618E-01 a       431     0    18     1     6
  1.5637924607875420E-01 a       432     0    18     1     7
  1.4826988378822145E-01 a       433     0    18     1     8
  1.3212839822716185E-01 a       434     0    18     1     9
 -1.1523458556293499E-01 a       435     0    18     1    10
  1.3478801402955415E-01 a       436     0    18     1    11
  1.1997389606827585E-01 a       437     0    18     1    12
 -6.7887970570682632E-02 a       438     0    18     1    13
 -2.5665324142956317E-02 a       439     0    18     1    14
 -1.3096649313391973E-01 a       440     0    18     1    15
 -9.8172716490170744E-02 a       441     0    18     1    16
  9.1295193390570420E-02 a       442     0    18     1    17
  1.7392649972831103E-01 a       443     0    18     1    18
 -1.8372873611915488E-01 a       444     0    18     1    19
  3.5569340971913843E-01 a       445     0    18     1    20
 -4.3647899356857967E-01 a       446     0    18     1    21
 -2.2279524879485965E-01 a       447     0    18     1    22
 -3.2568376837876639E-01 a       448     0    18     1    23
  3.3808693075507434E-01 a       449     0    18     1    24
  2.5555245222805506E-01 a       450     0    18     1    25
 -9.8317422633265747E-02 a       451     0    19     1     1
  1.6851212638632504E-01 a       452     0    19     1     2
 -1.0185505559376672E-01 a       453     0    19     1     3
 -1.6185998847078953E-01 a       454     0    19     1     4
 -2.0446099382833646E-02 a       455     0    19     1     5
 -2.1423086053896132E-01 a       456     0    19     1     6
 -1.3660036051163696E-01 a       457     0    19     1     7
  1.2410846468004753E-01 a       458     0    19     1     8
 -2.3988143057759228E-02 a       459     0    19     1     9
  2.0313872389897042E-01 a       460     0    19     1    10
  1.6611904287419740E-01 a       461     0    19     1    11
 -3.4055891990765169E-02 a       462     0    19     1    12
 -1.5577204633571720E-01 a       463     0    19     1    13
 -6.6841987338685141E-02 a       464     0    19     1    14
 -5.3088979973991993E-02 a       465     0    19     1    15
  1.7702296620207797E-01 a       466     0    19     1    16
 -1.1439835065331957E-01 a       467     0    19     1    17
  7.5975410173827881E-03 a       468     0    19     1    18
 -6.0529431478813095E-02 a       469     0    19     1    19
 -1.7612896608117362E-01 a       470     0    19     1    20
 -1.1305074325772664E-01 a       471     0    19     1    21
 -1.7667115065041655E-01 a       472     0    19     1    22
  1.2422501905552041E-01 a       473     0    19     1    23
 -1.2421669027402732E-01 a       474     0    19     1    24
 -6.2720275380738613E-02 a       475     0    19     1    25
 -7.8189162764870354E-02 a       476     0    20     1     1
 -1.3410206643109365E-01 a       477     0    20     1     2
 -2.9575661098073572E-04 a       478     0    20     1     3
  4.2460028472985933E-01 a       479     0    20     1     4
 -9.1013341508066406E-02 a       480     0    20     1     5
  2.4835235246306073E-01 a       481     0    20     1     6
  3.8740508335563091E-02 a       482     0    20     1     7
  1.1413614902104349E-01 a       483     0    20     1     8
  9.9037879563173711E-02 a       484     0    20     1     9
 -1.3113170036719321E-01 a       485     0    20     1    10
 -1.7249448819504860E-02 a       486     0    20     1    11
  2.9260686458789601E-02 a       487     0    20     1    12
 -2.2889584009632483E-01 a       488     0    20     1    13
 -1.1046687463047783E-01 a       489     0    20     1    14
 -1.0426079680749138E-01 a       490     0    20     1    15
 -5.2332319837238170E-02 a       491     0    20     1    16
 -1.0955484023145241E-01 a       492     0    20     1    17
 -9.5318197494161469E-02 a       493     0    20     1    18
 -6.2924869017695992E-02 a       494     0    20     1    19
  2.8024170014824534E-01 a       495     0    20     1    20
 -1.2112847076187941E-01 a       496     0    20     1    21
 -1.7608626319920986E-01 a       497     0    20     1    22
 -6.6662891827389228E-02 a       498     0    20     1    23
  1.9178966935257152E-01 a       499     0    20     1    24
 -5.9327243297727712E-02 a       500     0    20     1    25
 -1.8272928406774855E-01 a       501     0    21     1     1
 -4.0158520071747417E-02 a       502     0    21     1     2
 -3.1076228777407705E-01 a       503     0    21     1     3
 -3.3343501130316938E-01 a       504     0    21     1     4
 -5.9032141036686185E-02 a       505     0    21     1     5
 -3.0405032992478992E-01 a       506     0    21     1     6
 -1.8976067389782297E-01 a       507     0    21     1     7
 -1.5488802343945710E-02 a       508     0    21     1     8
 -1.9036970747928109E-02 a       509     0    21     1     9
  2.0514837826437118E-01 a       510     0    21     1    10
  2.1402181580043221E-02 a       511     0    21     1    11
 -2.8051004318013095E-01 a       512     0    21     1    12
  1.2245019560125808E-01 a       513     0    21     1    13
  1.6221496388219983E-01 a       514     0    21     1    14
  1.2898443393912409E-01 a       515     0    21     1    15
  1.3419141275276728E-01 a       516     0    21     1    16
 -2.3647161057224803E-01 a       517     0    21     1    17
 -3.0241131585172776E-01 a       518     0    21     1    18
  1.3864549900501427E-01 a       519     0    21     1    19
 -3.3467439167581858E-01 a       520     0    21     1    20
 -6.6525940756970464E-02 a       521     0    21     1    21
  7.1144007512818491E-02 a       522     0    21     1    22
  1.2588230609266238E-01 a       523     0    21     1    23
  4.3027998436158760E-02 a       524     0    21     1    24
  1.8884799975109431E-01 a       525     0    21     1    25
  2.7705807873505256E-01 a       526     0    22     1     1
 -3.4240825453451601E-01 a       527     0    22     1     2
  3.5412661417633529E-01 a       528     0    22     1     3
  2.9894492665990319E-01 a       529     0    22     1     4
 -1.8678560462530049E-02 a       530     0    22     1     5
  3.4144031971242983E-01 a       531     0    22     1     6
 -2.7048603337462207E-01 a       532     0    22     1     7
  1.0816338256227820E-01 a       533     0    22     1     8
 -1.9761353146553612E-01 a       534     0    22     1     9
 -3.6136811078336675E-02 a       535     0    22     1    10
 -9.6927115843829445E-02 a       536     0    22     1    11
 -1.9789014282830347E-02 a       537     0    22     1    12
 -2.7314776168732308E-02 a       538     0    22     1    13
  2.3761132068057139E-01 a       539     0    22     1    14
 -2.3401385623805404E-01 a       540     0    22     1    15
  8.7168553746946958E-02 a       541     0    22     1    16
  1.0494452209101976E-01 a       542     0    22     1    17
  4.2646229012600290E-01 a       543     0    22     1    18
 -3.3738320800329222E-02 a       544     0    22     1    19
  2.3260883398300242E-01 a       545     0    22     1    20
  2.3068404618846902E-01 a       546     0    22     1    21
  2.2215258287200670E-01 a       547     0    22     1    22
 -6.1498365812212095E-02 a       548     0    22     1    23
  3.5773570015606365E-01 a       549     0    22     1    24
 -1.5485130489407703E-01 a       550     0    22     1    25
  1.0765237879203875E-02 a       551     0    23     1     1
  4.2951554847121872E-03 a       552     0    23     1     2
 -2.6966892774178358E-01 a       553     0    23     1     3
  6.6475278801207474E-03 a       554     0    23     1     4
  2.3924155200578126E-01 a       555     0    23     1     5
  3.7130980266398626E-02 a       556     0    23     1     6
 -7.8855251975819718E-02 a       557     0    23     1     7
 -2.8133516550640961E-02 a       558     0    23     1     8
 -3.2787773117126474E-02 a       559     0    23     1     9
  2.8972080362731450E-01 a       560     0    23     1    10
  1.3356071852238978E-02 a       561     0    23     1    11
 -4.6432747032796449E-02 a       562     0    23     1    12
  9.0518872206893572E-02 a       563     0    23     1    13
  2.8759446585434673E-01 a       564     0    23     1    14
 -6.1140946811801024E-02 a       565     0    23     1    15
  3.5760454302820438E-01 a       566     0    23     1    16
  2.7044884183921092E-01 a       567     0    23     1    17
 -4.2460708788884871E-01 a       568     0    23     1    18
  2.8618424383521253E-02 a       569     0    23     1    19
 -8.3620215939819387E-02 a       570     0    23     1    20
  2.8837609198699061E-02 a       571     0    23     1    21
 -1.2170379075521025E-01 a       572     0    23     1    22
  1.3740618435162061E-01 a       573     0    23     1    23
 -2.9664276826467806E-01 a       574     0    23     1    24
  3.3157002969369087E-01 a       575     0    23     1    25
 -6.4576216815953574E-02 a       576     0    24     1     1
  2.1088896785243613E-01 a       577     0    24     1     2
  4.3733548863778909E-01 a       578     0    24     1     3
  1.9916560840617856E-01 a       579     0    24     1     4
  6.6093722307017669E-02 a       580     0    24     1     5
 -1.0109512335412170E-02 a       581     0    24     1     6
  1.0978236799300231E-02 a       582     0    24     1     7
 -6.4817972066490162E-02 a       583     0    24     1     8
  7.3256712224099990E-03 a       584     0    24     1     9
 -1.0445970545204875E-01 a       585     0    24     1    10
  2.3587921255102576E-01 a       586     0    24     1    11
  1.1899251951552881E-02 a       587     0    24     1    12
 -5.8142886814103741E-02 a       588     0    24     1    13
 -1.3882841720353209E-02 a       589     0    24     1    14
 -2.4610413595397121E-01 a       590     0    24     1    15
 -6.9186955703874162E-02 a       591     0    24     1    16
 -8.9184554475003730E-02 a       592     0    24     1    17
  2.3669704485125914E-01 a       593     0    24     1    18
 -9.4478517612229251E-02 a       594     0    24     1    19
 -8.5121779660169192E-02 a       595     0    24     1    20
 -9.0413291186588932E-02 a       596     0    24     1    21
 -9.9276153170881704E-02 a       597     0    24     1    22
 -1.1093354273577317E-01 a       598     0    24     1    23
  1.0679329231043889E-01 a       599     0    24     1    24
  3.1799798140562879E-01 a       600     0    24     1    25
 -2.4802511704566230E-01 a       601     0    25     1     1
 -1.9635323311423421E-02 a       602     0    25     1     2
 -2.6218456010209701E-01 a       603     0    25     1     3
 -7.4725254142586406E-02 a       604     0    25     1     4
 -3.4594788672519868E-02 a       605     0    25     1     5
  6.6147051134208532E-02 a       606     0    25     1     6
  2.0803601946240499E-01 a       607     0    25     1     7
 -8.9507872644170122E-02 a       608     0    25     1     8
  5.1943750668704235E-02 a       609     0    25     1     9
  3.3744217188367918E-02 a       610     0    25     1    10
  5.3248044271621248E-02 a       611     0    25     1    11
  1.2368200492036528E-01 a       612     0    25     1    12
  7.1350065654579617E-02 a       613     0    25     1    13
 -1.3756598799933756E-01 a       614     0    25     1    14
  2.6186433426538996E-01 a       615     0    25     1    15
 -9.5725385237161648E-02 a       616     0    25     1    16
 -2.3992820521433264E-01 a       617     0    25     1    17
 -3.6193124213731886E-02 a       618     0    25     1    18
 -1.0244337352733364E-01 a       619     0    25     1    19
 -1.7671274796778991E-01 a       620     0    25     1    20
 -2.7752589356068313E-01 a       621     0    25     1    21
  1.0995685341353151E-01 a       622     0    25     1    22
  2.5414351354661413E-02 a       623     0    25     1    23
 -1.1962962972942617E-01 a       624     0    25     1    24
 -2.7064243121894260E-01 a       625     0    25     1    25
 -1.6707282262461776E-01 a       626     0    26     1     1
  9.8905478321736795E-02 a       627     0    26     1     2
  1.8506094413889684E-01 a       628     0    26     1     3
  2.2882541273844539E-01 a       629     0    26     1     4
  4.3697128018660505E-02 a       630     0    26     1     5
  2.7008734096031767E-01 a       631     0    26     1     6
  1.3557628549188666E-01 a       632     0    26     1     7
  8.8901756510293306E-02 a       633     0    26     1     8
  3.1798911187456935E-01 a       634     0    26     1     9
 -1.5007496961509859E-01 a       635     0    26     1    10
  1.2259399053954086E-01 a       636     0    26     1    11
  1.7111668705050684E-01 a       637     0    26     1    12
  1.0836064256524498E-01 a       638     0    26     1    13
 -1.0834698159206232E-01 a       639     0    26     1    14
  1.0218423163108734E-01 a       640     0    26     1    15
 -1.0825522675728706E-01 a       641     0    26     1    16
  8.1170435327184029E-02 a       642     0    26     1    17
  5.1584645630989384E-02 a       643     0    26     1    18
  1.0558066965908150E-02 a       644     0    26     1    19
  1.1705448607247175E-01 a       645     0    26     1    20
 -2.1932286126839531E-01 a       646     0    26     1    21
 -2.3007567418202263E-01 a       647     0    26     1    22
 -1.3307731458635602E-01 a       648     0    26     1    23
  7.8568551168652606E-02 a       649     0    26     1    24
  1.7891974255650064E-01 a       650     0    26     1    25
 -3.0754827343107882E-01 a       651     0    27     1     1
  2.3690641562777906E-01 a       652     0    27     1     2
 -4.1860256620414416E-01 a       653     0    27     1     3
 -1.1794746485665970E-01 a       654     0    27     1     4
 -6.2305333426273077E-02 a       655     0    27     1     5
  2.5068442599178464E-01 a       656     0    27     1     6
  6.5683111481334511E-03 a       657     0    27     1     7
  2.1773530635102573E-01 a       658     0    27     1     8
 -2.5894447679453003E-01 a       659     0    27     1     9
  6.5457122735472814E-02 a       660     0    27     1    10
  2.6943282282577147E-01 a       661     0    27     1    11
 -1.0835744082975364E-01 a       662     0    27     1    12
 -1.0263498532711984E-01 a       663     0    27     1    13
 -1.8975647617763672E-02 a       664     0    27     1    14
 -9.1373983956733684E-02 a       665     0    27     1    15
 -6.6747493152690379E-02 a       666     0    27     1    16
 -1.3289134557419516E-01 a       667     0    27     1    17
 -2.6520655567623919E-01 a       668     0    27     1    18
 -1.0041326764711120E-01 a       669     0    27     1    19
 -2.3377668188497505E-01 a       670     0    27     1    20
  1.7949123201100209E-01 a       671     0    27     1    21
  5.2166528910811841E-03 a       672     0    27     1    22
  2.6185737716626095E-01 a       673     0    27     1    23
 -2.4305048573076027E-01 a       674     0    27     1    24
 -7.4925522053177138E-02 a       675     0    27     1    25
 -9.8932465996991847E-02 a       676     0    28     1     1
 -3.1265877837637523E-01 a       677     0    28     1     2
  8.9889133071888699E-02 a       678     0    28     1     3
  1.8298127781753323E-01 a       679     0    28     1     4
 -1.3058073593327740E-01 a       680     0    28     1     5
 -1.9921052498309333E-02 a       681     0    28     1     6
  1.3947981586047729E-02 a       682     0    28     1     7
 -1.9184707943181567E-01 a       683     0    28     1     8
  1.8589539637436009E-02 a       684     0    28     1     9
 -1.1016427924056589E-01 a       685     0    28     1    10
 -1.1373357441108560E-01 a       686     0    28     1    11
  1.4097467919311729E-01 a       687     0    28     1    12
  1.4042776961586926E-02 a       688     0    28     1    13
 -2.0629274643731727E-02 a       689     0    28     1    14
  2.4988963006831891E-01 a       690     0    28     1    15
 -1.4388215365988219E-01 a       691     0    28     1    16
 -1.5715209893518362E-01 a       692     0    28     1    17
  9.8505704769856817E-02 a       693     0    28     1    18
 -1.3344186904543850E-01 a       694     0    28     1    19
  3.1548111678763049E-02 a       695     0    28     1    20
  2.0209366956112026E-01 a       696     0    28     1    21
  4.8478437566217732E-02 a       697     0    28     1    22
 -1.0534471497242928E-01 a       698     0    28     1    23
 -1.1846633872801561E-02 a       699     0    28     1    24
 -9.6266301197958662E-02 a       700     0    28     1    25
 -5.7175041579996769E-02 a       701     0    29     1     1
 -7.5740444781264502E-02 a       702     0    29     1     2
 -3.9340291294619989E-01 a       703     0    29     1     3
 -1.0762881720260986E-01 a       704     0    29     1     4
 -2.0597550050974089E-01 a       705     0    29     1     5
 -3.1922309608364008E-01 a       706     0    29     1     6
 -4.3309014426971666E-02 a       707     0    29     1     7
  2.8720910896451939E-02 a       708     0    29     1     8
 -2.1168431999007761E-01 a       709     0    29     1     9
  3.1068326678640373E-02 a       710     0    29     1    10
 -5.4498406613778062E-02 a       711     0    29     1    11
 -3.0489229549542776E-02 a       712     0    29     1    12
 -2.9380901456386405E-02 a       713     0    29     1    13
 -2.8325688916744172E-02 a       714     0    29     1    14
  2.5815939541184014E-04 a       715     0    29     1    15
 -7.5856072750255785E-02 a       716     0    29     1    16
 -2.2889461665293001E-01 a       717     0    29     1    17
 -1.0369072631804106E-01 a       718     0    29     1    18
  3.6486034297504771E-02 a       719     0    29     1    19
 -3.8029443160865961E-01 a       720     0    29     1    20
 -5.2802017000211539E-02 a       721     0    29     1    21
 -1.2444785862726633E-01 a       722     0    29     1    22
 -5.1235804552883464E-02 a       723     0    29     1    23
  9.6738484630971761E-02 a       724     0    29     1    24
 -1.5847244477489700E-01 a       725     0    29     1    25
 -7.4136557936118740E-03 a       726     0    30     1     1
 -2.3470449901736948E-01 a       727     0    30     1     2
  2.3208333785201110E-01 a       728     0    30     1     3
  2.4568403250902029E-01 a       729     0    30     1     4
  5.5674575292555636E-02 a       730     0    30     1     5
 -3.0627916884450990E-01 a       731     0    30     1     6
 -1.4763222938565990E-01 a       732     0    30     1     7
 -1.5095074261861058E-01 a       733     0    30     1     8
 -1.5005278493180782E-01 a       734     0    30     1     9
 -2.0787035277897989E-01 a       735     0    30     1    10
  2.0035330915116684E-01 a       736     0    30     1    11
  5.7444941293396605E-02 a       737     0    30     1    12
 -1.2040398710213421E-01 a       738     0    30     1    13
  5.6915304422469594E-02 a       739     0    30     1    14
 -1.5000582253137525E-02 a       740     0    30     1    15
 -4.6561290451505012E-02 a       741     0    30     1    16
  1.3767335476234396E-01 a       742     0    30     1    17
  2.3508402374209703E-01 a       743     0    30     1    18
  1.1597357972565407E-01 a       744     0    30     1    19
 -1.3906337610692157E-01 a       745     0    30     1    20
 -5.2703294974142681E-02 a       746     0    30     1    21
 -1.2610202228957168E-01 a       747     0    30     1    22
 -5.2486517373074693E-02 a       748     0    30     1    23
 -6.0317135981613174E-02 a       749     0    30     1    24
  4.4811069269107523E-02 a       750     0    30     1    25
  1.7214671652427821E-01 a       751     0    31     1     1
 -1.2794216396685926E-01 a       752     0    31     1     2
 -2.6337800081207763E-01 a       753     0    31     1     3
 -7.6334186870164716E-02 a       754     0    31     1     4
  2.4747972825610781E-02 a       755     0    31     1     5
 -1.0772672677542969E-01 a       756     0    31     1     6
 -1.3220132515781230E-01 a       757     0    31     1     7
  1.9467850949036650E-01 a       758     0    31     1     8
  3.8580726550687350E-01 a       759     0    31     1     9
  2.3285761779304545E-01 a       760     0    31     1    10
 -1.8285115001749230E-01 a       761     0    31     1    11
 -4.7735454073416762E-02 a       762     0    31     1    12
  5.4177642026235213E-02 a       763     0    31     1    13
  4.8387210659523137E-03 a       764     0    31     1    14
 -8.7799004284086532E-02 a       765     0    31     1    15
  1.7144212501425454E-01 a       766     0    31     1    16
 -1.4919003814425942E-02 a       767     0    31     1    17
 -1.0778092441012731E-01 a       768     0    31     1    18
 -1.1276018726349091E-01 a       769     0    31     1    19
 -8.4635315729941665E-02 a       770     0    31     1    20
 -2.3398815992715991E-01 a       771     0    31     1    21
  1.2225341918483587E-01 a       772     0    31     1    22
 -4.8989826647754260E-02 a       773     0    31     1    23
 -7.5263426864213390E-02 a       774     0    31     1    24
  1.6317812887418900E-01 a       775     0    31     1    25
 -1.1881327643141298E-01 a       776     0    32     1     1
  8.3604784401588625E-02 a       777     0    32     1     2
 -2.0995028070581037E-01 a       778     0    32     1     3
  2.3548344892976175E-01 a       779     0    32     1     4
  1.0528021843251516E-01 a       780     0    32     1     5
  9.2795783851034028E-02 a       781     0    32     1     6
 -2.8617874999668155E-02 a       782     0    32     1     7
 -7.6979694574202381E-02 a       783     0    32     1     8
 -5.2677368304578052E-02 a       784     0    32     1     9
 -8.0464299096607378E-02 a       785     0    32     1    10
 -1.4284692159115108E-02 a       786     0    32     1    11
  8.3333032902965912E-02 a       787     0    32     1    12
  2.9008882561210602E-02 a       788     0    32     1    13
  3.9822111742644488E-02 a       789     0    32     1    14
 -8.4672317139560166E-02 a       790     0    32     1    15
  8.9712085112630083E-02 a       791     0    32     1    16
  9.0795582802961503E-02 a       792     0    32     1    17
 -6.6971721156924777E-02 a       793     0    32     1    18
 -6.2448129822182855E-02 a       794     0    32     1    19
  5.4025017121187686E-02 a       795     0    32     1    20
 -2.0294817719438066E-01 a       796     0    32     1    21
 -2.7791553817522940E-01 a       797     0    32     1    22
 -5.3404238634795410E-02 a       798     0    32     1    23
 -5.7311170261374264E-02 a       799     0    32     1    24
  1.7229460126279564E-01 a       800     0    32     1    25
 -1.8587276755403306E-01 a       801     0    33     1     1
  1.1967716486338235E-01 a       802     0    33     1     2
  1.0468039759824166E-02 a       803     0    33     1     3
  3.3377576094846644E-02 a       804     0    33     1     4
  2.4887276560210364E-02 a       805     0    33     1     5
 -1.1975159356238073E-01 a       806     0    33     1     6
  1.0128895882688507E-01 a       807     0    33     1     7
  3.3961987304551848E-02 a       808     0    33     1     8
  1.9437975568087751E-01 a       809     0    33     1     9
  1.0623995015896057E-01 a       810     0    33     1    10
 -8.0896994801841135E-02 a       811     0    33     1    11
 -1.1334734462287022E-01 a       812     0    33     1    12
  9.4464051968993643E-02 a       813     0    33     1    13
  2.1159693273556535E-01 a       814     0    33     1    14
 -3.3625091730461472E-02 a       815     0    33     1    15
  1.4610052744117530E-02 a       816     0    33     1    16
 -1.7646670320326841E-02 a       817     0    33     1    17
 -1.2773564450194450E-01 a       818     0    33     1    18
 -1.9795630174688067E-01 a       819     0    33     1    19
  1.5739516488718411E-01 a       820     0    33     1    20
 -1.2074366972025898E-01 a       821     0    33     1    21
  1.6645881653478492E-01 a       822     0    33     1    22
  8.9142388583526841E-02 a       823     0    33     1    23
  1.1675222719900900E-01 a       824     0    33     1    24
  3.8758707355864874E-01 a       825     0    33     1    25
 -2.9757511207016152E-01 a       826     0    34     1     1
 -8.9899239279621498E-02 a       827     0    34     1     2
 -8.6340695637917214E-02 a       828     0    34     1     3
  1.5405763614573689E-01 a       829     0    34     1     4
  3.9112761946357676E-02 a       830     0    34     1     5
  1.4497556811177661E-01 a       831     0    34     1     6
  1.6990203583859928E-01 a       832     0    34     1     7
  1.5378859596698073E-02 a       833     0    34     1     8
 -1.2757345726690389E-01 a       834     0    34     1     9
  2.2582003635367210E-02 a       835     0    34     1    10
 -5.3464007507795279E-02 a       836     0    34     1    11
  1.4421614174921155E-01 a       837     0    34     1    12
  5.7345031127337562E-02 a       838     0    34     1    13
 -3.1843875261134240E-02 a       839     0    34     1    14
  9.7475032891418525E-02 a       840     0    34     1    15
 -1.9249128297435139E-01 a       841     0    34     1    16
  1.3404812067075313E-02 a       842     0    34     1    17
 -1.6171224735582199E-01 a       843     0    34     1    18
 -1.7002037344801473E-02 a       844     0    34     1    19
 -2.0299599206753163E-01 a       845     0    34     1    20
  1.9615850759179018E-01 a       846     0    34     1    21
 -4.7245512850602545E-03 a       847     0    34     1    22
 -1.1327317149225126E-01 a       848     0    34     1    23
  5.4526569424536486E-02 a       849     0    34     1    24
 -1.5844990956609381E-01 a       850     0    34     1    25
  1.3314856393664004E-01 a       851     0    35     1     1
 -1.2327203182126484E-01 a       852     0    35     1     2
  9.5533445753847659E-02 a       853     0    35     1     3
 -6.1994121290060523E-02 a       854     0    35     1     4
 -1.0294249182873683E-02 a       855     0    35     1     5
 -5.6185002314056903E-02 a       856     0    35     1     6
  7.5614967684165771E-02 a       857     0    35     1     7
 -2.2539700454001999E-01 a       858     0    35     1     8
  2.3408650645079958E-02 a       859     0    35     1     9
 -8.4028927293180858E-02 a       860     0    35     1    10
  1.1413067810249611E-01 a       861     0    35     1    11
 -1.7238243283071139E-01 a       862     0    35     1    12
 -5.6672514564500731E-02 a       863     0    35     1    13
  8.0711095284668688E-02 a       864     0    35     1    14
  1.8410599814914755E-01 a       865     0    35     1    15
 -1.0552610290642771E-01 a       866     0    35     1    16
 -8.3799065750266591E-02 a       867     0    35     1    17
  3.5889349313806870E-02 a       868     0    35     1    18
  8.3113606554241312E-02 a       869     0    35     1    19
  4.2467884578394954E-02 a       870     0    35     1    20
 -1.8034435851164536E-02 a       871     0    35     1    21
  1.2618429663238156E-02 a       872     0    35     1    22
  1.9563920482156649E-01 a       873     0    35     1    23
  2.0286535142536943E-01 a       874     0    35     1    24
 -1.0061624325858505E-01 a       875     0    35     1    25
 -1.3925706522577383E-01 a       876     0    36     1     1
 -6.5262820497469509E-02 a       877     0    36     1     2
  2.4411610654112612E-01 a       878     0    36     1     3
 -1.0330853312085227E-01 a       879     0    36     1     4
 -6.9852556635563640E-02 a       880     0    36     1     5
  1.2317106922615768E-02 a       881     0    36     1     6
  2.8494817170590561E-02 a       882     0    36     1     7
  1.7556932414604869E-02 a       883     0    36     1     8
 -1.8890968954554696E-01 a       884     0    36     1     9
  7.2753838029864210E-02 a       885     0    36     1    10
  5.9912220536658109E-02 a       886     0    36     1    11
  8.5970489190350437E-03 a       887     0    36     1    12
 -1.0818650286303781E-01 a       888     0    36     1    13
 -1.5949333615668934E-01 a       889     0    36     1    14
 -1.3637737340997793E-02 a       890     0    36     1    15
 -3.6248817622953372E-02 a       891     0    36     1    16
 -1.6281204481789224E-01 a       892     0    36     1    17
 -6.1142787333335072E-02 a       893     0    36     1    18
 -9.4631408423093102E-02 a       894     0    36     1    19
 -7.3786204170458364E-02 a       895     0    36     1    20
  6.5104486055508740E-02 a       896     0    36     1    21
  2.5354955955005870E-01 a       897     0    36     1    22
 -1.1219690616299728E-01 a       898     0    36     1    23
 -5.9573576878690332E-02 a       899     0    36     1    24
  1.5744499644789148E-02 a       900     0    36     1    25
  4.0197011260858874E-02 a       901     0    37     1     1
 -2.7640865912193263E-01 a       902     0    37     1     2
 -2.6754743858286384E-01 a       903     0    37     1     3
 -2.3868777032369788E-02 a       904     0    37     1     4
 -1.6524054782132033E-01 a       905     0    37     1     5
  3.0298512978054365E-01 a       906     0    37     1     6
  3.4157304397157480E-02 a       907     0    37     1     7
 -2.7440085938498809E-01 a       908     0    37     1     8
 -2.9100543612500801E-01 a       909     0    37     1     9
  9.2862179402954992E-02 a       910     0    37     1    10
 -1.0790360642455166E-01 a       911     0    37     1    11
 -3.5426935485620779E-02 a       912     0    37     1    12
 -2.2117598171661697E-02 a       913     0    37     1    13
  9.5279767636551049E-02 a       914     0    37     1    14
 -1.5174075937899373E-01 a       915     0    37     1    15
  1.3622815629492502E-01 a       916     0    37     1    16
 -3.0279291490266355E-02 a       917     0    37     1    17
  1.2755571943022864E-01 a       918     0    37     1    18
 -2.0143414735135336E-02 a       919     0    37     1    19
 -6.7014763477203060E-02 a       920     0    37     1    20
 -9.0531354635441388E-02 a       921     0    37     1    21
 -1.7116083471362044E-02 a       922     0    37     1    22
 -5.3962701794836501E-03 a       923     0    37     1    23
  3.7572448086055682E-01 a       924     0    37     1    24
 -1.5725337385834579E-01 a       925     0    37     1    25
  1.5312419147831491E-01 a       926     0    38     1     1
 -1.8253235747827773E-01 a       927     0    38     1     2
  4.2069877531952383E-02 a       928     0    38     1     3
  1.5661317696803581E-01 a       929     0    38     1     4
 -3.4694720905490882E-02 a       930     0    38     1     5
  1.3777600739449269E-01 a       931     0    38     1     6
 -1.4106612363411064E-01 a       932     0    38     1     7
  2.1035295001292853E-01 a       933     0    38     1     8
 -2.2540420250311378E-02 a       934     0    38     1     9
 -4.9561131184092888E-02 a       935     0    38     1    10
  1.9396149513746352E-01 a       936     0    38     1    11
  4.0897770956270077E-02 a       937     0    38     1    12
  7.8516297774445520E-02 a       938     0    38     1    13
  9.5592657055393507E-02 a       939     0    38     1    14
 -2.1917488516455927E-01 a       940     0    38     1    15
  1.5201370576253878E-02 a       941     0    38     1    16
  1.6068054228692097E-01 a       942     0    38     1    17
  8.3856066230649784E-02 a       943     0    38     1    18
 -3.1900327858593214E-03 a       944     0    38     1    19
 -1.3986042033559198E-01 a       945     0    38     1    20
 -1.8569174336319202E-01 a       946     0    38     1    21
 -2.0305953378631469E-01 a       947     0    38     1    22
 -5.7939346992276916E-02 a       948     0    38     1    23
  1.1142852229292798E-01 a       949     0    38     1    24
  2.0006516342904535E-01 a       950     0    38     1    25
 -1.6080868790920880E-01 a       951     0    39     1     1
  1.0285622725754416E-01 a       952     0    39     1     2
 -1.4993807049344190E-02 a       953     0    39     1     3
 -1.1883276602068966E-01 a       954     0    39     1     4
 -7.0823691122328933E-02 a       955     0    39     1     5
  1.3395608078336807E-01 a       956     0    39     1     6
 -9.1695065035772794E-02 a       957     0    39     1     7
  2.5443959799565463E-01 a       958     0    39     1     8
 -8.7309604705706326E-02 a       959     0    39     1     9
  9.5595353543025063E-02 a       960     0    39     1    10
  8.6101685099373493E-02 a       961     0    39     1    11
  3.6002218652481266E-02 a       962     0    39     1    12
 -2.4175449298619704E-02 a       963     0    39     1    13
 -5.3772647623637974E-02 a       964     0    39     1    14
 -1.3236489168193927E-01 a       965     0    39     1    15
  1.9914369489177625E-01 a       966     0    39     1    16
  9.7574711368502959E-02 a       967     0    39     1    17
  9.8162143511254768E-02 a       968     0    39     1    18
  5.9792428065469895E-02 a       969     0    39     1    19
 -7.6469394093353710E-02 a       970     0    39     1    20
 -5.0426567874770671E-02 a       971     0    39     1    21
  8.5007604887597413E-02 a       972     0    39     1    22
 -3.2501135935554690E-02 a       973     0    39     1    23
  7.9431256542589028E-03 a       974     0    39     1    24
  3.4726301599034568E-03 a       975     0    39     1    25
 -2.0752987578704103E-02 a       976     0    40     1     1
  4.1632522778433649E-02 a       977     0    40     1     2
  3.1216249601348587E-02 a       978     0    40     1     3
  1.5601467378325107E-01 a       979     0    40     1     4
 -4.6213839490187938E-02 a       980     0    40     1     5
 -6.2260768124688823E-02 a       981     0    40     1     6
  5.1707223164032343E-03 a       982     0    40     1     7
  1.4087969675340475E-01 a       983     0    40     1     8
  1.7164809442847637E-01 a       984     0    40     1     9
 -1.8720267587194619E-01 a       985     0    40     1    10
 -5.6916945773825417E-02 a       986     0    40     1    11
  4.1920953694147597E-02 a       987     0    40     1    12
  3.4123973018935255E-03 a       988     0    40     1    13
  8.5371014055349456E-02 a       989     0    40     1    14
 -4.3627510507362077E-02 a       990     0    40     1    15
 -1.7441645091353566E-01 a       991     0    40     1    16
 -4.6589035087543336E-03 a       992     0    40     1    17
  4.2475074780217260E-02 a       993     0    40     1    18
 -9.1450794311043304E-02 a       994     0    40     1    19
  5.8973809376526742E-02 a       995     0    40     1    20
  4.9814456048262935E-02 a       996     0    40     1    21
 -1.0523362639221449E-01 a       997     0    40     1    22
  7.5235633360790158E-03 a       998     0    40     1    23
  1.6303395988205297E-02 a       999     0    40     1    24
 -8.4826025849884773E-02 a      1000     0    40     1    25
  7.6805026534950041E-02 a      1001     0    41     1     1
 -4.7140293201251744E-02 a      1002     0    41     1     2
 -1.8261291445206271E-01 a      1003     0    41     1     3
  1.6737756765219258E-01 a      1004     0    41     1     4
  2.0882997508747353E-01 a      1005     0    41     1     5
 -5.2228451473334943E-02 a      1006     0    41     1     6
 -1.8164304420453450E-01 a      1007     0    41     1     7
 -2.5912697641310534E-01 a      1008     0    41     1     8
 -5.4562544532268407E-02 a      1009     0    41     1     9
  1.4337323827637224E-01 a      1010     0    41     1    10
 -7.1294385635018137E-02 a      1011     0    41     1    11
  1.6296957569584639E-01 a      1012     0    41     1    12
  7.1052664597464218E-02 a      1013     0    41     1    13
 -1.8958929453013362E-01 a      1014     0    41     1    14
 -2.6121632784756271E-01 a      1015     0    41     1    15
  1.3676902507987615E-01 a      1016     0    41     1    16
 -5.9477075744390614E-03 a      1017     0    41     1    17
 -1.5075764416703816E-01 a      1018     0    41     1    18
 -4.3863086416474802E-02 a      1019     0    41     1    19
  1.2791960749234282E-01 a      1020     0    41     1    20
  9.7604182262828909E-02 a      1021     0    41     1    21
  4.9287692521455130E-02 a      1022     0    41     1    22
 -1.7289086062966006E-02 a      1023     0    41     1    23
 -3.1111901610862280E-01 a      1024     0    41     1    24
  4.4288761244399170E-02 a      1025     0    41     1    25
  2.5004871406020152E-01 a      1026     0    42     1     1
  1.3170451262980679E-02 a      1027     0    42     1     2
 -1.2988069910695865E-01 a      1028     0    42     1     3
 -7.5231937975305085E-02 a      1029     0    42     1     4
 -1.3458891382524682E-01 a      1030     0    42     1     5
 -2.2821710850898777E-01 a      1031     0    42     1     6
 -6.8790672789242460E-02 a      1032     0    42     1     7
 -1.8011257482779326E-02 a      1033     0    42     1     8
 -1.1194083655136496E-03 a      1034     0    42     1     9
  1.9937943786971493E-01 a      1035     0    42     1    10
 -2.0881608682230227E-01 a      1036     0    42     1    11
 -1.3467219812023434E-01 a      1037     0    42     1    12
 -2.1359237881443865E-01 a      1038     0    42     1    13
  6.2278409707172081E-04 a      1039     0    42     1    14
 -4.3701071216004301E-03 a      1040     0    42     1    15
 -2.6178261151386301E-01 a      1041     0    42     1    16
  5.5944389421992549E-02 a      1042     0    42     1    17
  2.4204872087981830E-01 a      1043     0    42     1    18
  5.3835521330741029E-02 a      1044     0    42     1    19
 -2.3082225555515198E-01 a      1045     0    42     1    20
 -1.7818753047126795E-01 a      1046     0    42     1    21
  6.8244210308819650E-02 a      1047     0    42     1    22
  6.2794435510671626E-02 a      1048     0    42     1    23
 -1.5462713918443069E-01 a      1049     0    42     1    24
 -1.5806518433714140E-01 a      1050     0    42     1    25
  1.9006311532648659E-02 a      1051     0    43     1     1
  1.2563100525506690E-01 a      1052     0    43     1     2
  2.2332645941303711E-01 a      1053     0    43     1     3
  1.1431881489376286E-01 a      1054     0    43     1     4
  1.2428970013040462E-01 a      1055     0    43     1     5
  8.8600235647580766E-02 a      1056     0    43     1     6
  1.3477807815888075E-02 a      1057     0    43     1     7
 -1.4695666018375994E-01 a      1058     0    43     1     8
  1.1146050979457003E-01 a      1059     0    43     1     9
  1.5616484036040765E-01 a      1060     0    43     1    10
  9.6746673369968214E-02 a      1061     0    43     1    11
 -3.8255925710156874E-02 a      1062     0    43     1    12
 -1.0646977093817944E-01 a      1063     0    43     1    13
  3.8064904194280477E-02 a      1064     0    43     1    14
 -1.4935563408588692E-01 a      1065     0    43     1    15
 -1.1545102768958846E-02 a      1066     0    43     1    16
  4.4530472806732198E-03 a      1067     0    43     1    17
  7.7098770624959732E-03 a      1068     0    43     1    18
 -1.3570484285096493E-01 a      1069     0    43     1    19
 -3.4595013748232213E-02 a      1070     0    43     1    20
  4.1921254199231019E-02 a      1071     0    43     1    21
  9.1148044889219001E-03 a      1072     0    43     1    22
  5.0180167359531840E-02 a      1073     0    43     1    23
 -4.8142488996601625E-02 a      1074     0    43     1    24
  1.7480925911516262E-01 a      1075     0    43     1    25
  3.0973159531252131E-01 a      1076     0    44     1     1
  2.1718214657070006E-01 a      1077     0    44     1     2
 -8.0814308319985692E-02 a      1078     0    44     1     3
 -1.9063924272469585E-01 a      1079     0    44     1     4
 -4.4066046591806567E-02 a      1080     0    44     1     5
 -2.0433484417493548E-02 a      1081     0    44     1     6
 -9.0613045494706945E-02 a      1082     0    44     1     7
 -2.8099833906527649E-02 a      1083     0    44     1     8
  1.3629767051377689E-01 a      1084     0    44     1     9
  1.5839251199271234E-01 a      1085     0    44     1    10
  1.7998875659304189E-01 a      1086     0    44     1    11
  1.3396803998360225E-02 a      1087     0    44     1    12
  8.6755013837056943E-02 a      1088     0    44     1    13
 -7.1148978276811201E-02 a      1089     0    44     1    14
 -2.3179342839964104E-03 a      1090     0    44     1    15
 -9.8368642654362556E-02 a      1091     0    44     1    16
  1.5186357171120418E-01 a      1092     0    44     1    17
  3.3702417327725226E-01 a      1093     0    44     1    18
  3.2800832896601712E-01 a      1094     0    44     1    19
 -2.2481489650905723E-01 a      1095     0    44     1    20
  1.4130769540122473E-01 a      1096     0    44     1    21
 -4.1649360579329539E-02 a      1097     0    44     1    22
  3.7229311111519378E-02 a      1098     0    44     1    23
  1.9179218724617958E-01 a      1099     0    44     1    24
 -1.8525394273365622E-01 a      1100     0    44     1    25
  8.5452830851797001E-02 a      1101     0    45     1     1
 -6.1278085592959351E-02 a      1102     0    45     1     2
  3.0266592289445976E-01 a      1103     0    45     1     3
 -1.8902639128194912E-01 a      1104     0    45     1     4
 -5.1781403736736856E-02 a      1105     0    45     1     5
 -1.9985060291730772E-01 a      1106     0    45     1     6
  7.9880751791193763E-03 a      1107     0    45     1     7
 -2.2257466008040805E-01 a      1108     0    45     1     8
  1.1559194030666403E-01 a      1109     0    45     1     9
 -1.6008327443148204E-01 a      1110     0    45     1    10
 -1.5710747044996942E-01 a      1111     0    45     1    11
  6.0119283683888379E-02 a      1112     0    45     1    12
 -1.2749082908369324E-02 a      1113     0    45     1    13
  1.4610198830537197E-01 a      1114     0    45     1    14
  2.0604352744531274E-01 a      1115     0    45     1    15
  1.3905872722597606E-01 a      1116     0    45     1    16
  1.1117750398932669E-01 a      1117     0    45     1    17
  2.0180834235513234E-01 a      1118     0    45     1    18
 -2.0034407219367420E-01 a      1119     0    45     1    19
  3.0538071229156888E-01 a      1120     0    45     1    20
 -1.1265862721139802E-01 a      1121     0    45     1    21
  2.8834438978876764E-01 a      1122     0    45     1    22
  1.4968311366356782E-01 a      1123     0    45     1    23
  1.2679933673103344E-01 a      1124     0    45     1    24
 -2.5712705506880564E-02 a      1125     0    45     1    25
 -2.5460268046944645E-01 a      1126     0    46     1     1
  1.6756888267498982E-01 a      1127     0    46     1     2
  7.1131048556454482E-02 a      1128     0    46     1     3
 -4.9512662974982184E-02 a      1129     0    46     1     4
  1.6101359260230250E-01 a      1130     0    46     1     5
 -2.7981432104814775E-02 a      1131     0    46     1     6
 -1.2136913259798193E-01 a      1132     0    46     1     7
  1.9329711038344238E-01 a      1133     0    46     1     8
 -2.2456474786094663E-01 a      1134     0    46     1     9
  1.1658066536070243E-01 a      1135     0    46     1    10
 -7.3267022267496221E-02 a      1136     0    46     1    11
  1.2271066910780193E-02 a      1137     0    46     1    12
  1.9070821772637751E-02 a      1138     0    46     1    13
 -1.7227024686385484E-02 a      1139     0    46     1    14
 -5.3610431499892884E-02 a      1140     0    46     1    15
 -1.0361998457202767E-01 a      1141     0    46     1    16
 -1.4677968561757981E-01 a      1142     0    46     1    17
 -1.1989122581869227E-01 a      1143     0    46     1    18
 -1.3230907014910365E-01 a      1144     0    46     1    19
  8.8045675952043417E-03 a      1145     0    46     1    20
  1.4018237492193550E-01 a      1146     0    46     1    21
  1.4545507653987758E-01 a      1147     0    46     1    22
 -1.7181934892795150E-01 a      1148     0    46     1    23
 -5.6423212506866015E-02 a      1149     0    46     1    24
 -1.2451440744625411E-01 a      1150     0    46     1    25
  1.3905485458650699E-01 a      1151     0    47     1     1
  7.2224198280844865E-02 a      1152     0    47     1     2
  4.3433647151839228E-02 a      1153     0    47     1     3
 -1.1462592734374780E-01 a      1154     0    47     1     4
 -1.1515670726175570E-01 a      1155     0    47     1     5
 -2.1538825237805090E-01 a      1156     0    47     1     6
  8.6382288501823515E-02 a      1157     0    47     1     7
  1.7833575077887145E-01 a      1158     0    47     1     8
 -1.2118519768572728E-01 a      1159     0    47     1     9
 -2.7518034024887567E-01 a      1160     0    47     1    10
  6.8692696831975278E-02 a      1161     0    47     1    11
  7.6719028194610475E-02 a      1162     0    47     1    12
 -5.4841181334510720E-02 a      1163     0    47     1    13
 -5.3490518420585810E-02 a      1164     0    47     1    14
  1.9251784633711938E-01 a      1165     0    47     1    15
  3.2344727228561271E-02 a      1166     0    47     1    16
 -5.0908383061425790E-02 a      1167     0    47     1    17
  4.3739615465373305E-02 a      1168     0    47     1    18
  6.4986475266609903E-02 a      1169     0    47     1    19
 -1.3689385392534492E-01 a      1170     0    47     1    20
 -1.3655599239617966E-01 a      1171     0    47     1    21
 -1.6612362347770599E-02 a      1172     0    47     1    22
  3.7817829817235736E-03 a      1173     0    47     1    23
 -2.5431009394164632E-02 a      1174     0    47     1    24
 -2.0264319071152667E-01 a      1175     0    47     1    25
  1.3439298512971370E-01 a      1176     0    48     1     1
 -1.7721033975359433E-02 a      1177     0    48     1     2
  1.3077627977872724E-01 a      1178     0    48     1     3
 -8.4347921818789251E-02 a      1179     0    48     1     4
 -1.5648209482846967E-02 a      1180     0    48     1     5
 -1.4761493818563337E-01 a      1181     0    48     1     6
  5.4813288528356277E-02 a      1182     0    48     1     7
 -1.7301488090971359E-01 a      1183     0    48     1     8
  1.1386228301893926E-01 a      1184     0    48     1     9
  1.0449966247703914E-01 a      1185     0    48     1    10
  8.8370210588536530E-02 a      1186     0    48     1    11
 -2.8644492720070837E-02 a      1187     0    48     1    12
 -1.8060683806919051E-01 a      1188     0    48     1    13
 -1.2727214169765143E-02 a      1189     0    48     1    14
  2.7206347259589986E-01 a      1190     0    48     1    15
  3.1687823101490903E-01 a      1191     0    48     1    16
  8.9792181463232451E-02 a      1192     0    48     1    17
  2.2225881924217747E-01 a      1193     0    48     1    18
  1.8752935640808432E-01 a      1194     0    48     1    19
 -2.3303661840264642E-01 a      1195     0    48     1    20
 -6.1617664682587288E-02 a      1196     0    48     1    21
  1.7179778918948160E-01 a      1197     0    48     1    22
  1.3295317218833386E-01 a      1198     0    48     1    23
  1.4510890477201896E-01 a      1199     0    48     1    24
  2.7629646822198894E-01 a      1200     0    48     1    25
  1.6617725160765048E-01 a      1201     0    49     1     1
  7.1672835238387897E-02 a      1202     0    49     1     2
  1.7724027665292821E-02 a      1203     0    49     1     3
 -1.3446691059155239E-01 a      1204     0    49     1     4
  3.9921206611796968E-02 a      1205     0    49     1     5
  8.0413795737728291E-02 a      1206     0    49     1     6
 -8.3478292321810976E-02 a      1207     0    49     1     7
  2.4731720190455866E-01 a      1208     0    49     1     8
  1.1658833889498323E-01 a      1209     0    49     1     9
  1.2015234287772263E-01 a      1210     0    49     1    10
  1.3169423816820269E-01 a      1211     0    49     1    11
 -7.4374963121112456E-02 a      1212     0    49     1    12
 -5.3794081939631054E-02 a      1213     0    49     1    13
 -1.6333032442205228E-01 a      1214     0    49     1    14
  1.7562954052663007E-01 a      1215     0    49     1    15
 -1.4472267611813940E-02 a      1216     0    49     1    16
 -1.3094008888965847E-01 a      1217     0    49     1    17
  1.0658501879870759E-02 a      1218     0    49     1    18
  5.7123715666943825E-02 a      1219     0    49     1    19
  4.9959024938692170E-02 a      1220     0    49     1    20
  2.2175721830898229E-01 a      1221     0    49     1    21
  1.7009105560391324E-01 a      1222     0    49     1    22
  2.8659098117487559E-02 a      1223     0    49     1    23
  6.6755532533170443E-03 a      1224     0    49     1    24
 -1.5493633502150569E-01 a      1225     0    49     1    25
  1.5381233697091456E-01 a      1226     0    50     1     1
 -9.1043128121933353E-02 a      1227     0    50     1     2
 -5.3990431661467338E-02 a      1228     0    50     1     3
  1.8850310733132866E-02 a      1229     0    50     1     4
 -3.5201416631540840E-02 a      1230     0    50     1     5
  8.7789975777471940E-02 a      1231     0    50     1     6
  7.0837016560248017E-02 a      1232     0    50     1     7
 -1.3184917925926967E-01 a      1233     0    50     1     8
  6.0716026956959442E-03 a      1234     0    50     1     9
 -3.7324525031353306E-02 a      1235     0    50     1    10
 -1.6810736409043486E-01 a      1236     0    50     1    11
  1.1145788228035103E-01 a      1237     0    50     1    12
 -3.9660387932556168E-01 a      1238     0    50     1    13
 -1.9564080435022807E-01 a      1239     0    50     1    14
  4.6145472732245382E-02 a      1240     0    50     1    15
  2.2305575425934931E-01 a      1241     0    50     1    16
  2.0674780497930234E-01 a      1242     0    50     1    17
  9.3203134202219068E-02 a      1243     0    50     1    18
 -1.3839475418665872E-01 a      1244     0    50     1    19
  2.3568283080847807E-01 a      1245     0    50     1    20
 -2.6553993031175191E-03 a      1246     0    50     1    21
 -1.4639709206980036E-02 a      1247     0    50     1    22
  5.3742309938941829E-02 a      1248     0    50     1    23
  9.4638628176488257E-02 a      1249     0    50     1    24
  1.9481996551300659E-01 a      1250     0    50     1    25
  2.0068820174636712E-01 a      1251     0    51     1     1
 -3.3436595255908953E-02 a      1252     0    51     1     2
  5.2409647224067032E-02 a      1253     0    51     1     3
 -2.5280204081590277E-02 a      1254     0    51     1     4
 -1.6758006986915286E-01 a      1255     0    51     1     5
 -9.8264273537780070E-02 a      1256     0    51     1     6
 -4.2030076519257262E-02 a      1257     0    51     1     7
  1.1452972617711454E-01 a      1258     0    51     1     8
 -1.1826490702590087E-01 a      1259     0    51     1     9
  1.0673664667051819E-01 a      1260     0    51     1    10
  1.9228933812807067E-01 a      1261     0    51     1    11
  1.5780407523660767E-01 a      1262     0    51     1    12
 -1.5377068750728862E-01 a      1263     0    51     1    13
 -8.8433570422949317E-02 a      1264     0    51     1    14
  8.1401506513544372E-02 a      1265     0    51     1    15
  7.1526311524636982E-02 a      1266     0    51     1    16
  9.4427011473710104E-02 a      1267     0    51     1    17
  1.8884330399334842E-01 a      1268     0    51     1    18
  6.6674552706252627E-03 a      1269     0    51     1    19
 -6.5847663227959069E-02 a      1270     0    51     1    20
  3.4784687668389136E-01 a      1271     0    51     1    21
 -1.3197321234679482E-02 a      1272     0    51     1    22
  2.9083173244928165E-02 a      1273     0    51     1    23
  9.1980406949770110E-02 a      1274     0    51     1    24
 -2.3037690317345591E-01 a      1275     0    51     1    25
  9.3939453231187672E-02 a      1276     0    52     1     1
 -9.6826170471552009E-02 a      1277     0    52     1     2
  6.9075595807683507E-02 a      1278     0    52     1     3
 -1.6155603110647865E-01 a      1279     0    52     1     4
 -1.3251296663827264E-01 a      1280     0    52     1     5
  5.2205149510718966E-02 a      1281     0    52     1     6
  1.4652577687712015E-01 a      1282     0    52     1     7
  2.5592393851037115E-01 a      1283     0    52     1     8
 -1.2059440364003955E-01 a      1284     0    52     1     9
  3.2589980702222451E-02 a      1285     0    52     1    10
  1.4361626744536168E-01 a      1286     0    52     1    11
 -4.1391611188947147E-01 a      1287     0    52     1    12
  1.4505417100472281E-01 a      1288     0    52     1    13
  2.5233599605709789E-01 a      1289     0    52     1    14
  8.2911082535689545E-02 a      1290     0    52     1    15
  7.6884073753924517E-02 a      1291     0    52     1    16
 -2.5423633047626581E-01 a      1292     0    52     1    17
 -2.0266466032558553E-01 a      1293     0    52     1    18
  3.2803924373610467E-02 a      1294     0    52     1    19
  3.5413684674738280E-02 a      1295     0    52     1    20
  1.0484099809220659E-01 a      1296     0    52     1    21
 -2.0710511122735112E-01 a      1297     0    52     1    22
  1.1778098325677297E-01 a      1298     0    52     1    23
 -1.3761601488930122E-01 a      1299     0    52     1    24
 -9.7874430617342384E-02 a      1300     0    52     1    25
 -1.2248478960809249E-01 a      1301     0    53     1     1
  4.7032001344728298E-02 a      1302     0    53     1     2
  1.4390298657612136E-01 a      1303     0    53     1     3
 -6.7630121644890850E-02 a      1304     0    53     1     4
 -2.3698883392197168E-01 a      1305     0    53     1     5
 -1.1040513509445422E-01 a      1306     0    53     1     6
 -7.4322306967469068E-02 a      1307     0    53     1     7
 -2.2750982833345204E-01 a      1308     0    53     1     8
  1.1460179304011891E-02 a      1309     0    53     1     9
 -3.3621493999242491E-01 a      1310     0    53     1    10
 -7.8769947147840275E-02 a      1311     0    53     1    11
  1.1987198476147359E-02 a      1312     0    53     1    12
  1.3517851893082928E-02 a      1313     0    53     1    13
 -8.1382263641072011E-02 a      1314     0    53     1    14
 -2.1237823063231728E-01 a      1315     0    53     1    15
  1.7148796818856921E-01 a      1316     0    53     1    16
 -2.2009043015209490E-01 a      1317     0    53     1    17
 -2.2230756657628431E-01 a      1318     0    53     1    18
 -1.2324647289989830E-01 a      1319     0    53     1    19
  2.0107544249535464E-01 a      1320     0    53     1    20
 -1.0165866864203248E-02 a      1321     0    53     1    21
  2.8004372457121861E-02 a      1322     0    53     1    22
 -6.1272818773172151E-02 a      1323     0    53     1    23
 -2.3894384000720182E-02 a      1324     0    53     1    24
 -1.4552740875520953E-01 a      1325     0    53     1    25
  2.9615459608708112E-02 a      1326     0    54     1     1
  1.1649283072388363E-01 a      1327     0    54     1     2
 -3.7774090569858428E-02 a      1328     0    54     1     3
 -1.4574069090296082E-01 a      1329     0    54     1     4
  9.1054077589373214E-02 a      1330     0    54     1     5
 -6.1099495507474136E-02 a      1331     0    54     1     6
 -1.2930524639787081E-02 a      1332     0    54     1     7
 -3.8154790056552319E-02 a      1333     0    54     1     8
  1.7417656189962669E-01 a      1334     0    54     1     9
  1.1351162534139440E-01 a      1335     0    54     1    10
 -2.1747595673721123E-01 a      1336     0    54     1    11
 -1.0737990807201932E-01 a      1337     0    54     1    12
 -2.9813674821883476E-02 a      1338     0    54     1    13
  2.6666927954911562E-01 a      1339     0    54     1    14
 -1.1614499552179390E-01 a      1340     0    54     1    15
 -5.5684799625975889E-02 a      1341     0    54     1    16
 -2.1047675384698011E-01 a      1342     0    54     1    17
  1.0634776205606628E-01 a      1343     0    54     1    18
  1.8174750356111027E-01 a      1344     0    54     1    19
  1.4496254335791409E-01 a      1345     0    54     1    20
  9.2038918169854642E-02 a      1346     0    54     1    21
  2.2491573512983301E-01 a      1347     0    54     1    22
  1.0097967562523226E-01 a      1348     0    54     1    23
 -1.2280355861904467E-01 a      1349     0    54     1    24
 -2.2006651620123943E-01 a      1350     0    54     1    25
  2.0391270598190153E-01 a      1351     0    55     1     1
 -1.4760940832622688E-01 a      1352     0    55     1     2
 -1.1690744785299992E-01 a      1353     0    55     1     3
  1.5298084582666907E-01 a      1354     0    55     1     4
  7.7443909251589921E-02 a      1355     0    55     1     5
 -4.2601877505604520E-02 a      1356     0    55     1     6
  2.7169947757328474E-02 a      1357     0    55     1     7
 -1.8662561820635158E-02 a      1358     0    55     1     8
  3.7092109274672845E-02 a      1359     0    55     1     9
  7.2969235867782783E-02 a      1360     0    55     1    10
 -1.1155096330763166E-01 a      1361     0    55     1    11
 -2.7592885074852559E-02 a      1362     0    55     1    12
  4.2794819777505565E-02 a      1363     0    55     1    13
 -1.5443916559662024E-01 a      1364     0    55     1    14
 -1.7290727395503225E-01 a      1365     0    55     1    15
  2.0781728958521298E-01 a      1366     0    55     1    16
  8.5627017750147680E-02 a      1367     0    55     1    17
 -2.6665755572316407E-01 a      1368     0    55     1    18
 -9.4224383357602526E-02 a      1369     0    55     1    19
  1.8447842486319893E-01 a      1370     0    55     1    20
  3.6407813282281298E-01 a      1371     0    55     1    21
 -5.7519017416469392E-02 a      1372     0    55     1    22
 -1.0701411097477836E-01 a      1373     0    55     1    23
 -3.1029438155052037E-03 a      1374     0    55     1    24
  2.5479797497365525E-01 a      1375     0    55     1    25
 -2.9009545360097394E-01 a      1376     0    56     1     1
 -2.7691987289276737E-01 a      1377     0    56     1     2
 -1.3250250595513047E-01 a      1378     0    56     1     3
 -7.7176737090099076E-02 a      1379     0    56     1     4
 -2.5826697058314774E-01 a      1380     0    56     1     5
  1.2084786663923493E-01 a      1381     0    56     1     6
 -1.7061870498888540E-01 a      1382     0    56     1     7
  3.3900750522676720E-01 a      1383     0    56     1     8
  6.6576216192601664E-02 a      1384     0    56     1     9
  1.2717904508355635E-01 a      1385     0    56     1    10
 -7.4939837859876610E-02 a      1386     0    56     1    11
 -8.0739091514412942E-02 a      1387     0    56     1    12
  8.9207012861589177E-02 a      1388     0    56     1    13
  2.1012293448647823E-01 a      1389     0    56     1    14
  6.2676110879202884E-02 a      1390     0    56     1    15
 -5.1406670111012527E-02 a      1391     0    56     1    16
 -2.6166153635770356E-01 a      1392     0    56     1    17
 -1.0249719171593079E-01 a      1393     0    56     1    18
 -3.2953696445297588E-02 a      1394     0    56     1    19
  1.8980303292489695E-01 a      1395     0    56     1    20
  9.9980276784723390E-02 a      1396     0    56     1    21
  1.7424421279757471E-01 a      1397     0    56     1    22
  7.8654425494370406E-02 a      1398     0    56     1    23
 -5.4196684351490172E-02 a      1399     0    56     1    24
  2.5360290577317535E-02 a      1400     0    56     1    25
 -1.2443996977852602E-01 a      1401     0    57     1     1
 -2.8981317994411299E-01 a      1402     0    57     1     2
  5.4237517240118362E-02 a      1403     0    57     1     3
  1.4093373945886978E-01 a      1404     0    57     1     4
 -6.0436403636262383E-02 a      1405     0    57     1     5
  6.2039671961193928E-02 a      1406     0    57     1     6
  1.1664717402735208E-02 a      1407     0    57     1     7
 -3.7335259771385371E-01 a      1408     0    57     1     8
 -1.8790287143196135E-02 a      1409     0    57     1     9
  8.3273012410912284E-02 a      1410     0    57     1    10
 -8.4504834480255184E-02 a      1411     0    57     1    11
  1.4500951421436584E-01 a      1412     0    57     1    12
  2.2849374781936278E-02 a      1413     0    57     1    13
 -1.0615756248467473E-01 a      1414     0    57     1    14
  1.2892373687694528E-01 a      1415     0    57     1    15
  8.5860286941357639E-02 a      1416     0    57     1    16
 -1.2994255466862040E-02 a      1417     0    57     1    17
  2.0089650855185645E-01 a      1418     0    57     1    18
 -8.7845455706990570E-03 a      1419     0    57     1    19
  1.0116651987566283E-01 a      1420     0    57     1    20
 -1.4958968167965186E-01 a      1421     0    57     1    21
  1.8932457930430887E-03 a      1422     0    57     1    22
 -1.5293923346513263E-01 a      1423     0    57     1    23
  7.2954360985289901E-02 a      1424     0    57     1    24
  2.0452353635534526E-01 a      1425     0    57     1    25
 -2.3856688140365002E-02 a      1426     0    58     1     1
 -4.1482947147766569E-02 a      1427     0    58     1     2
  9.1609142435036234E-02 a      1428     0    58     1     3
 -7.9372885460195747E-02 a      1429     0    58     1     4
 -1.0545608358836966E-01 a      1430     0    58     1     5
 -1.4837485698346593E-02 a      1431     0    58     1     6
 -1.8845371375038922E-01 a      1432     0    58     1     7
 -2.4275416638320692E-02 a      1433     0    58     1     8
  7.8451805278704809E-02 a      1434     0    58     1     9
 -6.1382437390674401E-02 a      1435     0    58     1    10
  1.0750398433044558E-01 a      1436     0    58     1    11
  2.5663016300680190E-03 a      1437     0    58     1    12
  3.1290129007924189E-02 a      1438     0    58     1    13
 -2.3587079040103467E-01 a      1439     0    58     1    14
 -1.3509219007245907E-01 a      1440     0    58     1    15
 -2.8337759622040382E-01 a      1441     0    58     1    16
 -2.2956205770025556E-01 a      1442     0    58     1    17
 -1.2884051566239804E-01 a      1443     0    58     1    18
  5.7163282872341346E-03 a      1444     0    58     1    19
  1.3202619951296071E-01 a      1445     0    58     1    20
 -1.8036110662888863E-01 a      1446     0    58     1    21
 -1.8738477930965769E-01 a      1447     0    58     1    22
 -9.3328601004373721E-03 a      1448     0    58     1    23
  1.5842218951456301E-02 a      1449     0    58     1    24
 -5.4969302404190991E-02 a      1450     0    58     1    25
 -3.2144334700759131E-01 a      1451     0    59     1     1
  1.9402256116394612E-02 a      1452     0    59     1     2
  3.7271073615104656E-02 a      1453     0    59     1     3
 -2.2248393265823488E-01 a      1454     0    59     1     4
 -1.6950694070886696E-01 a      1455     0    59     1     5
 -2.8487634414564883E-01 a      1456     0    59     1     6
  2.8812795001760522E-01 a      1457     0    59     1     7
 -1.9795697536580617E-01 a      1458     0    59     1     8
 -1.2045843449484064E-01 a      1459     0    59     1     9
 -1.7229102553633796E-01 a      1460     0    59     1    10
 -2.0173182193416497E-01 a      1461     0    59     1    11
  5.0482950062755674E-02 a      1462     0    59     1    12
  1.6980924771746339E-01 a      1463     0    59     1    13
  2.5259410400653243E-01 a      1464     0    59     1    14
 -3.0266959164442830E-01 a      1465     0    59     1    15
  3.2645080084090938E-01 a      1466     0    59     1    16
 -4.5049118466710773E-02 a      1467     0    59     1    17
 -1.6985577241601113E-01 a      1468     0    59     1    18
  3.2975339538135286E-02 a      1469     0    59     1    19
  7.8015549361073831E-03 a      1470     0    59     1    20
  1.3880816527701731E-01 a      1471     0    59     1    21
  2.4585732636258972E-01 a      1472     0    59     1    22
 -6.6938248249057031E-02 a      1473     0    59     1    23
 -4.4383879850159985E-02 a      1474     0    59     1    24
 -7.3100526317674303E-02 a      1475     0    59     1    25
  1.0962419861558176E-01 a      1476     0    60     1     1
 -6.4975264873169500E-02 a      1477     0    60     1     2
  1.1572110001569133E-01 a      1478     0    60     1     3
  2.1294994509790283E-01 a      1479     0    60     1     4
  7.4078371544958499E-02 a      1480     0    60     1     5
  1.0571988671387623E-01 a      1481     0    60     1     6
 -1.5183291944995894E-01 a      1482     0    60     1     7
  1.0993806897929992E-01 a      1483     0    60     1     8
 -8.7109506145188642E-02 a      1484     0    60     1     9
  1.0270962946503997E-02 a      1485     0    60     1    10
  1.4148812555778878E-01 a      1486     0    60     1    11
 -1.8409447233598605E-02 a      1487     0    60     1    12
  2.2541798871163224E-01 a      1488     0    60     1    13
 -1.4984638912196185E-01 a      1489     0    60     1    14
  1.0654030627638074E-01 a      1490     0    60     1    15
 -5.8362512698125354E-02 a      1491     0    60     1    16
 -1.5270426095485123E-01 a      1492     0    60     1    17
 -1.9375536280610331E-01 a      1493     0    60     1    18
 -1.6071747340025904E-02 a      1494     0    60     1    19
 -2.9916308418321419E-01 a      1495     0    60     1    20
 -3.4636739226015706E-01 a      1496     0    60     1    21
 -1.5759885191282072E-01 a      1497     0    60     1    22
 -1.0200532327424608E-01 a      1498     0    60     1    23
 -2.0877478209120923E-01 a      1499     0    60     1    24
  3.3303686308485875E-02 a      1500     0    60     1    25
 -1.6642635816474702E-01 a      1501     0    61     1     1
 -6.5794129272333093E-02 a      1502     0    61     1     2
  2.0723556201714768E-01 a      1503     0    61     1     3
 -1.4887529147935472E-01 a      1504     0    61     1     4
 -3.5980474029928114E-02 a      1505     0    61     1     5
  1.4083429094983860E-01 a      1506     0    61     1     6
 -2.7551773541626245E-02 a      1507     0    61     1     7
 -3.0556345281702724E-01 a      1508     0    61     1     8
 -1.6600798161759817E-01 a      1509     0    61     1     9
  1.0737857272737504E-01 a      1510     0    61     1    10
  8.3783820216480620E-03 a      1511     0    61     1    11
  3.5051644240223702E-02 a      1512     0    61     1    12
  1.9353317304818762E-01 a      1513     0    61     1    13
 -9.3133446483832216E-03 a      1514     0    61     1    14
  1.9042813121017194E-01 a      1515     0    61     1    15
 -7.4329063674632486E-03 a      1516     0    61     1    16
  1.7168519542913450E-02 a      1517     0    61     1    17
 -1.3135767064819348E-01 a      1518     0    61     1    18
 -2.7345943187959327E-03 a      1519     0    61     1    19
 -7.0318517323402006E-04 a      1520     0    61     1    20
  6.0978936718729115E-03 a      1521     0    61     1    21
  2.1696513063882311E-01 a      1522     0    61     1    22
 -2.1014409488573021E-01 a      1523     0    61     1    23
  1.6426525145754940E-02 a      1524     0    61     1    24
 -1.5040643970990752E-01 a      1525     0    61     1    25
 -2.1916445027792225E-01 a      1526     0    62     1     1
  9.0815998386220185E-04 a      1527     0    62     1     2
  1.4120876963247947E-01 a      1528     0    62     1     3
 -1.7745817618919280E-01 a      1529     0    62     1     4
 -1.0158677305955706E-01 a      1530     0    62     1     5
  1.7823532046313309E-01 a      1531     0    62     1     6
 -1.4736130487065063E-01 a      1532     0    62     1     7
  1.4606490046648318E-01 a      1533     0    62     1     8
 -1.0642023922567478E-01 a      1534     0    62     1     9
 -1.6902121806910485E-02 a      1535     0    62     1    10
  1.5350307466261981E-01 a      1536     0    62     1    11
 -2.3011971444876676E-02 a      1537     0    62     1    12
  6.2120005351494735E-02 a      1538     0    62     1    13
  4.5408810901691309E-03 a      1539     0    62     1    14
  1.8081030579700569E-01 a      1540     0    62     1    15
  4.2751917245539388E-02 a      1541     0    62     1    16
  6.6944550509688408E-02 a      1542     0    62     1    17
 -1.5792567903907862E-02 a      1543     0    62     1    18
 -1.1152466348636968E-01 a      1544     0    62     1    19
 -1.2006058494874362E-01 a      1545     0    62     1    20
 -1.3116004244640325E-01 a      1546     0    62     1    21
  1.1348061423648965E-01 a      1547     0    62     1    22
 -1.0301835110294102E-01 a      1548     0    62     1    23
  1.8769336919463736E-01 a      1549     0    62     1    24
  8.1425103522987055E-02 a      1550     0    62     1    25
 -2.0758234089800116E-02 a      1551     0    63     1     1
 -5.4623440431425432E-02 a      1552     0    63     1     2
 -2.4276820198477012E-01 a      1553     0    63     1     3
  9.2059292392857421E-03 a      1554     0    63     1     4
  2.8976658870330820E-02 a      1555     0    63     1     5
  1.0081842398400093E-01 a      1556     0    63     1     6
  8.4504001996500586E-02 a      1557     0    63     1     7
 -4.2515009988782410E-02 a      1558     0    63     1     8
  6.4240636565149542E-02 a      1559     0    63     1     9
 -5.8236708252461709E-02 a      1560     0    63     1    10
 -1.0911963829040154E-01 a      1561     0    63     1    11
 -3.9787117926784301E-03 a      1562     0    63     1    12
 -7.2923832487710024E-03 a      1563     0    63     1    13
 -3.0461403976305299E-02 a      1564     0    63     1    14
  6.4093702284350740E-02 a      1565     0    63     1    15
 -1.3886672682361323E-01 a      1566     0    63     1    16
  6.6121217867852008E-02 a      1567     0    63     1    17
  1.3657847687585883E-01 a      1568     0    63     1    18
  8.7100395336373343E-02 a      1569     0    63     1    19
  8.9546643718717456E-02 a      1570     0    63     1    20
 -7.7433857905357242E-02 a      1571     0    63     1    21
 -7.3535685857352900E-02 a      1572     0    63     1    22
 -4.6588593540594969E-02 a      1573     0    63     1    23
  2.2040646862337381E-04 a      1574     0    63     1    24
 -2.1943749511610044E-04 a      1575     0    63     1    25
  6.3653161326074265E-02 a      1576     0    64     1     1
  1.0521178801862469E-01 a      1577     0    64     1     2
  6.3476322890418713E-02 a      1578     0    64     1     3
 -2.2177245287835778E-02 a      1579     0    64     1     4
 -7.3919521905987620E-02 a      1580     0    64     1     5
 -2.9749349817264736E-01 a      1581     0    64     1     6
 -1.9736159662311178E-02 a      1582     0    64     1     7
  1.5922793740926136E-01 a      1583     0    64     1     8
 -1.3921475270380701E-01 a      1584     0    64     1     9
 -7.7606509036704983E-04 a      1585     0    64     1    10
  3.1927083477557234E-03 a      1586     0    64     1    11
  7.9485689113864388E-02 a      1587     0    64     1    12
 -8.0662077634540516E-02 a      1588     0    64     1    13
 -1.0578109232682958E-01 a      1589     0    64     1    14
 -1.3616228823669463E-01 a      1590     0    64     1    15
  1.9249360561987705E-01 a      1591     0    64     1    16
  3.8431430136391095E-02 a      1592     0    64     1    17
  1.3746995955750951E-01 a      1593     0    64     1    18
  3.1506172288423888E-02 a      1594     0    64     1    19
  6.2595173090472758E-02 a      1595     0    64     1    20
 -4.9256682492569766E-02 a      1596     0    64     1    21
 -3.1677000559209127E-02 a      1597     0    64     1    22
 -1.8878478666209640E-02 a      1598     0    64     1    23
 -8.0079327320553728E-02 a      1599     0    64     1    24
  1.9232522192254443E-02 a      1600     0    64     1    25
  2.1138529885102547E-01 a      1601     0    65     1     1
 -1.4275759560511489E-01 a      1602     0    65     1     2
  1.5021764385295017E-01 a      1603     0    65     1     3
  1.8133057113826874E-03 a      1604     0    65     1     4
 -5.4895570383757739E-02 a      1605     0    65     1     5
  1.9230950726386595E-01 a      1606     0    65     1     6
 -5.2302561362917055E-02 a      1607     0    65     1     7
  2.8790904766142195E-01 a      1608     0    65     1     8
  1.5871139488177435E-01 a      1609     0    65     1     9
  5.5062834431871925E-02 a      1610     0    65     1    10
 -8.9847935458710979E-03 a      1611     0    65     1    11
 -1.3847988221497304E-01 a      1612     0    65     1    12
 -1.5647148027740801E-01 a      1613     0    65     1    13
 -7.1158642143735698E-02 a      1614     0    65     1    14
 -2.2927790717671356E-01 a      1615     0    65     1    15
  4.2909005987137289E-02 a      1616     0    65     1    16
  9.4060785412203640E-02 a      1617     0    65     1    17
  8.8182692780207017E-02 a      1618     0    65     1    18
 -8.7373057067558296E-02 a      1619     0    65     1    19
  1.4904111739717868E-01 a      1620     0    65     1    20
  1.1402313649254277E-01 a      1621     0    65     1    21
  6.6959877796710893E-02 a      1622     0    65     1    22
  1.2202058091515591E-01 a      1623     0    65     1    23
