################################################################################
# Neural network connection values (weights and biases).
################################################################################
# Col  Name       Description
################################################################################
# 1    connection Neural network connection value.
# 2    t          Connection type (a = weight, b = bias).
# 3    index      Index enumerating weights.
# 4    l_s        Starting point layer (end point layer for biases).
# 5    n_s        Starting point neuron in starting layer (end point neuron for biases).
# 6    l_e        End point layer.
# 7    n_e        End point neuron in end layer.
################################################################################
#                      1 2         3     4     5     6     7
#             connection t     index   l_s   n_s   l_e   n_e
############################################################
  6.1553408920350237E-02 a         1     0     1     1     1
  1.6831611501222732E-01 a         2     0     1     1     2
  1.7908494426372859E-01 a         3     0     1     1     3
  3.8223782284758305E-02 a         4     0     1     1     4
  1.5678115504207643E-01 a         5     0     1     1     5
  6.3133295163795899E-01 a         6     0     1     1     6
  3.1437602802078524E-01 a         7     0     1     1     7
 -7.8527118242833871E-01 a         8     0     1     1     8
  1.8201387196929752E-01 a         9     0     1     1     9
 -3.3616617011887057E-01 a        10     0     1     1    10
 -4.4013515331070030E-01 a        11     0     1     1    11
  2.4549015589926146E-01 a        12     0     1     1    12
 -9.3751468157580353E-01 a        13     0     1     1    13
 -2.1288107906586395E-01 a        14     0     1     1    14
 -2.1128864004939027E-01 a        15     0     1     1    15
 -7.4153430111777707E-01 a        16     0     1     1    16
  2.8487926126857738E-01 a        17     0     1     1    17
  2.8352858895183397E-01 a        18     0     1     1    18
  2.2479495874901093E-01 a        19     0     1     1    19
 -9.9417507711776973E-02 a        20     0     1     1    20
  1.6765386575686145E-01 a        21     0     1     1    21
 -3.7387561171583061E-01 a        22     0     1     1    22
  5.4201070167847487E-01 a        23     0     1     1    23
  2.5981326435146895E-01 a        24     0     1     1    24
 -6.8351761381999077E-01 a        25     0     1     1    25
 -2.6625224693477512E-01 a        26     0     2     1     1
 -4.6625290632286576E-01 a        27     0     2     1     2
 -4.6725863866695710E-01 a        28     0     2     1     3
  4.1774208927641898E-01 a        29     0     2     1     4
 -4.7618056491378569E-01 a        30     0     2     1     5
 -7.7760121415920674E-02 a        31     0     2     1     6
 -6.9618202180749367E-01 a        32     0     2     1     7
 -1.5812528151565147E-01 a        33     0     2     1     8
 -2.2953913976447560E-01 a        34     0     2     1     9
  1.0896594098456082E-01 a        35     0     2     1    10
 -4.6234438061999415E-02 a        36     0     2     1    11
 -1.1418871896432883E-01 a        37     0     2     1    12
 -1.0658314281506467E+00 a        38     0     2     1    13
 -3.3261643088942339E-01 a        39     0     2     1    14
  4.3214628594849025E-01 a        40     0     2     1    15
  2.9190931818183292E-02 a        41     0     2     1    16
 -1.3379374086263515E-01 a        42     0     2     1    17
 -8.6578820248944671E-02 a        43     0     2     1    18
 -3.4689721214125546E-01 a        44     0     2     1    19
 -1.3311556228735233E-01 a        45     0     2     1    20
  4.3589092794749401E-01 a        46     0     2     1    21
  5.2166959135116331E-01 a        47     0     2     1    22
 -1.0747913527939776E+00 a        48     0     2     1    23
 -3.2139379444002192E-02 a        49     0     2     1    24
 -1.1140231281181615E-01 a        50     0     2     1    25
  1.3960001185937218E-01 a        51     0     3     1     1
 -3.0468565625404634E-02 a        52     0     3     1     2
  2.1586170338665694E-01 a        53     0     3     1     3
  2.8225463181909938E-02 a        54     0     3     1     4
  1.7049957101134297E-01 a        55     0     3     1     5
 -1.4517873945376195E-01 a        56     0     3     1     6
 -2.5476333942380980E-01 a        57     0     3     1     7
 -1.7900802784585673E-01 a        58     0     3     1     8
 -2.6849787457411727E-02 a        59     0     3     1     9
 -1.1088580501246285E-01 a        60     0     3     1    10
 -7.5858759684855989E-02 a        61     0     3     1    11
 -1.2314039248264436E-01 a        62     0     3     1    12
 -2.2415474566940236E-02 a        63     0     3     1    13
  1.6670586854917765E-01 a        64     0     3     1    14
 -6.5346248400527093E-02 a        65     0     3     1    15
 -7.8543211185871153E-02 a        66     0     3     1    16
 -4.1168511198644023E-02 a        67     0     3     1    17
  6.9436421750321539E-02 a        68     0     3     1    18
  2.5064789956510323E-02 a        69     0     3     1    19
  1.2933702217869547E-01 a        70     0     3     1    20
 -1.2511190733299768E-01 a        71     0     3     1    21
  5.3484734605381119E-02 a        72     0     3     1    22
 -6.0842368345923048E-02 a        73     0     3     1    23
  2.0967023814512094E-02 a        74     0     3     1    24
  5.4548028794769277E-02 a        75     0     3     1    25
 -4.3294910817017696E-02 a        76     0     4     1     1
 -1.0541301978221017E-01 a        77     0     4     1     2
  1.5153494558001706E-02 a        78     0     4     1     3
 -5.2678595064619353E-02 a        79     0     4     1     4
 -3.2536924653685649E-02 a        80     0     4     1     5
  1.3743201360729670E-01 a        81     0     4     1     6
 -6.2810955495755397E-02 a        82     0     4     1     7
 -1.0642237352462469E-01 a        83     0     4     1     8
  2.6681209646612447E-01 a        84     0     4     1     9
 -2.1695398639077521E-02 a        85     0     4     1    10
  9.6387220274490079E-02 a        86     0     4     1    11
 -4.8175805607561940E-02 a        87     0     4     1    12
  2.4224110822242531E-01 a        88     0     4     1    13
  4.2675083622152235E-02 a        89     0     4     1    14
 -7.3012963034635087E-02 a        90     0     4     1    15
  1.8346980436106289E-02 a        91     0     4     1    16
 -2.7064792080324329E-01 a        92     0     4     1    17
 -2.1067382540216653E-01 a        93     0     4     1    18
 -2.7792075752750106E-01 a        94     0     4     1    19
 -1.3848214878443943E-01 a        95     0     4     1    20
  7.5720552054207718E-02 a        96     0     4     1    21
 -9.3015134190612955E-02 a        97     0     4     1    22
 -1.1817606623681733E-01 a        98     0     4     1    23
  5.2525837676435025E-02 a        99     0     4     1    24
 -5.4541892612203068E-02 a       100     0     4     1    25
  2.3651776188106524E-01 a       101     0     5     1     1
 -3.4628079775258430E-01 a       102     0     5     1     2
 -1.2920442355475395E-01 a       103     0     5     1     3
 -3.4489072569535789E-01 a       104     0     5     1     4
 -5.5407037903588141E-01 a       105     0     5     1     5
  1.5533265191612378E-01 a       106     0     5     1     6
  3.4579876195801790E-01 a       107     0     5     1     7
 -8.0895845827669066E-01 a       108     0     5     1     8
  2.5955243712083429E+00 a       109     0     5     1     9
 -3.0100589457151666E-01 a       110     0     5     1    10
 -4.2204214226608645E-02 a       111     0     5     1    11
 -1.3718260763498893E-01 a       112     0     5     1    12
  1.4262472245068825E+00 a       113     0     5     1    13
 -4.2723372914665700E-02 a       114     0     5     1    14
 -2.0452914719910392E-01 a       115     0     5     1    15
 -2.8515993159398775E-02 a       116     0     5     1    16
  1.0319504209869557E-01 a       117     0     5     1    17
 -4.1002931118501751E-01 a       118     0     5     1    18
 -7.3404057070379461E-02 a       119     0     5     1    19
 -2.7763992059767428E-01 a       120     0     5     1    20
 -7.1391138613795715E-02 a       121     0     5     1    21
  8.0738769913329478E-01 a       122     0     5     1    22
 -6.5991971265948385E-02 a       123     0     5     1    23
  6.1445363942587072E-01 a       124     0     5     1    24
  6.7244436322850620E-01 a       125     0     5     1    25
  3.9015905405363552E-02 a       126     0     6     1     1
  1.0823500250367558E-01 a       127     0     6     1     2
  7.1226005237578371E-01 a       128     0     6     1     3
 -6.3297592643736655E-01 a       129     0     6     1     4
  3.6530454807440532E-01 a       130     0     6     1     5
 -2.0706644322704296E-01 a       131     0     6     1     6
  9.0329027598603340E-01 a       132     0     6     1     7
  1.9146669983686585E-02 a       133     0     6     1     8
 -1.6146113576616739E-01 a       134     0     6     1     9
  5.3020094659846029E-01 a       135     0     6     1    10
  7.4866689282134846E-01 a       136     0     6     1    11
 -1.2868593668659806E-01 a       137     0     6     1    12
  7.4651151767837898E-01 a       138     0     6     1    13
  5.4348029464541059E-01 a       139     0     6     1    14
 -4.4693649308282762E-01 a       140     0     6     1    15
  5.5252626937562521E-01 a       141     0     6     1    16
  1.5366531697382502E-01 a       142     0     6     1    17
  5.0938068867969102E-02 a       143     0     6     1    18
 -8.9061417910786131E-02 a       144     0     6     1    19
 -2.6265814052874564E-02 a       145     0     6     1    20
  3.1719666364900156E-01 a       146     0     6     1    21
 -4.4170761026247363E-01 a       147     0     6     1    22
  8.4983087907031074E-01 a       148     0     6     1    23
 -6.2350697754262641E-01 a       149     0     6     1    24
 -9.2714627855098697E-01 a       150     0     6     1    25
 -7.0528176614860114E-04 a       151     0     7     1     1
 -2.8917560345646014E-02 a       152     0     7     1     2
 -1.0694781782439300E-01 a       153     0     7     1     3
  7.9752827699655374E-02 a       154     0     7     1     4
 -1.5187782139746880E-01 a       155     0     7     1     5
  2.3593438592193552E-01 a       156     0     7     1     6
  2.0480521949423972E-03 a       157     0     7     1     7
  1.4212044880748009E-01 a       158     0     7     1     8
  4.7530250503768516E-02 a       159     0     7     1     9
  1.3450390046468039E-01 a       160     0     7     1    10
 -6.9070841810817518E-02 a       161     0     7     1    11
  6.7713645687819138E-02 a       162     0     7     1    12
 -1.6842507072390506E-01 a       163     0     7     1    13
 -4.7921080225613130E-02 a       164     0     7     1    14
  1.6237704652600657E-01 a       165     0     7     1    15
 -1.1217893143381853E-01 a       166     0     7     1    16
  2.5265957190393334E-01 a       167     0     7     1    17
 -3.4017725807857294E-02 a       168     0     7     1    18
  1.2128768140291349E-01 a       169     0     7     1    19
  6.0959675912349943E-02 a       170     0     7     1    20
  8.5690790377335440E-03 a       171     0     7     1    21
  6.8369056535822037E-02 a       172     0     7     1    22
 -6.9663089056003422E-02 a       173     0     7     1    23
  9.4236608024015220E-02 a       174     0     7     1    24
  1.1402521535677818E-01 a       175     0     7     1    25
  1.3065125070928260E-01 a       176     0     8     1     1
  1.7837469687375723E-01 a       177     0     8     1     2
  2.6216027572648454E-01 a       178     0     8     1     3
  1.1560105069268594E-02 a       179     0     8     1     4
 -4.5009729840018838E-02 a       180     0     8     1     5
 -1.1116239838440456E-01 a       181     0     8     1     6
  5.8894394501821754E-02 a       182     0     8     1     7
 -1.2850810708017230E-01 a       183     0     8     1     8
 -2.9490361108818343E-02 a       184     0     8     1     9
  1.3642981574054941E-01 a       185     0     8     1    10
  1.3598198100198070E-01 a       186     0     8     1    11
  6.3848117520463585E-02 a       187     0     8     1    12
 -4.5123396616346324E-02 a       188     0     8     1    13
  2.5345093013860370E-01 a       189     0     8     1    14
 -4.7673965717416465E-02 a       190     0     8     1    15
  1.2023026395281880E-01 a       191     0     8     1    16
  1.5144197750336297E-01 a       192     0     8     1    17
  2.6671272195412610E-01 a       193     0     8     1    18
 -1.7105726049765142E-02 a       194     0     8     1    19
 -1.5517790485029959E-02 a       195     0     8     1    20
  9.4805783145318817E-02 a       196     0     8     1    21
 -2.5020595712352753E-02 a       197     0     8     1    22
  7.6071117884361036E-02 a       198     0     8     1    23
 -1.4108848173959201E-01 a       199     0     8     1    24
 -4.2997946559418576E-02 a       200     0     8     1    25
  6.9799520878986965E-01 a       201     0     9     1     1
  1.0409738957898562E-01 a       202     0     9     1     2
  1.5632623547567831E-01 a       203     0     9     1     3
  3.3026710052311675E-01 a       204     0     9     1     4
  7.8941607631615507E-01 a       205     0     9     1     5
 -8.9922496957965359E-01 a       206     0     9     1     6
 -6.2436953483196711E-01 a       207     0     9     1     7
  6.7759057913723142E-01 a       208     0     9     1     8
 -2.7014683566770699E+00 a       209     0     9     1     9
  2.5893508478726585E-01 a       210     0     9     1    10
  2.6022347187860223E-01 a       211     0     9     1    11
 -2.0092671947133373E-01 a       212     0     9     1    12
 -1.1858865592564629E+00 a       213     0     9     1    13
  7.6846809470406818E-01 a       214     0     9     1    14
  9.2153504454737023E-01 a       215     0     9     1    15
 -1.3755772400378169E-01 a       216     0     9     1    16
 -5.6709608479577234E-01 a       217     0     9     1    17
  4.1648232324322354E-01 a       218     0     9     1    18
 -3.6961224126974231E-02 a       219     0     9     1    19
  2.4610775674481500E-01 a       220     0     9     1    20
 -3.5251169566864088E-01 a       221     0     9     1    21
 -4.7266870162973340E-01 a       222     0     9     1    22
 -2.4284809251032202E-01 a       223     0     9     1    23
 -3.7954186129941830E-01 a       224     0     9     1    24
 -3.1372505096858860E-01 a       225     0     9     1    25
 -3.4762168531114312E-01 a       226     0    10     1     1
  4.7909966598000009E-02 a       227     0    10     1     2
 -1.6927238736970132E-01 a       228     0    10     1     3
  9.8732253371028519E-02 a       229     0    10     1     4
 -1.8151106905992789E-01 a       230     0    10     1     5
 -2.5542730561585375E-02 a       231     0    10     1     6
 -3.3878821249498881E-01 a       232     0    10     1     7
  1.0530674199131670E-01 a       233     0    10     1     8
  6.8414500974252959E-02 a       234     0    10     1     9
 -9.6619593604613793E-02 a       235     0    10     1    10
 -1.9058474816341661E-01 a       236     0    10     1    11
  2.4302665751854260E-01 a       237     0    10     1    12
 -1.4083844552085073E-01 a       238     0    10     1    13
  6.7434912825185531E-02 a       239     0    10     1    14
  6.0738213018103182E-01 a       240     0    10     1    15
  3.3077896654366351E-01 a       241     0    10     1    16
 -2.0928119994223965E-01 a       242     0    10     1    17
 -1.4227715319220860E-01 a       243     0    10     1    18
  1.1331044209053455E-01 a       244     0    10     1    19
 -4.7957229971932991E-01 a       245     0    10     1    20
  3.8888542452588010E-01 a       246     0    10     1    21
  2.6549346332500573E-01 a       247     0    10     1    22
 -4.7062781374040807E-01 a       248     0    10     1    23
 -1.3885694789344605E-01 a       249     0    10     1    24
  9.4610161653778627E-02 a       250     0    10     1    25
 -1.7134426456975313E-02 a       251     0    11     1     1
  1.0758159475708741E-02 a       252     0    11     1     2
 -1.7554788651446121E-02 a       253     0    11     1     3
 -5.5582125672296243E-02 a       254     0    11     1     4
 -3.3436702592613866E-03 a       255     0    11     1     5
  2.2498238324280832E-02 a       256     0    11     1     6
 -4.5023992095622994E-02 a       257     0    11     1     7
 -2.8208417601359026E-01 a       258     0    11     1     8
  1.7168633602491720E-01 a       259     0    11     1     9
 -9.8154798133282123E-02 a       260     0    11     1    10
  1.7888658787914891E-02 a       261     0    11     1    11
 -1.0198018177455410E-01 a       262     0    11     1    12
  1.7855182907959749E-01 a       263     0    11     1    13
  9.2876389605521761E-02 a       264     0    11     1    14
 -5.4244735227342647E-02 a       265     0    11     1    15
 -1.6789904075347478E-01 a       266     0    11     1    16
  3.0959724256213145E-02 a       267     0    11     1    17
  1.1948151621085625E-01 a       268     0    11     1    18
 -2.2051501119968667E-01 a       269     0    11     1    19
 -9.4713780864829331E-02 a       270     0    11     1    20
 -8.5422468097340984E-02 a       271     0    11     1    21
 -1.2096551683039379E-01 a       272     0    11     1    22
  3.0641097176751151E-02 a       273     0    11     1    23
  2.3027350127346516E-01 a       274     0    11     1    24
  1.3211033523934962E-01 a       275     0    11     1    25
 -2.1839795874948087E-01 a       276     0    12     1     1
 -8.6276035586562064E-02 a       277     0    12     1     2
  7.0895003281473620E-02 a       278     0    12     1     3
 -1.1739544050080356E-01 a       279     0    12     1     4
  1.4333134682240473E-01 a       280     0    12     1     5
 -4.8926337108109043E-02 a       281     0    12     1     6
 -2.4348989561682556E-02 a       282     0    12     1     7
  8.5138459188958793E-02 a       283     0    12     1     8
 -7.9629976428589849E-02 a       284     0    12     1     9
  1.4711911959448642E-01 a       285     0    12     1    10
  1.9236884437963797E-01 a       286     0    12     1    11
 -9.8670048541201663E-02 a       287     0    12     1    12
  1.3442091684413607E-01 a       288     0    12     1    13
  1.3712537298995886E-01 a       289     0    12     1    14
 -5.1070174643052163E-02 a       290     0    12     1    15
  3.1349947998270156E-01 a       291     0    12     1    16
 -2.3428848713882913E-01 a       292     0    12     1    17
 -2.4339744842519470E-01 a       293     0    12     1    18
 -6.3393929701900248E-02 a       294     0    12     1    19
 -1.4355642572247929E-01 a       295     0    12     1    20
  7.7806474897358494E-02 a       296     0    12     1    21
 -2.9303061520340694E-04 a       297     0    12     1    22
  2.4265889334686808E-02 a       298     0    12     1    23
 -2.4789023183859318E-01 a       299     0    12     1    24
 -2.4075429820376065E-01 a       300     0    12     1    25
  1.0959364574344137E-01 a       301     0    13     1     1
 -6.9390718729667698E-03 a       302     0    13     1     2
  2.4639917287475716E-01 a       303     0    13     1     3
  9.7772074232288966E-02 a       304     0    13     1     4
 -5.6930112612135897E-01 a       305     0    13     1     5
  4.8695904236882315E-01 a       306     0    13     1     6
 -2.5913010054896940E-01 a       307     0    13     1     7
 -4.0442774120069724E-01 a       308     0    13     1     8
  2.1197968032472314E+00 a       309     0    13     1     9
 -2.0778022985507939E-02 a       310     0    13     1    10
 -2.5363406575553166E-01 a       311     0    13     1    11
  2.2572236469606973E-03 a       312     0    13     1    12
 -2.5990276275035425E-02 a       313     0    13     1    13
  2.8844987104233538E-01 a       314     0    13     1    14
 -2.2949233310513548E-01 a       315     0    13     1    15
 -4.8158717101156828E-01 a       316     0    13     1    16
  3.2983043881601914E-01 a       317     0    13     1    17
 -2.8176980944054208E-01 a       318     0    13     1    18
  7.4663335631558261E-03 a       319     0    13     1    19
  1.0841081953061706E-01 a       320     0    13     1    20
 -1.5238308243908229E-02 a       321     0    13     1    21
  2.5788861018740761E-01 a       322     0    13     1    22
  2.1428250981063846E-01 a       323     0    13     1    23
  4.6019291553424041E-01 a       324     0    13     1    24
 -1.3723322847187144E-01 a       325     0    13     1    25
  1.0716208898809956E-01 a       326     0    14     1     1
  4.8943907314058691E-02 a       327     0    14     1     2
  3.4756666916132228E-01 a       328     0    14     1     3
  9.1813662045978170E-02 a       329     0    14     1     4
  1.6521385657008356E-01 a       330     0    14     1     5
  1.3416860156279825E-02 a       331     0    14     1     6
  1.9299943302090417E-01 a       332     0    14     1     7
 -2.0563658177960498E-01 a       333     0    14     1     8
 -3.7657134947243515E-01 a       334     0    14     1     9
  1.4206154572373531E-01 a       335     0    14     1    10
  5.1701960335403452E-01 a       336     0    14     1    11
 -2.4786041082939813E-02 a       337     0    14     1    12
  2.3722946575258669E-01 a       338     0    14     1    13
 -6.5087018672037766E-01 a       339     0    14     1    14
 -3.5038369719250312E-01 a       340     0    14     1    15
  2.8067320034863880E-01 a       341     0    14     1    16
 -4.2772212843334573E-03 a       342     0    14     1    17
  2.9168337208594106E-02 a       343     0    14     1    18
 -9.9193237715710841E-02 a       344     0    14     1    19
 -1.7608203355430052E-01 a       345     0    14     1    20
  2.5148841617441020E-01 a       346     0    14     1    21
 -1.5430693140613552E-01 a       347     0    14     1    22
  2.6023016352481626E-01 a       348     0    14     1    23
 -3.9512136771285850E-01 a       349     0    14     1    24
 -6.0554796560335883E-02 a       350     0    14     1    25
  1.8110625844070363E-01 a       351     0    15     1     1
  5.5665415037963482E-02 a       352     0    15     1     2
  1.7114515006149325E-01 a       353     0    15     1     3
  1.2375907147572945E-01 a       354     0    15     1     4
  1.0994580518137122E-01 a       355     0    15     1     5
  3.6855092422489265E-02 a       356     0    15     1     6
  6.0641525516345563E-03 a       357     0    15     1     7
  1.7485429792312537E-01 a       358     0    15     1     8
  4.3582239661201540E-02 a       359     0    15     1     9
  3.6406441752968338E-02 a       360     0    15     1    10
  4.6406753262180474E-02 a       361     0    15     1    11
 -1.1639074425302137E-01 a       362     0    15     1    12
 -2.1686511287711560E-01 a       363     0    15     1    13
  7.6925145178458693E-02 a       364     0    15     1    14
 -1.5094719712580975E-02 a       365     0    15     1    15
 -1.5490787371456957E-01 a       366     0    15     1    16
 -5.3454616422472227E-02 a       367     0    15     1    17
 -2.2871260366016777E-02 a       368     0    15     1    18
  9.6528670939312833E-02 a       369     0    15     1    19
  2.7321323438747586E-01 a       370     0    15     1    20
 -1.7243516143417756E-01 a       371     0    15     1    21
  5.4493313500092920E-02 a       372     0    15     1    22
  5.2842653978267207E-02 a       373     0    15     1    23
  1.4747740776672794E-01 a       374     0    15     1    24
 -2.0573112418573153E-01 a       375     0    15     1    25
  6.3865173201915440E-02 a       376     0    16     1     1
  9.5299084381406135E-02 a       377     0    16     1     2
  1.7120761620878494E-01 a       378     0    16     1     3
  1.4221000732490394E-02 a       379     0    16     1     4
 -1.0545451555049065E-01 a       380     0    16     1     5
  1.0172303050940058E-01 a       381     0    16     1     6
  1.3589224529576799E-01 a       382     0    16     1     7
 -1.4185770714021187E-01 a       383     0    16     1     8
  7.4543274789096933E-02 a       384     0    16     1     9
 -7.8429457213542081E-02 a       385     0    16     1    10
  1.0245692960481753E-01 a       386     0    16     1    11
  1.7507433735664910E-01 a       387     0    16     1    12
  1.4361820301266420E-01 a       388     0    16     1    13
  5.8592006692283803E-03 a       389     0    16     1    14
  4.0001883592651472E-02 a       390     0    16     1    15
  2.3791230952180161E-03 a       391     0    16     1    16
  6.6100282994169507E-02 a       392     0    16     1    17
  2.5223084688532703E-02 a       393     0    16     1    18
  6.0147331994721415E-02 a       394     0    16     1    19
  1.7601099769716057E-02 a       395     0    16     1    20
  4.3459166982920949E-01 a       396     0    16     1    21
  7.1404635222678411E-02 a       397     0    16     1    22
 -7.5558486538488012E-02 a       398     0    16     1    23
 -1.5550342213919679E-02 a       399     0    16     1    24
  6.0127775642379606E-03 a       400     0    16     1    25
  1.3018509302838027E-01 a       401     0    17     1     1
 -9.4335315397354277E-02 a       402     0    17     1     2
  1.2373435942860951E-01 a       403     0    17     1     3
 -2.4438233034501719E-01 a       404     0    17     1     4
  4.4947614498716021E-01 a       405     0    17     1     5
 -2.6890947227111889E-01 a       406     0    17     1     6
  5.0226726139661160E-01 a       407     0    17     1     7
 -2.1281505038480764E-01 a       408     0    17     1     8
 -6.1099200474255699E-01 a       409     0    17     1     9
 -4.7458153068154561E-02 a       410     0    17     1    10
 -2.4277964404473731E-02 a       411     0    17     1    11
 -1.0769393821790511E-01 a       412     0    17     1    12
  2.3594483969827179E-01 a       413     0    17     1    13
  2.9653097054987998E-01 a       414     0    17     1    14
  3.2102238299878577E-01 a       415     0    17     1    15
 -6.3851498542340041E-02 a       416     0    17     1    16
 -6.6968352326801969E-02 a       417     0    17     1    17
  2.9572926939104865E-01 a       418     0    17     1    18
 -1.2577818660362847E-01 a       419     0    17     1    19
  4.5600258752591584E-02 a       420     0    17     1    20
 -1.6565228944476346E-01 a       421     0    17     1    21
  6.4274091323372320E-02 a       422     0    17     1    22
 -1.8395049272024480E-01 a       423     0    17     1    23
  3.5061049989831400E-01 a       424     0    17     1    24
  4.5977220702192616E-02 a       425     0    17     1    25
 -3.7168367050409101E-01 a       426     0    18     1     1
 -1.1263721092311644E-02 a       427     0    18     1     2
 -2.0867233697808149E-01 a       428     0    18     1     3
 -9.7182109333451335E-03 a       429     0    18     1     4
 -6.1428330340109985E-02 a       430     0    18     1     5
  5.2213417689267093E-02 a       431     0    18     1     6
 -1.8501995458508458E-01 a       432     0    18     1     7
  7.6958564737330634E-02 a       433     0    18     1     8
  2.2359869477136043E-01 a       434     0    18     1     9
 -1.4550066806643192E-01 a       435     0    18     1    10
 -3.9985423834278042E-02 a       436     0    18     1    11
  2.2873419486040422E-01 a       437     0    18     1    12
  1.9822902123492050E-01 a       438     0    18     1    13
  1.0704283494466083E-01 a       439     0    18     1    14
  1.8395759392921856E-02 a       440     0    18     1    15
  1.3682597401728794E-01 a       441     0    18     1    16
 -3.0761806941820707E-01 a       442     0    18     1    17
 -2.4970398418782266E-01 a       443     0    18     1    18
  4.5699084714519028E-02 a       444     0    18     1    19
  2.1749485593187099E-02 a       445     0    18     1    20
  3.8271557128768291E-01 a       446     0    18     1    21
  4.5813267994533162E-02 a       447     0    18     1    22
 -1.2982129331586176E-01 a       448     0    18     1    23
 -5.8728080438316128E-02 a       449     0    18     1    24
  8.0481346318655098E-02 a       450     0    18     1    25
  1.3402681876528943E-01 a       451     0    19     1     1
 -5.9131299314399137E-02 a       452     0    19     1     2
  2.2442727225593852E-02 a       453     0    19     1     3
 -1.4954543152645061E-01 a       454     0    19     1     4
 -1.2019663366320697E-01 a       455     0    19     1     5
 -7.0048229840157086E-02 a       456     0    19     1     6
  1.6594145499799484E-02 a       457     0    19     1     7
 -2.4479270150502677E-01 a       458     0    19     1     8
  2.4340427132458160E-02 a       459     0    19     1     9
 -2.8240004208509421E-02 a       460     0    19     1    10
 -1.1584032519052265E-01 a       461     0    19     1    11
 -9.9070801973706549E-03 a       462     0    19     1    12
 -2.6785140420997177E-02 a       463     0    19     1    13
 -2.9612802581050954E-02 a       464     0    19     1    14
  1.0232353396318061E-01 a       465     0    19     1    15
 -4.3533365644154429E-02 a       466     0    19     1    16
  1.0128761926162354E-01 a       467     0    19     1    17
  1.4414930245088597E-01 a       468     0    19     1    18
 -6.3104242687823359E-02 a       469     0    19     1    19
 -6.6906947681474135E-02 a       470     0    19     1    20
  2.8725590707826949E-02 a       471     0    19     1    21
 -3.5634335274440009E-02 a       472     0    19     1    22
 -1.4532459983476428E-01 a       473     0    19     1    23
  8.5439447793718051E-02 a       474     0    19     1    24
  1.0079278107508652E-01 a       475     0    19     1    25
 -9.4237590461645898E-02 a       476     0    20     1     1
  8.2660193655610965E-03 a       477     0    20     1     2
  1.4268212657841767E-01 a       478     0    20     1     3
  3.1086187019112834E-02 a       479     0    20     1     4
  8.1398735120857393E-02 a       480     0    20     1     5
  1.9448936969680763E-02 a       481     0    20     1     6
 -1.8765328803568571E-01 a       482     0    20     1     7
 -4.5409784900407200E-03 a       483     0    20     1     8
 -4.7553291107968125E-02 a       484     0    20     1     9
 -6.9713592245706189E-03 a       485     0    20     1    10
  9.0260455197381267E-02 a       486     0    20     1    11
 -5.0372927021809191E-02 a       487     0    20     1    12
  1.0507828049618764E-01 a       488     0    20     1    13
 -2.1248397192641560E-01 a       489     0    20     1    14
 -1.2941202606668531E-01 a       490     0    20     1    15
  2.2091002640043103E-01 a       491     0    20     1    16
 -2.2613263965479885E-01 a       492     0    20     1    17
 -8.3956282538379085E-02 a       493     0    20     1    18
 -3.6961204098487570E-02 a       494     0    20     1    19
 -2.2804130623993582E-01 a       495     0    20     1    20
  2.6898244943709539E-02 a       496     0    20     1    21
  9.1860781823181234E-02 a       497     0    20     1    22
  2.4842000295104593E-02 a       498     0    20     1    23
 -1.8575396975767414E-01 a       499     0    20     1    24
 -8.2892228002936167E-03 a       500     0    20     1    25
  1.8423860627850283E-01 a       501     0    21     1     1
 -1.6186059920213946E-02 a       502     0    21     1     2
  1.4929017996760957E-01 a       503     0    21     1     3
  2.7670065439698671E-01 a       504     0    21     1     4
 -9.0931550037802691E-02 a       505     0    21     1     5
 -1.0570709913564928E-01 a       506     0    21     1     6
 -5.1098427024838289E-01 a       507     0    21     1     7
  3.2108253911368623E-01 a       508     0    21     1     8
  3.1275719715451111E-01 a       509     0    21     1     9
  4.0115897641906359E-02 a       510     0    21     1    10
 -1.5856378715068939E-01 a       511     0    21     1    11
 -1.0858262205674996E-01 a       512     0    21     1    12
 -5.3303398687469161E-01 a       513     0    21     1    13
 -1.7977926394189161E-01 a       514     0    21     1    14
  1.9036189417647839E-01 a       515     0    21     1    15
 -3.2736035301415651E-03 a       516     0    21     1    16
  9.5952686596295925E-02 a       517     0    21     1    17
 -1.4092515146237274E-02 a       518     0    21     1    18
  1.3646008105842389E-01 a       519     0    21     1    19
  6.7630267666134586E-03 a       520     0    21     1    20
 -2.2271652275941933E-01 a       521     0    21     1    21
 -1.5806262979373450E-01 a       522     0    21     1    22
  1.3130406642348824E-01 a       523     0    21     1    23
 -7.1235775157627496E-02 a       524     0    21     1    24
 -3.6192223026753645E-01 a       525     0    21     1    25
  1.1779485921308587E-01 a       526     0    22     1     1
  1.3840368199404982E-01 a       527     0    22     1     2
 -1.4375947722905801E-02 a       528     0    22     1     3
  4.1233896602932505E-03 a       529     0    22     1     4
 -8.3269552512461639E-02 a       530     0    22     1     5
  1.7501638368451272E-01 a       531     0    22     1     6
  5.5179029119634460E-02 a       532     0    22     1     7
 -4.9833717250733170E-02 a       533     0    22     1     8
 -3.7889575048110907E-01 a       534     0    22     1     9
  8.8355447312576274E-02 a       535     0    22     1    10
  2.4818628412522009E-01 a       536     0    22     1    11
  2.2549752837378916E-02 a       537     0    22     1    12
  6.3166956578044609E-02 a       538     0    22     1    13
 -8.2341505552669170E-02 a       539     0    22     1    14
 -2.0745490709914841E-01 a       540     0    22     1    15
  6.1697717176639376E-02 a       541     0    22     1    16
 -5.9673115735532745E-02 a       542     0    22     1    17
 -2.0980806140228070E-01 a       543     0    22     1    18
  1.9465971368922537E-02 a       544     0    22     1    19
 -2.8385958575817737E-02 a       545     0    22     1    20
  2.1734477461092341E-01 a       546     0    22     1    21
  1.5483651445989857E-01 a       547     0    22     1    22
  4.6393500090919207E-02 a       548     0    22     1    23
 -3.5962720768524586E-01 a       549     0    22     1    24
  1.5649466902493087E-01 a       550     0    22     1    25
 -6.3321494529573405E-02 a       551     0    23     1     1
  3.5488873385000792E-02 a       552     0    23     1     2
 -1.0653122798254713E-01 a       553     0    23     1     3
  1.7165036236749898E-01 a       554     0    23     1     4
  1.8724919060609216E-01 a       555     0    23     1     5
  1.8501231588474117E-02 a       556     0    23     1     6
 -9.9534324538721963E-02 a       557     0    23     1     7
  3.7669023417192124E-02 a       558     0    23     1     8
  9.2620414298820924E-02 a       559     0    23     1     9
  7.9752490625768530E-02 a       560     0    23     1    10
 -3.3318360618230361E-02 a       561     0    23     1    11
 -1.3484019290519028E-01 a       562     0    23     1    12
  1.8623795041900294E-02 a       563     0    23     1    13
  6.5149392504484635E-02 a       564     0    23     1    14
  1.1120819421900220E-01 a       565     0    23     1    15
 -1.0459001145035060E-01 a       566     0    23     1    16
  2.8114638698405716E-02 a       567     0    23     1    17
  9.9711303545124835E-02 a       568     0    23     1    18
 -4.0055398552974762E-02 a       569     0    23     1    19
  5.8954550590649246E-02 a       570     0    23     1    20
 -2.3897388408447556E-01 a       571     0    23     1    21
 -2.8224052799449496E-02 a       572     0    23     1    22
  1.1134159485436958E-01 a       573     0    23     1    23
  1.7776447301402379E-01 a       574     0    23     1    24
 -1.4402403620709425E-01 a       575     0    23     1    25
  6.5282981235556037E-02 a       576     0    24     1     1
  1.1324983711783320E-02 a       577     0    24     1     2
 -3.6928374560712823E-02 a       578     0    24     1     3
 -7.4703252810443238E-02 a       579     0    24     1     4
 -8.1493390310139732E-02 a       580     0    24     1     5
 -2.3368563474181075E-02 a       581     0    24     1     6
  6.5373048227950592E-02 a       582     0    24     1     7
  1.0157006520391271E-01 a       583     0    24     1     8
 -1.1013482995046109E-01 a       584     0    24     1     9
 -2.0270183223782028E-02 a       585     0    24     1    10
 -3.7406175839017085E-02 a       586     0    24     1    11
  7.9234536627775992E-02 a       587     0    24     1    12
  1.2282937344026804E-02 a       588     0    24     1    13
  6.5700650371311467E-02 a       589     0    24     1    14
  1.0139157143314200E-02 a       590     0    24     1    15
 -8.6569231020620210E-02 a       591     0    24     1    16
  6.4155799053365020E-02 a       592     0    24     1    17
 -1.7342561488434768E-01 a       593     0    24     1    18
  1.2364743530539323E-02 a       594     0    24     1    19
  1.9743440342920018E-01 a       595     0    24     1    20
  2.2984279678857003E-01 a       596     0    24     1    21
  2.6738437096080810E-02 a       597     0    24     1    22
 -6.0317178235501145E-02 a       598     0    24     1    23
 -1.3801503369953594E-01 a       599     0    24     1    24
  1.0945427413264708E-01 a       600     0    24     1    25
 -1.2335207349313794E-01 a       601     0    25     1     1
 -8.3922535150274549E-02 a       602     0    25     1     2
  7.9195902504417257E-02 a       603     0    25     1     3
 -1.5860981750689115E-01 a       604     0    25     1     4
  1.4799719852303048E-01 a       605     0    25     1     5
 -1.5953707201014761E-02 a       606     0    25     1     6
  5.1249751486049033E-01 a       607     0    25     1     7
 -1.7810928769817669E-01 a       608     0    25     1     8
  2.1566601685952064E-01 a       609     0    25     1     9
 -1.3572444491824559E-01 a       610     0    25     1    10
 -9.0518043702212392E-02 a       611     0    25     1    11
  3.1087546542407181E-03 a       612     0    25     1    12
  3.8718872356364087E-01 a       613     0    25     1    13
  2.1808301540251981E-02 a       614     0    25     1    14
  1.4502325477612202E-01 a       615     0    25     1    15
 -4.7532476419853434E-02 a       616     0    25     1    16
  1.9181248850276178E-01 a       617     0    25     1    17
  1.5461254093221130E-01 a       618     0    25     1    18
 -6.8253042941743267E-02 a       619     0    25     1    19
 -1.4493050235695816E-02 a       620     0    25     1    20
 -1.1764865697939926E-02 a       621     0    25     1    21
  1.5262650644333303E-01 a       622     0    25     1    22
 -7.6855752781678291E-02 a       623     0    25     1    23
  3.3371439849191620E-01 a       624     0    25     1    24
  1.6192095138004622E-01 a       625     0    25     1    25
 -3.6038142747763561E-03 a       626     0    26     1     1
 -6.0263566012714813E-02 a       627     0    26     1     2
  1.0475828609975096E-01 a       628     0    26     1     3
 -1.3288704997703929E-01 a       629     0    26     1     4
  2.7692735790986842E-02 a       630     0    26     1     5
 -8.1437391343045937E-02 a       631     0    26     1     6
 -6.7506396867902080E-02 a       632     0    26     1     7
 -6.1862225346710861E-02 a       633     0    26     1     8
  9.8320389698138499E-02 a       634     0    26     1     9
 -5.3211886514677884E-02 a       635     0    26     1    10
 -1.2133645779347670E-01 a       636     0    26     1    11
  1.7438232579807315E-02 a       637     0    26     1    12
  7.7350886543370689E-02 a       638     0    26     1    13
  8.7651572405511330E-02 a       639     0    26     1    14
 -4.5596790828490476E-02 a       640     0    26     1    15
  5.6535193092162289E-02 a       641     0    26     1    16
 -8.8670383177036877E-02 a       642     0    26     1    17
 -5.7487056941554385E-02 a       643     0    26     1    18
 -5.7265343268922429E-02 a       644     0    26     1    19
 -3.0366728576901557E-02 a       645     0    26     1    20
  4.8360231708751547E-02 a       646     0    26     1    21
  2.5615630380887112E-03 a       647     0    26     1    22
 -7.2672479492529501E-02 a       648     0    26     1    23
 -1.6582459283260544E-02 a       649     0    26     1    24
 -2.5313880742519501E-02 a       650     0    26     1    25
  9.1549770100588138E-02 a       651     0    27     1     1
 -1.8221928568994038E-02 a       652     0    27     1     2
  1.8013184153282497E-01 a       653     0    27     1     3
 -1.5903824365752220E-01 a       654     0    27     1     4
 -1.6955957059431367E-01 a       655     0    27     1     5
 -3.8593704428230728E-02 a       656     0    27     1     6
  7.3569748908900806E-02 a       657     0    27     1     7
  4.1211846776813651E-02 a       658     0    27     1     8
 -1.2654150624232629E-03 a       659     0    27     1     9
 -8.8458300499461323E-02 a       660     0    27     1    10
  1.2904164482449973E-01 a       661     0    27     1    11
  4.4681087826856675E-02 a       662     0    27     1    12
 -1.1460404628956475E-01 a       663     0    27     1    13
 -1.4481646277426288E-02 a       664     0    27     1    14
 -8.7466834984513131E-02 a       665     0    27     1    15
  4.4177374622000581E-02 a       666     0    27     1    16
  4.9629500126423851E-02 a       667     0    27     1    17
  3.7394991362524825E-02 a       668     0    27     1    18
  5.5523525106778458E-02 a       669     0    27     1    19
 -3.3529541853588071E-02 a       670     0    27     1    20
  6.0614744269991097E-02 a       671     0    27     1    21
 -2.0660588797115048E-02 a       672     0    27     1    22
 -9.2324885750834307E-02 a       673     0    27     1    23
 -1.5687286683940101E-02 a       674     0    27     1    24
  4.6973303176104514E-02 a       675     0    27     1    25
 -4.2725913901119933E-02 a       676     0    28     1     1
  1.8600012877574800E-02 a       677     0    28     1     2
  6.1961229149692584E-02 a       678     0    28     1     3
  9.5614186179060076E-02 a       679     0    28     1     4
  1.2253721419531728E-01 a       680     0    28     1     5
  5.6138937662408676E-03 a       681     0    28     1     6
  1.6236372517652548E-02 a       682     0    28     1     7
 -6.0641185178521594E-02 a       683     0    28     1     8
  8.0140082561244386E-02 a       684     0    28     1     9
 -3.1777285525392621E-02 a       685     0    28     1    10
  1.2447716198912799E-02 a       686     0    28     1    11
  5.6169942922201701E-03 a       687     0    28     1    12
  3.3018505835441844E-02 a       688     0    28     1    13
 -7.1009373363807610E-02 a       689     0    28     1    14
 -3.6942655552954368E-02 a       690     0    28     1    15
  1.8140560236890507E-01 a       691     0    28     1    16
 -2.2053146335102458E-01 a       692     0    28     1    17
 -7.3874700676789884E-03 a       693     0    28     1    18
  7.8529551210347798E-02 a       694     0    28     1    19
 -7.5548687235942519E-02 a       695     0    28     1    20
 -2.3358623685952443E-02 a       696     0    28     1    21
  8.8042507154901084E-02 a       697     0    28     1    22
  2.6866906668736812E-02 a       698     0    28     1    23
  1.4559786229181462E-02 a       699     0    28     1    24
 -1.6284579464957080E-01 a       700     0    28     1    25
  2.0970798596474274E-03 a       701     0    29     1     1
  5.3274299811038664E-03 a       702     0    29     1     2
 -6.5747690268577021E-03 a       703     0    29     1     3
  2.7359493343468499E-01 a       704     0    29     1     4
 -1.2326962779521862E-02 a       705     0    29     1     5
 -5.7760915566303445E-02 a       706     0    29     1     6
 -2.7371470297345840E-01 a       707     0    29     1     7
  1.5396411132118076E-01 a       708     0    29     1     8
 -8.2636527167785370E-02 a       709     0    29     1     9
  1.0975493220719540E-01 a       710     0    29     1    10
  7.3499191545663201E-02 a       711     0    29     1    11
 -2.1426359832405248E-02 a       712     0    29     1    12
 -3.5622583557342685E-01 a       713     0    29     1    13
 -4.4631349768188888E-02 a       714     0    29     1    14
  4.8296711319671080E-02 a       715     0    29     1    15
 -8.3550142184000298E-03 a       716     0    29     1    16
  1.1702411714375844E-02 a       717     0    29     1    17
  1.3367111294072609E-01 a       718     0    29     1    18
  1.0649214088410795E-01 a       719     0    29     1    19
  8.3476895265188811E-02 a       720     0    29     1    20
 -1.1682542691891395E-01 a       721     0    29     1    21
 -2.6562232869529723E-01 a       722     0    29     1    22
  7.4947533613161255E-02 a       723     0    29     1    23
  6.3221718282205205E-03 a       724     0    29     1    24
 -2.6718568049654590E-01 a       725     0    29     1    25
  8.5638698117321110E-02 a       726     0    30     1     1
  7.0410729826135277E-02 a       727     0    30     1     2
 -1.3075029590274734E-01 a       728     0    30     1     3
  1.8860863017692190E-02 a       729     0    30     1     4
 -1.2755027275117620E-01 a       730     0    30     1     5
  1.3412298386626054E-01 a       731     0    30     1     6
 -5.9341341216051224E-02 a       732     0    30     1     7
 -8.2016570038871625E-02 a       733     0    30     1     8
 -2.5130165441178209E-01 a       734     0    30     1     9
  3.4718612701154818E-02 a       735     0    30     1    10
  1.4569190369331003E-01 a       736     0    30     1    11
  4.2136070110918390E-02 a       737     0    30     1    12
  2.5152910063987031E-02 a       738     0    30     1    13
  1.0842393876213084E-01 a       739     0    30     1    14
 -8.7136792619142700E-02 a       740     0    30     1    15
 -3.0326432658217876E-02 a       741     0    30     1    16
 -3.7401497493786094E-02 a       742     0    30     1    17
 -1.7423307289922207E-01 a       743     0    30     1    18
  1.4685512290915120E-02 a       744     0    30     1    19
  1.1095051567150617E-01 a       745     0    30     1    20
  1.2048836500994990E-01 a       746     0    30     1    21
  8.8107693419133215E-02 a       747     0    30     1    22
  4.2605164716678107E-02 a       748     0    30     1    23
 -1.8941503853141473E-01 a       749     0    30     1    24
  1.7926067347102162E-01 a       750     0    30     1    25
 -1.8168860546801546E-01 a       751     0    31     1     1
 -1.9689127187975716E-03 a       752     0    31     1     2
 -1.8801233672077883E-01 a       753     0    31     1     3
  1.3026454154266465E-01 a       754     0    31     1     4
  1.2039083664770196E-01 a       755     0    31     1     5
  3.8040703268156902E-02 a       756     0    31     1     6
 -3.0210107420491081E-03 a       757     0    31     1     7
 -1.7246249192597890E-01 a       758     0    31     1     8
  1.0203067350818477E-01 a       759     0    31     1     9
  1.8776244785490503E-01 a       760     0    31     1    10
 -9.5349223685957094E-02 a       761     0    31     1    11
 -4.8230144282249879E-02 a       762     0    31     1    12
  2.7069135569309261E-02 a       763     0    31     1    13
  1.4933723932287864E-02 a       764     0    31     1    14
  2.4310113993147239E-01 a       765     0    31     1    15
 -1.0134024686692017E-01 a       766     0    31     1    16
  7.0645728030134330E-02 a       767     0    31     1    17
  1.4978780364561101E-01 a       768     0    31     1    18
 -7.2055429883708583E-02 a       769     0    31     1    19
  1.2796313094088921E-01 a       770     0    31     1    20
 -1.3348953589043103E-01 a       771     0    31     1    21
 -5.1318188486245468E-02 a       772     0    31     1    22
  3.5916475749502422E-02 a       773     0    31     1    23
  2.2127310069588010E-01 a       774     0    31     1    24
 -7.3711368714187417E-02 a       775     0    31     1    25
  7.6392302566062248E-02 a       776     0    32     1     1
 -1.2195460819043090E-02 a       777     0    32     1     2
 -1.7403901871610221E-02 a       778     0    32     1     3
 -7.1226643302972154E-02 a       779     0    32     1     4
 -8.3417149695138873E-02 a       780     0    32     1     5
  7.2179002666607026E-02 a       781     0    32     1     6
 -6.4804667922933143E-02 a       782     0    32     1     7
  1.1013576219523950E-01 a       783     0    32     1     8
 -1.3047591407689990E-01 a       784     0    32     1     9
 -8.3430279896862775E-02 a       785     0    32     1    10
  4.5798902556777120E-02 a       786     0    32     1    11
 -4.9372001067040320E-03 a       787     0    32     1    12
  1.4613368105300836E-01 a       788     0    32     1    13
  6.5693770175356839E-02 a       789     0    32     1    14
 -1.9699200246139645E-01 a       790     0    32     1    15
 -1.0147842206105649E-01 a       791     0    32     1    16
  5.7894745133027108E-02 a       792     0    32     1    17
 -1.7857774405787222E-01 a       793     0    32     1    18
 -6.5994654225106378E-02 a       794     0    32     1    19
 -6.4109658347799831E-02 a       795     0    32     1    20
  1.1844857809711974E-01 a       796     0    32     1    21
 -3.6043411952867796E-02 a       797     0    32     1    22
  4.5156288901558442E-02 a       798     0    32     1    23
 -1.7483302450231522E-01 a       799     0    32     1    24
  2.4741152104708763E-01 a       800     0    32     1    25
 -9.2651803949791584E-03 a       801     0    33     1     1
  2.5382573916808205E-03 a       802     0    33     1     2
 -2.1494981251539099E-03 a       803     0    33     1     3
 -1.1246136581914629E-01 a       804     0    33     1     4
  6.0775014042668940E-02 a       805     0    33     1     5
 -4.6643231692364458E-02 a       806     0    33     1     6
  9.7521483116683114E-02 a       807     0    33     1     7
  1.3577202088210536E-02 a       808     0    33     1     8
  8.4803841092923410E-02 a       809     0    33     1     9
 -6.2318090417450143E-02 a       810     0    33     1    10
 -4.7520747126991218E-02 a       811     0    33     1    11
 -1.7320324357666606E-02 a       812     0    33     1    12
  1.5602371324117856E-01 a       813     0    33     1    13
 -1.5065708364843753E-03 a       814     0    33     1    14
  1.5406461010377197E-02 a       815     0    33     1    15
  2.5544499759528373E-02 a       816     0    33     1    16
 -2.1718106379505761E-02 a       817     0    33     1    17
 -6.5719593835511569E-02 a       818     0    33     1    18
 -4.3062797597584503E-02 a       819     0    33     1    19
 -1.5396357092579617E-03 a       820     0    33     1    20
  3.1178435487552107E-02 a       821     0    33     1    21
  1.5453195160696773E-01 a       822     0    33     1    22
 -4.4828597692753054E-02 a       823     0    33     1    23
 -1.0975270414232085E-02 a       824     0    33     1    24
  7.5007235385927171E-02 a       825     0    33     1    25
 -3.2578466842229724E-02 a       826     0    34     1     1
 -2.6288117398917576E-02 a       827     0    34     1     2
  2.2970422083531970E-02 a       828     0    34     1     3
 -6.7990753682370703E-02 a       829     0    34     1     4
  5.0173120062991287E-02 a       830     0    34     1     5
 -1.9208066440228051E-02 a       831     0    34     1     6
  2.4553684767873910E-02 a       832     0    34     1     7
  1.2250074276100561E-02 a       833     0    34     1     8
  1.0824089510856726E-01 a       834     0    34     1     9
 -1.9616165115067613E-02 a       835     0    34     1    10
 -1.2421614754979902E-01 a       836     0    34     1    11
 -3.4377564699997448E-04 a       837     0    34     1    12
  5.2038628944981860E-02 a       838     0    34     1    13
 -4.7041702309702484E-02 a       839     0    34     1    14
 -5.8250601391267864E-03 a       840     0    34     1    15
  1.2651221532227794E-02 a       841     0    34     1    16
 -3.1949202144739813E-02 a       842     0    34     1    17
  1.9325813438721202E-02 a       843     0    34     1    18
 -2.3759000209129261E-02 a       844     0    34     1    19
 -9.6386992452037829E-02 a       845     0    34     1    20
 -1.2326588276354916E-03 a       846     0    34     1    21
  7.8026252777588039E-04 a       847     0    34     1    22
 -2.2363548811934492E-02 a       848     0    34     1    23
  3.9109997072611938E-02 a       849     0    34     1    24
 -6.4331968117636751E-02 a       850     0    34     1    25
  1.7114632581976938E-01 a       851     0    35     1     1
  1.4921435388124692E-02 a       852     0    35     1     2
  5.9400767357715184E-02 a       853     0    35     1     3
 -1.2564096488395909E-01 a       854     0    35     1     4
 -9.7201283042022232E-02 a       855     0    35     1     5
 -6.9669784200528800E-02 a       856     0    35     1     6
 -2.8322312409649199E-02 a       857     0    35     1     7
  2.0435115928079514E-01 a       858     0    35     1     8
 -8.9116241304405874E-02 a       859     0    35     1     9
 -1.4924403783837698E-01 a       860     0    35     1    10
  3.3121472150393461E-02 a       861     0    35     1    11
  2.6131888194481576E-02 a       862     0    35     1    12
 -4.2525608881323347E-02 a       863     0    35     1    13
 -2.1387651499481422E-02 a       864     0    35     1    14
 -1.4312546544366453E-01 a       865     0    35     1    15
  3.6683258261228910E-02 a       866     0    35     1    16
 -2.5303541753575656E-02 a       867     0    35     1    17
 -7.3651089296284208E-02 a       868     0    35     1    18
  6.2115421183906283E-02 a       869     0    35     1    19
 -1.2284513985947050E-01 a       870     0    35     1    20
  9.2375305956925780E-02 a       871     0    35     1    21
  7.1520084530509509E-02 a       872     0    35     1    22
 -1.6044810731564687E-02 a       873     0    35     1    23
 -1.7767923385949586E-01 a       874     0    35     1    24
 -2.2852095330441437E-02 a       875     0    35     1    25
 -4.9748894443834624E-02 a       876     0    36     1     1
  2.6528422266825696E-02 a       877     0    36     1     2
 -2.9614691074045345E-02 a       878     0    36     1     3
 -3.6703794111586983E-03 a       879     0    36     1     4
  3.2322338810052226E-02 a       880     0    36     1     5
 -7.0395919561887899E-02 a       881     0    36     1     6
  3.8798133642283739E-02 a       882     0    36     1     7
 -1.0233065937876941E-01 a       883     0    36     1     8
  6.9933792099768036E-02 a       884     0    36     1     9
  1.1666539491560868E-01 a       885     0    36     1    10
 -7.6910572627037363E-02 a       886     0    36     1    11
  2.3407958598967382E-02 a       887     0    36     1    12
 -1.4373272848930635E-01 a       888     0    36     1    13
 -2.7149591188077155E-02 a       889     0    36     1    14
  1.6400081650102863E-01 a       890     0    36     1    15
  6.3406264933266357E-02 a       891     0    36     1    16
 -6.6880837587665817E-02 a       892     0    36     1    17
  6.3255356577900934E-02 a       893     0    36     1    18
  1.6427326967578650E-03 a       894     0    36     1    19
  1.1314347328477678E-01 a       895     0    36     1    20
 -6.7679778139801833E-02 a       896     0    36     1    21
  5.6031405631612151E-02 a       897     0    36     1    22
 -8.0488481934958528E-02 a       898     0    36     1    23
  7.0386478040563888E-02 a       899     0    36     1    24
 -1.2505721171252743E-01 a       900     0    36     1    25
 -6.5851491497370462E-02 a       901     0    37     1     1
 -8.4852906669202997E-03 a       902     0    37     1     2
  4.0558926666606349E-02 a       903     0    37     1     3
  9.1636742500532609E-02 a       904     0    37     1     4
 -3.8243755125829545E-03 a       905     0    37     1     5
  1.0654192307117843E-02 a       906     0    37     1     6
  1.1366047178048289E-02 a       907     0    37     1     7
 -1.8535714040748049E-02 a       908     0    37     1     8
  2.4366634311903501E-02 a       909     0    37     1     9
  4.0475727656382729E-02 a       910     0    37     1    10
  5.8654816961348825E-02 a       911     0    37     1    11
  1.4298779995880065E-02 a       912     0    37     1    12
 -8.5668874828571204E-02 a       913     0    37     1    13
  5.2297404193533542E-02 a       914     0    37     1    14
  2.3874112550548079E-02 a       915     0    37     1    15
 -2.4138650584448390E-02 a       916     0    37     1    16
  7.5787529925440675E-02 a       917     0    37     1    17
  1.0743448808713145E-01 a       918     0    37     1    18
  2.5582428218885414E-02 a       919     0    37     1    19
  1.9658464708916426E-02 a       920     0    37     1    20
 -2.5007662226242688E-02 a       921     0    37     1    21
 -1.1177159593259232E-01 a       922     0    37     1    22
  1.4071876045071204E-02 a       923     0    37     1    23
  9.9013581885087437E-02 a       924     0    37     1    24
 -6.2999359842739619E-02 a       925     0    37     1    25
  9.0885598972038642E-02 a       926     0    38     1     1
 -5.1213610402836016E-03 a       927     0    38     1     2
 -5.5200039823798952E-02 a       928     0    38     1     3
 -2.8802010567101945E-03 a       929     0    38     1     4
 -5.5884609757376462E-02 a       930     0    38     1     5
 -1.0017805942998659E-02 a       931     0    38     1     6
 -6.0000036464999150E-02 a       932     0    38     1     7
 -3.0956149828227447E-02 a       933     0    38     1     8
 -8.2416905489227546E-02 a       934     0    38     1     9
 -1.5150378821381500E-02 a       935     0    38     1    10
  2.7351305448725306E-02 a       936     0    38     1    11
  3.5314286929636340E-03 a       937     0    38     1    12
 -1.2211465349929026E-02 a       938     0    38     1    13
  6.3247850995401290E-03 a       939     0    38     1    14
  3.7609684817450202E-02 a       940     0    38     1    15
 -1.8744755238364275E-02 a       941     0    38     1    16
  6.1746723393473289E-03 a       942     0    38     1    17
 -5.4125259019498176E-02 a       943     0    38     1    18
  8.2891546637034073E-04 a       944     0    38     1    19
  1.5061854193630658E-02 a       945     0    38     1    20
  1.8862802351842400E-02 a       946     0    38     1    21
  3.7142860173131106E-02 a       947     0    38     1    22
  1.1947517958846786E-02 a       948     0    38     1    23
 -8.1091467639685583E-02 a       949     0    38     1    24
  9.3450215477389215E-02 a       950     0    38     1    25
 -1.3156616085200920E-01 a       951     0    39     1     1
 -1.7071138414273889E-02 a       952     0    39     1     2
 -4.6663412290849436E-02 a       953     0    39     1     3
  1.7964337142854992E-02 a       954     0    39     1     4
 -7.4339525806016273E-03 a       955     0    39     1     5
  4.0750760209849538E-02 a       956     0    39     1     6
  2.6046228099710363E-02 a       957     0    39     1     7
 -1.5882198647400023E-01 a       958     0    39     1     8
  5.1920404558231895E-02 a       959     0    39     1     9
  1.3461041516933764E-01 a       960     0    39     1    10
  7.9677616676237503E-02 a       961     0    39     1    11
 -1.5668841573596055E-02 a       962     0    39     1    12
 -2.6420767538993972E-02 a       963     0    39     1    13
  6.0713123980042034E-02 a       964     0    39     1    14
  1.2294042882704130E-01 a       965     0    39     1    15
 -5.4999442635701196E-02 a       966     0    39     1    16
  1.0697988161429188E-01 a       967     0    39     1    17
  1.3833052309142915E-01 a       968     0    39     1    18
 -7.6493365047243748E-03 a       969     0    39     1    19
  8.4333456677604252E-02 a       970     0    39     1    20
 -8.7176873527097090E-02 a       971     0    39     1    21
 -6.2378202916843116E-02 a       972     0    39     1    22
 -1.6451906678520006E-02 a       973     0    39     1    23
  1.5531111064958530E-01 a       974     0    39     1    24
  1.5153608118478321E-03 a       975     0    39     1    25
  7.2394750584163198E-02 a       976     0    40     1     1
  1.8423448425236532E-02 a       977     0    40     1     2
  2.6924564110655129E-02 a       978     0    40     1     3
  8.4059644726568270E-03 a       979     0    40     1     4
  1.5073845137418990E-02 a       980     0    40     1     5
  3.3851507671349458E-02 a       981     0    40     1     6
 -4.9897560164859474E-02 a       982     0    40     1     7
  1.0148929918525121E-01 a       983     0    40     1     8
 -7.2613847410034738E-02 a       984     0    40     1     9
 -1.1666222376667466E-01 a       985     0    40     1    10
  2.0178554763344722E-02 a       986     0    40     1    11
 -1.1207669893234571E-02 a       987     0    40     1    12
  9.8406657991800706E-02 a       988     0    40     1    13
  7.0317302052196173E-03 a       989     0    40     1    14
 -1.8148640507632344E-01 a       990     0    40     1    15
  9.0194099352576291E-03 a       991     0    40     1    16
 -8.6823712947193155E-02 a       992     0    40     1    17
 -1.2700258710210952E-01 a       993     0    40     1    18
 -1.0384454581453956E-02 a       994     0    40     1    19
 -1.0038163503738658E-01 a       995     0    40     1    20
  7.6441357976363436E-02 a       996     0    40     1    21
  7.7847108241119140E-05 a       997     0    40     1    22
  6.4391418382142906E-02 a       998     0    40     1    23
 -1.0959216985942885E-01 a       999     0    40     1    24
  4.5374900887816219E-02 a      1000     0    40     1    25
 -7.7448334698011684E-02 a      1001     0    41     1     1
 -6.5677713572016447E-02 a      1002     0    41     1     2
  6.9067185627607816E-03 a      1003     0    41     1     3
 -2.4496409180348500E-01 a      1004     0    41     1     4
 -2.1006066536898868E-01 a      1005     0    41     1     5
  7.6492619498698255E-01 a      1006     0    41     1     6
  2.6810267943528182E-01 a      1007     0    41     1     7
 -1.1194789104909720E-02 a      1008     0    41     1     8
 -4.3086044845279714E-01 a      1009     0    41     1     9
 -1.9691428156958501E-01 a      1010     0    41     1    10
 -3.2590651272909180E-02 a      1011     0    41     1    11
  9.8384979827188301E-02 a      1012     0    41     1    12
  6.1721258117320454E-01 a      1013     0    41     1    13
 -3.9480865869401788E-01 a      1014     0    41     1    14
 -1.6873294147493853E-01 a      1015     0    41     1    15
  6.2269424565838873E-02 a      1016     0    41     1    16
 -8.7432742820060208E-02 a      1017     0    41     1    17
  5.1213925665504575E-02 a      1018     0    41     1    18
  6.7138544648921528E-01 a      1019     0    41     1    19
  2.8980480168300966E-02 a      1020     0    41     1    20
  4.8968933492584704E-01 a      1021     0    41     1    21
  3.2083378511954620E-02 a      1022     0    41     1    22
 -1.7982142672195439E-01 a      1023     0    41     1    23
 -2.7318166739543098E-01 a      1024     0    41     1    24
  4.9552029325393050E-03 a      1025     0    41     1    25
 -3.0516685757984180E-01 a      1026     0    42     1     1
 -2.2146670185960401E-01 a      1027     0    42     1     2
 -5.1721683129899965E-01 a      1028     0    42     1     3
 -7.4262137310447682E-03 a      1029     0    42     1     4
  3.7797639654162235E-01 a      1030     0    42     1     5
 -1.0531977677346833E+00 a      1031     0    42     1     6
  7.6837618582937511E-03 a      1032     0    42     1     7
 -1.0076679574488498E+00 a      1033     0    42     1     8
 -3.9491575274971424E-01 a      1034     0    42     1     9
  4.4221201005290423E-01 a      1035     0    42     1    10
  2.7644764679625700E-01 a      1036     0    42     1    11
 -8.4211310872348830E-02 a      1037     0    42     1    12
 -8.5049730453330752E-01 a      1038     0    42     1    13
 -1.0866274121385788E+00 a      1039     0    42     1    14
  3.7149339060001085E-01 a      1040     0    42     1    15
  8.4752748920078891E-01 a      1041     0    42     1    16
  1.7730184366685203E-01 a      1042     0    42     1    17
  9.2095706672948932E-02 a      1043     0    42     1    18
 -5.1222003565778906E-01 a      1044     0    42     1    19
 -3.3823562638227173E-01 a      1045     0    42     1    20
 -6.0596474222835095E-01 a      1046     0    42     1    21
 -4.6351922675504903E-01 a      1047     0    42     1    22
  1.2402148496581906E-01 a      1048     0    42     1    23
 -1.4648314015946601E-02 a      1049     0    42     1    24
 -5.3589640142533181E-02 a      1050     0    42     1    25
 -2.8072454308460570E-02 a      1051     0    43     1     1
 -2.6328977147456804E-02 a      1052     0    43     1     2
  1.7929036829828325E-04 a      1053     0    43     1     3
 -1.2469224551528886E-01 a      1054     0    43     1     4
 -1.1048931605422788E-01 a      1055     0    43     1     5
  8.9952585573048454E-03 a      1056     0    43     1     6
  1.3941894528629212E-01 a      1057     0    43     1     7
 -5.4737062753267278E-02 a      1058     0    43     1     8
 -6.3201303420582933E-03 a      1059     0    43     1     9
  1.6010337302524394E-02 a      1060     0    43     1    10
  1.2632889930204056E-02 a      1061     0    43     1    11
  5.7855202874149955E-02 a      1062     0    43     1    12
 -1.4629660249389634E-01 a      1063     0    43     1    13
  9.9464960441250666E-02 a      1064     0    43     1    14
  2.0213283422637851E-01 a      1065     0    43     1    15
 -6.8782234271122400E-02 a      1066     0    43     1    16
  5.9249019604648541E-03 a      1067     0    43     1    17
  1.8463260186209421E-01 a      1068     0    43     1    18
  1.8734979810795827E-01 a      1069     0    43     1    19
 -1.9529173622832502E-01 a      1070     0    43     1    20
  1.5012318077755202E-01 a      1071     0    43     1    21
 -2.2092306170223543E-02 a      1072     0    43     1    22
 -1.4300937210903242E-01 a      1073     0    43     1    23
  1.2512016236688817E-02 a      1074     0    43     1    24
  3.7634261108317156E-02 a      1075     0    43     1    25
 -1.5415499923700274E-01 a      1076     0    44     1     1
 -9.9566353182800174E-02 a      1077     0    44     1     2
 -7.7606225757100682E-03 a      1078     0    44     1     3
 -7.0247218491956198E-02 a      1079     0    44     1     4
 -1.2181245537952838E-03 a      1080     0    44     1     5
 -4.3409113680246407E-02 a      1081     0    44     1     6
  1.8288147371846114E-01 a      1082     0    44     1     7
  2.2353775668825293E-01 a      1083     0    44     1     8
  4.6143377112373610E-02 a      1084     0    44     1     9
  4.4497373875302428E-02 a      1085     0    44     1    10
 -1.5729911184975925E-01 a      1086     0    44     1    11
  1.0703001588829948E-01 a      1087     0    44     1    12
  1.4917795949002752E-02 a      1088     0    44     1    13
 -1.3661533026752790E-01 a      1089     0    44     1    14
  5.8632238173051965E-02 a      1090     0    44     1    15
  1.4723460595826737E-01 a      1091     0    44     1    16
  1.4233295160716544E-01 a      1092     0    44     1    17
  9.5776319267484155E-03 a      1093     0    44     1    18
  6.8370128696992480E-02 a      1094     0    44     1    19
  3.1276013938745142E-02 a      1095     0    44     1    20
 -5.4787194290443493E-02 a      1096     0    44     1    21
 -1.1744153137088355E-01 a      1097     0    44     1    22
  4.9944053423358517E-02 a      1098     0    44     1    23
 -5.6432635971467436E-02 a      1099     0    44     1    24
 -1.1838621112172054E-01 a      1100     0    44     1    25
  5.5905428531209289E-01 a      1101     0    45     1     1
  1.3507878965636520E-02 a      1102     0    45     1     2
  4.1937776901547186E-01 a      1103     0    45     1     3
  2.5338491455853710E-02 a      1104     0    45     1     4
 -5.0895322473370042E-01 a      1105     0    45     1     5
  1.0096548108192893E+00 a      1106     0    45     1     6
  2.3274157800440534E-01 a      1107     0    45     1     7
  3.0640841251058498E-01 a      1108     0    45     1     8
  2.3115713155729739E-01 a      1109     0    45     1     9
 -2.7661454582682171E-01 a      1110     0    45     1    10
 -6.2006541637537060E-01 a      1111     0    45     1    11
 -3.9991739760204717E-02 a      1112     0    45     1    12
  4.8291512608231363E-01 a      1113     0    45     1    13
  7.3120532917855929E-01 a      1114     0    45     1    14
 -5.7759979655427807E-01 a      1115     0    45     1    15
 -1.1128313452375522E+00 a      1116     0    45     1    16
  1.1491348359974170E-01 a      1117     0    45     1    17
  4.0406628288713248E-01 a      1118     0    45     1    18
  6.8551497967048750E-02 a      1119     0    45     1    19
  7.9550595279110314E-01 a      1120     0    45     1    20
  3.3575540045501667E-01 a      1121     0    45     1    21
  1.2772243234759315E-01 a      1122     0    45     1    22
  6.2356655547259089E-02 a      1123     0    45     1    23
  5.8017032115177025E-01 a      1124     0    45     1    24
  1.4832860732192485E-01 a      1125     0    45     1    25
 -2.4076566701369806E-01 a      1126     0    46     1     1
 -7.0112516482608682E-03 a      1127     0    46     1     2
 -5.8214252305656751E-02 a      1128     0    46     1     3
 -1.1435694420658267E-01 a      1129     0    46     1     4
 -4.8220412453554046E-02 a      1130     0    46     1     5
 -1.0028132442603159E-01 a      1131     0    46     1     6
 -8.2475540693368682E-02 a      1132     0    46     1     7
 -2.5746444905640004E-02 a      1133     0    46     1     8
 -1.4690003641125984E-01 a      1134     0    46     1     9
  1.6369476066504809E-01 a      1135     0    46     1    10
 -1.0757312463487418E-02 a      1136     0    46     1    11
  1.4173421023788119E-02 a      1137     0    46     1    12
  6.0802658163887233E-02 a      1138     0    46     1    13
 -4.6578500846298332E-01 a      1139     0    46     1    14
  2.7971036293365645E-02 a      1140     0    46     1    15
  1.2330092445431082E-01 a      1141     0    46     1    16
  3.6125193598247590E-02 a      1142     0    46     1    17
 -1.0515295527710077E-01 a      1143     0    46     1    18
 -3.0969919098559735E-02 a      1144     0    46     1    19
  8.5338418979363659E-02 a      1145     0    46     1    20
 -1.4198704588667166E-01 a      1146     0    46     1    21
  3.5474416202241170E-02 a      1147     0    46     1    22
  1.5474389392593990E-01 a      1148     0    46     1    23
 -2.1302187945947040E-01 a      1149     0    46     1    24
 -2.2734686802215638E-02 a      1150     0    46     1    25
  2.9822380072175042E-01 a      1151     0    47     1     1
  1.4083783489121230E-02 a      1152     0    47     1     2
 -2.9302930681557399E-01 a      1153     0    47     1     3
  3.8315636027913998E-03 a      1154     0    47     1     4
 -3.8560187866006783E-02 a      1155     0    47     1     5
  3.3793440925878451E-02 a      1156     0    47     1     6
  1.7618326996604550E-01 a      1157     0    47     1     7
 -1.7992440627396293E-02 a      1158     0    47     1     8
 -2.0804481308716402E-01 a      1159     0    47     1     9
 -4.7875265215200892E-02 a      1160     0    47     1    10
 -4.3592953235912901E-01 a      1161     0    47     1    11
 -2.0104694686370728E-01 a      1162     0    47     1    12
 -1.7122656826817470E-01 a      1163     0    47     1    13
 -3.8403761950457659E-02 a      1164     0    47     1    14
 -1.9787635881547860E-01 a      1165     0    47     1    15
 -3.8920976258536910E-01 a      1166     0    47     1    16
  3.5551248743392924E-02 a      1167     0    47     1    17
 -6.2670225153455925E-02 a      1168     0    47     1    18
 -6.5667217987487314E-02 a      1169     0    47     1    19
  1.6128012443789924E-01 a      1170     0    47     1    20
 -3.8664041129325294E-01 a      1171     0    47     1    21
  2.8537278012995070E-02 a      1172     0    47     1    22
  1.5841111896604479E-01 a      1173     0    47     1    23
  1.0772141613283079E-01 a      1174     0    47     1    24
  1.0664295181465054E-01 a      1175     0    47     1    25
  1.7404788107270930E-01 a      1176     0    48     1     1
  2.6732734258342588E-02 a      1177     0    48     1     2
  1.3168232564429064E-02 a      1178     0    48     1     3
 -2.7855857377371888E-02 a      1179     0    48     1     4
  2.0703579985435518E-03 a      1180     0    48     1     5
 -1.0942053112215368E-01 a      1181     0    48     1     6
  1.6535436695995283E-02 a      1182     0    48     1     7
  1.7241898069195219E-01 a      1183     0    48     1     8
 -5.2724484554338105E-02 a      1184     0    48     1     9
 -8.7289821505028939E-02 a      1185     0    48     1    10
 -7.0885762849862102E-02 a      1186     0    48     1    11
 -8.5396798877755940E-03 a      1187     0    48     1    12
 -1.6206511389050847E-02 a      1188     0    48     1    13
 -3.9582285545762090E-02 a      1189     0    48     1    14
 -7.8754158650344241E-02 a      1190     0    48     1    15
  3.7766304289471371E-02 a      1191     0    48     1    16
 -7.5362473778753825E-02 a      1192     0    48     1    17
  1.6140033488872295E-02 a      1193     0    48     1    18
 -6.1320553277330624E-02 a      1194     0    48     1    19
  2.0888337061564899E-02 a      1195     0    48     1    20
  8.7095124533154600E-02 a      1196     0    48     1    21
 -1.9736233520527020E-02 a      1197     0    48     1    22
 -5.1809594166191679E-02 a      1198     0    48     1    23
 -6.8668266168097916E-02 a      1199     0    48     1    24
 -7.5928389042827185E-02 a      1200     0    48     1    25
  2.0837225972840958E-02 a      1201     0    49     1     1
 -8.3459545265270572E-03 a      1202     0    49     1     2
 -3.5667289653516079E-02 a      1203     0    49     1     3
 -2.3198930910693315E-02 a      1204     0    49     1     4
 -1.2802487328146214E-01 a      1205     0    49     1     5
 -1.1144103647877433E-01 a      1206     0    49     1     6
  1.5537174837611689E-02 a      1207     0    49     1     7
  7.3265221947620182E-02 a      1208     0    49     1     8
 -2.0956948894196359E-02 a      1209     0    49     1     9
 -4.7417833775309323E-02 a      1210     0    49     1    10
 -7.8808379438171858E-02 a      1211     0    49     1    11
  1.6722672713196576E-01 a      1212     0    49     1    12
 -3.2153463601745910E-02 a      1213     0    49     1    13
  1.2569374477049491E-02 a      1214     0    49     1    14
  7.9400214465895708E-02 a      1215     0    49     1    15
 -6.3924629334550911E-02 a      1216     0    49     1    16
  1.3182431472648920E-01 a      1217     0    49     1    17
 -3.6822659470406821E-03 a      1218     0    49     1    18
  4.9996378368788598E-02 a      1219     0    49     1    19
  2.4783218608985845E-03 a      1220     0    49     1    20
  4.2148871324720012E-02 a      1221     0    49     1    21
  2.0533320650196769E-02 a      1222     0    49     1    22
 -3.2775332440647246E-03 a      1223     0    49     1    23
 -8.2303746502743150E-02 a      1224     0    49     1    24
 -5.6317335037455292E-02 a      1225     0    49     1    25
  1.9261766326624335E-02 a      1226     0    50     1     1
  3.3024056078901902E-02 a      1227     0    50     1     2
  1.9962569979625641E-01 a      1228     0    50     1     3
 -5.2065706375812489E-02 a      1229     0    50     1     4
  4.0648906188166592E-02 a      1230     0    50     1     5
  9.7575070780276496E-02 a      1231     0    50     1     6
  5.3603335550095048E-02 a      1232     0    50     1     7
  9.8343883330087901E-03 a      1233     0    50     1     8
  1.0471488386374503E-01 a      1234     0    50     1     9
  1.6279636010535550E-01 a      1235     0    50     1    10
 -1.1477237364721833E-01 a      1236     0    50     1    11
 -1.1654454081667870E-01 a      1237     0    50     1    12
 -2.1523077764743926E-02 a      1238     0    50     1    13
 -2.9754020071535804E-02 a      1239     0    50     1    14
 -6.8848663759170467E-02 a      1240     0    50     1    15
 -2.9052349610996085E-02 a      1241     0    50     1    16
  2.5285097391886106E-02 a      1242     0    50     1    17
 -3.8553640766531318E-02 a      1243     0    50     1    18
 -9.2908231144561787E-02 a      1244     0    50     1    19
  1.7036325042051489E-02 a      1245     0    50     1    20
 -1.0713387229246482E-01 a      1246     0    50     1    21
  5.0521318220352655E-02 a      1247     0    50     1    22
 -1.1302566676616480E-01 a      1248     0    50     1    23
 -4.2366876756213367E-02 a      1249     0    50     1    24
  2.5294836723543684E-02 a      1250     0    50     1    25
 -8.5210797975308519E-02 a      1251     0    51     1     1
  8.3045357777851408E-02 a      1252     0    51     1     2
  8.7763977642375174E-02 a      1253     0    51     1     3
  9.1488738563385935E-02 a      1254     0    51     1     4
  1.1521777013977813E-01 a      1255     0    51     1     5
 -2.4746863481079717E-01 a      1256     0    51     1     6
  1.1315458559327997E-01 a      1257     0    51     1     7
  3.8192155390687987E-01 a      1258     0    51     1     8
  1.6693835694266052E-01 a      1259     0    51     1     9
  4.4627050761223773E-02 a      1260     0    51     1    10
  2.9258920911391584E-01 a      1261     0    51     1    11
 -1.4894886106508007E-01 a      1262     0    51     1    12
 -9.9492868710966673E-02 a      1263     0    51     1    13
  2.6110061986430011E-01 a      1264     0    51     1    14
 -1.3409227927806380E-01 a      1265     0    51     1    15
 -3.8325642155302780E-01 a      1266     0    51     1    16
 -2.2526489811484779E-01 a      1267     0    51     1    17
 -9.0146391750774019E-02 a      1268     0    51     1    18
 -3.0527886297269752E-01 a      1269     0    51     1    19
  2.3774016252915409E-02 a      1270     0    51     1    20
 -9.4197137963090469E-02 a      1271     0    51     1    21
 -1.2644151651386408E-02 a      1272     0    51     1    22
  3.6333831540113737E-01 a      1273     0    51     1    23
  3.4046190592764153E-01 a      1274     0    51     1    24
  6.5435269965374132E-02 a      1275     0    51     1    25
 -5.0740203254994419E-02 a      1276     0    52     1     1
  1.8523232549448962E-01 a      1277     0    52     1     2
 -4.0109103134749630E-01 a      1278     0    52     1     3
  8.0078246204483672E-02 a      1279     0    52     1     4
 -3.6303790641397649E-01 a      1280     0    52     1     5
  3.2369398660030668E-01 a      1281     0    52     1     6
 -2.0761425329631597E-01 a      1282     0    52     1     7
  1.9108472319204653E-01 a      1283     0    52     1     8
  1.6548649161386417E+00 a      1284     0    52     1     9
 -3.8892303904556530E-01 a      1285     0    52     1    10
 -1.0534190507398136E+00 a      1286     0    52     1    11
  7.6340016988069070E-01 a      1287     0    52     1    12
  2.5624702209940209E-01 a      1288     0    52     1    13
  1.0567107518237937E+00 a      1289     0    52     1    14
 -2.0407486641300696E-01 a      1290     0    52     1    15
  1.0577664688172175E+00 a      1291     0    52     1    16
  1.2141412235951476E-01 a      1292     0    52     1    17
 -6.4313989112821690E-01 a      1293     0    52     1    18
  6.3634353047646064E-01 a      1294     0    52     1    19
  3.3683537287332362E-03 a      1295     0    52     1    20
 -6.4106187701320316E-02 a      1296     0    52     1    21
  8.7970431565225105E-01 a      1297     0    52     1    22
 -8.7708875469528647E-01 a      1298     0    52     1    23
 -8.9561704214214333E-01 a      1299     0    52     1    24
  1.1468233061359637E-01 a      1300     0    52     1    25
 -2.6126722609517598E-02 a      1301     0    53     1     1
  7.1037234349560583E-03 a      1302     0    53     1     2
  1.4093062143770829E-02 a      1303     0    53     1     3
  1.1465088208563301E-01 a      1304     0    53     1     4
 -3.4213912756401170E-02 a      1305     0    53     1     5
  1.2694622770349309E-01 a      1306     0    53     1     6
 -1.8115645399836366E-01 a      1307     0    53     1     7
  1.7664199200000011E-01 a      1308     0    53     1     8
 -7.8504795485357964E-02 a      1309     0    53     1     9
  4.5617088955005748E-02 a      1310     0    53     1    10
  1.2876441967814636E-01 a      1311     0    53     1    11
 -6.7513445039342937E-02 a      1312     0    53     1    12
  2.1857201184931080E-01 a      1313     0    53     1    13
  3.0161962732487217E-02 a      1314     0    53     1    14
 -2.1618975914803665E-02 a      1315     0    53     1    15
 -8.4981201837179818E-02 a      1316     0    53     1    16
  2.2448353448172934E-01 a      1317     0    53     1    17
 -7.8159407542645332E-03 a      1318     0    53     1    18
 -9.1105250614543054E-02 a      1319     0    53     1    19
 -6.7729484230265118E-04 a      1320     0    53     1    20
 -2.4626570491427559E-02 a      1321     0    53     1    21
  2.0652923718092839E-02 a      1322     0    53     1    22
  1.6189884259928677E-01 a      1323     0    53     1    23
 -4.8370589026823910E-02 a      1324     0    53     1    24
 -9.3173142422912948E-03 a      1325     0    53     1    25
 -9.4665508212613839E-02 a      1326     0    54     1     1
  1.2392953715378638E-01 a      1327     0    54     1     2
 -9.3924000953327803E-03 a      1328     0    54     1     3
  1.7123103462182061E-02 a      1329     0    54     1     4
 -5.5517162661483384E-02 a      1330     0    54     1     5
  1.1991166991639954E-01 a      1331     0    54     1     6
 -1.8859123869511096E-01 a      1332     0    54     1     7
 -3.2591857847755851E-01 a      1333     0    54     1     8
  4.8631079764187145E-02 a      1334     0    54     1     9
  7.1875582323573883E-02 a      1335     0    54     1    10
  6.7917059732733098E-02 a      1336     0    54     1    11
  2.0535964377153229E-02 a      1337     0    54     1    12
 -8.1495778288789275E-02 a      1338     0    54     1    13
  1.5872156396158443E-01 a      1339     0    54     1    14
 -1.0546161969382183E-01 a      1340     0    54     1    15
 -6.1906938510797056E-03 a      1341     0    54     1    16
 -1.1144311263233531E-01 a      1342     0    54     1    17
 -8.7093650550946117E-02 a      1343     0    54     1    18
 -5.8568839740507708E-02 a      1344     0    54     1    19
  1.0574685356552199E-01 a      1345     0    54     1    20
  9.4770920857109378E-02 a      1346     0    54     1    21
  8.1664981400637340E-02 a      1347     0    54     1    22
 -1.8993976707619650E-01 a      1348     0    54     1    23
  2.5453914986257233E-02 a      1349     0    54     1    24
  1.5403995135400503E-01 a      1350     0    54     1    25
 -2.7922627681427120E-01 a      1351     0    55     1     1
 -3.7025588779195276E-02 a      1352     0    55     1     2
 -1.3861258909117788E-03 a      1353     0    55     1     3
 -2.5825614356242005E-02 a      1354     0    55     1     4
  2.8356878929604651E-01 a      1355     0    55     1     5
 -3.7337122256383942E-01 a      1356     0    55     1     6
  2.3173471410669753E-02 a      1357     0    55     1     7
  3.5007433276842542E-01 a      1358     0    55     1     8
 -1.8051540121856935E-01 a      1359     0    55     1     9
  1.2776596725820338E-01 a      1360     0    55     1    10
  5.6616568908643339E-01 a      1361     0    55     1    11
 -2.9411641165599933E-01 a      1362     0    55     1    12
 -3.2123835807819623E-01 a      1363     0    55     1    13
 -3.6040374681183485E-01 a      1364     0    55     1    14
  3.2037157780750697E-01 a      1365     0    55     1    15
 -1.9791873248993358E-01 a      1366     0    55     1    16
  1.1247631131740558E-01 a      1367     0    55     1    17
 -2.9194616401173150E-02 a      1368     0    55     1    18
 -3.0295766474012964E-01 a      1369     0    55     1    19
 -1.1425304577614366E-01 a      1370     0    55     1    20
 -5.6710785240751005E-01 a      1371     0    55     1    21
 -3.8384199812622727E-01 a      1372     0    55     1    22
  3.0688045838214956E-01 a      1373     0    55     1    23
  3.2933874291101589E-01 a      1374     0    55     1    24
 -2.2786501673587825E-02 a      1375     0    55     1    25
  1.2455412673138665E-01 a      1376     0    56     1     1
 -5.3154591554772090E-02 a      1377     0    56     1     2
 -2.0935864466995646E-01 a      1378     0    56     1     3
 -2.2406158213236535E-02 a      1379     0    56     1     4
  1.6724111600601291E-02 a      1380     0    56     1     5
 -2.3448118333975637E-01 a      1381     0    56     1     6
  9.8766788692891724E-02 a      1382     0    56     1     7
 -2.9451492896941872E-01 a      1383     0    56     1     8
  6.3064382966719198E-03 a      1384     0    56     1     9
 -6.1651499899981060E-02 a      1385     0    56     1    10
  3.3709430511388488E-01 a      1386     0    56     1    11
  8.4050698356892578E-02 a      1387     0    56     1    12
 -1.8087470206132233E-01 a      1388     0    56     1    13
  4.0211863526654928E-01 a      1389     0    56     1    14
 -7.0195475826653156E-02 a      1390     0    56     1    15
  1.5900263904870021E-01 a      1391     0    56     1    16
  4.7188990357094736E-02 a      1392     0    56     1    17
  1.7664065003729176E-01 a      1393     0    56     1    18
  8.6275514674078693E-02 a      1394     0    56     1    19
 -1.4318441718741384E-01 a      1395     0    56     1    20
  8.7634848082055350E-02 a      1396     0    56     1    21
 -8.4426448571565338E-02 a      1397     0    56     1    22
 -1.9399004480483975E-01 a      1398     0    56     1    23
  5.2989970505423437E-02 a      1399     0    56     1    24
 -6.2158859279297721E-02 a      1400     0    56     1    25
  5.9416172913746443E-02 a      1401     0    57     1     1
 -6.2581498200644473E-02 a      1402     0    57     1     2
  2.3180700821539221E-01 a      1403     0    57     1     3
 -6.3793823631343630E-02 a      1404     0    57     1     4
  3.4735129411569851E-02 a      1405     0    57     1     5
 -8.4949842773626064E-02 a      1406     0    57     1     6
 -9.3986272841439913E-02 a      1407     0    57     1     7
  1.8842733474234827E-01 a      1408     0    57     1     8
  4.9247358937578853E-02 a      1409     0    57     1     9
 -9.5301865756923631E-03 a      1410     0    57     1    10
  1.7382921715638172E-01 a      1411     0    57     1    11
 -8.1134293185668574E-02 a      1412     0    57     1    12
 -8.8357384611808115E-03 a      1413     0    57     1    13
  8.0239455685091852E-03 a      1414     0    57     1    14
  1.9698033906424919E-01 a      1415     0    57     1    15
 -1.4940903375501949E-02 a      1416     0    57     1    16
 -2.7273573329144825E-02 a      1417     0    57     1    17
  1.2319671557658524E-01 a      1418     0    57     1    18
 -5.0766833647282510E-02 a      1419     0    57     1    19
 -8.9034663775139175E-02 a      1420     0    57     1    20
 -7.4876816918861583E-02 a      1421     0    57     1    21
 -6.2330926831325809E-02 a      1422     0    57     1    22
  2.6084818555685490E-02 a      1423     0    57     1    23
  8.7770368374788132E-02 a      1424     0    57     1    24
  9.9067818077923121E-03 a      1425     0    57     1    25
 -4.9616571838219430E-02 a      1426     0    58     1     1
 -1.0156720246375821E-01 a      1427     0    58     1     2
  1.2020229587944115E-01 a      1428     0    58     1     3
  6.2669055613576732E-02 a      1429     0    58     1     4
  1.5729775314429352E-02 a      1430     0    58     1     5
  8.4524425075068965E-02 a      1431     0    58     1     6
 -1.3640458597055150E-02 a      1432     0    58     1     7
 -1.0492356410467969E-01 a      1433     0    58     1     8
  4.6040877975280732E-02 a      1434     0    58     1     9
  8.2775270724443531E-02 a      1435     0    58     1    10
 -5.1162452607564371E-02 a      1436     0    58     1    11
 -9.8171664781429458E-03 a      1437     0    58     1    12
  1.4768091010894405E-01 a      1438     0    58     1    13
  7.8200432464458208E-02 a      1439     0    58     1    14
  1.9848042552894737E-01 a      1440     0    58     1    15
 -5.3965377369767246E-02 a      1441     0    58     1    16
  2.1416879117877480E-01 a      1442     0    58     1    17
  5.9929008282831223E-02 a      1443     0    58     1    18
  1.0229435674358620E-01 a      1444     0    58     1    19
 -2.9568395035581209E-02 a      1445     0    58     1    20
 -1.0784870168528510E-01 a      1446     0    58     1    21
  3.7257398078275772E-02 a      1447     0    58     1    22
  1.0305459008559643E-01 a      1448     0    58     1    23
 -1.5313813723564986E-04 a      1449     0    58     1    24
 -1.8302524336778006E-03 a      1450     0    58     1    25
 -1.0527524115999047E-01 a      1451     0    59     1     1
 -1.3274851767056886E-02 a      1452     0    59     1     2
  4.8045887286193703E-02 a      1453     0    59     1     3
 -1.1354572546623049E-02 a      1454     0    59     1     4
  1.5515494189109444E-01 a      1455     0    59     1     5
  5.1265453068373337E-02 a      1456     0    59     1     6
 -7.7852115460556766E-03 a      1457     0    59     1     7
 -2.3381632842913644E-01 a      1458     0    59     1     8
  1.4518632790311350E-01 a      1459     0    59     1     9
 -3.4655350656801080E-02 a      1460     0    59     1    10
  2.1525383191222786E-01 a      1461     0    59     1    11
 -5.9735463057799046E-02 a      1462     0    59     1    12
 -3.0463032180779712E-02 a      1463     0    59     1    13
 -7.6311256434984626E-02 a      1464     0    59     1    14
  1.5906412439660331E-01 a      1465     0    59     1    15
  3.3334534773223645E-01 a      1466     0    59     1    16
 -1.0526912146793463E-01 a      1467     0    59     1    17
  4.5715149303368827E-02 a      1468     0    59     1    18
 -2.3202333503892388E-02 a      1469     0    59     1    19
 -1.1422726322929612E-01 a      1470     0    59     1    20
 -7.5246548539901550E-02 a      1471     0    59     1    21
 -8.9822606158607085E-03 a      1472     0    59     1    22
 -9.8802642418832534E-02 a      1473     0    59     1    23
  1.4500981490326628E-01 a      1474     0    59     1    24
  8.3701901305926349E-02 a      1475     0    59     1    25
 -1.7022384017700942E-01 a      1476     0    60     1     1
  1.0732445352868273E-02 a      1477     0    60     1     2
 -7.1582812840554511E-02 a      1478     0    60     1     3
 -1.1466393046422525E-01 a      1479     0    60     1     4
 -1.7653261901284065E-02 a      1480     0    60     1     5
  1.6977088029331431E-02 a      1481     0    60     1     6
 -2.2327699883173865E-01 a      1482     0    60     1     7
  5.1901380477774692E-02 a      1483     0    60     1     8
 -1.8745016175714677E-01 a      1484     0    60     1     9
 -1.0097079565062014E-01 a      1485     0    60     1    10
  9.5411231363066298E-02 a      1486     0    60     1    11
  2.7295278685408519E-03 a      1487     0    60     1    12
 -2.3937444858991999E-03 a      1488     0    60     1    13
 -1.3894438298717138E-01 a      1489     0    60     1    14
 -7.0384276272554711E-02 a      1490     0    60     1    15
 -8.8081618528319770E-03 a      1491     0    60     1    16
 -2.7868972016543141E-02 a      1492     0    60     1    17
  1.1345127579591184E-02 a      1493     0    60     1    18
 -4.2496148923295070E-02 a      1494     0    60     1    19
 -7.9588561345411993E-02 a      1495     0    60     1    20
  1.0530378016197944E-01 a      1496     0    60     1    21
 -5.3221492563198785E-03 a      1497     0    60     1    22
  3.2765106237291813E-02 a      1498     0    60     1    23
  4.6083206309492447E-02 a      1499     0    60     1    24
  1.0403621430190248E-01 a      1500     0    60     1    25
  3.2089229631105831E-02 a      1501     0    61     1     1
 -8.9193236401233361E-03 a      1502     0    61     1     2
  8.8563697117927817E-02 a      1503     0    61     1     3
 -6.4340597697244511E-02 a      1504     0    61     1     4
  1.6880753677033757E-02 a      1505     0    61     1     5
  1.7308488242483421E-04 a      1506     0    61     1     6
  7.5315422048385844E-02 a      1507     0    61     1     7
  1.7216474441043808E-01 a      1508     0    61     1     8
  8.6270158592386820E-02 a      1509     0    61     1     9
 -1.3241484836131853E-01 a      1510     0    61     1    10
 -1.2599219743549570E-01 a      1511     0    61     1    11
 -1.0891150478590807E-03 a      1512     0    61     1    12
  1.6961133624229707E-01 a      1513     0    61     1    13
 -2.1720304799872353E-01 a      1514     0    61     1    14
 -2.5590056305377498E-02 a      1515     0    61     1    15
 -1.8571544890554167E-02 a      1516     0    61     1    16
  6.5788884901166897E-02 a      1517     0    61     1    17
 -1.2032542217457410E-02 a      1518     0    61     1    18
  6.7513199332831890E-03 a      1519     0    61     1    19
  3.7392021092339196E-02 a      1520     0    61     1    20
  1.2298023659115433E-01 a      1521     0    61     1    21
  1.1300272174461778E-01 a      1522     0    61     1    22
  1.7705066645690642E-02 a      1523     0    61     1    23
 -3.4773793809320941E-03 a      1524     0    61     1    24
 -6.9265022912678262E-02 a      1525     0    61     1    25
 -5.9544153234719246E-02 a      1526     0    62     1     1
 -6.6958029026061893E-03 a      1527     0    62     1     2
 -1.4128063675178176E-01 a      1528     0    62     1     3
  1.0828478689112039E-01 a      1529     0    62     1     4
 -3.5521958028294248E-02 a      1530     0    62     1     5
 -6.0445263195597447E-02 a      1531     0    62     1     6
  3.9412420944999582E-02 a      1532     0    62     1     7
 -1.0239300979480349E-01 a      1533     0    62     1     8
  1.5274275698904155E-01 a      1534     0    62     1     9
  2.9114762879235756E-02 a      1535     0    62     1    10
  2.1573685044066887E-01 a      1536     0    62     1    11
  6.0691701133661347E-02 a      1537     0    62     1    12
 -9.9087245623596901E-02 a      1538     0    62     1    13
  4.2134439979470245E-01 a      1539     0    62     1    14
 -2.9557300071299925E-01 a      1540     0    62     1    15
  2.2431249646502230E-01 a      1541     0    62     1    16
 -8.9164542377622655E-02 a      1542     0    62     1    17
 -1.4073284312385420E-01 a      1543     0    62     1    18
 -2.0619145562167214E-02 a      1544     0    62     1    19
  2.0912630990913622E-01 a      1545     0    62     1    20
 -4.9677196873965412E-01 a      1546     0    62     1    21
 -2.2010289124149257E-01 a      1547     0    62     1    22
  1.5389040787842648E-02 a      1548     0    62     1    23
 -3.6083190871667732E-02 a      1549     0    62     1    24
  1.4580211082650318E-01 a      1550     0    62     1    25
  5.0762423899460798E-02 a      1551     0    63     1     1
  1.8126178537571890E-02 a      1552     0    63     1     2
  2.0225097850309154E-01 a      1553     0    63     1     3
 -6.0712159775250865E-02 a      1554     0    63     1     4
 -4.4775831602435326E-02 a      1555     0    63     1     5
  8.0895028852291023E-02 a      1556     0    63     1     6
  1.3348233990074873E-01 a      1557     0    63     1     7
  3.5164802363147551E-01 a      1558     0    63     1     8
  6.1874736361925885E-02 a      1559     0    63     1     9
 -1.0639526908160428E-01 a      1560     0    63     1    10
 -1.7660569190691078E-01 a      1561     0    63     1    11
  7.3980678580393130E-02 a      1562     0    63     1    12
  1.1875775465145791E-01 a      1563     0    63     1    13
 -3.6191183589506980E-02 a      1564     0    63     1    14
 -8.9174222271171527E-02 a      1565     0    63     1    15
  1.5880693740859475E-01 a      1566     0    63     1    16
  5.5809302421053759E-02 a      1567     0    63     1    17
 -1.5382095638270593E-02 a      1568     0    63     1    18
 -2.8045694322489860E-03 a      1569     0    63     1    19
 -1.3166486157828927E-01 a      1570     0    63     1    20
  3.0722859373871987E-02 a      1571     0    63     1    21
  9.2062175400752275E-02 a      1572     0    63     1    22
 -1.4951128567771187E-02 a      1573     0    63     1    23
 -6.4567005282962400E-02 a      1574     0    63     1    24
 -1.0414702780671362E-01 a      1575     0    63     1    25
  3.0119450259655626E-02 a      1576     0    64     1     1
 -1.9126305914961321E-05 a      1577     0    64     1     2
 -2.5448278335258104E-02 a      1578     0    64     1     3
 -1.0323130766950375E-02 a      1579     0    64     1     4
 -2.3092024009739046E-02 a      1580     0    64     1     5
  1.1012203811219953E-01 a      1581     0    64     1     6
  3.0857413356524085E-02 a      1582     0    64     1     7
  3.9148763866725930E-02 a      1583     0    64     1     8
  5.3953619083382559E-02 a      1584     0    64     1     9
 -4.8038869538937864E-02 a      1585     0    64     1    10
 -7.0332064237352927E-04 a      1586     0    64     1    11
  3.9304552351607860E-02 a      1587     0    64     1    12
  7.8704017955628064E-02 a      1588     0    64     1    13
 -8.7327025962677648E-02 a      1589     0    64     1    14
 -7.2457662966320807E-02 a      1590     0    64     1    15
  1.0173348338092318E-01 a      1591     0    64     1    16
 -1.5969480378372078E-01 a      1592     0    64     1    17
 -6.3703462206319596E-03 a      1593     0    64     1    18
  3.8594992698117218E-02 a      1594     0    64     1    19
  6.5405336369202035E-03 a      1595     0    64     1    20
  4.7325757807044934E-02 a      1596     0    64     1    21
  1.2144414151488777E-02 a      1597     0    64     1    22
 -4.3795193966553500E-02 a      1598     0    64     1    23
 -3.0589541688045729E-02 a      1599     0    64     1    24
  3.1846951469065084E-02 a      1600     0    64     1    25
 -6.2280121665325136E-02 a      1601     0    65     1     1
  2.1799841829238592E-01 a      1602     0    65     1     2
 -4.6226986090084987E-01 a      1603     0    65     1     3
 -9.0899665638323884E-02 a      1604     0    65     1     4
  9.6244088023949625E-02 a      1605     0    65     1     5
 -8.9418656600924490E-02 a      1606     0    65     1     6
  7.7201103488027164E-03 a      1607     0    65     1     7
  1.5727649658930998E-01 a      1608     0    65     1     8
  8.9954109851270558E-02 a      1609     0    65     1     9
 -1.8060358979503355E-01 a      1610     0    65     1    10
 -9.7697674079700050E-02 a      1611     0    65     1    11
 -1.8673264051811037E-02 a      1612     0    65     1    12
 -7.2615123044025370E-02 a      1613     0    65     1    13
 -7.7220379739517886E-01 a      1614     0    65     1    14
  1.4495814765277304E-01 a      1615     0    65     1    15
 -1.2633175340840921E-01 a      1616     0    65     1    16
  3.9972098166989274E-02 a      1617     0    65     1    17
 -1.0434816595059512E-01 a      1618     0    65     1    18
 -3.2839319508118969E-01 a      1619     0    65     1    19
 -2.4364194260837002E-01 a      1620     0    65     1    20
  2.1659531904374615E-01 a      1621     0    65     1    21
  1.6912063510470263E-01 a      1622     0    65     1    22
 -1.9990480992143175E-01 a      1623     0    65     1    23
