################################################################################
# Neural network connection values (weights and biases).
################################################################################
# Col  Name       Description
################################################################################
# 1    connection Neural network connection value.
# 2    t          Connection type (a = weight, b = bias).
# 3    index      Index enumerating weights.
# 4    l_s        Starting point layer (end point layer for biases).
# 5    n_s        Starting point neuron in starting layer (end point neuron for biases).
# 6    l_e        End point layer.
# 7    n_e        End point neuron in end layer.
################################################################################
#                      1 2         3     4     5     6     7
#             connection t     index   l_s   n_s   l_e   n_e
############################################################
  2.0167669399458676E-01 a         1     0     1     1     1
  2.7676016954751798E-04 a         2     0     1     1     2
  6.3452861437883951E-02 a         3     0     1     1     3
  2.1786196174709289E-02 a         4     0     1     1     4
 -1.1848333344972116E-01 a         5     0     1     1     5
 -1.1087514436289259E-01 a         6     0     1     1     6
 -3.7957661004861400E-02 a         7     0     1     1     7
 -1.0292990234270641E-01 a         8     0     1     1     8
 -1.2790768905345715E-01 a         9     0     1     1     9
 -6.8636443758566271E-02 a        10     0     1     1    10
  8.3859506590010388E-02 a        11     0     1     1    11
 -2.2571802965666465E-01 a        12     0     1     1    12
  8.1629863577150089E-02 a        13     0     1     1    13
 -7.3204170392863616E-02 a        14     0     1     1    14
 -1.1691706223664728E-03 a        15     0     1     1    15
  1.4272308952549376E-01 a        16     0     1     1    16
  4.9327780752713241E-02 a        17     0     1     1    17
 -1.1596479668513000E-01 a        18     0     1     1    18
 -7.5011188280552865E-02 a        19     0     1     1    19
 -4.4046592926152159E-03 a        20     0     1     1    20
  9.7693561875039817E-02 a        21     0     1     1    21
 -4.8454791246247200E-03 a        22     0     1     1    22
 -4.9610321460014484E-02 a        23     0     1     1    23
  8.4224077908308603E-02 a        24     0     1     1    24
 -9.1190354941426480E-02 a        25     0     1     1    25
 -2.2162950681645233E-01 a        26     0     2     1     1
 -3.5043915662215139E-02 a        27     0     2     1     2
  9.4510629691908474E-02 a        28     0     2     1     3
  1.3612427615911721E-01 a        29     0     2     1     4
 -1.5930706630829278E-01 a        30     0     2     1     5
 -2.3085718372981159E-01 a        31     0     2     1     6
  5.4110426082187149E-02 a        32     0     2     1     7
 -2.2122084435453339E-03 a        33     0     2     1     8
 -1.2571582655328140E-01 a        34     0     2     1     9
  1.6192340531690977E-01 a        35     0     2     1    10
  3.9935927843529513E-02 a        36     0     2     1    11
  9.8298911659447652E-02 a        37     0     2     1    12
 -1.6305723506840594E-01 a        38     0     2     1    13
  1.8609466192469623E-01 a        39     0     2     1    14
 -1.2440795587763331E-01 a        40     0     2     1    15
 -1.2400877173211812E-01 a        41     0     2     1    16
  5.8222292623909766E-02 a        42     0     2     1    17
  8.9001349678718353E-02 a        43     0     2     1    18
  1.5729781892392405E-01 a        44     0     2     1    19
 -2.0569850319585717E-01 a        45     0     2     1    20
  1.8363390716720449E-01 a        46     0     2     1    21
 -5.0675874467272515E-02 a        47     0     2     1    22
  4.5674888377740946E-02 a        48     0     2     1    23
 -5.2904126065030799E-03 a        49     0     2     1    24
 -4.4772437547909848E-02 a        50     0     2     1    25
  1.6588612750278617E-01 a        51     0     3     1     1
 -2.3748505140360629E-01 a        52     0     3     1     2
  1.0928287194798958E-01 a        53     0     3     1     3
  2.2143113207156430E-02 a        54     0     3     1     4
  7.6251859599541325E-02 a        55     0     3     1     5
  1.6385807779979920E-02 a        56     0     3     1     6
 -4.7605055869939669E-02 a        57     0     3     1     7
 -4.0043025826914949E-02 a        58     0     3     1     8
  1.3176901332146099E-01 a        59     0     3     1     9
  4.4419949643324901E-02 a        60     0     3     1    10
  3.3869932258842043E-02 a        61     0     3     1    11
 -2.1197666751909841E-01 a        62     0     3     1    12
  1.3659588056701227E-01 a        63     0     3     1    13
  7.9963681053121551E-03 a        64     0     3     1    14
  4.7445202420259520E-02 a        65     0     3     1    15
 -5.5931287502619775E-02 a        66     0     3     1    16
 -4.8688122148921417E-02 a        67     0     3     1    17
  6.0673305786422417E-02 a        68     0     3     1    18
 -5.0489883964873229E-02 a        69     0     3     1    19
  1.0619683530507164E-01 a        70     0     3     1    20
  2.1728005473690370E-02 a        71     0     3     1    21
 -2.1117128086309800E-01 a        72     0     3     1    22
 -1.7535099266840146E-02 a        73     0     3     1    23
  5.0687322129790102E-02 a        74     0     3     1    24
  7.2290811316440565E-02 a        75     0     3     1    25
 -1.0383631475724640E-01 a        76     0     4     1     1
  1.4840103571738453E-01 a        77     0     4     1     2
 -4.7448688391994856E-02 a        78     0     4     1     3
  1.2493012507093390E-01 a        79     0     4     1     4
 -2.3102276686655815E-01 a        80     0     4     1     5
 -2.0263046711223301E-01 a        81     0     4     1     6
 -2.7226632905648307E-01 a        82     0     4     1     7
 -3.9083889608227819E-02 a        83     0     4     1     8
  1.5469498576344815E-01 a        84     0     4     1     9
 -1.6209368973377244E-01 a        85     0     4     1    10
 -2.0117854724669995E-01 a        86     0     4     1    11
  3.3576758238862259E-01 a        87     0     4     1    12
 -1.0115529309756331E-01 a        88     0     4     1    13
 -1.4670175840063795E-01 a        89     0     4     1    14
 -3.6016680284978779E-02 a        90     0     4     1    15
 -1.4006043928353748E-01 a        91     0     4     1    16
 -9.2941536760333510E-02 a        92     0     4     1    17
 -5.2195828719742411E-02 a        93     0     4     1    18
 -1.5680191371300153E-01 a        94     0     4     1    19
  2.1639018433400849E-02 a        95     0     4     1    20
  1.1535370885385356E-01 a        96     0     4     1    21
 -6.0219985359790895E-02 a        97     0     4     1    22
 -1.3807109399653078E-01 a        98     0     4     1    23
  4.3972131680762458E-02 a        99     0     4     1    24
  7.7184894314605386E-03 a       100     0     4     1    25
 -1.4943352091764717E-01 a       101     0     5     1     1
 -2.4184223238635432E-02 a       102     0     5     1     2
  3.5072439126320597E-02 a       103     0     5     1     3
  1.2901529195408720E-01 a       104     0     5     1     4
 -1.5249294121370771E-01 a       105     0     5     1     5
 -1.4182333052990589E-01 a       106     0     5     1     6
 -4.4844066437049870E-02 a       107     0     5     1     7
 -1.7360438249166679E-01 a       108     0     5     1     8
 -7.7874113766290734E-02 a       109     0     5     1     9
 -1.5742865517466853E-01 a       110     0     5     1    10
 -1.9407671083622693E-02 a       111     0     5     1    11
  8.8093923787098974E-02 a       112     0     5     1    12
  1.2760958332317296E-01 a       113     0     5     1    13
  2.0002171003563970E-01 a       114     0     5     1    14
 -1.1024358946650974E-01 a       115     0     5     1    15
  1.3506340328615532E-01 a       116     0     5     1    16
 -7.2042134174211056E-02 a       117     0     5     1    17
 -1.1838779894532014E-01 a       118     0     5     1    18
  1.2320293583060202E-01 a       119     0     5     1    19
  2.0104682013980088E-01 a       120     0     5     1    20
  1.4669888193889202E-01 a       121     0     5     1    21
 -5.1803848039027683E-02 a       122     0     5     1    22
 -1.5823272714327294E-01 a       123     0     5     1    23
 -3.1959002795561173E-02 a       124     0     5     1    24
  5.9441804184659865E-02 a       125     0     5     1    25
  1.6152104694343469E-01 a       126     0     6     1     1
 -1.9148273458305404E-01 a       127     0     6     1     2
 -2.2723396480485417E-01 a       128     0     6     1     3
 -6.6842476953276511E-02 a       129     0     6     1     4
  1.6133306216186149E-03 a       130     0     6     1     5
  9.5635077933300783E-02 a       131     0     6     1     6
  2.2331403191811425E-01 a       132     0     6     1     7
  1.0991941766557783E-01 a       133     0     6     1     8
  1.7487430756130296E-02 a       134     0     6     1     9
  2.5283526879559248E-01 a       135     0     6     1    10
 -1.0940320748492843E-01 a       136     0     6     1    11
 -2.3575467804186526E-01 a       137     0     6     1    12
  1.2234422286682116E-01 a       138     0     6     1    13
 -2.0260242163546022E-02 a       139     0     6     1    14
  8.5307896238670675E-02 a       140     0     6     1    15
  6.1996877732646206E-02 a       141     0     6     1    16
 -5.3424948384223819E-02 a       142     0     6     1    17
 -7.0081141001478608E-02 a       143     0     6     1    18
  3.2940409527056243E-02 a       144     0     6     1    19
  3.4271993254990182E-02 a       145     0     6     1    20
 -7.2424300665760027E-02 a       146     0     6     1    21
  5.7585552607848298E-02 a       147     0     6     1    22
 -1.6328869861630793E-01 a       148     0     6     1    23
  1.1645522701994855E-01 a       149     0     6     1    24
  7.8642137172712623E-02 a       150     0     6     1    25
 -1.6757919649145284E-01 a       151     0     7     1     1
  2.7181684324814914E-01 a       152     0     7     1     2
 -2.5897630077391921E-02 a       153     0     7     1     3
 -2.3158974528052811E-01 a       154     0     7     1     4
 -1.4427084047782643E-01 a       155     0     7     1     5
  4.6464779340498495E-02 a       156     0     7     1     6
 -2.4048086719353379E-02 a       157     0     7     1     7
  1.7951178160955882E-02 a       158     0     7     1     8
 -2.1854139110680992E-01 a       159     0     7     1     9
 -2.1096367827154244E-01 a       160     0     7     1    10
 -1.4587206341377060E-02 a       161     0     7     1    11
  2.0970961352624282E-01 a       162     0     7     1    12
 -1.2161056518922952E-01 a       163     0     7     1    13
 -1.5482745632794573E-01 a       164     0     7     1    14
  4.8461668214297232E-02 a       165     0     7     1    15
  7.6198088452469823E-02 a       166     0     7     1    16
  9.0106791294082070E-02 a       167     0     7     1    17
  4.7076826902264154E-02 a       168     0     7     1    18
  1.9305791140336641E-02 a       169     0     7     1    19
  8.3234324272087531E-02 a       170     0     7     1    20
 -3.5570287115875551E-02 a       171     0     7     1    21
  3.5158015443341961E-01 a       172     0     7     1    22
  6.7340617416950911E-03 a       173     0     7     1    23
 -3.4676897838264560E-02 a       174     0     7     1    24
 -2.1605873958784466E-03 a       175     0     7     1    25
 -1.6796793371244498E-01 a       176     0     8     1     1
 -1.6159306870278026E-01 a       177     0     8     1     2
  2.5535534872083338E-02 a       178     0     8     1     3
  1.2553091895468368E-02 a       179     0     8     1     4
  1.9120127903033790E-01 a       180     0     8     1     5
 -8.6853030116391915E-03 a       181     0     8     1     6
  2.1964858762691170E-01 a       182     0     8     1     7
  1.4352701868763157E-01 a       183     0     8     1     8
  3.3951478732207066E-02 a       184     0     8     1     9
  9.7384422487364203E-02 a       185     0     8     1    10
  1.4655927180286094E-01 a       186     0     8     1    11
 -4.2837370772703970E-02 a       187     0     8     1    12
  6.0476468188218238E-02 a       188     0     8     1    13
  1.8454448927975720E-01 a       189     0     8     1    14
 -1.5674284802916209E-02 a       190     0     8     1    15
 -5.5221806944970017E-02 a       191     0     8     1    16
  6.8560459519482794E-02 a       192     0     8     1    17
 -1.0490336340509424E-01 a       193     0     8     1    18
  1.8199639133397963E-01 a       194     0     8     1    19
  1.4235362543892308E-01 a       195     0     8     1    20
 -2.7036350166619726E-02 a       196     0     8     1    21
  1.4174325904963420E-01 a       197     0     8     1    22
 -7.5783612991116633E-02 a       198     0     8     1    23
  1.6573431491812776E-01 a       199     0     8     1    24
 -1.2742946286150691E-01 a       200     0     8     1    25
 -1.1267188351347159E-01 a       201     0     9     1     1
  6.2413940323836813E-02 a       202     0     9     1     2
  2.6744350414240547E-01 a       203     0     9     1     3
 -2.1956784801925977E-01 a       204     0     9     1     4
  1.3150776529621253E-01 a       205     0     9     1     5
  3.2086697047613182E-02 a       206     0     9     1     6
 -1.0771715423653162E-01 a       207     0     9     1     7
  2.8760877130414565E-02 a       208     0     9     1     8
 -3.5613288325112430E-01 a       209     0     9     1     9
  2.5763147941220493E-01 a       210     0     9     1    10
 -1.7395737120803362E-01 a       211     0     9     1    11
  3.2990331835387653E-02 a       212     0     9     1    12
 -1.2066267484723360E-01 a       213     0     9     1    13
 -3.2921090025283789E-01 a       214     0     9     1    14
 -3.1936499139253061E-01 a       215     0     9     1    15
  1.9036824219253429E-01 a       216     0     9     1    16
 -1.9044569633537575E-01 a       217     0     9     1    17
 -1.9895973333301978E-01 a       218     0     9     1    18
 -5.7161521484264066E-02 a       219     0     9     1    19
  1.5820949205128737E-01 a       220     0     9     1    20
  2.6722787383436197E-02 a       221     0     9     1    21
  2.4648268378178262E-01 a       222     0     9     1    22
 -3.4708183469865206E-01 a       223     0     9     1    23
  1.3667952634828259E-01 a       224     0     9     1    24
 -7.0796454011953461E-02 a       225     0     9     1    25
  1.6533236855980066E-01 a       226     0    10     1     1
  9.7302447181713603E-02 a       227     0    10     1     2
  1.1828734958675320E-01 a       228     0    10     1     3
  1.3667328419890909E-01 a       229     0    10     1     4
 -1.0780608158349429E-01 a       230     0    10     1     5
  1.0139145904707688E-02 a       231     0    10     1     6
  3.1646285839478309E-02 a       232     0    10     1     7
  9.5580814001121103E-02 a       233     0    10     1     8
  1.6069217354393264E-01 a       234     0    10     1     9
 -1.8172615687292915E-01 a       235     0    10     1    10
  5.3335745177259745E-02 a       236     0    10     1    11
  1.3079031027171079E-01 a       237     0    10     1    12
 -1.3045435208910688E-01 a       238     0    10     1    13
 -1.6729756714438476E-01 a       239     0    10     1    14
 -4.9773763026912970E-02 a       240     0    10     1    15
  7.1175442148198459E-02 a       241     0    10     1    16
 -9.1732465923064672E-03 a       242     0    10     1    17
  1.0293273746081927E-01 a       243     0    10     1    18
  3.2536203856729611E-02 a       244     0    10     1    19
 -8.0490440313055484E-03 a       245     0    10     1    20
 -1.6555057994040689E-01 a       246     0    10     1    21
  2.4149379527560941E-01 a       247     0    10     1    22
  1.2714810106787233E-01 a       248     0    10     1    23
 -3.7413120647250261E-02 a       249     0    10     1    24
  6.5599337247499806E-02 a       250     0    10     1    25
 -1.1058112827096629E-01 a       251     0    11     1     1
 -1.8616508167921964E-01 a       252     0    11     1     2
  2.3888343578216184E-01 a       253     0    11     1     3
  3.0683639526699197E-01 a       254     0    11     1     4
  2.6009316485858974E-01 a       255     0    11     1     5
  2.6409634023523153E-02 a       256     0    11     1     6
  1.3387122469230159E-01 a       257     0    11     1     7
  6.6677709629013010E-02 a       258     0    11     1     8
 -2.1186502385763445E-01 a       259     0    11     1     9
 -6.5464909820511646E-02 a       260     0    11     1    10
  1.4521750657991109E-01 a       261     0    11     1    11
  2.1486430325251563E-01 a       262     0    11     1    12
  5.0156175068942384E-02 a       263     0    11     1    13
 -1.4027953091115652E-01 a       264     0    11     1    14
 -2.6997578361441837E-01 a       265     0    11     1    15
 -1.1325233780096992E-01 a       266     0    11     1    16
 -7.1356036026066272E-02 a       267     0    11     1    17
 -1.3815069242222608E-01 a       268     0    11     1    18
  2.9365176622156453E-01 a       269     0    11     1    19
  7.8032864502954005E-02 a       270     0    11     1    20
  4.3466426962800724E-02 a       271     0    11     1    21
 -2.8511360448748517E-02 a       272     0    11     1    22
 -7.3355413219690288E-02 a       273     0    11     1    23
 -1.2320462582395340E-01 a       274     0    11     1    24
 -1.5100814799723358E-01 a       275     0    11     1    25
  1.7542419598427364E-01 a       276     0    12     1     1
 -9.3434967431757790E-02 a       277     0    12     1     2
 -1.2022170556604797E-01 a       278     0    12     1     3
 -6.8260988946930681E-02 a       279     0    12     1     4
  1.3566428920653789E-03 a       280     0    12     1     5
 -7.5836201360086689E-02 a       281     0    12     1     6
  1.2045883010860491E-01 a       282     0    12     1     7
 -2.3531254705062837E-01 a       283     0    12     1     8
 -2.8017016888513019E-01 a       284     0    12     1     9
 -1.7222571164353473E-01 a       285     0    12     1    10
  4.3817501211889910E-02 a       286     0    12     1    11
 -8.7336531272762002E-02 a       287     0    12     1    12
 -1.2916509400714127E-01 a       288     0    12     1    13
 -2.0707365528182961E-01 a       289     0    12     1    14
  1.7542114551147817E-01 a       290     0    12     1    15
  1.4694514663943009E-01 a       291     0    12     1    16
  1.6460497793351098E-01 a       292     0    12     1    17
  1.2694460208364636E-01 a       293     0    12     1    18
 -2.4378953681978155E-01 a       294     0    12     1    19
 -2.8951866935962373E-01 a       295     0    12     1    20
  8.2414987060533393E-02 a       296     0    12     1    21
  1.1715272416522091E-01 a       297     0    12     1    22
  6.7303520005642409E-02 a       298     0    12     1    23
 -6.3716621550409976E-03 a       299     0    12     1    24
 -3.5344650538251519E-03 a       300     0    12     1    25
  2.6566347788803424E-01 a       301     0    13     1     1
 -2.6869149564266975E-01 a       302     0    13     1     2
  1.7456060484755453E-01 a       303     0    13     1     3
 -6.4519880229178511E-02 a       304     0    13     1     4
 -1.2759121632172427E-01 a       305     0    13     1     5
 -1.2022902987917264E-02 a       306     0    13     1     6
 -6.4182918534295322E-02 a       307     0    13     1     7
 -1.7682693884765133E-01 a       308     0    13     1     8
 -4.1778429064979744E-01 a       309     0    13     1     9
 -4.6923383649178510E-03 a       310     0    13     1    10
  1.2845155443934492E-01 a       311     0    13     1    11
 -6.2540702792478059E-02 a       312     0    13     1    12
  2.8588783687138103E-02 a       313     0    13     1    13
 -1.0861640754989184E-01 a       314     0    13     1    14
 -9.1885716509914860E-03 a       315     0    13     1    15
 -2.3967052585068422E-04 a       316     0    13     1    16
 -1.6004239693842021E-01 a       317     0    13     1    17
 -1.3273571254841104E-01 a       318     0    13     1    18
 -1.6740243230215970E-01 a       319     0    13     1    19
 -5.4770911280750102E-02 a       320     0    13     1    20
  4.7491399306847606E-02 a       321     0    13     1    21
 -3.5359952883293122E-01 a       322     0    13     1    22
 -2.2208420280667387E-01 a       323     0    13     1    23
 -1.0582596245845985E-01 a       324     0    13     1    24
 -2.2743795280639589E-01 a       325     0    13     1    25
 -1.3677425627668299E-01 a       326     0    14     1     1
  9.7019189677883463E-02 a       327     0    14     1     2
  1.2181934009496333E-01 a       328     0    14     1     3
  6.4768154931942143E-02 a       329     0    14     1     4
 -4.1550821709336307E-02 a       330     0    14     1     5
 -1.9255153860434060E-01 a       331     0    14     1     6
  9.1926089346349951E-02 a       332     0    14     1     7
  2.6108289775256732E-01 a       333     0    14     1     8
 -1.8436390121028717E-01 a       334     0    14     1     9
 -1.5810009448191129E-01 a       335     0    14     1    10
  1.4675473718188728E-01 a       336     0    14     1    11
  2.4613175250102714E-02 a       337     0    14     1    12
 -3.5054268011256154E-03 a       338     0    14     1    13
  2.2446466538936594E-01 a       339     0    14     1    14
 -1.6329110842593772E-01 a       340     0    14     1    15
 -1.3946808490877979E-01 a       341     0    14     1    16
 -7.8010600924925108E-02 a       342     0    14     1    17
  1.4252395670887565E-02 a       343     0    14     1    18
 -1.1134425990745990E-01 a       344     0    14     1    19
 -2.8334828571692328E-01 a       345     0    14     1    20
  1.0697298838724141E-01 a       346     0    14     1    21
 -1.3860578247178493E-01 a       347     0    14     1    22
 -7.9602689564767043E-02 a       348     0    14     1    23
  7.1026105926252123E-02 a       349     0    14     1    24
 -2.0695872927744968E-03 a       350     0    14     1    25
 -1.6710372493907963E-01 a       351     0    15     1     1
 -1.4523185794975660E-01 a       352     0    15     1     2
  3.6477321487232886E-02 a       353     0    15     1     3
 -2.6203810785285553E-01 a       354     0    15     1     4
 -3.3379904768914503E-02 a       355     0    15     1     5
 -2.6482939137940170E-01 a       356     0    15     1     6
  2.7524695717873393E-01 a       357     0    15     1     7
  1.7398058922924514E-01 a       358     0    15     1     8
 -1.2224868486140515E-01 a       359     0    15     1     9
  2.0994823769313754E-02 a       360     0    15     1    10
  4.2109682039923768E-02 a       361     0    15     1    11
 -2.6621157913301968E-01 a       362     0    15     1    12
 -8.9709514421161957E-02 a       363     0    15     1    13
  1.5901016013710889E-01 a       364     0    15     1    14
  6.8875791392819713E-02 a       365     0    15     1    15
  1.6378988743251884E-02 a       366     0    15     1    16
 -2.6633220200630892E-01 a       367     0    15     1    17
  5.3821592292044397E-02 a       368     0    15     1    18
  2.5303999106582858E-01 a       369     0    15     1    19
 -1.3450943726599262E-02 a       370     0    15     1    20
 -3.0946129335139244E-01 a       371     0    15     1    21
 -2.5917211376190341E-01 a       372     0    15     1    22
 -2.6058535665279664E-01 a       373     0    15     1    23
  2.9600093672499550E-01 a       374     0    15     1    24
 -1.5853853342613533E-01 a       375     0    15     1    25
 -3.2766757716090666E-02 a       376     0    16     1     1
  6.7167490216185705E-02 a       377     0    16     1     2
  1.8160598818067167E-01 a       378     0    16     1     3
  5.2902328853283873E-02 a       379     0    16     1     4
 -5.1905189719695363E-02 a       380     0    16     1     5
 -2.1322224024908504E-01 a       381     0    16     1     6
  1.7688205860706174E-01 a       382     0    16     1     7
  1.8080373758692994E-01 a       383     0    16     1     8
  2.1394469725042309E-01 a       384     0    16     1     9
  2.2479908749507710E-01 a       385     0    16     1    10
 -8.7595082072023683E-02 a       386     0    16     1    11
 -2.2978067993653120E-01 a       387     0    16     1    12
 -1.9892432218824804E-01 a       388     0    16     1    13
  5.3024781832254203E-03 a       389     0    16     1    14
 -1.5937262412468101E-01 a       390     0    16     1    15
  5.4267753961724660E-02 a       391     0    16     1    16
 -1.0358958585270665E-01 a       392     0    16     1    17
  4.4654939540020623E-02 a       393     0    16     1    18
  2.2318659601098687E-01 a       394     0    16     1    19
 -8.5928244269987866E-02 a       395     0    16     1    20
  1.2514022259718130E-01 a       396     0    16     1    21
  1.5815059000845094E-01 a       397     0    16     1    22
 -1.4011402093096556E-01 a       398     0    16     1    23
  5.4815069671323463E-02 a       399     0    16     1    24
 -8.8079278997615993E-05 a       400     0    16     1    25
 -4.0259390657036521E-02 a       401     0    17     1     1
  1.0575777419936167E-02 a       402     0    17     1     2
  2.2754350582753324E-01 a       403     0    17     1     3
  3.1018267330603394E-01 a       404     0    17     1     4
 -1.6875526028352197E-01 a       405     0    17     1     5
 -3.4224772206289146E-02 a       406     0    17     1     6
  1.3240481939505735E-01 a       407     0    17     1     7
 -1.8628610127667122E-01 a       408     0    17     1     8
 -7.9690775392654609E-02 a       409     0    17     1     9
 -1.4897395994716073E-01 a       410     0    17     1    10
 -4.8986939278436253E-02 a       411     0    17     1    11
 -7.8894868838180116E-02 a       412     0    17     1    12
  1.1060299280534014E-01 a       413     0    17     1    13
  3.4045328814174915E-02 a       414     0    17     1    14
 -2.0495050208276111E-01 a       415     0    17     1    15
 -3.2104537685341022E-01 a       416     0    17     1    16
 -2.4027458104884741E-01 a       417     0    17     1    17
 -1.7371909409788425E-01 a       418     0    17     1    18
 -3.1146808347307712E-02 a       419     0    17     1    19
  3.0487545629186034E-02 a       420     0    17     1    20
 -1.9929411596901633E-01 a       421     0    17     1    21
  1.6364314702147986E-01 a       422     0    17     1    22
 -2.9901953880153063E-02 a       423     0    17     1    23
  6.2812275565915190E-02 a       424     0    17     1    24
 -1.9838318146141279E-01 a       425     0    17     1    25
 -8.5476972957659950E-02 a       426     0    18     1     1
  3.2213432110946169E-02 a       427     0    18     1     2
  2.4312784859145214E-02 a       428     0    18     1     3
  1.6618108008656193E-01 a       429     0    18     1     4
 -1.2701905120902252E-01 a       430     0    18     1     5
 -9.3034346020371320E-02 a       431     0    18     1     6
  3.1256103471878079E-02 a       432     0    18     1     7
 -1.3174167749577947E-01 a       433     0    18     1     8
  3.8850523688862232E-01 a       434     0    18     1     9
  1.8734888159683535E-01 a       435     0    18     1    10
  1.0841712887316558E-01 a       436     0    18     1    11
  2.6491701405825124E-01 a       437     0    18     1    12
  5.4050875906415143E-02 a       438     0    18     1    13
  1.1150607108738127E-01 a       439     0    18     1    14
 -2.5971025930238478E-01 a       440     0    18     1    15
  4.2051640816289731E-02 a       441     0    18     1    16
  6.2371833773005238E-02 a       442     0    18     1    17
 -1.2377105364533636E-01 a       443     0    18     1    18
  5.7204137318793376E-02 a       444     0    18     1    19
  4.7337014820640962E-02 a       445     0    18     1    20
  8.2934660467438220E-02 a       446     0    18     1    21
  3.4582479152992168E-01 a       447     0    18     1    22
 -4.0614817942576126E-02 a       448     0    18     1    23
  1.0973850402376430E-01 a       449     0    18     1    24
  3.6569837375953346E-02 a       450     0    18     1    25
 -1.5045256724995898E-01 a       451     0    19     1     1
 -8.6750771585202863E-02 a       452     0    19     1     2
  1.7001303380192023E-01 a       453     0    19     1     3
  9.9617785703186620E-02 a       454     0    19     1     4
 -3.5379465701607868E-02 a       455     0    19     1     5
 -1.1992989169447696E-01 a       456     0    19     1     6
  6.3369636979979466E-02 a       457     0    19     1     7
 -2.1310893236587650E-01 a       458     0    19     1     8
 -2.2752550234090566E-01 a       459     0    19     1     9
 -1.2115353705622857E-01 a       460     0    19     1    10
  1.1972986332126793E-01 a       461     0    19     1    11
  1.8730540217184982E-01 a       462     0    19     1    12
 -2.9707181161200263E-01 a       463     0    19     1    13
  8.8338283965452929E-02 a       464     0    19     1    14
 -2.9445359207712513E-01 a       465     0    19     1    15
 -2.0802918255779421E-01 a       466     0    19     1    16
 -2.2380415322281139E-01 a       467     0    19     1    17
  3.0972804635299767E-01 a       468     0    19     1    18
 -3.0892487190442830E-01 a       469     0    19     1    19
  1.2309671258936479E-01 a       470     0    19     1    20
 -2.2029098605992767E-01 a       471     0    19     1    21
  1.2694225106056745E-01 a       472     0    19     1    22
  3.4314116401545780E-01 a       473     0    19     1    23
 -1.2351073710443652E-01 a       474     0    19     1    24
 -8.5022460920695236E-02 a       475     0    19     1    25
 -1.5282066194353303E-01 a       476     0    20     1     1
  8.0455152425579601E-02 a       477     0    20     1     2
 -1.5711677821138761E-01 a       478     0    20     1     3
 -1.3719580962290304E-01 a       479     0    20     1     4
 -2.5700614806776972E-01 a       480     0    20     1     5
  3.6166593908284590E-02 a       481     0    20     1     6
  6.2092182136474980E-02 a       482     0    20     1     7
 -3.7394305921624200E-03 a       483     0    20     1     8
 -1.9921110715140366E-02 a       484     0    20     1     9
 -1.5253620797171641E-01 a       485     0    20     1    10
  3.3255289314806690E-03 a       486     0    20     1    11
 -1.3308009219698413E-02 a       487     0    20     1    12
 -4.2740214574189472E-02 a       488     0    20     1    13
 -1.6831352365969571E-01 a       489     0    20     1    14
 -9.8557329273707805E-02 a       490     0    20     1    15
  1.5443872716102355E-01 a       491     0    20     1    16
 -3.5395694043456480E-02 a       492     0    20     1    17
 -4.1643196503627376E-02 a       493     0    20     1    18
 -1.6348188391819798E-01 a       494     0    20     1    19
  1.0452238639249181E-01 a       495     0    20     1    20
  1.9693124881157435E-02 a       496     0    20     1    21
 -1.0033130090376714E-01 a       497     0    20     1    22
 -1.6030079549327733E-01 a       498     0    20     1    23
  5.1557517395294385E-02 a       499     0    20     1    24
 -3.3458401419947388E-02 a       500     0    20     1    25
  7.1537166095538840E-02 a       501     0    21     1     1
 -6.3660977742286545E-02 a       502     0    21     1     2
  8.5327583421782247E-02 a       503     0    21     1     3
  5.6403143984014061E-02 a       504     0    21     1     4
  7.9862761067213128E-02 a       505     0    21     1     5
 -6.4623302876025204E-02 a       506     0    21     1     6
 -1.1694189269575103E-01 a       507     0    21     1     7
  1.2014349680288286E-01 a       508     0    21     1     8
 -1.7479334513089501E-01 a       509     0    21     1     9
 -3.1550872810427616E-01 a       510     0    21     1    10
 -1.5253621155671140E-01 a       511     0    21     1    11
  1.6583422371922307E-01 a       512     0    21     1    12
  3.2420437285616521E-01 a       513     0    21     1    13
 -7.4951589953559106E-02 a       514     0    21     1    14
 -1.5847480251571661E-01 a       515     0    21     1    15
 -8.5987362444204324E-02 a       516     0    21     1    16
 -2.2093655221472608E-01 a       517     0    21     1    17
  2.6717079163928897E-01 a       518     0    21     1    18
 -3.3279590453195346E-01 a       519     0    21     1    19
 -2.3622830810479478E-01 a       520     0    21     1    20
 -4.5295655750416486E-01 a       521     0    21     1    21
 -3.7114661028317153E-01 a       522     0    21     1    22
  1.6771493284167371E-01 a       523     0    21     1    23
  6.7744349985565444E-02 a       524     0    21     1    24
 -2.6033696812171270E-01 a       525     0    21     1    25
 -5.5457474325684847E-02 a       526     0    22     1     1
  2.2573750741773504E-01 a       527     0    22     1     2
 -5.0061483710021358E-02 a       528     0    22     1     3
  1.3894903396358094E-01 a       529     0    22     1     4
 -2.6138179225012100E-02 a       530     0    22     1     5
 -2.2121804506221565E-01 a       531     0    22     1     6
 -1.4984593536168038E-02 a       532     0    22     1     7
  2.2653042561063244E-01 a       533     0    22     1     8
  1.7299897031008654E-01 a       534     0    22     1     9
  1.4969763331443295E-01 a       535     0    22     1    10
  1.1301431601057203E-01 a       536     0    22     1    11
 -8.0539610229352854E-02 a       537     0    22     1    12
 -6.8994560232267077E-02 a       538     0    22     1    13
  1.5670131090611708E-01 a       539     0    22     1    14
 -1.0979336395681019E-01 a       540     0    22     1    15
  2.2498743965962123E-01 a       541     0    22     1    16
 -4.3745822821320009E-02 a       542     0    22     1    17
 -4.0954078763090498E-02 a       543     0    22     1    18
  3.2556194746119302E-02 a       544     0    22     1    19
 -4.7472457079249485E-02 a       545     0    22     1    20
  1.4639438067397839E-01 a       546     0    22     1    21
  1.4438126689595032E-01 a       547     0    22     1    22
 -4.2257747979493790E-02 a       548     0    22     1    23
  1.9592224744923337E-01 a       549     0    22     1    24
  2.4996110930376164E-01 a       550     0    22     1    25
 -1.6370054914757429E-01 a       551     0    23     1     1
  1.3358229558210283E-01 a       552     0    23     1     2
  1.7052198485813178E-01 a       553     0    23     1     3
 -8.2274752561834183E-02 a       554     0    23     1     4
 -6.7577925794784832E-02 a       555     0    23     1     5
  1.2527039411338131E-01 a       556     0    23     1     6
  1.1549244631901547E-02 a       557     0    23     1     7
 -4.1239898701334682E-02 a       558     0    23     1     8
 -7.4080075850046145E-03 a       559     0    23     1     9
 -5.5807641651463794E-03 a       560     0    23     1    10
 -5.2903437704374251E-02 a       561     0    23     1    11
  8.8585642415859145E-02 a       562     0    23     1    12
  9.7116395400953792E-02 a       563     0    23     1    13
 -1.3013675956446294E-01 a       564     0    23     1    14
 -8.6786042444370257E-02 a       565     0    23     1    15
 -4.1325916002540519E-01 a       566     0    23     1    16
 -1.5044576424042452E-01 a       567     0    23     1    17
 -3.5141531239315030E-02 a       568     0    23     1    18
  1.0526676867229880E-01 a       569     0    23     1    19
  3.1732733908719432E-02 a       570     0    23     1    20
 -3.3830193635243938E-01 a       571     0    23     1    21
 -1.2546865597597989E-01 a       572     0    23     1    22
 -3.0193358433014073E-01 a       573     0    23     1    23
 -5.8474380697516738E-02 a       574     0    23     1    24
 -1.9262125907814315E-01 a       575     0    23     1    25
 -1.5562829320489291E-01 a       576     0    24     1     1
  1.7123898908317947E-01 a       577     0    24     1     2
  2.1125902603445917E-01 a       578     0    24     1     3
  2.7382925900831340E-01 a       579     0    24     1     4
  2.0661112830107004E-01 a       580     0    24     1     5
 -4.7967158745191016E-02 a       581     0    24     1     6
 -1.8926075516839627E-01 a       582     0    24     1     7
  1.3620477123421018E-01 a       583     0    24     1     8
  5.0424012123788289E-02 a       584     0    24     1     9
 -4.7402460550019052E-02 a       585     0    24     1    10
  2.6715711473644068E-02 a       586     0    24     1    11
 -8.8110417870924981E-02 a       587     0    24     1    12
 -5.7051536540518040E-02 a       588     0    24     1    13
 -2.1393621204706004E-01 a       589     0    24     1    14
 -3.8140898353761504E-01 a       590     0    24     1    15
  2.4428308957510886E-01 a       591     0    24     1    16
  1.7713507706034945E-01 a       592     0    24     1    17
  1.9452159515324391E-01 a       593     0    24     1    18
 -1.7955762455069999E-02 a       594     0    24     1    19
 -4.1734963138390362E-02 a       595     0    24     1    20
  2.5484416043565439E-01 a       596     0    24     1    21
  1.3562332093010440E-01 a       597     0    24     1    22
  9.2341198495013530E-02 a       598     0    24     1    23
 -1.4127378654605896E-01 a       599     0    24     1    24
  1.4711913419287498E-01 a       600     0    24     1    25
  3.0362093763528752E-01 a       601     0    25     1     1
 -1.3991577206345363E-01 a       602     0    25     1     2
  1.1888039086095709E-01 a       603     0    25     1     3
 -2.2567993325773572E-01 a       604     0    25     1     4
 -4.9205216940337533E-02 a       605     0    25     1     5
 -1.1541707628316333E-01 a       606     0    25     1     6
  4.4124505417482113E-02 a       607     0    25     1     7
 -1.9852273683726257E-01 a       608     0    25     1     8
 -4.1869253367413165E-02 a       609     0    25     1     9
 -2.2913664033936586E-02 a       610     0    25     1    10
 -2.1392596351107945E-01 a       611     0    25     1    11
  2.1451631781874289E-01 a       612     0    25     1    12
  2.1274625373389974E-01 a       613     0    25     1    13
  5.4719705133598154E-02 a       614     0    25     1    14
 -8.3826911569481716E-02 a       615     0    25     1    15
  8.2904192482767980E-02 a       616     0    25     1    16
 -1.5424049304909246E-01 a       617     0    25     1    17
  5.7127969112879678E-02 a       618     0    25     1    18
 -1.8794478133634837E-01 a       619     0    25     1    19
  1.8656479117575395E-01 a       620     0    25     1    20
 -9.6118003804163313E-02 a       621     0    25     1    21
 -8.0334706999426672E-02 a       622     0    25     1    22
  5.9776092887878808E-02 a       623     0    25     1    23
  9.6083461418473029E-02 a       624     0    25     1    24
 -2.5603255635962108E-01 a       625     0    25     1    25
 -1.2734637162691068E-01 a       626     0    26     1     1
 -6.3900439543904550E-02 a       627     0    26     1     2
 -6.6492283914030795E-02 a       628     0    26     1     3
 -2.3346595481025082E-02 a       629     0    26     1     4
 -8.9870676507631767E-02 a       630     0    26     1     5
 -3.0154275265024727E-01 a       631     0    26     1     6
  9.0195877675198821E-02 a       632     0    26     1     7
  1.4906275688145401E-01 a       633     0    26     1     8
 -1.8515623803659248E-01 a       634     0    26     1     9
 -1.6667283784555231E-01 a       635     0    26     1    10
  7.7164205189142646E-02 a       636     0    26     1    11
  2.5637436690419822E-02 a       637     0    26     1    12
 -2.7440969206631366E-01 a       638     0    26     1    13
 -5.2723881782701515E-02 a       639     0    26     1    14
 -9.9751493066065983E-02 a       640     0    26     1    15
  3.2289518093339997E-01 a       641     0    26     1    16
  2.0589697246237371E-01 a       642     0    26     1    17
 -1.0527274060774494E-01 a       643     0    26     1    18
  1.0027248345068013E-01 a       644     0    26     1    19
 -2.3730844458971825E-01 a       645     0    26     1    20
  3.1590204141707062E-01 a       646     0    26     1    21
  2.8424372122038077E-01 a       647     0    26     1    22
 -2.1352601521615605E-01 a       648     0    26     1    23
 -4.1293605281503547E-02 a       649     0    26     1    24
  1.7550069480485920E-02 a       650     0    26     1    25
 -1.3764546847775697E-01 a       651     0    27     1     1
  1.3317966726230429E-01 a       652     0    27     1     2
 -5.7362947400556717E-02 a       653     0    27     1     3
 -5.6308428998643217E-02 a       654     0    27     1     4
  7.5658528038019562E-02 a       655     0    27     1     5
  4.5818700685609684E-02 a       656     0    27     1     6
 -2.0072150919190898E-01 a       657     0    27     1     7
 -1.8247719728158979E-01 a       658     0    27     1     8
  1.1238766470062889E-01 a       659     0    27     1     9
  1.9650497870332068E-01 a       660     0    27     1    10
  1.2259966593693335E-03 a       661     0    27     1    11
  9.5503907484406889E-02 a       662     0    27     1    12
 -5.7549095122972904E-02 a       663     0    27     1    13
  1.9908286578057299E-01 a       664     0    27     1    14
 -1.1744149759446802E-01 a       665     0    27     1    15
  8.2662423078661881E-02 a       666     0    27     1    16
 -6.8716226547624562E-02 a       667     0    27     1    17
  1.3825587781343379E-01 a       668     0    27     1    18
  8.4311436574861787E-03 a       669     0    27     1    19
  1.0310317526923340E-01 a       670     0    27     1    20
 -1.8260911258464602E-01 a       671     0    27     1    21
 -2.8224729833840431E-02 a       672     0    27     1    22
  3.3911856426622417E-01 a       673     0    27     1    23
 -1.1621129638880574E-02 a       674     0    27     1    24
  1.1653377483351659E-02 a       675     0    27     1    25
 -9.1253016833208161E-02 a       676     0    28     1     1
  2.6501740364454875E-02 a       677     0    28     1     2
 -1.5069693122882979E-01 a       678     0    28     1     3
  3.0156824478695604E-01 a       679     0    28     1     4
 -4.6356448392139170E-02 a       680     0    28     1     5
 -3.8030936074692029E-01 a       681     0    28     1     6
  3.2512030901801471E-02 a       682     0    28     1     7
 -8.2616395770458304E-02 a       683     0    28     1     8
 -8.8350824309550449E-02 a       684     0    28     1     9
 -8.9246491757605850E-02 a       685     0    28     1    10
  1.1309187994257007E-01 a       686     0    28     1    11
  2.9438830959389872E-02 a       687     0    28     1    12
 -8.5306500847262726E-02 a       688     0    28     1    13
 -1.4257840388542151E-01 a       689     0    28     1    14
 -8.2641039970761873E-02 a       690     0    28     1    15
  4.5169820876631309E-02 a       691     0    28     1    16
  5.3020149790332934E-02 a       692     0    28     1    17
 -2.3154137459726215E-01 a       693     0    28     1    18
  3.0267697095296042E-01 a       694     0    28     1    19
 -5.7787205061060561E-02 a       695     0    28     1    20
  2.9045336357506246E-01 a       696     0    28     1    21
  2.3447089444136826E-01 a       697     0    28     1    22
 -1.7797700018574839E-01 a       698     0    28     1    23
  6.0219570355830691E-02 a       699     0    28     1    24
  2.3451221242410430E-01 a       700     0    28     1    25
 -9.4565474517539105E-02 a       701     0    29     1     1
 -4.4378400861159739E-02 a       702     0    29     1     2
  1.6647337041080307E-01 a       703     0    29     1     3
  2.7562539095723648E-01 a       704     0    29     1     4
  3.9182997597051517E-02 a       705     0    29     1     5
 -7.7672235439754947E-02 a       706     0    29     1     6
  3.2386597033420270E-02 a       707     0    29     1     7
  2.9186018081314959E-02 a       708     0    29     1     8
 -1.1306864095859569E-01 a       709     0    29     1     9
  3.1372036605619902E-01 a       710     0    29     1    10
  1.0914768892798507E-02 a       711     0    29     1    11
 -2.0164132964377110E-01 a       712     0    29     1    12
  2.7362070616017398E-01 a       713     0    29     1    13
  9.9775116059222221E-02 a       714     0    29     1    14
  1.4068268709281109E-01 a       715     0    29     1    15
 -1.0293359455036596E-01 a       716     0    29     1    16
 -1.3936267378057945E-01 a       717     0    29     1    17
  2.1302209215370169E-01 a       718     0    29     1    18
  5.3579834956612747E-02 a       719     0    29     1    19
  3.3984137606724356E-02 a       720     0    29     1    20
 -2.4660482947294005E-01 a       721     0    29     1    21
 -5.5580463201828878E-01 a       722     0    29     1    22
  2.7682723530227226E-02 a       723     0    29     1    23
  9.1092545877178743E-02 a       724     0    29     1    24
  1.9820052307748701E-01 a       725     0    29     1    25
 -2.1733553547920104E-02 a       726     0    30     1     1
 -2.1618703101783692E-02 a       727     0    30     1     2
  3.9371562347286171E-02 a       728     0    30     1     3
  1.7174179957717423E-01 a       729     0    30     1     4
 -5.9136690983597709E-02 a       730     0    30     1     5
  2.9803172709141441E-03 a       731     0    30     1     6
  6.5160952937822481E-02 a       732     0    30     1     7
  1.5977212718100797E-01 a       733     0    30     1     8
  2.9750598593826078E-01 a       734     0    30     1     9
  2.0254925576156328E-02 a       735     0    30     1    10
 -7.5670775623460251E-02 a       736     0    30     1    11
  2.2740154429976864E-01 a       737     0    30     1    12
  4.4931769843158206E-02 a       738     0    30     1    13
  1.2504155038762743E-01 a       739     0    30     1    14
 -1.8820147929252184E-01 a       740     0    30     1    15
  7.0917435181902855E-02 a       741     0    30     1    16
 -4.8778739583217413E-02 a       742     0    30     1    17
  3.8764986604889008E-02 a       743     0    30     1    18
 -1.2284565029276379E-01 a       744     0    30     1    19
  1.9737775765263055E-01 a       745     0    30     1    20
  2.3287603719693035E-02 a       746     0    30     1    21
  2.5656358264768248E-01 a       747     0    30     1    22
  8.1328662055903514E-02 a       748     0    30     1    23
  9.7738558756052155E-02 a       749     0    30     1    24
  6.7432130281260924E-02 a       750     0    30     1    25
  5.2924380783832053E-03 a       751     0    31     1     1
  2.4280199180081858E-02 a       752     0    31     1     2
  2.5550210192808381E-02 a       753     0    31     1     3
 -9.0241990108061013E-02 a       754     0    31     1     4
  2.5964283303578171E-02 a       755     0    31     1     5
 -4.7714523438310709E-02 a       756     0    31     1     6
 -8.5425646168597699E-02 a       757     0    31     1     7
 -1.7593439634375715E-01 a       758     0    31     1     8
 -6.2940868281612841E-02 a       759     0    31     1     9
 -1.4080201238451964E-01 a       760     0    31     1    10
  9.3533255517797037E-02 a       761     0    31     1    11
 -1.9650289721932773E-01 a       762     0    31     1    12
 -1.7208354910498644E-01 a       763     0    31     1    13
 -3.0823009233130666E-02 a       764     0    31     1    14
  1.3029165584520197E-01 a       765     0    31     1    15
 -2.0876876399857025E-01 a       766     0    31     1    16
 -1.2466638375628802E-01 a       767     0    31     1    17
  1.5039737145276577E-01 a       768     0    31     1    18
  9.8450209341297806E-02 a       769     0    31     1    19
  2.0114595402116162E-01 a       770     0    31     1    20
 -2.1596159010061861E-01 a       771     0    31     1    21
 -1.3960786072110665E-01 a       772     0    31     1    22
 -5.3396787168637203E-02 a       773     0    31     1    23
 -1.5494889797014386E-01 a       774     0    31     1    24
  2.0573283774740156E-01 a       775     0    31     1    25
 -9.7346166746051524E-02 a       776     0    32     1     1
  2.6455157013683221E-02 a       777     0    32     1     2
 -5.9395696833332970E-02 a       778     0    32     1     3
  9.3914893792836143E-02 a       779     0    32     1     4
 -1.7288488777837466E-01 a       780     0    32     1     5
 -1.9168404485956136E-02 a       781     0    32     1     6
 -9.5115975320571519E-02 a       782     0    32     1     7
  4.4062879173953040E-01 a       783     0    32     1     8
  4.3431729901680323E-02 a       784     0    32     1     9
  3.8691282795901105E-01 a       785     0    32     1    10
 -1.1415273980568962E-01 a       786     0    32     1    11
 -3.0959480664088490E-01 a       787     0    32     1    12
 -1.9652266998104506E-01 a       788     0    32     1    13
  8.2839226183239426E-02 a       789     0    32     1    14
 -2.5112839096903827E-01 a       790     0    32     1    15
  4.0085128117405339E-01 a       791     0    32     1    16
 -1.1365761247095375E-01 a       792     0    32     1    17
  5.6211063770584841E-03 a       793     0    32     1    18
 -2.3349695580110283E-01 a       794     0    32     1    19
  1.6247394476710147E-01 a       795     0    32     1    20
  9.3523736738414548E-02 a       796     0    32     1    21
  2.7004638881697274E-01 a       797     0    32     1    22
  1.0262950241352298E-01 a       798     0    32     1    23
 -2.9527432959241484E-01 a       799     0    32     1    24
  2.3383784529187948E-01 a       800     0    32     1    25
  5.6614975032393627E-02 a       801     0    33     1     1
  2.4760403959928394E-02 a       802     0    33     1     2
 -3.0563335553921624E-03 a       803     0    33     1     3
 -2.0553244726812020E-01 a       804     0    33     1     4
  4.4160886244044448E-02 a       805     0    33     1     5
  1.5867918627480679E-01 a       806     0    33     1     6
  5.7841081769353667E-02 a       807     0    33     1     7
 -2.4908295036241913E-02 a       808     0    33     1     8
  5.8144449510558152E-02 a       809     0    33     1     9
  9.5973438642980344E-02 a       810     0    33     1    10
  3.3926355436254959E-04 a       811     0    33     1    11
 -1.4140543093249985E-01 a       812     0    33     1    12
  4.4696209160406376E-02 a       813     0    33     1    13
 -9.7969717785993504E-02 a       814     0    33     1    14
 -9.5953672577753890E-02 a       815     0    33     1    15
 -9.7268421612560441E-02 a       816     0    33     1    16
  7.2898065391442737E-02 a       817     0    33     1    17
 -5.2861755994748405E-02 a       818     0    33     1    18
  6.0834034512021691E-02 a       819     0    33     1    19
 -1.2592943197271295E-01 a       820     0    33     1    20
  1.6500402187116320E-01 a       821     0    33     1    21
 -3.1074490457444832E-02 a       822     0    33     1    22
 -7.2185436224538616E-02 a       823     0    33     1    23
  1.1063004553351083E-01 a       824     0    33     1    24
 -1.2749253456363580E-01 a       825     0    33     1    25
 -1.4695388770099974E-01 a       826     0    34     1     1
  9.9591737031269074E-03 a       827     0    34     1     2
 -1.6269458270699474E-01 a       828     0    34     1     3
 -1.4092260793725516E-02 a       829     0    34     1     4
  2.6720384287293131E-01 a       830     0    34     1     5
 -1.2271272241722869E-01 a       831     0    34     1     6
 -3.6185454658361182E-01 a       832     0    34     1     7
  3.5550137168272308E-02 a       833     0    34     1     8
 -1.4244644156485931E-01 a       834     0    34     1     9
  3.2906272697022974E-02 a       835     0    34     1    10
  5.0415255571583675E-02 a       836     0    34     1    11
  2.5520911569629995E-01 a       837     0    34     1    12
 -7.8534811465360468E-02 a       838     0    34     1    13
 -7.8089131881358964E-02 a       839     0    34     1    14
  1.6655040917537756E-01 a       840     0    34     1    15
 -7.6577980548572053E-02 a       841     0    34     1    16
  9.8311482196610706E-02 a       842     0    34     1    17
 -1.7087914013626404E-01 a       843     0    34     1    18
  1.3736300450773808E-01 a       844     0    34     1    19
 -8.9671227464321795E-02 a       845     0    34     1    20
  1.2959830017597082E-01 a       846     0    34     1    21
 -1.0671653998892626E-01 a       847     0    34     1    22
 -1.2195915890708961E-01 a       848     0    34     1    23
 -7.9176758291937696E-02 a       849     0    34     1    24
  1.5606790165890916E-01 a       850     0    34     1    25
 -3.3844898435134628E-02 a       851     0    35     1     1
  1.7301409617749950E-03 a       852     0    35     1     2
 -1.3341849300898476E-01 a       853     0    35     1     3
  8.2517455615598784E-02 a       854     0    35     1     4
  2.6109544634615095E-01 a       855     0    35     1     5
  2.3042673189870316E-01 a       856     0    35     1     6
 -3.0787393411858179E-02 a       857     0    35     1     7
  2.0338017756893614E-01 a       858     0    35     1     8
 -1.7192327006322391E-03 a       859     0    35     1     9
 -6.7338797964744375E-03 a       860     0    35     1    10
 -9.7961424618159973E-02 a       861     0    35     1    11
 -6.3667357596532623E-02 a       862     0    35     1    12
 -1.2041808901311143E-01 a       863     0    35     1    13
  6.4575427754197098E-02 a       864     0    35     1    14
 -8.8331355348355650E-02 a       865     0    35     1    15
 -7.2946676054574250E-02 a       866     0    35     1    16
  9.0514160047233411E-03 a       867     0    35     1    17
 -6.5469926955844929E-02 a       868     0    35     1    18
  1.0465318438429035E-01 a       869     0    35     1    19
 -1.6466766057616775E-01 a       870     0    35     1    20
 -5.0745662045455477E-02 a       871     0    35     1    21
  9.4027043483303110E-02 a       872     0    35     1    22
 -8.5894488687112289E-02 a       873     0    35     1    23
 -8.6937317943907837E-03 a       874     0    35     1    24
  2.7647624081901950E-01 a       875     0    35     1    25
 -1.9635533529696769E-02 a       876     0    36     1     1
 -1.2745916581960361E-02 a       877     0    36     1     2
 -6.7402981998629263E-02 a       878     0    36     1     3
 -1.3466193453604400E-01 a       879     0    36     1     4
  8.5677086858380672E-02 a       880     0    36     1     5
  1.7098421853506438E-01 a       881     0    36     1     6
  8.3397461249690288E-02 a       882     0    36     1     7
 -2.3118011666302668E-01 a       883     0    36     1     8
  2.4361850710745866E-02 a       884     0    36     1     9
  1.1719082448601555E-01 a       885     0    36     1    10
 -5.1112428400108892E-02 a       886     0    36     1    11
  1.6599930324639961E-01 a       887     0    36     1    12
 -3.1343472891441626E-01 a       888     0    36     1    13
 -8.7626218501506981E-02 a       889     0    36     1    14
  9.0269989423720928E-02 a       890     0    36     1    15
 -1.1375812587681741E-01 a       891     0    36     1    16
  2.1457389928144208E-02 a       892     0    36     1    17
  7.7758089604121668E-03 a       893     0    36     1    18
  2.2789560107343110E-01 a       894     0    36     1    19
 -1.6313977198321714E-01 a       895     0    36     1    20
 -6.7097956171935674E-02 a       896     0    36     1    21
  5.6259616283671793E-02 a       897     0    36     1    22
 -4.4016136000648867E-02 a       898     0    36     1    23
 -6.2015737327505586E-02 a       899     0    36     1    24
 -1.2780204700691986E-01 a       900     0    36     1    25
  7.6820753745499334E-02 a       901     0    37     1     1
  1.3490809595587225E-02 a       902     0    37     1     2
  1.2997532206100340E-01 a       903     0    37     1     3
 -8.4752955852332376E-03 a       904     0    37     1     4
  8.2840191202417437E-02 a       905     0    37     1     5
 -1.0170491155603391E-01 a       906     0    37     1     6
 -4.3812093193349416E-02 a       907     0    37     1     7
 -6.8678504175509109E-02 a       908     0    37     1     8
  1.7551386178783945E-02 a       909     0    37     1     9
 -1.3329248186662091E-03 a       910     0    37     1    10
  4.6069839437980958E-02 a       911     0    37     1    11
  1.2073414971157752E-01 a       912     0    37     1    12
 -1.5786835805975279E-02 a       913     0    37     1    13
  4.9734387368879106E-02 a       914     0    37     1    14
 -2.5894949378081795E-02 a       915     0    37     1    15
  1.1991207474014798E-02 a       916     0    37     1    16
  1.4837771631769041E-02 a       917     0    37     1    17
 -5.5587089425047920E-03 a       918     0    37     1    18
 -5.4045001899353580E-02 a       919     0    37     1    19
 -1.4388295881705867E-02 a       920     0    37     1    20
 -6.2420378140339787E-02 a       921     0    37     1    21
 -1.0020148903909476E-01 a       922     0    37     1    22
 -1.4580045240965109E-02 a       923     0    37     1    23
  5.7642603357606660E-02 a       924     0    37     1    24
 -6.6345318483778420E-02 a       925     0    37     1    25
 -3.2231480970782544E-02 a       926     0    38     1     1
  3.0647701215955347E-02 a       927     0    38     1     2
 -1.3453999077535814E-02 a       928     0    38     1     3
 -4.3007841978385426E-03 a       929     0    38     1     4
 -1.7051754372258002E-01 a       930     0    38     1     5
  1.2044665609488237E-02 a       931     0    38     1     6
  3.2503481128896013E-02 a       932     0    38     1     7
 -7.0758916273022013E-02 a       933     0    38     1     8
  1.5268998981860984E-01 a       934     0    38     1     9
  6.4721645433911110E-02 a       935     0    38     1    10
 -1.3146020111354059E-02 a       936     0    38     1    11
  1.9306377056095750E-01 a       937     0    38     1    12
  9.5500227022078388E-02 a       938     0    38     1    13
  1.6852305784077973E-01 a       939     0    38     1    14
 -4.1099638318946488E-02 a       940     0    38     1    15
 -5.6716400126310886E-02 a       941     0    38     1    16
  4.5836392414501714E-02 a       942     0    38     1    17
 -8.0966623634523435E-02 a       943     0    38     1    18
 -1.2547227365157676E-01 a       944     0    38     1    19
 -1.2266256996198655E-01 a       945     0    38     1    20
  8.7607171307262741E-02 a       946     0    38     1    21
  1.4143145708175123E-01 a       947     0    38     1    22
 -3.2507599241995023E-03 a       948     0    38     1    23
  1.4540287107675720E-01 a       949     0    38     1    24
 -1.7004033328533386E-01 a       950     0    38     1    25
  3.9403002328043613E-02 a       951     0    39     1     1
  2.4819266988929809E-02 a       952     0    39     1     2
  5.9444814362125550E-02 a       953     0    39     1     3
 -1.3016425580802030E-01 a       954     0    39     1     4
 -1.0764735344369447E-01 a       955     0    39     1     5
 -1.0432156028013106E-01 a       956     0    39     1     6
 -4.1135609491095022E-02 a       957     0    39     1     7
 -2.6045763086028939E-01 a       958     0    39     1     8
  1.0304997216284502E-01 a       959     0    39     1     9
  2.0989059038196738E-02 a       960     0    39     1    10
  5.5015119489853027E-02 a       961     0    39     1    11
  1.7000936988761378E-01 a       962     0    39     1    12
  8.6956269878283587E-02 a       963     0    39     1    13
  1.0115528121559658E-01 a       964     0    39     1    14
 -5.9456157905094934E-03 a       965     0    39     1    15
 -4.8211465810314692E-02 a       966     0    39     1    16
 -3.8522965246578875E-02 a       967     0    39     1    17
  4.4558324870203725E-02 a       968     0    39     1    18
  9.0956429440914380E-02 a       969     0    39     1    19
  1.1056417800067281E-01 a       970     0    39     1    20
 -7.5262574682031305E-02 a       971     0    39     1    21
 -1.3066600898612685E-01 a       972     0    39     1    22
 -2.7534406852981676E-02 a       973     0    39     1    23
  1.4846024419251369E-01 a       974     0    39     1    24
 -1.5215789961618673E-01 a       975     0    39     1    25
 -2.6652655514763039E-02 a       976     0    40     1     1
 -8.1980790738140727E-02 a       977     0    40     1     2
  5.0483285905516303E-04 a       978     0    40     1     3
 -1.1650159622195710E-01 a       979     0    40     1     4
  2.2709970735537793E-02 a       980     0    40     1     5
  6.7984710750584598E-02 a       981     0    40     1     6
 -6.9476705152872908E-02 a       982     0    40     1     7
  2.1331394765490572E-01 a       983     0    40     1     8
 -1.9352143267023694E-02 a       984     0    40     1     9
  2.0587584557349833E-01 a       985     0    40     1    10
 -8.1996729886835221E-03 a       986     0    40     1    11
 -1.9623645390066013E-01 a       987     0    40     1    12
 -2.4132600417347350E-01 a       988     0    40     1    13
 -5.2868903450236759E-02 a       989     0    40     1    14
  8.4537530164514346E-02 a       990     0    40     1    15
 -4.4756405442205910E-02 a       991     0    40     1    16
  1.3049692461711152E-03 a       992     0    40     1    17
 -3.0241097541580567E-02 a       993     0    40     1    18
 -3.2387205041344021E-02 a       994     0    40     1    19
 -3.2851358237493564E-02 a       995     0    40     1    20
  8.9184830517111818E-02 a       996     0    40     1    21
  8.0673087970507609E-02 a       997     0    40     1    22
 -1.0609545335940012E-02 a       998     0    40     1    23
 -1.0172157454714846E-01 a       999     0    40     1    24
  7.2473282381977228E-02 a      1000     0    40     1    25
  3.5993991146643860E-02 a      1001     0    41     1     1
 -1.7184171060636164E-02 a      1002     0    41     1     2
 -1.9085567161609038E-01 a      1003     0    41     1     3
  4.4760683753747449E-02 a      1004     0    41     1     4
 -9.9652259234127120E-03 a      1005     0    41     1     5
 -3.0829268884516207E-02 a      1006     0    41     1     6
  5.4674143469516483E-02 a      1007     0    41     1     7
  2.9331825339254375E-01 a      1008     0    41     1     8
 -3.5822960717210882E-02 a      1009     0    41     1     9
 -1.7349910083144965E-01 a      1010     0    41     1    10
 -9.6615280289748209E-02 a      1011     0    41     1    11
  3.6876209124329103E-02 a      1012     0    41     1    12
  1.6601754476515415E-01 a      1013     0    41     1    13
  2.4890761323927080E-02 a      1014     0    41     1    14
  3.1444227361405930E-01 a      1015     0    41     1    15
  1.9986105193309914E-02 a      1016     0    41     1    16
  8.6819299753509840E-02 a      1017     0    41     1    17
  8.9877703269894652E-02 a      1018     0    41     1    18
  2.7156762757764491E-01 a      1019     0    41     1    19
 -6.7724984026169360E-02 a      1020     0    41     1    20
  1.5302998926402656E-01 a      1021     0    41     1    21
 -3.3377083171011956E-01 a      1022     0    41     1    22
  1.9435962585214725E-01 a      1023     0    41     1    23
  1.7847115813461928E-01 a      1024     0    41     1    24
 -2.7406820268866100E-01 a      1025     0    41     1    25
 -2.0811424855552019E-01 a      1026     0    42     1     1
 -1.6635749950367615E-01 a      1027     0    42     1     2
  8.5264519900246430E-02 a      1028     0    42     1     3
 -8.9671805235434447E-03 a      1029     0    42     1     4
  2.2779873404060205E-01 a      1030     0    42     1     5
  1.1444226441298230E-01 a      1031     0    42     1     6
  5.0097043936567992E-03 a      1032     0    42     1     7
 -2.9479306130029642E-01 a      1033     0    42     1     8
 -6.9354383558799790E-02 a      1034     0    42     1     9
 -2.5663227561765239E-01 a      1035     0    42     1    10
 -1.5384587987554094E-01 a      1036     0    42     1    11
 -6.4998320168760768E-02 a      1037     0    42     1    12
  1.5751305538913557E-01 a      1038     0    42     1    13
  1.0529411356103370E-01 a      1039     0    42     1    14
 -2.6514626160152277E-01 a      1040     0    42     1    15
  1.2966501195320040E-01 a      1041     0    42     1    16
 -3.4232699921798247E-02 a      1042     0    42     1    17
  3.8598562433508524E-02 a      1043     0    42     1    18
 -1.2436572509941593E-01 a      1044     0    42     1    19
  1.6368564043665124E-01 a      1045     0    42     1    20
 -5.8672852989847667E-02 a      1046     0    42     1    21
  1.1807245246031009E-01 a      1047     0    42     1    22
  3.5385405671321257E-01 a      1048     0    42     1    23
 -1.7409564083484541E-01 a      1049     0    42     1    24
  3.1332601410320537E-01 a      1050     0    42     1    25
 -9.1173975603577984E-02 a      1051     0    43     1     1
  6.4497934895497960E-02 a      1052     0    43     1     2
 -2.6018829628411049E-02 a      1053     0    43     1     3
 -1.4554679063112615E-03 a      1054     0    43     1     4
  1.6496598727855619E-01 a      1055     0    43     1     5
  1.7853685801218716E-01 a      1056     0    43     1     6
  3.4549103077883614E-02 a      1057     0    43     1     7
  4.0764920137833380E-02 a      1058     0    43     1     8
  1.1639747546601581E-02 a      1059     0    43     1     9
  1.9063045040620982E-01 a      1060     0    43     1    10
  4.0739606846607955E-02 a      1061     0    43     1    11
 -2.0563470837526807E-01 a      1062     0    43     1    12
  1.1116923867704184E-01 a      1063     0    43     1    13
  6.7511240513450976E-02 a      1064     0    43     1    14
 -1.4493782245142997E-01 a      1065     0    43     1    15
 -2.7494434023306419E-01 a      1066     0    43     1    16
 -2.3498493450781931E-02 a      1067     0    43     1    17
  3.4163357622092369E-02 a      1068     0    43     1    18
  2.1566779423269383E-01 a      1069     0    43     1    19
 -4.1050989484812346E-02 a      1070     0    43     1    20
 -8.6973975706669898E-02 a      1071     0    43     1    21
  2.3138672280251968E-01 a      1072     0    43     1    22
 -1.3485226928774996E-02 a      1073     0    43     1    23
 -6.5924787297140259E-03 a      1074     0    43     1    24
  1.0032747146164737E-01 a      1075     0    43     1    25
 -7.5263469482623357E-02 a      1076     0    44     1     1
 -1.5654812477207743E-02 a      1077     0    44     1     2
 -1.4119233683250890E-01 a      1078     0    44     1     3
 -3.1162100585827551E-01 a      1079     0    44     1     4
 -5.4881800551713324E-03 a      1080     0    44     1     5
  5.9446176611811286E-02 a      1081     0    44     1     6
 -2.0432836994518078E-01 a      1082     0    44     1     7
  2.0498078452831314E-02 a      1083     0    44     1     8
  6.8635789510367085E-02 a      1084     0    44     1     9
  2.4691938412057873E-01 a      1085     0    44     1    10
 -6.3526056447120990E-02 a      1086     0    44     1    11
 -7.6731160129260165E-02 a      1087     0    44     1    12
 -2.3884016314944831E-01 a      1088     0    44     1    13
  6.9919170342969614E-02 a      1089     0    44     1    14
  2.0594258161678305E-01 a      1090     0    44     1    15
 -1.9358750629061003E-01 a      1091     0    44     1    16
  8.1617298149914017E-02 a      1092     0    44     1    17
 -1.6732680279243933E-01 a      1093     0    44     1    18
  1.6204198341279968E-01 a      1094     0    44     1    19
  1.0913399555319517E-01 a      1095     0    44     1    20
  1.0185384063133308E-01 a      1096     0    44     1    21
 -7.1734881082509958E-02 a      1097     0    44     1    22
 -1.4207295685832683E-01 a      1098     0    44     1    23
  6.6029188506600389E-02 a      1099     0    44     1    24
  1.1163738053371004E-01 a      1100     0    44     1    25
  1.4705584761552962E-01 a      1101     0    45     1     1
  1.3226835117691924E-01 a      1102     0    45     1     2
 -1.1459072261096491E-01 a      1103     0    45     1     3
  1.2972962624091688E-01 a      1104     0    45     1     4
 -1.3485410871443679E-01 a      1105     0    45     1     5
 -1.4430217020213304E-02 a      1106     0    45     1     6
  2.2332296400317250E-01 a      1107     0    45     1     7
  1.2871682689916822E-01 a      1108     0    45     1     8
 -9.8801830552983180E-02 a      1109     0    45     1     9
 -5.5853756844985461E-02 a      1110     0    45     1    10
  2.9986159370065318E-01 a      1111     0    45     1    11
 -1.1845912334449490E-01 a      1112     0    45     1    12
 -8.0123315083185914E-03 a      1113     0    45     1    13
 -8.3865003952848710E-02 a      1114     0    45     1    14
  1.6712535956862171E-01 a      1115     0    45     1    15
  9.8820183187888502E-02 a      1116     0    45     1    16
  8.9018408383618797E-02 a      1117     0    45     1    17
  1.7563164231157932E-02 a      1118     0    45     1    18
 -1.3979866018668680E-01 a      1119     0    45     1    19
  5.8108990888662365E-02 a      1120     0    45     1    20
 -6.8476397007122053E-03 a      1121     0    45     1    21
  2.1984752489021056E-02 a      1122     0    45     1    22
 -1.5647875080608509E-01 a      1123     0    45     1    23
  1.3491143866878955E-01 a      1124     0    45     1    24
 -2.4916692840168024E-03 a      1125     0    45     1    25
  4.4998407082363773E-03 a      1126     0    46     1     1
  7.8724796693374122E-02 a      1127     0    46     1     2
 -1.8373304401952975E-01 a      1128     0    46     1     3
  3.5296871805475950E-02 a      1129     0    46     1     4
 -1.4834950154860907E-01 a      1130     0    46     1     5
  1.6270262833011202E-02 a      1131     0    46     1     6
 -1.4067674675418124E-01 a      1132     0    46     1     7
  4.7692151132771622E-02 a      1133     0    46     1     8
 -1.6889743020228179E-01 a      1134     0    46     1     9
  1.6202898944692157E-01 a      1135     0    46     1    10
 -2.2385899380333082E-01 a      1136     0    46     1    11
 -6.0930699555226932E-02 a      1137     0    46     1    12
 -2.3160438656683817E-02 a      1138     0    46     1    13
  3.2848304172806937E-02 a      1139     0    46     1    14
 -1.3028941946841291E-01 a      1140     0    46     1    15
  2.8013412880715388E-01 a      1141     0    46     1    16
 -5.0166802483306398E-02 a      1142     0    46     1    17
  6.9390121749149505E-02 a      1143     0    46     1    18
 -1.6813553370225731E-01 a      1144     0    46     1    19
 -2.2367569887646196E-02 a      1145     0    46     1    20
 -1.4482433834450215E-01 a      1146     0    46     1    21
 -2.6002261385486802E-01 a      1147     0    46     1    22
  1.1543897934287440E-02 a      1148     0    46     1    23
 -1.6740096523282591E-01 a      1149     0    46     1    24
 -2.9385370209785360E-02 a      1150     0    46     1    25
  7.2370602607585904E-02 a      1151     0    47     1     1
 -9.6354902831079906E-02 a      1152     0    47     1     2
  1.3614612763622597E-01 a      1153     0    47     1     3
 -4.1505151616899078E-02 a      1154     0    47     1     4
 -1.6819252461840434E-01 a      1155     0    47     1     5
 -7.7624234564893022E-02 a      1156     0    47     1     6
  2.1144118829271707E-01 a      1157     0    47     1     7
  2.6559610175373602E-02 a      1158     0    47     1     8
  1.4808768495470856E-01 a      1159     0    47     1     9
 -1.2659691662437622E-01 a      1160     0    47     1    10
 -1.7910859405440344E-01 a      1161     0    47     1    11
 -3.6568004659751671E-02 a      1162     0    47     1    12
  7.9782393327463313E-02 a      1163     0    47     1    13
  7.2509035970525840E-02 a      1164     0    47     1    14
 -1.7327453025670313E-02 a      1165     0    47     1    15
 -1.0352081145740798E-01 a      1166     0    47     1    16
 -1.3661150120412069E-01 a      1167     0    47     1    17
 -3.3276660626257962E-02 a      1168     0    47     1    18
 -1.2863273769916792E-01 a      1169     0    47     1    19
 -8.9421153108738383E-02 a      1170     0    47     1    20
  3.1077220468042295E-02 a      1171     0    47     1    21
  1.2076119364358381E-01 a      1172     0    47     1    22
  3.3682593062678505E-02 a      1173     0    47     1    23
 -1.4816559866287510E-01 a      1174     0    47     1    24
  7.1647101282694678E-02 a      1175     0    47     1    25
 -2.0522831329931528E-02 a      1176     0    48     1     1
  1.1100801484901837E-01 a      1177     0    48     1     2
 -1.2408463080430511E-01 a      1178     0    48     1     3
  4.8613401638348628E-03 a      1179     0    48     1     4
  1.9196685089741750E-01 a      1180     0    48     1     5
  1.5006012380586320E-01 a      1181     0    48     1     6
 -2.8648855939151469E-01 a      1182     0    48     1     7
 -9.9847949250655807E-02 a      1183     0    48     1     8
 -9.3185624808469522E-02 a      1184     0    48     1     9
  2.3498204288490684E-01 a      1185     0    48     1    10
 -2.6063781934957914E-01 a      1186     0    48     1    11
  5.9418526216698124E-02 a      1187     0    48     1    12
 -2.0329721350734806E-01 a      1188     0    48     1    13
 -1.3664170593787123E-01 a      1189     0    48     1    14
 -3.2836266440745515E-01 a      1190     0    48     1    15
 -1.3661158403197401E-01 a      1191     0    48     1    16
 -1.5706109338995969E-01 a      1192     0    48     1    17
  1.6649315741669191E-01 a      1193     0    48     1    18
  3.5764500457777224E-02 a      1194     0    48     1    19
  2.2038967733100079E-01 a      1195     0    48     1    20
  4.9102287064708504E-02 a      1196     0    48     1    21
 -1.4402527867922041E-01 a      1197     0    48     1    22
 -2.0346437066545003E-01 a      1198     0    48     1    23
 -2.9015752337260620E-01 a      1199     0    48     1    24
  2.0762481839268632E-01 a      1200     0    48     1    25
  2.7251017419933343E-01 a      1201     0    49     1     1
 -1.1592373514887340E-01 a      1202     0    49     1     2
 -2.9512110671461991E-02 a      1203     0    49     1     3
 -7.1324058279532393E-02 a      1204     0    49     1     4
 -1.0363401144703777E-01 a      1205     0    49     1     5
  1.8526510592911707E-01 a      1206     0    49     1     6
  4.1256688395391011E-02 a      1207     0    49     1     7
  1.6731087983894882E-01 a      1208     0    49     1     8
  1.0090987050898852E-01 a      1209     0    49     1     9
  2.3594180205205098E-01 a      1210     0    49     1    10
  1.0682019655163277E-01 a      1211     0    49     1    11
 -2.5678873364236060E-01 a      1212     0    49     1    12
  1.0042599645206263E-01 a      1213     0    49     1    13
  2.6337930720982394E-01 a      1214     0    49     1    14
 -6.3283512104143166E-02 a      1215     0    49     1    15
  6.1847687571707097E-02 a      1216     0    49     1    16
  2.1532929994706773E-01 a      1217     0    49     1    17
 -7.4802982579762006E-02 a      1218     0    49     1    18
  3.0260796490521248E-02 a      1219     0    49     1    19
 -1.7446351078999103E-01 a      1220     0    49     1    20
  4.2122525768431687E-02 a      1221     0    49     1    21
  4.3941266562422142E-03 a      1222     0    49     1    22
  8.3352762010442616E-02 a      1223     0    49     1    23
 -2.2517372812857753E-01 a      1224     0    49     1    24
  2.2074929729352463E-01 a      1225     0    49     1    25
  3.4826991032328357E-02 a      1226     0    50     1     1
  5.1379877670806019E-02 a      1227     0    50     1     2
 -7.6882921133020157E-02 a      1228     0    50     1     3
  1.0498087890006692E-01 a      1229     0    50     1     4
 -8.2371684343449575E-02 a      1230     0    50     1     5
  1.0595390349782888E-01 a      1231     0    50     1     6
 -7.6792507313796360E-02 a      1232     0    50     1     7
 -3.5025535692076643E-01 a      1233     0    50     1     8
  6.2460207330586416E-02 a      1234     0    50     1     9
  2.4572823751017611E-01 a      1235     0    50     1    10
  2.1463073869076668E-01 a      1236     0    50     1    11
 -1.2425052103494649E-01 a      1237     0    50     1    12
 -8.4285246736533023E-02 a      1238     0    50     1    13
  1.0665124064259951E-01 a      1239     0    50     1    14
  1.4139222677484115E-01 a      1240     0    50     1    15
 -3.5066773875186155E-02 a      1241     0    50     1    16
  6.8365086774772543E-02 a      1242     0    50     1    17
  5.2435968072303933E-02 a      1243     0    50     1    18
 -1.3520093778802325E-02 a      1244     0    50     1    19
  1.2983187440715763E-01 a      1245     0    50     1    20
 -4.3061344040771030E-03 a      1246     0    50     1    21
 -5.0227936579144754E-02 a      1247     0    50     1    22
 -2.4490892395415619E-04 a      1248     0    50     1    23
 -2.3930290819991831E-01 a      1249     0    50     1    24
  3.1585824194329461E-02 a      1250     0    50     1    25
  1.8839845121492402E-01 a      1251     0    51     1     1
 -8.3840389979598959E-02 a      1252     0    51     1     2
 -1.1043891522373733E-01 a      1253     0    51     1     3
  6.1650400323252148E-02 a      1254     0    51     1     4
  2.7761611976644299E-02 a      1255     0    51     1     5
  9.7245513275076592E-02 a      1256     0    51     1     6
  2.1184324236379753E-01 a      1257     0    51     1     7
 -5.3406275030388452E-02 a      1258     0    51     1     8
 -1.4321764216072289E-01 a      1259     0    51     1     9
  4.5010679777284596E-02 a      1260     0    51     1    10
  1.0794308815009554E-01 a      1261     0    51     1    11
 -2.9264274678339919E-01 a      1262     0    51     1    12
  1.5049851146578000E-01 a      1263     0    51     1    13
  5.1732672570268624E-02 a      1264     0    51     1    14
 -2.3995241134293591E-01 a      1265     0    51     1    15
  2.0754395661466155E-01 a      1266     0    51     1    16
 -7.3970391207297589E-03 a      1267     0    51     1    17
 -5.7525020524649584E-02 a      1268     0    51     1    18
 -2.9162134355840685E-01 a      1269     0    51     1    19
  4.8738786415232958E-02 a      1270     0    51     1    20
 -1.8066188075056944E-01 a      1271     0    51     1    21
 -3.6739148234095874E-02 a      1272     0    51     1    22
 -2.7469988858312158E-02 a      1273     0    51     1    23
  6.6420332695334525E-02 a      1274     0    51     1    24
  9.3727630342985493E-02 a      1275     0    51     1    25
  1.1899500213245288E-01 a      1276     0    52     1     1
  3.1026441568943630E-01 a      1277     0    52     1     2
  1.9566274258569036E-01 a      1278     0    52     1     3
  3.6638883440754041E-02 a      1279     0    52     1     4
 -1.2199011006946721E-01 a      1280     0    52     1     5
 -6.4812573914762819E-02 a      1281     0    52     1     6
 -4.1807649485092557E-01 a      1282     0    52     1     7
  3.5634871140913382E-01 a      1283     0    52     1     8
  6.1298165534727903E-02 a      1284     0    52     1     9
  2.0365825606385121E-01 a      1285     0    52     1    10
  4.6906302171202535E-02 a      1286     0    52     1    11
  2.8060838084699941E-01 a      1287     0    52     1    12
  2.3065422652543502E-01 a      1288     0    52     1    13
  7.3737369042541787E-02 a      1289     0    52     1    14
  2.2571186825076905E-01 a      1290     0    52     1    15
 -2.5047809950180561E-01 a      1291     0    52     1    16
  1.5384937987131275E-01 a      1292     0    52     1    17
  2.2693760566222193E-01 a      1293     0    52     1    18
  2.6367585452698844E-01 a      1294     0    52     1    19
 -2.1878806224393818E-01 a      1295     0    52     1    20
 -3.4480056659934144E-02 a      1296     0    52     1    21
  1.3938954836172401E-01 a      1297     0    52     1    22
 -1.1945799867531820E-01 a      1298     0    52     1    23
  1.1013678056714425E-01 a      1299     0    52     1    24
 -1.8524067058541263E-01 a      1300     0    52     1    25
 -1.0690153603771455E-01 a      1301     0    53     1     1
  1.7945881490837751E-01 a      1302     0    53     1     2
  1.5541416406989311E-01 a      1303     0    53     1     3
 -1.4823873847668531E-01 a      1304     0    53     1     4
  7.9293381443164349E-02 a      1305     0    53     1     5
  1.3203947885327758E-01 a      1306     0    53     1     6
 -1.5588384786956386E-01 a      1307     0    53     1     7
 -1.9224045785637298E-01 a      1308     0    53     1     8
 -2.3909001218048700E-02 a      1309     0    53     1     9
 -1.7179479765328987E-01 a      1310     0    53     1    10
 -1.4077279464089376E-01 a      1311     0    53     1    11
 -1.1435828374303889E-01 a      1312     0    53     1    12
 -7.1619665672004743E-02 a      1313     0    53     1    13
 -1.5205333637759505E-01 a      1314     0    53     1    14
 -1.1360197492022199E-01 a      1315     0    53     1    15
  2.0632554386841015E-01 a      1316     0    53     1    16
 -1.9367300891764694E-01 a      1317     0    53     1    17
  6.3923558451240231E-02 a      1318     0    53     1    18
  1.5352187604180165E-01 a      1319     0    53     1    19
  9.4692203500219382E-02 a      1320     0    53     1    20
 -7.3597341288289611E-02 a      1321     0    53     1    21
 -1.6513218596832124E-01 a      1322     0    53     1    22
  1.0279704373754424E-01 a      1323     0    53     1    23
 -2.8625246378471036E-01 a      1324     0    53     1    24
  2.4343435027738711E-01 a      1325     0    53     1    25
  1.0961269626298518E-01 a      1326     0    54     1     1
 -2.6445442333057945E-01 a      1327     0    54     1     2
 -1.6238179417746343E-01 a      1328     0    54     1     3
  3.6404008512254177E-01 a      1329     0    54     1     4
  1.0586813792576909E-01 a      1330     0    54     1     5
  1.2916926094123554E-01 a      1331     0    54     1     6
 -6.4726495872978226E-02 a      1332     0    54     1     7
  7.3489537233457747E-02 a      1333     0    54     1     8
 -1.6031401796953024E-01 a      1334     0    54     1     9
  1.1109862897638205E-02 a      1335     0    54     1    10
  2.5425447426434383E-01 a      1336     0    54     1    11
 -1.2625158017486468E-01 a      1337     0    54     1    12
  2.6675058310107480E-01 a      1338     0    54     1    13
  9.8378897731805238E-03 a      1339     0    54     1    14
  3.0720248371711978E-01 a      1340     0    54     1    15
  1.0862064397678259E-01 a      1341     0    54     1    16
  7.0863752290338908E-02 a      1342     0    54     1    17
  1.8084346190800160E-01 a      1343     0    54     1    18
  8.0450406494239582E-02 a      1344     0    54     1    19
  1.7313818180633894E-01 a      1345     0    54     1    20
 -1.3964261184756591E-01 a      1346     0    54     1    21
 -5.6870837251503339E-02 a      1347     0    54     1    22
 -1.5855365108101957E-01 a      1348     0    54     1    23
  1.3103381598550918E-02 a      1349     0    54     1    24
  1.6944143785490784E-01 a      1350     0    54     1    25
 -1.7793692942230396E-01 a      1351     0    55     1     1
  2.1360535934559139E-03 a      1352     0    55     1     2
 -8.2568336132513284E-02 a      1353     0    55     1     3
  2.5799916183399586E-02 a      1354     0    55     1     4
 -1.8889453033829280E-02 a      1355     0    55     1     5
 -1.6205670209066969E-01 a      1356     0    55     1     6
 -5.0228610799790512E-02 a      1357     0    55     1     7
 -1.5801099162895035E-01 a      1358     0    55     1     8
  6.2613173368784567E-02 a      1359     0    55     1     9
 -2.7964700553394926E-02 a      1360     0    55     1    10
 -1.7302191336482040E-01 a      1361     0    55     1    11
  9.8228808671019380E-03 a      1362     0    55     1    12
 -2.9375509765281671E-01 a      1363     0    55     1    13
 -8.4722092084573264E-02 a      1364     0    55     1    14
  2.4979232911947830E-02 a      1365     0    55     1    15
 -7.4930396828172721E-02 a      1366     0    55     1    16
 -4.4931566092691465E-02 a      1367     0    55     1    17
 -1.6580337551322194E-01 a      1368     0    55     1    18
 -4.1420571925648596E-02 a      1369     0    55     1    19
 -1.7776772679862710E-01 a      1370     0    55     1    20
  1.5957729222436898E-01 a      1371     0    55     1    21
 -1.4916978603396155E-01 a      1372     0    55     1    22
 -7.5629513281372213E-02 a      1373     0    55     1    23
 -1.8045372036423080E-01 a      1374     0    55     1    24
 -6.3603505073440675E-02 a      1375     0    55     1    25
  1.1690348984054931E-01 a      1376     0    56     1     1
  1.6340628322981174E-01 a      1377     0    56     1     2
  8.3621611838682788E-02 a      1378     0    56     1     3
  7.8225050081985964E-02 a      1379     0    56     1     4
  1.0556593678847932E-01 a      1380     0    56     1     5
 -6.3643946359129538E-02 a      1381     0    56     1     6
 -5.0142916859589423E-02 a      1382     0    56     1     7
  1.6751368018649519E-02 a      1383     0    56     1     8
  2.6596115880792159E-01 a      1384     0    56     1     9
 -1.1664303528093678E-01 a      1385     0    56     1    10
 -2.8195269348444744E-02 a      1386     0    56     1    11
  8.6480762547905848E-02 a      1387     0    56     1    12
 -1.3269272704555762E-01 a      1388     0    56     1    13
  1.2125483115091884E-01 a      1389     0    56     1    14
 -2.2764544288719069E-01 a      1390     0    56     1    15
  5.7302879013543861E-02 a      1391     0    56     1    16
  2.4025884942129611E-02 a      1392     0    56     1    17
 -1.5286913950827016E-01 a      1393     0    56     1    18
 -3.5377991847081715E-02 a      1394     0    56     1    19
 -4.7958239880347475E-02 a      1395     0    56     1    20
  1.6512999935582348E-02 a      1396     0    56     1    21
  2.9134446538532977E-01 a      1397     0    56     1    22
  4.8347635842970055E-02 a      1398     0    56     1    23
  7.8784733194711534E-02 a      1399     0    56     1    24
  5.6972507024797274E-02 a      1400     0    56     1    25
  1.5022971589858314E-01 a      1401     0    57     1     1
 -1.8956595595792175E-01 a      1402     0    57     1     2
 -7.9710786881835687E-03 a      1403     0    57     1     3
  1.4979113701774249E-01 a      1404     0    57     1     4
  9.7370842926905343E-02 a      1405     0    57     1     5
  1.3628754858264261E-01 a      1406     0    57     1     6
  2.4990998169987885E-01 a      1407     0    57     1     7
 -2.4759653716639701E-01 a      1408     0    57     1     8
 -1.6883079239517432E-01 a      1409     0    57     1     9
 -1.8384331413175878E-01 a      1410     0    57     1    10
  9.6670922901234326E-03 a      1411     0    57     1    11
 -4.6871912316605651E-03 a      1412     0    57     1    12
 -1.3892415603357522E-01 a      1413     0    57     1    13
  5.6084920477991677E-02 a      1414     0    57     1    14
 -1.7002370135967355E-02 a      1415     0    57     1    15
  1.1746433977072017E-01 a      1416     0    57     1    16
 -6.9338390891843835E-02 a      1417     0    57     1    17
  1.6763923452764309E-01 a      1418     0    57     1    18
  2.1625377497873113E-01 a      1419     0    57     1    19
 -5.8285393473470077E-03 a      1420     0    57     1    20
 -1.9933056888744727E-01 a      1421     0    57     1    21
  9.3817780875218207E-02 a      1422     0    57     1    22
  1.1426283039127522E-01 a      1423     0    57     1    23
  1.3326579899578861E-01 a      1424     0    57     1    24
 -2.3744046384380280E-01 a      1425     0    57     1    25
  5.7379488839930354E-02 a      1426     0    58     1     1
 -1.6348818904002235E-01 a      1427     0    58     1     2
  1.0987895476144664E-01 a      1428     0    58     1     3
 -1.4907920983103787E-01 a      1429     0    58     1     4
  2.3400347774436278E-01 a      1430     0    58     1     5
 -1.0848368337185248E-01 a      1431     0    58     1     6
 -1.1411075108034813E-02 a      1432     0    58     1     7
  1.5540816856794909E-01 a      1433     0    58     1     8
 -3.4901326524227234E-02 a      1434     0    58     1     9
  1.5946609140528914E-01 a      1435     0    58     1    10
 -9.2675716983309980E-02 a      1436     0    58     1    11
 -7.8745602760250749E-02 a      1437     0    58     1    12
 -7.6831305336402048E-02 a      1438     0    58     1    13
  1.6728591996907111E-01 a      1439     0    58     1    14
  1.2651008362856531E-01 a      1440     0    58     1    15
  2.7779756743543432E-01 a      1441     0    58     1    16
  2.1558317734461707E-02 a      1442     0    58     1    17
 -4.8749750689876963E-02 a      1443     0    58     1    18
 -1.5013079610464811E-01 a      1444     0    58     1    19
  1.6456439930358477E-01 a      1445     0    58     1    20
 -2.4563125553408683E-03 a      1446     0    58     1    21
  9.7134315225295198E-02 a      1447     0    58     1    22
 -7.1068940978762929E-02 a      1448     0    58     1    23
 -1.8289053253905913E-02 a      1449     0    58     1    24
  1.4567347558951238E-01 a      1450     0    58     1    25
 -1.1575381088838904E-01 a      1451     0    59     1     1
  5.1936621444817692E-02 a      1452     0    59     1     2
  3.9546822080862187E-02 a      1453     0    59     1     3
  1.0353898274673065E-01 a      1454     0    59     1     4
 -4.0501289823982142E-02 a      1455     0    59     1     5
 -1.6052224195642864E-01 a      1456     0    59     1     6
  1.2450156258948439E-01 a      1457     0    59     1     7
 -2.2219068636384906E-01 a      1458     0    59     1     8
 -1.4659982916801859E-01 a      1459     0    59     1     9
 -8.5806006257965473E-02 a      1460     0    59     1    10
  1.1371416964470769E-01 a      1461     0    59     1    11
 -5.7356435322430564E-04 a      1462     0    59     1    12
 -7.3461126238020424E-02 a      1463     0    59     1    13
 -1.6682158192349625E-01 a      1464     0    59     1    14
  1.1610852746982897E-01 a      1465     0    59     1    15
 -1.9251173547736630E-03 a      1466     0    59     1    16
 -6.3123989139264786E-02 a      1467     0    59     1    17
 -1.5380321617532042E-01 a      1468     0    59     1    18
  1.9536333807422768E-01 a      1469     0    59     1    19
  3.3349368792920953E-01 a      1470     0    59     1    20
 -1.2817514705897462E-01 a      1471     0    59     1    21
  1.6744280403350598E-01 a      1472     0    59     1    22
 -2.1527489905253197E-01 a      1473     0    59     1    23
  5.6241115712896465E-02 a      1474     0    59     1    24
 -4.2092192297521397E-02 a      1475     0    59     1    25
 -1.7298259993485371E-01 a      1476     0    60     1     1
 -9.6628601368166228E-02 a      1477     0    60     1     2
 -1.6903029837320643E-01 a      1478     0    60     1     3
 -8.7673010673216492E-02 a      1479     0    60     1     4
  2.9845696716732228E-01 a      1480     0    60     1     5
 -2.2002118368473178E-01 a      1481     0    60     1     6
 -1.2924780638281563E-01 a      1482     0    60     1     7
  1.4443345175608371E-01 a      1483     0    60     1     8
  1.8370423648484324E-01 a      1484     0    60     1     9
 -1.4882958597342330E-01 a      1485     0    60     1    10
 -3.4411749340347952E-01 a      1486     0    60     1    11
  4.0344533597099150E-02 a      1487     0    60     1    12
 -1.9795627210849717E-01 a      1488     0    60     1    13
 -8.4701991598143567E-02 a      1489     0    60     1    14
 -7.1338948150254738E-02 a      1490     0    60     1    15
  1.2244147328579241E-03 a      1491     0    60     1    16
 -2.3563826893389223E-01 a      1492     0    60     1    17
 -1.7955454043837485E-01 a      1493     0    60     1    18
 -1.2464564610298673E-01 a      1494     0    60     1    19
  8.6444903888103497E-02 a      1495     0    60     1    20
  6.1073380344177253E-02 a      1496     0    60     1    21
 -5.1250825196643646E-02 a      1497     0    60     1    22
 -1.9110111519277759E-01 a      1498     0    60     1    23
  8.3669797360924239E-02 a      1499     0    60     1    24
  1.2586220449507821E-01 a      1500     0    60     1    25
 -5.3597062548740144E-02 a      1501     0    61     1     1
 -1.4937807958167756E-01 a      1502     0    61     1     2
  2.1739961373912018E-02 a      1503     0    61     1     3
 -5.0205706667500807E-02 a      1504     0    61     1     4
  2.5559161254828863E-02 a      1505     0    61     1     5
 -5.3741106197140447E-02 a      1506     0    61     1     6
 -4.4219545555340767E-03 a      1507     0    61     1     7
 -1.5979446521610566E-01 a      1508     0    61     1     8
  7.0786480140633642E-02 a      1509     0    61     1     9
 -3.6067079395114182E-01 a      1510     0    61     1    10
 -1.6410158583010725E-01 a      1511     0    61     1    11
 -1.6240799492680635E-01 a      1512     0    61     1    12
  1.4839681728665644E-01 a      1513     0    61     1    13
  7.6952883504504868E-02 a      1514     0    61     1    14
  1.1821885256596754E-01 a      1515     0    61     1    15
 -2.3420562365525741E-01 a      1516     0    61     1    16
  9.0491567192874073E-02 a      1517     0    61     1    17
  5.7530701825032468E-03 a      1518     0    61     1    18
  3.8725109882100879E-02 a      1519     0    61     1    19
  6.3517012744516835E-02 a      1520     0    61     1    20
  1.0085525501492336E-01 a      1521     0    61     1    21
  7.9088330446929575E-02 a      1522     0    61     1    22
 -3.5326241230849986E-02 a      1523     0    61     1    23
  7.4884708835534705E-02 a      1524     0    61     1    24
 -2.8507386918480353E-02 a      1525     0    61     1    25
  6.4985582700779797E-03 a      1526     0    62     1     1
  1.9293311319810844E-01 a      1527     0    62     1     2
  1.0014928308935689E-01 a      1528     0    62     1     3
  1.1205206993606753E-01 a      1529     0    62     1     4
  4.9869505827618371E-02 a      1530     0    62     1     5
  2.1852042754746726E-01 a      1531     0    62     1     6
  3.8499831299682104E-02 a      1532     0    62     1     7
 -1.3607302267203487E-02 a      1533     0    62     1     8
  7.4281281894301705E-04 a      1534     0    62     1     9
 -1.3352671335564048E-01 a      1535     0    62     1    10
  2.5064704686325290E-01 a      1536     0    62     1    11
 -1.4992880760450919E-01 a      1537     0    62     1    12
  6.3196188143933671E-02 a      1538     0    62     1    13
 -7.5833209154332490E-02 a      1539     0    62     1    14
 -5.8612855696804272E-02 a      1540     0    62     1    15
 -7.9642946982167208E-03 a      1541     0    62     1    16
 -4.2458138026183284E-02 a      1542     0    62     1    17
 -3.3825267936411198E-02 a      1543     0    62     1    18
 -2.0719267742733562E-02 a      1544     0    62     1    19
 -1.3955250276488401E-01 a      1545     0    62     1    20
 -8.0886699936147485E-02 a      1546     0    62     1    21
 -9.9283685340189762E-02 a      1547     0    62     1    22
  7.2362381099129014E-02 a      1548     0    62     1    23
 -5.1317574780519550E-02 a      1549     0    62     1    24
  1.1285833191313205E-01 a      1550     0    62     1    25
 -1.4065700804493396E-02 a      1551     0    63     1     1
 -9.8683059496122036E-02 a      1552     0    63     1     2
  1.9519651308033742E-01 a      1553     0    63     1     3
 -5.3910283267714930E-02 a      1554     0    63     1     4
  8.5327764918920093E-02 a      1555     0    63     1     5
  2.0558741136821990E-02 a      1556     0    63     1     6
 -9.0186491960929843E-02 a      1557     0    63     1     7
  1.0307425940968358E-01 a      1558     0    63     1     8
  1.1225885076607833E-02 a      1559     0    63     1     9
 -3.5616097301287902E-01 a      1560     0    63     1    10
 -1.3581896019118780E-01 a      1561     0    63     1    11
  3.3268578800715354E-01 a      1562     0    63     1    12
  8.6586778067992531E-02 a      1563     0    63     1    13
 -3.9332889149751547E-02 a      1564     0    63     1    14
  6.4050854092924641E-03 a      1565     0    63     1    15
 -1.7359480301256558E-02 a      1566     0    63     1    16
  6.8674203538215432E-03 a      1567     0    63     1    17
  8.7105022475268246E-02 a      1568     0    63     1    18
 -1.0675334190888848E-01 a      1569     0    63     1    19
  1.8215785605506041E-01 a      1570     0    63     1    20
  5.3320017530175789E-02 a      1571     0    63     1    21
 -1.5243298941377223E-01 a      1572     0    63     1    22
  1.2430090090736170E-02 a      1573     0    63     1    23
 -5.8319963281128345E-02 a      1574     0    63     1    24
 -7.7167230111085732E-03 a      1575     0    63     1    25
  4.5446615655221421E-02 a      1576     0    64     1     1
  9.4685598978390739E-02 a      1577     0    64     1     2
 -1.5214083346297705E-01 a      1578     0    64     1     3
 -2.0213439495245195E-02 a      1579     0    64     1     4
  1.9754157761814654E-02 a      1580     0    64     1     5
  1.6272889362171139E-01 a      1581     0    64     1     6
 -9.5240939126334898E-02 a      1582     0    64     1     7
 -3.4251551679617218E-03 a      1583     0    64     1     8
 -5.7271831265761047E-02 a      1584     0    64     1     9
 -3.7112328337550994E-02 a      1585     0    64     1    10
  4.9561980117955179E-02 a      1586     0    64     1    11
  5.8689048429994187E-02 a      1587     0    64     1    12
 -6.8194023122354702E-02 a      1588     0    64     1    13
  1.0959666140919634E-01 a      1589     0    64     1    14
  8.5366824296504912E-02 a      1590     0    64     1    15
  5.1777236648731365E-02 a      1591     0    64     1    16
 -1.4386976201692863E-02 a      1592     0    64     1    17
 -4.2997209742412716E-02 a      1593     0    64     1    18
  4.7937562957180220E-02 a      1594     0    64     1    19
  4.7078391600662593E-02 a      1595     0    64     1    20
 -9.2631047573100145E-02 a      1596     0    64     1    21
 -6.2461311396785443E-02 a      1597     0    64     1    22
  5.8723441327340274E-02 a      1598     0    64     1    23
 -1.4010768485393532E-01 a      1599     0    64     1    24
  1.5184643352875207E-01 a      1600     0    64     1    25
  5.5482808786567146E-02 a      1601     0    65     1     1
 -2.3271751051521170E-01 a      1602     0    65     1     2
 -5.4669671796179937E-02 a      1603     0    65     1     3
  1.4884550683055657E-02 a      1604     0    65     1     4
  1.0142704527890421E-02 a      1605     0    65     1     5
 -2.1933399663308206E-01 a      1606     0    65     1     6
 -8.8878260186030247E-02 a      1607     0    65     1     7
  3.5542585158502941E-02 a      1608     0    65     1     8
 -1.0238259867522866E-02 a      1609     0    65     1     9
  6.7392068369618710E-02 a      1610     0    65     1    10
 -2.8471587930179321E-01 a      1611     0    65     1    11
  9.0872473821794877E-02 a      1612     0    65     1    12
 -9.7602407095161228E-02 a      1613     0    65     1    13
 -4.5188038557209327E-02 a      1614     0    65     1    14
  8.4999545171539001E-02 a      1615     0    65     1    15
 -6.8773008728050561E-02 a      1616     0    65     1    16
  4.1834011736166125E-02 a      1617     0    65     1    17
  9.8534978848044116E-02 a      1618     0    65     1    18
 -1.3398871140247702E-02 a      1619     0    65     1    19
  1.5584704291128706E-01 a      1620     0    65     1    20
  7.8374770501688423E-02 a      1621     0    65     1    21
  2.4681939204758096E-02 a      1622     0    65     1    22
 -3.2603555591995174E-02 a      1623     0    65     1    23
