################################################################################
# Neural network connection values (weights and biases).
################################################################################
# Col  Name       Description
################################################################################
# 1    connection Neural network connection value.
# 2    t          Connection type (a = weight, b = bias).
# 3    index      Index enumerating weights.
# 4    l_s        Starting point layer (end point layer for biases).
# 5    n_s        Starting point neuron in starting layer (end point neuron for biases).
# 6    l_e        End point layer.
# 7    n_e        End point neuron in end layer.
################################################################################
#                      1 2         3     4     5     6     7
#             connection t     index   l_s   n_s   l_e   n_e
############################################################
 -1.4852981533204024E-01 a         1     0     1     1     1
 -1.3027989973871418E-01 a         2     0     1     1     2
  1.5498879753413382E-02 a         3     0     1     1     3
 -1.6911449013910834E-01 a         4     0     1     1     4
  7.4428282225274409E-02 a         5     0     1     1     5
  5.3085069986695509E-02 a         6     0     1     1     6
  8.1610440519741770E-02 a         7     0     1     1     7
 -1.6619781772381898E-02 a         8     0     1     1     8
 -2.2819094916160743E-02 a         9     0     1     1     9
 -1.1624970116904904E-02 a        10     0     1     1    10
  2.0358186062751169E-03 a        11     0     1     1    11
  3.3389206787960098E-02 a        12     0     1     1    12
  8.8282367113947685E-02 a        13     0     1     1    13
  8.5455590269370760E-02 a        14     0     1     1    14
  1.3974241073951899E-01 a        15     0     1     1    15
 -1.8003591702032661E-02 a        16     0     1     1    16
  1.1463909360281296E-01 a        17     0     1     1    17
 -1.4064635760276717E-01 a        18     0     1     1    18
  1.2375787957136326E-01 a        19     0     1     1    19
  1.3428604691222698E-01 a        20     0     1     1    20
  1.1938416397527650E-01 a        21     0     1     1    21
 -1.3488877107548609E-02 a        22     0     1     1    22
  8.1955062481544841E-02 a        23     0     1     1    23
 -1.8104648876006044E-01 a        24     0     1     1    24
 -1.4866606537104732E-01 a        25     0     1     1    25
 -1.5747443646780152E-01 a        26     0     2     1     1
 -9.7898796061140214E-02 a        27     0     2     1     2
 -6.7003662698978603E-02 a        28     0     2     1     3
 -5.9806613181721483E-03 a        29     0     2     1     4
 -9.2987022210254663E-02 a        30     0     2     1     5
 -5.9651404316870986E-02 a        31     0     2     1     6
  2.2365674200489100E-01 a        32     0     2     1     7
 -1.6440470866744761E-01 a        33     0     2     1     8
 -1.9051328270760462E-02 a        34     0     2     1     9
 -2.0881575713930572E-03 a        35     0     2     1    10
  1.8309046841034546E-01 a        36     0     2     1    11
 -1.0543509222178485E-02 a        37     0     2     1    12
 -7.4564786107273975E-02 a        38     0     2     1    13
  1.8199059587871491E-01 a        39     0     2     1    14
  1.1264105298340321E-01 a        40     0     2     1    15
 -3.9016630145398697E-02 a        41     0     2     1    16
  1.2348495632753698E-01 a        42     0     2     1    17
  1.5320570065399119E-01 a        43     0     2     1    18
 -1.5908841350922318E-01 a        44     0     2     1    19
  3.3235877630462915E-02 a        45     0     2     1    20
  1.1760477812314635E-01 a        46     0     2     1    21
  1.9552116107846249E-01 a        47     0     2     1    22
  1.3092465837277120E-01 a        48     0     2     1    23
 -2.0078103615796936E-01 a        49     0     2     1    24
 -6.7112339380540773E-02 a        50     0     2     1    25
  1.7202079020767674E-02 a        51     0     3     1     1
  1.3368774765324895E-01 a        52     0     3     1     2
 -6.8466675211051667E-02 a        53     0     3     1     3
 -1.0132598132322714E-01 a        54     0     3     1     4
  1.7017106282712760E-01 a        55     0     3     1     5
 -4.9302567830375697E-02 a        56     0     3     1     6
  1.7035595584572107E-02 a        57     0     3     1     7
  1.4230126930672911E-02 a        58     0     3     1     8
 -1.6933923093766998E-01 a        59     0     3     1     9
  1.9796208128124368E-02 a        60     0     3     1    10
 -1.4894567546767930E-02 a        61     0     3     1    11
 -1.7514344294493389E-01 a        62     0     3     1    12
 -3.8268261657934577E-03 a        63     0     3     1    13
  4.5842825363697312E-02 a        64     0     3     1    14
  2.7070045024363196E-02 a        65     0     3     1    15
 -1.7360765784881371E-01 a        66     0     3     1    16
  5.9233626090393642E-02 a        67     0     3     1    17
  1.0489944897580770E-01 a        68     0     3     1    18
 -1.4628187262526583E-02 a        69     0     3     1    19
  1.1596386821976461E-01 a        70     0     3     1    20
 -6.0183162985094747E-02 a        71     0     3     1    21
  1.7930340711062218E-01 a        72     0     3     1    22
 -1.8118520431856586E-01 a        73     0     3     1    23
 -2.1991242258109647E-01 a        74     0     3     1    24
 -1.2608251898115674E-01 a        75     0     3     1    25
 -3.4423513606467199E-02 a        76     0     4     1     1
 -2.1022223798850923E-01 a        77     0     4     1     2
 -6.7702423012466914E-02 a        78     0     4     1     3
 -2.6051201145273972E-01 a        79     0     4     1     4
 -6.0774752267064330E-02 a        80     0     4     1     5
  1.4197717491314920E-02 a        81     0     4     1     6
  1.0561253205698617E-01 a        82     0     4     1     7
  5.9079239554916153E-02 a        83     0     4     1     8
  2.3381978839696291E-01 a        84     0     4     1     9
 -6.5980147964698407E-02 a        85     0     4     1    10
 -1.1007994073489231E-01 a        86     0     4     1    11
  5.9129763356571628E-02 a        87     0     4     1    12
 -1.9966718493427196E-01 a        88     0     4     1    13
 -7.1291593035028911E-02 a        89     0     4     1    14
 -2.2011540378769875E-01 a        90     0     4     1    15
  7.3636363317619413E-02 a        91     0     4     1    16
  1.8964756410987380E-01 a        92     0     4     1    17
 -6.4182220826486683E-02 a        93     0     4     1    18
 -6.0952230125268791E-02 a        94     0     4     1    19
  9.3124579003487723E-02 a        95     0     4     1    20
  4.6336791966887669E-02 a        96     0     4     1    21
  5.7129462237394915E-02 a        97     0     4     1    22
  2.7159808208464829E-02 a        98     0     4     1    23
  5.5298957567700868E-02 a        99     0     4     1    24
  2.0628257370185615E-01 a       100     0     4     1    25
 -3.8713091957500079E-01 a       101     0     5     1     1
  1.4527689387051176E-01 a       102     0     5     1     2
  5.2563914936120511E-02 a       103     0     5     1     3
 -5.0030820883220382E-02 a       104     0     5     1     4
  1.8690018830228616E-01 a       105     0     5     1     5
 -2.3111543263591258E-01 a       106     0     5     1     6
 -1.7107265955324619E-01 a       107     0     5     1     7
 -1.1822607765120784E-01 a       108     0     5     1     8
 -2.7520566189747780E-01 a       109     0     5     1     9
  5.1868567137076833E-02 a       110     0     5     1    10
 -1.8295562435017532E-01 a       111     0     5     1    11
 -1.3844273934429813E-01 a       112     0     5     1    12
 -8.6800542517462984E-02 a       113     0     5     1    13
  1.2055208638262556E-01 a       114     0     5     1    14
  1.0705054995996577E-01 a       115     0     5     1    15
  1.1852399897592023E-01 a       116     0     5     1    16
 -6.5853696340769638E-02 a       117     0     5     1    17
 -6.5194985903682071E-02 a       118     0     5     1    18
  7.9942211606771105E-02 a       119     0     5     1    19
 -6.6574749684317577E-02 a       120     0     5     1    20
 -1.9211074949581747E-01 a       121     0     5     1    21
 -2.3380932945543728E-01 a       122     0     5     1    22
 -1.4330734361299935E-01 a       123     0     5     1    23
  2.9883675970752632E-01 a       124     0     5     1    24
  2.7584209321687780E-01 a       125     0     5     1    25
  2.0767147716969350E-01 a       126     0     6     1     1
  1.4377935261755379E-01 a       127     0     6     1     2
 -1.4351985357084857E-01 a       128     0     6     1     3
  3.6280240548613819E-02 a       129     0     6     1     4
 -5.7565467049648673E-03 a       130     0     6     1     5
  8.1314320981599412E-03 a       131     0     6     1     6
 -1.3436762548512080E-01 a       132     0     6     1     7
  1.2539803864810833E-01 a       133     0     6     1     8
  1.1739771031341387E-01 a       134     0     6     1     9
 -9.9842170757040799E-02 a       135     0     6     1    10
  4.8603913415836100E-02 a       136     0     6     1    11
 -1.4914363632690833E-01 a       137     0     6     1    12
 -5.2895713558843642E-02 a       138     0     6     1    13
 -3.0902479704889507E-01 a       139     0     6     1    14
 -1.5940112903340964E-01 a       140     0     6     1    15
  7.4793638157815465E-02 a       141     0     6     1    16
  3.6618104812193422E-02 a       142     0     6     1    17
  1.1300395235282651E-02 a       143     0     6     1    18
  8.1668000865612073E-02 a       144     0     6     1    19
 -4.8339923672411141E-02 a       145     0     6     1    20
 -2.0922408193165284E-01 a       146     0     6     1    21
 -1.9065905157866214E-01 a       147     0     6     1    22
 -1.0586317264798500E-01 a       148     0     6     1    23
  6.1918705365439017E-02 a       149     0     6     1    24
 -6.5929689556795526E-02 a       150     0     6     1    25
  1.3467700983012171E-01 a       151     0     7     1     1
 -1.6345084319014178E-01 a       152     0     7     1     2
 -1.9935841478476518E-01 a       153     0     7     1     3
  1.0196220070131881E-01 a       154     0     7     1     4
 -1.5343721392801485E-01 a       155     0     7     1     5
 -9.9566186597673731E-03 a       156     0     7     1     6
 -2.4730909006637400E-01 a       157     0     7     1     7
  8.9582513748997006E-02 a       158     0     7     1     8
  1.4178142957534628E-01 a       159     0     7     1     9
 -4.3987104194772092E-03 a       160     0     7     1    10
 -1.2952645303215554E-01 a       161     0     7     1    11
  2.6948006588069223E-01 a       162     0     7     1    12
 -1.5109767717031283E-01 a       163     0     7     1    13
 -2.7569569751018302E-02 a       164     0     7     1    14
 -7.4157346588784215E-02 a       165     0     7     1    15
  1.7125228385019731E-01 a       166     0     7     1    16
  1.6513005858089605E-01 a       167     0     7     1    17
  1.7384511084641061E-01 a       168     0     7     1    18
  1.2474296488224709E-01 a       169     0     7     1    19
 -1.6020283404335550E-01 a       170     0     7     1    20
  5.3002726221283894E-02 a       171     0     7     1    21
 -1.6353944800479045E-01 a       172     0     7     1    22
  2.3450007236654968E-01 a       173     0     7     1    23
  1.9931402835987105E-01 a       174     0     7     1    24
 -2.6574827434662617E-03 a       175     0     7     1    25
 -4.8784533130651092E-02 a       176     0     8     1     1
  2.3385435795008006E-01 a       177     0     8     1     2
 -2.3803976906663163E-01 a       178     0     8     1     3
  1.9040835178309068E-01 a       179     0     8     1     4
  5.8466341348811991E-02 a       180     0     8     1     5
 -1.0822491431911255E-01 a       181     0     8     1     6
  7.6382423810318373E-02 a       182     0     8     1     7
  3.1641195463672750E-02 a       183     0     8     1     8
  1.6090862870322167E-01 a       184     0     8     1     9
  1.3860616918249105E-01 a       185     0     8     1    10
  3.4893875256603861E-02 a       186     0     8     1    11
  1.3131609373002609E-01 a       187     0     8     1    12
 -1.3938283624959946E-01 a       188     0     8     1    13
  7.5062370630232175E-02 a       189     0     8     1    14
  2.7494323519186786E-01 a       190     0     8     1    15
 -1.8019793947730081E-01 a       191     0     8     1    16
  8.0555835398909842E-02 a       192     0     8     1    17
 -9.6908783592986006E-02 a       193     0     8     1    18
  1.9745057157222046E-01 a       194     0     8     1    19
 -1.5226127733780868E-02 a       195     0     8     1    20
  1.1839785499678489E-01 a       196     0     8     1    21
 -1.1690742378693621E-01 a       197     0     8     1    22
  2.4577303644508269E-01 a       198     0     8     1    23
  7.6240096964649867E-02 a       199     0     8     1    24
 -1.7515743465762551E-01 a       200     0     8     1    25
 -2.5480468317145072E-01 a       201     0     9     1     1
  2.0893287588491426E-02 a       202     0     9     1     2
  5.8011908927408838E-02 a       203     0     9     1     3
 -2.7730701115427764E-01 a       204     0     9     1     4
 -1.2262798743200243E-01 a       205     0     9     1     5
  8.4273765428080308E-02 a       206     0     9     1     6
 -2.6842563420628468E-01 a       207     0     9     1     7
 -2.0584730079429764E-01 a       208     0     9     1     8
 -1.5965258071304937E-02 a       209     0     9     1     9
  2.1906922389006570E-01 a       210     0     9     1    10
 -1.7889294721565788E-01 a       211     0     9     1    11
  1.5753377556057160E-01 a       212     0     9     1    12
  2.7983628674999145E-01 a       213     0     9     1    13
  3.6639515166208342E-01 a       214     0     9     1    14
  2.9596339801903881E-01 a       215     0     9     1    15
  1.9395230166325589E-01 a       216     0     9     1    16
  2.8112296798524872E-01 a       217     0     9     1    17
 -5.7793160620792122E-02 a       218     0     9     1    18
 -9.8581691967230770E-03 a       219     0     9     1    19
 -1.7463293328813101E-01 a       220     0     9     1    20
 -2.8703058488572186E-01 a       221     0     9     1    21
 -1.5161660183231115E-01 a       222     0     9     1    22
 -7.8179885350960363E-02 a       223     0     9     1    23
  5.3349489153572321E-02 a       224     0     9     1    24
  3.3630832786058651E-01 a       225     0     9     1    25
  3.2092753768900173E-01 a       226     0    10     1     1
 -2.9962602316682696E-01 a       227     0    10     1     2
  1.5619299800120492E-02 a       228     0    10     1     3
 -7.2455313965815712E-02 a       229     0    10     1     4
  9.8311144881512352E-02 a       230     0    10     1     5
  4.0588842271217285E-02 a       231     0    10     1     6
 -2.4055452642903075E-01 a       232     0    10     1     7
 -1.8098207085356199E-02 a       233     0    10     1     8
  1.1819950176868023E-01 a       234     0    10     1     9
  1.7148848797410848E-01 a       235     0    10     1    10
 -3.3077705648170162E-02 a       236     0    10     1    11
  4.1543640739183679E-02 a       237     0    10     1    12
  5.8689693385246919E-02 a       238     0    10     1    13
  1.0107135662129521E-01 a       239     0    10     1    14
 -2.3733822227008630E-01 a       240     0    10     1    15
  1.3799367798951895E-01 a       241     0    10     1    16
 -3.4994926958304341E-02 a       242     0    10     1    17
 -5.4297040849278139E-02 a       243     0    10     1    18
 -7.4642448385799698E-02 a       244     0    10     1    19
  6.2683735366200186E-02 a       245     0    10     1    20
  1.5356449637985911E-01 a       246     0    10     1    21
  8.5572640010732101E-02 a       247     0    10     1    22
 -1.9976521853314103E-01 a       248     0    10     1    23
 -7.6374327751018586E-02 a       249     0    10     1    24
  4.3757661412190084E-03 a       250     0    10     1    25
  9.0684659856829039E-02 a       251     0    11     1     1
 -7.0760347316496608E-02 a       252     0    11     1     2
 -1.1597653656907542E-01 a       253     0    11     1     3
 -1.7502395257766482E-01 a       254     0    11     1     4
  1.0972944753591829E-01 a       255     0    11     1     5
 -1.8770234397274768E-01 a       256     0    11     1     6
 -9.6899836157981270E-02 a       257     0    11     1     7
 -3.0357748656623462E-01 a       258     0    11     1     8
 -8.5010882469680957E-02 a       259     0    11     1     9
 -1.2669854674571060E-01 a       260     0    11     1    10
 -2.4335068206716184E-01 a       261     0    11     1    11
 -1.1828467453303811E-01 a       262     0    11     1    12
  2.8826362182907977E-01 a       263     0    11     1    13
 -8.5221763297430253E-02 a       264     0    11     1    14
 -9.3406362345343205E-02 a       265     0    11     1    15
 -1.2530320224069841E-01 a       266     0    11     1    16
 -1.5200535289916053E-01 a       267     0    11     1    17
 -1.7567017897555717E-01 a       268     0    11     1    18
 -2.5036435640335314E-01 a       269     0    11     1    19
  8.3503058282642775E-02 a       270     0    11     1    20
 -1.1622859905970089E-01 a       271     0    11     1    21
  4.0789645373340663E-02 a       272     0    11     1    22
 -1.7690181688864734E-01 a       273     0    11     1    23
 -4.7094074510211560E-02 a       274     0    11     1    24
  1.1179814773420477E-01 a       275     0    11     1    25
  7.9610984920157085E-02 a       276     0    12     1     1
  5.9186838831626641E-02 a       277     0    12     1     2
 -1.1201003068502238E-01 a       278     0    12     1     3
 -4.6029832786361156E-02 a       279     0    12     1     4
  1.0278749116773695E-02 a       280     0    12     1     5
  6.8853897397527550E-02 a       281     0    12     1     6
  1.8926977597149017E-01 a       282     0    12     1     7
 -1.9012780120620104E-01 a       283     0    12     1     8
 -2.6847690696591642E-01 a       284     0    12     1     9
 -1.9872849701459555E-01 a       285     0    12     1    10
  6.7774042745776350E-02 a       286     0    12     1    11
  2.2928951207532355E-02 a       287     0    12     1    12
  9.7443889911736650E-02 a       288     0    12     1    13
  1.2642691463868005E-01 a       289     0    12     1    14
 -2.7089044579532839E-01 a       290     0    12     1    15
  2.2117115278559751E-01 a       291     0    12     1    16
 -2.3786813846528684E-01 a       292     0    12     1    17
  1.8478402499617763E-01 a       293     0    12     1    18
 -2.8235650218474289E-03 a       294     0    12     1    19
  4.8247257649086203E-02 a       295     0    12     1    20
  1.1499072633151181E-01 a       296     0    12     1    21
  3.8039366203925326E-02 a       297     0    12     1    22
 -1.2970334256419894E-01 a       298     0    12     1    23
 -8.0160498261667729E-03 a       299     0    12     1    24
 -1.5499144432081038E-01 a       300     0    12     1    25
 -1.2765117467786991E-01 a       301     0    13     1     1
 -3.5893551686667097E-01 a       302     0    13     1     2
  6.0241517492544847E-02 a       303     0    13     1     3
 -2.8574788449153010E-01 a       304     0    13     1     4
 -1.1930023127863847E-01 a       305     0    13     1     5
 -1.2903398544601707E-01 a       306     0    13     1     6
  2.3429436917585460E-02 a       307     0    13     1     7
 -2.9484733274932562E-01 a       308     0    13     1     8
  2.3752073364230844E-01 a       309     0    13     1     9
 -3.5188701892933011E-01 a       310     0    13     1    10
 -2.1500655540057254E-01 a       311     0    13     1    11
  3.4989250531790896E-02 a       312     0    13     1    12
  1.0101491774311236E-01 a       313     0    13     1    13
  3.5012847608198949E-01 a       314     0    13     1    14
  6.9664570108470963E-02 a       315     0    13     1    15
 -1.8856437785625596E-01 a       316     0    13     1    16
  3.2216726093040676E-01 a       317     0    13     1    17
  1.9423114811329559E-01 a       318     0    13     1    18
 -2.0425738397935257E-02 a       319     0    13     1    19
 -8.0498613985064013E-02 a       320     0    13     1    20
 -2.9326885626941374E-01 a       321     0    13     1    21
 -2.7650069155716134E-01 a       322     0    13     1    22
  1.3000970208071311E-01 a       323     0    13     1    23
  6.0434113066796032E-02 a       324     0    13     1    24
  6.9729196369097413E-02 a       325     0    13     1    25
 -1.1405183755326623E-01 a       326     0    14     1     1
 -8.6651887757994761E-02 a       327     0    14     1     2
 -2.8725728208900903E-01 a       328     0    14     1     3
  1.7146230412030031E-01 a       329     0    14     1     4
 -1.3458539404607355E-03 a       330     0    14     1     5
  1.5706847219100727E-02 a       331     0    14     1     6
 -2.2363306634436675E-01 a       332     0    14     1     7
 -2.3047489946897814E-01 a       333     0    14     1     8
 -1.8220574259821345E-01 a       334     0    14     1     9
 -1.3578596703355594E-01 a       335     0    14     1    10
 -6.1067181052991734E-02 a       336     0    14     1    11
  1.2254283272534935E-01 a       337     0    14     1    12
 -9.0417517482691501E-02 a       338     0    14     1    13
 -1.3061932161496623E-01 a       339     0    14     1    14
 -5.8316065621688104E-02 a       340     0    14     1    15
  4.7526944223501247E-02 a       341     0    14     1    16
 -4.8472575076208765E-02 a       342     0    14     1    17
  3.0201367239875293E-01 a       343     0    14     1    18
 -3.2598877553114046E-02 a       344     0    14     1    19
 -1.5078359783379036E-01 a       345     0    14     1    20
 -7.5770268853977155E-02 a       346     0    14     1    21
  2.3656233291946413E-01 a       347     0    14     1    22
 -6.3098303420626986E-02 a       348     0    14     1    23
 -4.6575373375170738E-02 a       349     0    14     1    24
  1.2187396014530751E-01 a       350     0    14     1    25
  1.7873084078348989E-01 a       351     0    15     1     1
 -4.5502168691381142E-02 a       352     0    15     1     2
 -2.2016356711602189E-01 a       353     0    15     1     3
 -4.7957267217260235E-01 a       354     0    15     1     4
 -3.6254711996935279E-01 a       355     0    15     1     5
 -2.1913031445721751E-01 a       356     0    15     1     6
 -1.0098099931766578E-01 a       357     0    15     1     7
 -2.3076338841815847E-01 a       358     0    15     1     8
 -9.5127173790964970E-02 a       359     0    15     1     9
 -1.8618538306300217E-01 a       360     0    15     1    10
 -4.3350034126997311E-01 a       361     0    15     1    11
  2.3951718588295534E-01 a       362     0    15     1    12
 -8.1378981917646184E-02 a       363     0    15     1    13
  1.9069948443845958E-01 a       364     0    15     1    14
  8.5758625011711470E-02 a       365     0    15     1    15
  9.9463411957234002E-02 a       366     0    15     1    16
  3.5326383771804748E-01 a       367     0    15     1    17
 -3.3064593206252102E-02 a       368     0    15     1    18
 -1.1227133774439274E-01 a       369     0    15     1    19
  1.9542214019145798E-01 a       370     0    15     1    20
 -1.1098839820143641E-01 a       371     0    15     1    21
 -2.6907985436885973E-01 a       372     0    15     1    22
  1.4387140571969212E-01 a       373     0    15     1    23
  2.0178564865256104E-01 a       374     0    15     1    24
 -3.5156123374235515E-01 a       375     0    15     1    25
 -1.3807351066280640E-01 a       376     0    16     1     1
 -2.6517772869171891E-01 a       377     0    16     1     2
 -4.0041558394609655E-02 a       378     0    16     1     3
  3.7162277203424493E-02 a       379     0    16     1     4
  1.5948309439098426E-01 a       380     0    16     1     5
  8.6883626164438496E-02 a       381     0    16     1     6
  1.7082463375458043E-01 a       382     0    16     1     7
  1.8233598899345152E-01 a       383     0    16     1     8
 -2.3337281123763967E-01 a       384     0    16     1     9
  1.0937839503440495E-01 a       385     0    16     1    10
  1.2796741274163703E-01 a       386     0    16     1    11
 -2.7178395389401333E-01 a       387     0    16     1    12
  1.9694641583648689E-01 a       388     0    16     1    13
 -1.9551467888639323E-01 a       389     0    16     1    14
  1.8658012641896668E-01 a       390     0    16     1    15
  7.2264080141431430E-02 a       391     0    16     1    16
  2.2979517151223286E-01 a       392     0    16     1    17
  2.6744799748716817E-02 a       393     0    16     1    18
 -1.4109523314955089E-01 a       394     0    16     1    19
 -1.4137913059218116E-01 a       395     0    16     1    20
 -2.4796959475966571E-01 a       396     0    16     1    21
  1.4100510884808515E-01 a       397     0    16     1    22
 -1.8739308570677124E-01 a       398     0    16     1    23
 -3.0505248474796985E-02 a       399     0    16     1    24
  3.7893402052374237E-01 a       400     0    16     1    25
  2.6639155977636370E-01 a       401     0    17     1     1
 -9.5441926991761433E-02 a       402     0    17     1     2
  1.9639506309267216E-01 a       403     0    17     1     3
  4.1364903869168586E-02 a       404     0    17     1     4
 -4.1534417003106411E-01 a       405     0    17     1     5
  1.8283015492339648E-02 a       406     0    17     1     6
  2.2862830981916474E-01 a       407     0    17     1     7
 -8.7059770821149171E-02 a       408     0    17     1     8
 -1.5087434747168149E-01 a       409     0    17     1     9
  2.6786494118382109E-01 a       410     0    17     1    10
 -3.5534135387881777E-01 a       411     0    17     1    11
  5.3737709176542844E-02 a       412     0    17     1    12
  1.5805588934215550E-01 a       413     0    17     1    13
 -2.4370498820328566E-02 a       414     0    17     1    14
 -3.0461850776146981E-01 a       415     0    17     1    15
 -2.7795174160455793E-01 a       416     0    17     1    16
 -2.6737896321156553E-02 a       417     0    17     1    17
  1.7119336920620498E-01 a       418     0    17     1    18
 -1.1332106099484951E-01 a       419     0    17     1    19
 -1.5880283485690391E-01 a       420     0    17     1    20
  9.9525252963165153E-02 a       421     0    17     1    21
 -1.6835944840418623E-01 a       422     0    17     1    22
 -1.6327535288262185E-01 a       423     0    17     1    23
  3.8392272908792748E-02 a       424     0    17     1    24
 -1.4914963119509945E-02 a       425     0    17     1    25
 -1.7296449330269931E-02 a       426     0    18     1     1
 -4.9650507689558948E-02 a       427     0    18     1     2
  6.4603900203873216E-02 a       428     0    18     1     3
  2.4048316188187487E-02 a       429     0    18     1     4
  3.0913569682760889E-01 a       430     0    18     1     5
 -4.5526319839786694E-02 a       431     0    18     1     6
  5.2257484372442375E-02 a       432     0    18     1     7
 -5.6280603666055286E-02 a       433     0    18     1     8
 -2.7197180633080209E-01 a       434     0    18     1     9
 -2.9312677921681551E-01 a       435     0    18     1    10
 -8.2228596985667798E-02 a       436     0    18     1    11
 -2.1809202834600880E-01 a       437     0    18     1    12
  2.4494623856383488E-01 a       438     0    18     1    13
 -2.2316115348612039E-01 a       439     0    18     1    14
 -2.1781535584219561E-01 a       440     0    18     1    15
  4.6403165699589011E-01 a       441     0    18     1    16
  5.0204378261995419E-02 a       442     0    18     1    17
  3.4290450627152851E-02 a       443     0    18     1    18
  7.5640223008441631E-03 a       444     0    18     1    19
 -3.8629930419662104E-02 a       445     0    18     1    20
  1.5140673268286883E-01 a       446     0    18     1    21
  3.5256876383765184E-01 a       447     0    18     1    22
  1.4434982307604927E-01 a       448     0    18     1    23
  1.9972010949652799E-01 a       449     0    18     1    24
 -1.2525740661914964E-01 a       450     0    18     1    25
  2.8430555824957748E-01 a       451     0    19     1     1
 -1.8564302872793082E-02 a       452     0    19     1     2
  6.6262624264247269E-02 a       453     0    19     1     3
 -9.8857530574012795E-02 a       454     0    19     1     4
 -4.1427562363730663E-01 a       455     0    19     1     5
 -2.3940134901068777E-01 a       456     0    19     1     6
 -3.0898464791215169E-01 a       457     0    19     1     7
 -6.7244416848978153E-02 a       458     0    19     1     8
 -2.7183004018300722E-01 a       459     0    19     1     9
 -9.3196885783798547E-02 a       460     0    19     1    10
 -3.1017479368709544E-01 a       461     0    19     1    11
  2.4636641616176266E-01 a       462     0    19     1    12
 -5.2173473626765492E-03 a       463     0    19     1    13
 -5.5527578133509725E-02 a       464     0    19     1    14
 -1.3492082397210514E-01 a       465     0    19     1    15
 -2.5386963439920268E-01 a       466     0    19     1    16
 -2.9837475600657450E-02 a       467     0    19     1    17
  1.5616475220683895E-01 a       468     0    19     1    18
  6.1543872122683578E-02 a       469     0    19     1    19
 -1.5596636251137702E-01 a       470     0    19     1    20
 -1.2915740544385826E-01 a       471     0    19     1    21
  1.6378696306865132E-02 a       472     0    19     1    22
 -2.8185123242536275E-01 a       473     0    19     1    23
  8.4209419713920444E-02 a       474     0    19     1    24
 -3.4088308174760600E-02 a       475     0    19     1    25
 -1.1995668797917540E-01 a       476     0    20     1     1
  1.2857421566741151E-01 a       477     0    20     1     2
 -9.0284363014577304E-02 a       478     0    20     1     3
 -7.7357202040169673E-02 a       479     0    20     1     4
 -6.1401310754421727E-02 a       480     0    20     1     5
  1.6716919735006056E-02 a       481     0    20     1     6
  2.9259580085064733E-02 a       482     0    20     1     7
 -2.0835071228385341E-01 a       483     0    20     1     8
  1.0405463616727320E-01 a       484     0    20     1     9
  3.3155307267122944E-02 a       485     0    20     1    10
 -1.8580070465815845E-02 a       486     0    20     1    11
  9.5320353029119495E-02 a       487     0    20     1    12
 -2.9962071304622778E-01 a       488     0    20     1    13
  6.2972959104809587E-02 a       489     0    20     1    14
  1.2120633264200341E-01 a       490     0    20     1    15
  2.0619103697499508E-01 a       491     0    20     1    16
  1.6653748863658802E-01 a       492     0    20     1    17
  2.2878225964159229E-01 a       493     0    20     1    18
 -4.5275947889212839E-02 a       494     0    20     1    19
 -2.3887608469258838E-02 a       495     0    20     1    20
 -3.1186759422874988E-01 a       496     0    20     1    21
  1.0890618593398205E-02 a       497     0    20     1    22
 -2.0587247308200785E-01 a       498     0    20     1    23
  1.4866354871837520E-01 a       499     0    20     1    24
  1.9370307605979870E-01 a       500     0    20     1    25
  3.4141926906855991E-01 a       501     0    21     1     1
  2.1857977132709067E-01 a       502     0    21     1     2
  6.8341186092458872E-02 a       503     0    21     1     3
 -1.8244172382642690E-01 a       504     0    21     1     4
 -3.1358580556216054E-01 a       505     0    21     1     5
  1.7221553513586063E-01 a       506     0    21     1     6
 -4.0981882851546247E-02 a       507     0    21     1     7
 -2.0077068069666706E-01 a       508     0    21     1     8
  3.3628029844455308E-02 a       509     0    21     1     9
 -1.3843653282267399E-01 a       510     0    21     1    10
 -2.4142048442139930E-01 a       511     0    21     1    11
 -2.1016299940747541E-02 a       512     0    21     1    12
  1.7511561381526944E-01 a       513     0    21     1    13
  1.5332046536204480E-01 a       514     0    21     1    14
 -1.9440224570228781E-01 a       515     0    21     1    15
  1.3413147362876160E-01 a       516     0    21     1    16
  6.4792059755239481E-02 a       517     0    21     1    17
 -7.6815369494268565E-02 a       518     0    21     1    18
 -6.8843392648547316E-02 a       519     0    21     1    19
 -8.8544167247159803E-03 a       520     0    21     1    20
  9.9925027136431185E-02 a       521     0    21     1    21
 -7.3574267217412906E-02 a       522     0    21     1    22
  4.4937345849326828E-02 a       523     0    21     1    23
  2.2285569602735082E-02 a       524     0    21     1    24
 -4.2882837139298274E-02 a       525     0    21     1    25
 -3.8718496277503273E-01 a       526     0    22     1     1
 -7.4549817794498124E-02 a       527     0    22     1     2
  2.4908773959390344E-02 a       528     0    22     1     3
 -5.9005579641326585E-02 a       529     0    22     1     4
  2.3323782285368022E-01 a       530     0    22     1     5
 -9.1979826675324616E-02 a       531     0    22     1     6
  6.4419149254172761E-02 a       532     0    22     1     7
  3.0201560482559269E-02 a       533     0    22     1     8
 -1.5706610000654206E-01 a       534     0    22     1     9
 -7.4076430192824994E-03 a       535     0    22     1    10
  2.5900885848692784E-01 a       536     0    22     1    11
 -1.6394662099260306E-02 a       537     0    22     1    12
  3.5115050008297003E-03 a       538     0    22     1    13
 -9.1180536318947195E-02 a       539     0    22     1    14
  7.0630998628173444E-02 a       540     0    22     1    15
  3.9514777835170817E-01 a       541     0    22     1    16
  6.6375074507983120E-02 a       542     0    22     1    17
 -6.9368164885014461E-02 a       543     0    22     1    18
  1.0645382380770934E-02 a       544     0    22     1    19
  4.8845748046656902E-02 a       545     0    22     1    20
 -1.6588341653893066E-01 a       546     0    22     1    21
  1.1370315200006256E-01 a       547     0    22     1    22
 -4.2728197279293237E-02 a       548     0    22     1    23
 -8.2659562561061148E-02 a       549     0    22     1    24
  1.6976226995783270E-01 a       550     0    22     1    25
  3.7986166517519654E-01 a       551     0    23     1     1
  1.6742905202158267E-01 a       552     0    23     1     2
 -6.1926473461951265E-02 a       553     0    23     1     3
 -1.7471037586318106E-01 a       554     0    23     1     4
 -4.7714546465436397E-01 a       555     0    23     1     5
  6.1166083634846651E-02 a       556     0    23     1     6
 -1.4409840938387097E-01 a       557     0    23     1     7
 -2.6395553063349664E-01 a       558     0    23     1     8
  3.2190283437948386E-01 a       559     0    23     1     9
  4.0385605005140546E-02 a       560     0    23     1    10
 -3.6120143133932259E-01 a       561     0    23     1    11
  1.4177944856265451E-02 a       562     0    23     1    12
 -1.6009457598532520E-01 a       563     0    23     1    13
  1.1563013816775089E-01 a       564     0    23     1    14
 -3.8258488159902432E-02 a       565     0    23     1    15
  1.0602209594305034E-02 a       566     0    23     1    16
 -1.2399051396967162E-01 a       567     0    23     1    17
 -5.0710011640973045E-02 a       568     0    23     1    18
 -1.3059599479963810E-01 a       569     0    23     1    19
 -1.5296828906398574E-01 a       570     0    23     1    20
  4.9730711385694952E-02 a       571     0    23     1    21
 -6.2957856668263035E-02 a       572     0    23     1    22
 -6.7207710651109517E-02 a       573     0    23     1    23
  4.2483617348908730E-02 a       574     0    23     1    24
 -1.0144205659967079E-01 a       575     0    23     1    25
 -2.7003453665100469E-01 a       576     0    24     1     1
 -1.6910854350578575E-01 a       577     0    24     1     2
  4.1219966047928602E-02 a       578     0    24     1     3
  1.6371389462236663E-01 a       579     0    24     1     4
  2.5622173080703942E-01 a       580     0    24     1     5
 -4.8451915946261706E-02 a       581     0    24     1     6
 -2.4745387266044597E-01 a       582     0    24     1     7
 -7.0717222850434098E-03 a       583     0    24     1     8
  2.5546596450451143E-02 a       584     0    24     1     9
 -9.5533199260958213E-02 a       585     0    24     1    10
  2.3594492326258437E-01 a       586     0    24     1    11
  6.0037177135214302E-02 a       587     0    24     1    12
  1.7875431647717013E-01 a       588     0    24     1    13
  3.8178228981292105E-02 a       589     0    24     1    14
  1.0370146602569441E-01 a       590     0    24     1    15
  1.6562751758946387E-01 a       591     0    24     1    16
 -2.0729309379571520E-01 a       592     0    24     1    17
 -9.1701627671360642E-02 a       593     0    24     1    18
  2.0047215394703003E-02 a       594     0    24     1    19
  3.7408865229061720E-02 a       595     0    24     1    20
  1.8123676822063550E-01 a       596     0    24     1    21
  2.0700270854334565E-01 a       597     0    24     1    22
  8.5539517949362293E-02 a       598     0    24     1    23
 -1.9563083429699152E-01 a       599     0    24     1    24
 -1.2029757243318025E-01 a       600     0    24     1    25
  2.1761478111380322E-01 a       601     0    25     1     1
  1.1824182458765492E-01 a       602     0    25     1     2
  8.5970993549819186E-02 a       603     0    25     1     3
 -7.4985392417062480E-02 a       604     0    25     1     4
 -2.9385653154647295E-01 a       605     0    25     1     5
  2.4290778040678754E-01 a       606     0    25     1     6
 -6.3493177711292786E-02 a       607     0    25     1     7
  1.5044217397038356E-01 a       608     0    25     1     8
  9.2390108356283154E-02 a       609     0    25     1     9
 -2.2124086073961624E-03 a       610     0    25     1    10
 -5.9178968796019159E-02 a       611     0    25     1    11
  2.0197252931156226E-01 a       612     0    25     1    12
 -5.8160471838859147E-02 a       613     0    25     1    13
  2.1541928211497627E-01 a       614     0    25     1    14
 -1.6486792791021201E-01 a       615     0    25     1    15
 -1.6778507937922368E-01 a       616     0    25     1    16
 -1.6130639390291557E-01 a       617     0    25     1    17
  1.7520538448585610E-01 a       618     0    25     1    18
 -1.3606711218902282E-01 a       619     0    25     1    19
  1.1621862831804998E-02 a       620     0    25     1    20
 -3.0152575196466386E-01 a       621     0    25     1    21
 -8.4254907457441304E-03 a       622     0    25     1    22
 -3.0067098202712172E-01 a       623     0    25     1    23
  3.7402716381709311E-01 a       624     0    25     1    24
 -2.6972604121891730E-01 a       625     0    25     1    25
 -2.9628181348574800E-01 a       626     0    26     1     1
 -8.7005625553416552E-02 a       627     0    26     1     2
 -3.8209329802054104E-02 a       628     0    26     1     3
  8.9374019972220248E-02 a       629     0    26     1     4
  1.4856577580742356E-01 a       630     0    26     1     5
  1.3517771671980106E-01 a       631     0    26     1     6
 -3.9512764002989464E-01 a       632     0    26     1     7
  5.9597937676008177E-02 a       633     0    26     1     8
 -1.4562375932075280E-01 a       634     0    26     1     9
  1.5944715954089300E-01 a       635     0    26     1    10
  2.1956886930341452E-03 a       636     0    26     1    11
  2.8220052320009677E-02 a       637     0    26     1    12
  2.5696955297101254E-01 a       638     0    26     1    13
 -7.3288765990306121E-02 a       639     0    26     1    14
  3.4899731611392226E-01 a       640     0    26     1    15
 -1.1622878106977959E-01 a       641     0    26     1    16
  1.3509215568179947E-01 a       642     0    26     1    17
  2.4554646468105158E-02 a       643     0    26     1    18
  1.4127866972248698E-02 a       644     0    26     1    19
 -2.9484296977384018E-02 a       645     0    26     1    20
  5.1149991151650379E-02 a       646     0    26     1    21
  1.7799134067725780E-01 a       647     0    26     1    22
  5.5407841953952701E-02 a       648     0    26     1    23
 -2.0817969205020884E-01 a       649     0    26     1    24
  3.3595296274424502E-01 a       650     0    26     1    25
 -2.0377995265930290E-01 a       651     0    27     1     1
 -4.6239013358470089E-02 a       652     0    27     1     2
  4.0431952739537175E-02 a       653     0    27     1     3
 -1.3760544601035027E-01 a       654     0    27     1     4
 -2.5545630256250401E-01 a       655     0    27     1     5
 -1.2176919147439047E-01 a       656     0    27     1     6
  1.2288007256978625E-01 a       657     0    27     1     7
 -2.4413406881307251E-02 a       658     0    27     1     8
 -2.4762712242788601E-02 a       659     0    27     1     9
  8.9476593501015930E-02 a       660     0    27     1    10
  8.3658628432097010E-02 a       661     0    27     1    11
  5.7062545761580825E-02 a       662     0    27     1    12
 -8.6410307824347748E-02 a       663     0    27     1    13
 -1.5614648748437296E-01 a       664     0    27     1    14
 -2.4420950520086307E-01 a       665     0    27     1    15
 -2.7626202503043096E-01 a       666     0    27     1    16
  6.9728736715074693E-02 a       667     0    27     1    17
 -2.7474610614656980E-01 a       668     0    27     1    18
 -2.6568727819156240E-02 a       669     0    27     1    19
  1.4405931878375136E-01 a       670     0    27     1    20
 -8.9117880954733691E-02 a       671     0    27     1    21
  6.2265302506067301E-02 a       672     0    27     1    22
 -1.1704939486341998E-01 a       673     0    27     1    23
  1.9269227017011528E-01 a       674     0    27     1    24
 -4.6621368365335550E-02 a       675     0    27     1    25
 -3.7542497111940237E-01 a       676     0    28     1     1
  1.6967607902532944E-01 a       677     0    28     1     2
 -3.5161435774868390E-02 a       678     0    28     1     3
  8.2746255553533557E-02 a       679     0    28     1     4
  1.6207825927471772E-01 a       680     0    28     1     5
 -6.3461733139786036E-02 a       681     0    28     1     6
 -1.1009789585013957E-01 a       682     0    28     1     7
  7.5403248403572584E-02 a       683     0    28     1     8
 -2.9916348485360407E-02 a       684     0    28     1     9
 -3.7312277879399452E-03 a       685     0    28     1    10
 -1.3890834384157152E-01 a       686     0    28     1    11
  4.3478134443725508E-03 a       687     0    28     1    12
  9.4459502005839052E-02 a       688     0    28     1    13
  5.6388404350551952E-02 a       689     0    28     1    14
 -1.2802422473263581E-01 a       690     0    28     1    15
  1.3542650166349327E-01 a       691     0    28     1    16
  8.6185867189377222E-02 a       692     0    28     1    17
  2.7174568640940927E-01 a       693     0    28     1    18
  1.9352641430346362E-01 a       694     0    28     1    19
  1.8177563826981163E-01 a       695     0    28     1    20
  1.0654716444300190E-01 a       696     0    28     1    21
  2.9956594012499813E-02 a       697     0    28     1    22
 -1.0452935086521344E-01 a       698     0    28     1    23
 -3.4392601658155653E-01 a       699     0    28     1    24
 -1.3982933103292636E-01 a       700     0    28     1    25
  3.4268332362291926E-01 a       701     0    29     1     1
  1.7393902490352509E-01 a       702     0    29     1     2
 -1.1428781103507438E-01 a       703     0    29     1     3
 -1.3765810951835758E-01 a       704     0    29     1     4
 -2.3673742681949925E-01 a       705     0    29     1     5
 -2.7637341342577970E-01 a       706     0    29     1     6
  4.0704931323853548E-02 a       707     0    29     1     7
 -3.7906679252261100E-01 a       708     0    29     1     8
  2.9475461833457034E-01 a       709     0    29     1     9
  2.1536056858283383E-02 a       710     0    29     1    10
 -2.6265802155564277E-01 a       711     0    29     1    11
  8.7272087066055548E-02 a       712     0    29     1    12
 -3.9065409818132633E-02 a       713     0    29     1    13
 -1.5864038280509646E-01 a       714     0    29     1    14
 -3.6154677417168962E-01 a       715     0    29     1    15
 -2.0434888375012508E-01 a       716     0    29     1    16
  6.2876134412954393E-02 a       717     0    29     1    17
 -2.9231911465078159E-01 a       718     0    29     1    18
  1.3503331186450554E-01 a       719     0    29     1    19
 -1.1015357051098336E-01 a       720     0    29     1    20
 -5.0916200867853131E-02 a       721     0    29     1    21
 -7.5698510641261693E-02 a       722     0    29     1    22
 -3.4223799902333762E-02 a       723     0    29     1    23
 -3.4061764986309147E-02 a       724     0    29     1    24
 -1.1259565163368436E-01 a       725     0    29     1    25
 -2.9662978094799053E-01 a       726     0    30     1     1
 -5.4358191235012697E-02 a       727     0    30     1     2
 -1.3564063778122434E-01 a       728     0    30     1     3
  8.6630710201595448E-02 a       729     0    30     1     4
  1.8160356975186628E-01 a       730     0    30     1     5
 -1.1133498446304040E-01 a       731     0    30     1     6
 -7.6243405809320222E-02 a       732     0    30     1     7
 -6.2872623101925304E-02 a       733     0    30     1     8
 -5.6472309592897237E-02 a       734     0    30     1     9
 -4.3395131252277515E-02 a       735     0    30     1    10
  1.1958848950527040E-01 a       736     0    30     1    11
 -8.5725711422819109E-02 a       737     0    30     1    12
 -1.7334039135247384E-01 a       738     0    30     1    13
 -1.3098402323562694E-01 a       739     0    30     1    14
 -9.9628213970353915E-02 a       740     0    30     1    15
  1.5566209756675900E-01 a       741     0    30     1    16
 -3.8633803193098490E-02 a       742     0    30     1    17
 -5.7658313306432320E-02 a       743     0    30     1    18
 -8.4779823355729339E-02 a       744     0    30     1    19
  1.1226049713624570E-01 a       745     0    30     1    20
  1.3348335710072703E-01 a       746     0    30     1    21
  7.3992392851941022E-02 a       747     0    30     1    22
 -5.8953476324516592E-02 a       748     0    30     1    23
 -2.1919942703042114E-01 a       749     0    30     1    24
 -8.1180445293464465E-02 a       750     0    30     1    25
  4.2732790366227213E-01 a       751     0    31     1     1
 -1.4230623742762749E-01 a       752     0    31     1     2
  1.6592497998457947E-01 a       753     0    31     1     3
  5.8147539410337908E-02 a       754     0    31     1     4
 -1.7395124367972939E-01 a       755     0    31     1     5
  1.2170120744772517E-01 a       756     0    31     1     6
  8.6268687374944253E-02 a       757     0    31     1     7
 -1.4753838039920125E-01 a       758     0    31     1     8
  2.3187422607749194E-02 a       759     0    31     1     9
  1.3282868461805666E-01 a       760     0    31     1    10
 -7.0089091647013810E-02 a       761     0    31     1    11
 -9.1020568691094705E-02 a       762     0    31     1    12
  3.2909770241411917E-03 a       763     0    31     1    13
  2.4172554836647379E-02 a       764     0    31     1    14
 -1.1600996171178569E-01 a       765     0    31     1    15
 -1.3211010983502214E-01 a       766     0    31     1    16
 -1.1797659180822302E-02 a       767     0    31     1    17
  2.6932402821830992E-01 a       768     0    31     1    18
 -6.8491102170760418E-02 a       769     0    31     1    19
 -1.7808375115338326E-01 a       770     0    31     1    20
 -2.5400630590479184E-01 a       771     0    31     1    21
  1.0424751819925596E-01 a       772     0    31     1    22
  7.2683925873169491E-02 a       773     0    31     1    23
  1.9896124099103166E-01 a       774     0    31     1    24
 -4.1260711152067775E-01 a       775     0    31     1    25
 -3.8489739007979729E-01 a       776     0    32     1     1
  6.4566047268238058E-02 a       777     0    32     1     2
  3.8834105278569335E-02 a       778     0    32     1     3
 -1.7649497967642019E-01 a       779     0    32     1     4
  4.1521313060405185E-01 a       780     0    32     1     5
  8.0238935307494472E-02 a       781     0    32     1     6
 -3.5538328353523573E-02 a       782     0    32     1     7
  5.4911060694892898E-02 a       783     0    32     1     8
 -1.8504944700128201E-01 a       784     0    32     1     9
  1.4885431848091979E-01 a       785     0    32     1    10
  3.8927130750542266E-01 a       786     0    32     1    11
 -1.7411921311027989E-01 a       787     0    32     1    12
  3.6304283299626067E-02 a       788     0    32     1    13
 -1.3900730816021573E-01 a       789     0    32     1    14
  4.4854708039232777E-01 a       790     0    32     1    15
  3.4421405773815034E-01 a       791     0    32     1    16
  2.2057176476407811E-01 a       792     0    32     1    17
  1.5363725044877169E-01 a       793     0    32     1    18
 -1.6001388868836122E-01 a       794     0    32     1    19
 -5.9170391157200491E-02 a       795     0    32     1    20
 -1.9447974247607641E-01 a       796     0    32     1    21
  3.5899072481764223E-02 a       797     0    32     1    22
  1.6595985518877374E-01 a       798     0    32     1    23
 -2.1569094231813266E-01 a       799     0    32     1    24
 -1.5571738615146307E-02 a       800     0    32     1    25
 -3.5121388697372594E-02 a       801     0    33     1     1
  7.3527293586771189E-03 a       802     0    33     1     2
  1.4461091782828048E-02 a       803     0    33     1     3
 -3.1934846289470029E-03 a       804     0    33     1     4
  1.0155300161202505E-01 a       805     0    33     1     5
 -4.0437198735630488E-02 a       806     0    33     1     6
  4.5644067875676370E-01 a       807     0    33     1     7
  1.6198426701577140E-01 a       808     0    33     1     8
  1.5403449342119103E-02 a       809     0    33     1     9
  9.6069305474502736E-02 a       810     0    33     1    10
  1.8602974083727025E-01 a       811     0    33     1    11
 -1.4284990759637051E-01 a       812     0    33     1    12
 -2.0930928419421044E-01 a       813     0    33     1    13
  5.2153987930712686E-02 a       814     0    33     1    14
  1.2339005240105745E-01 a       815     0    33     1    15
 -1.7419752942112142E-02 a       816     0    33     1    16
 -1.2094781850112946E-01 a       817     0    33     1    17
  1.4461333907964102E-01 a       818     0    33     1    18
 -1.7165018311423716E-01 a       819     0    33     1    19
  7.8664254099261352E-02 a       820     0    33     1    20
  5.3682189262745143E-02 a       821     0    33     1    21
 -1.1762608455442959E-01 a       822     0    33     1    22
  1.5344337998766264E-01 a       823     0    33     1    23
 -2.8572862753147399E-01 a       824     0    33     1    24
 -8.6786313327848932E-02 a       825     0    33     1    25
  5.3418574609411587E-02 a       826     0    34     1     1
 -1.1101620733598022E-01 a       827     0    34     1     2
 -1.7935226554568867E-01 a       828     0    34     1     3
  9.8913894373470229E-02 a       829     0    34     1     4
  8.0194435173878531E-02 a       830     0    34     1     5
  3.3000827691685511E-02 a       831     0    34     1     6
  2.4249658988505632E-01 a       832     0    34     1     7
  6.8015863084399039E-02 a       833     0    34     1     8
  1.9696424747159721E-01 a       834     0    34     1     9
  1.7265609796974726E-01 a       835     0    34     1    10
 -2.5975355129067859E-02 a       836     0    34     1    11
  2.7971852738864888E-02 a       837     0    34     1    12
  7.5907531589582702E-02 a       838     0    34     1    13
  6.0348283323622680E-02 a       839     0    34     1    14
  1.8189843779697479E-01 a       840     0    34     1    15
 -3.6999871552887947E-02 a       841     0    34     1    16
  3.1236246215669370E-02 a       842     0    34     1    17
  9.9373273388203398E-02 a       843     0    34     1    18
 -7.7854095003629629E-03 a       844     0    34     1    19
  1.3439778153078324E-02 a       845     0    34     1    20
 -3.0843164365275959E-03 a       846     0    34     1    21
 -3.3566777753008203E-02 a       847     0    34     1    22
  3.5345995816437314E-01 a       848     0    34     1    23
 -6.8802267508345546E-02 a       849     0    34     1    24
 -8.6512254895305438E-02 a       850     0    34     1    25
 -2.5322556409536923E-01 a       851     0    35     1     1
  1.3977537432626672E-01 a       852     0    35     1     2
  2.4218695920727581E-01 a       853     0    35     1     3
 -1.4945313749016498E-01 a       854     0    35     1     4
 -1.6105532790553476E-01 a       855     0    35     1     5
 -1.1229846109454497E-01 a       856     0    35     1     6
  1.0988750183621644E-01 a       857     0    35     1     7
 -5.7745269708434459E-02 a       858     0    35     1     8
  3.7398308103218925E-02 a       859     0    35     1     9
  2.7788300565606328E-01 a       860     0    35     1    10
 -8.6674930426177216E-02 a       861     0    35     1    11
  2.8874490108876644E-01 a       862     0    35     1    12
 -1.6105887838563099E-01 a       863     0    35     1    13
 -9.1926352523737084E-02 a       864     0    35     1    14
 -1.1631178469422145E-01 a       865     0    35     1    15
  1.0383062297422482E-01 a       866     0    35     1    16
  2.8200014976221366E-01 a       867     0    35     1    17
  1.0983259799765398E-01 a       868     0    35     1    18
  1.3468136935401607E-02 a       869     0    35     1    19
  2.3927441657217055E-01 a       870     0    35     1    20
  1.2561081105362931E-01 a       871     0    35     1    21
  1.0829220981850061E-01 a       872     0    35     1    22
 -1.8460019311410764E-01 a       873     0    35     1    23
 -5.1321561410341721E-02 a       874     0    35     1    24
 -3.4289442825761063E-01 a       875     0    35     1    25
 -4.8552440099521060E-02 a       876     0    36     1     1
  8.4907838024152055E-02 a       877     0    36     1     2
  3.8242746366430314E-01 a       878     0    36     1     3
  3.4856341469826596E-01 a       879     0    36     1     4
 -1.0575540751338962E-01 a       880     0    36     1     5
 -7.3569857791551910E-02 a       881     0    36     1     6
 -4.7183304905175416E-02 a       882     0    36     1     7
 -9.5334199805028871E-02 a       883     0    36     1     8
  1.1749658656367311E-01 a       884     0    36     1     9
  1.2122599377336007E-01 a       885     0    36     1    10
  3.3279312343621026E-02 a       886     0    36     1    11
  1.2044600754976695E-01 a       887     0    36     1    12
 -1.4875723654100936E-01 a       888     0    36     1    13
  1.9926080275094757E-01 a       889     0    36     1    14
 -1.2693094368710484E-01 a       890     0    36     1    15
 -1.2808864652902424E-01 a       891     0    36     1    16
 -2.6917625825780386E-02 a       892     0    36     1    17
  1.6953432317907878E-02 a       893     0    36     1    18
  1.4035509875280763E-01 a       894     0    36     1    19
 -1.2740857707796216E-01 a       895     0    36     1    20
 -1.0323884448946910E-01 a       896     0    36     1    21
 -1.8495445753350639E-01 a       897     0    36     1    22
  2.0511166451367090E-02 a       898     0    36     1    23
 -1.0280806953451006E-01 a       899     0    36     1    24
 -1.2957195609169653E-01 a       900     0    36     1    25
  9.4307490817682971E-02 a       901     0    37     1     1
 -2.3712680776001377E-01 a       902     0    37     1     2
 -1.1220390179718966E-01 a       903     0    37     1     3
  1.2117238465840989E-01 a       904     0    37     1     4
 -2.6684261295246842E-01 a       905     0    37     1     5
 -1.0166211836630938E-01 a       906     0    37     1     6
  1.3878216952414882E-01 a       907     0    37     1     7
 -6.1739131509620036E-02 a       908     0    37     1     8
  5.5208592734488644E-02 a       909     0    37     1     9
 -1.0023020923323052E-01 a       910     0    37     1    10
 -2.9847794358261556E-02 a       911     0    37     1    11
  5.3876228945468299E-02 a       912     0    37     1    12
  1.6918430734595041E-01 a       913     0    37     1    13
 -3.5320283358321681E-03 a       914     0    37     1    14
 -6.7556110061899655E-02 a       915     0    37     1    15
  1.1969801471636857E-01 a       916     0    37     1    16
  2.1486298857362149E-01 a       917     0    37     1    17
 -2.1175816542690882E-02 a       918     0    37     1    18
  9.8857417208014109E-02 a       919     0    37     1    19
 -1.1577059647117134E-01 a       920     0    37     1    20
 -1.6379834640348279E-01 a       921     0    37     1    21
 -7.3292274765383719E-02 a       922     0    37     1    22
 -4.8114937768668160E-02 a       923     0    37     1    23
 -2.4712114640773716E-01 a       924     0    37     1    24
 -4.8123911358759217E-03 a       925     0    37     1    25
 -1.7165513392680071E-01 a       926     0    38     1     1
  1.8404293595302795E-02 a       927     0    38     1     2
  3.4241146749364730E-02 a       928     0    38     1     3
  1.8964700088202290E-02 a       929     0    38     1     4
 -5.9024958801762617E-02 a       930     0    38     1     5
  4.5880045266823349E-02 a       931     0    38     1     6
 -1.2215340907310282E-01 a       932     0    38     1     7
 -9.7292115759023232E-02 a       933     0    38     1     8
 -8.0132893019899801E-02 a       934     0    38     1     9
 -3.9689691865386970E-02 a       935     0    38     1    10
  5.3946591810153148E-02 a       936     0    38     1    11
  5.8149891947482810E-02 a       937     0    38     1    12
 -1.2140705776697792E-01 a       938     0    38     1    13
 -7.4581198095826876E-02 a       939     0    38     1    14
 -2.4145268240763556E-02 a       940     0    38     1    15
  6.7252229961191054E-02 a       941     0    38     1    16
 -7.0451057631367442E-02 a       942     0    38     1    17
  9.3066989754169951E-02 a       943     0    38     1    18
 -7.9231215668258942E-02 a       944     0    38     1    19
 -4.6320235388084115E-02 a       945     0    38     1    20
  5.3149406826297457E-02 a       946     0    38     1    21
  9.0155743461998547E-02 a       947     0    38     1    22
 -1.0841192766933079E-01 a       948     0    38     1    23
  2.8345334950176804E-01 a       949     0    38     1    24
  1.5939540523198195E-01 a       950     0    38     1    25
  1.3739954125621981E-01 a       951     0    39     1     1
  1.5116529538309884E-01 a       952     0    39     1     2
  2.2494159826838808E-01 a       953     0    39     1     3
 -2.3848704868799319E-02 a       954     0    39     1     4
 -1.2075406915922740E-01 a       955     0    39     1     5
  1.2063910904896850E-01 a       956     0    39     1     6
 -5.5822029673304040E-02 a       957     0    39     1     7
 -3.3925799074527856E-02 a       958     0    39     1     8
 -3.7810146984723535E-02 a       959     0    39     1     9
 -2.7741728161344364E-01 a       960     0    39     1    10
 -1.2333844988689570E-01 a       961     0    39     1    11
 -7.6625486172300861E-02 a       962     0    39     1    12
  8.6153562849194912E-02 a       963     0    39     1    13
 -1.2652973016574370E-01 a       964     0    39     1    14
 -4.3094696058368680E-02 a       965     0    39     1    15
 -2.6771423551214096E-01 a       966     0    39     1    16
 -2.0372906757318621E-01 a       967     0    39     1    17
 -2.3047730770893401E-01 a       968     0    39     1    18
  2.8288113996662988E-04 a       969     0    39     1    19
 -9.3371368560807452E-02 a       970     0    39     1    20
  4.7903236838137625E-03 a       971     0    39     1    21
 -1.3868133444323771E-03 a       972     0    39     1    22
  5.9454955913007229E-02 a       973     0    39     1    23
  2.9524320157373402E-01 a       974     0    39     1    24
 -2.1964430896462245E-02 a       975     0    39     1    25
 -6.4195602066058899E-02 a       976     0    40     1     1
 -1.3140388475346562E-01 a       977     0    40     1     2
 -1.0325976240714629E-01 a       978     0    40     1     3
 -1.9944410934863446E-01 a       979     0    40     1     4
  3.1242364659105115E-01 a       980     0    40     1     5
  1.0512572821108885E-02 a       981     0    40     1     6
 -4.8507173522195107E-02 a       982     0    40     1     7
 -1.7727248485748734E-02 a       983     0    40     1     8
 -1.9300792792070279E-01 a       984     0    40     1     9
  1.8834779570878560E-01 a       985     0    40     1    10
  9.6651904713938183E-02 a       986     0    40     1    11
 -1.0087834160276626E-01 a       987     0    40     1    12
  2.5240920717371770E-02 a       988     0    40     1    13
  2.1488925180039951E-02 a       989     0    40     1    14
 -2.5231732033537677E-04 a       990     0    40     1    15
 -1.8490779574807442E-01 a       991     0    40     1    16
  1.9493908787010342E-01 a       992     0    40     1    17
  1.7866807246300057E-01 a       993     0    40     1    18
 -1.7099678565865961E-01 a       994     0    40     1    19
  8.9375439334804699E-02 a       995     0    40     1    20
 -7.1223043464344632E-02 a       996     0    40     1    21
  1.7329944024259816E-01 a       997     0    40     1    22
  2.5011796928728448E-02 a       998     0    40     1    23
  8.8089853984938321E-02 a       999     0    40     1    24
 -4.2131905513516324E-02 a      1000     0    40     1    25
  2.4346467056327672E-02 a      1001     0    41     1     1
 -7.1991232322360918E-02 a      1002     0    41     1     2
 -3.2714601673861693E-01 a      1003     0    41     1     3
 -1.2146477091767599E-01 a      1004     0    41     1     4
  2.2016098449616020E-01 a      1005     0    41     1     5
  5.0958645106504580E-03 a      1006     0    41     1     6
  1.4336369521344061E-01 a      1007     0    41     1     7
  2.9368747990756585E-02 a      1008     0    41     1     8
 -8.4867205392169881E-02 a      1009     0    41     1     9
 -2.3211702565963682E-01 a      1010     0    41     1    10
 -8.6096260624323726E-02 a      1011     0    41     1    11
  1.2074987788355057E-02 a      1012     0    41     1    12
  1.9210093470312127E-02 a      1013     0    41     1    13
  7.3348592255755921E-02 a      1014     0    41     1    14
 -1.2584734658619015E-01 a      1015     0    41     1    15
  1.5444137385596154E-01 a      1016     0    41     1    16
  1.5275849670918770E-01 a      1017     0    41     1    17
  2.7398613866509467E-02 a      1018     0    41     1    18
  2.1495342285930222E-01 a      1019     0    41     1    19
  1.3503724753160865E-01 a      1020     0    41     1    20
 -2.3556055921383881E-01 a      1021     0    41     1    21
  1.2901639924691299E-01 a      1022     0    41     1    22
  5.0067443112369692E-01 a      1023     0    41     1    23
 -7.3215015107852610E-02 a      1024     0    41     1    24
  1.3213235653979447E-02 a      1025     0    41     1    25
 -1.0206260616801365E-02 a      1026     0    42     1     1
 -2.4657991831333678E-01 a      1027     0    42     1     2
  1.1020444182622654E-02 a      1028     0    42     1     3
 -2.8871196520893139E-01 a      1029     0    42     1     4
 -1.0657189632452237E-02 a      1030     0    42     1     5
 -2.4666044202360460E-01 a      1031     0    42     1     6
  1.2535434431611589E-01 a      1032     0    42     1     7
  1.2003176764619365E-01 a      1033     0    42     1     8
  2.1312735641720526E-01 a      1034     0    42     1     9
  1.0181568117536591E-01 a      1035     0    42     1    10
  4.2068046005582720E-02 a      1036     0    42     1    11
  7.2682825129107828E-02 a      1037     0    42     1    12
 -7.4465097568316818E-02 a      1038     0    42     1    13
  2.7128465208130705E-02 a      1039     0    42     1    14
  1.1219606176208766E-01 a      1040     0    42     1    15
  1.4942999441873772E-01 a      1041     0    42     1    16
 -9.2172622296128118E-02 a      1042     0    42     1    17
  2.3937848467171308E-01 a      1043     0    42     1    18
 -4.6052646118592319E-02 a      1044     0    42     1    19
 -1.4110186764014768E-01 a      1045     0    42     1    20
  3.2917144121418540E-01 a      1046     0    42     1    21
 -1.3988185292883915E-01 a      1047     0    42     1    22
  1.7417828920582532E-01 a      1048     0    42     1    23
  1.8977343901479965E-01 a      1049     0    42     1    24
  8.1542535200842065E-02 a      1050     0    42     1    25
  5.2249010751346178E-02 a      1051     0    43     1     1
  9.2794981895400822E-02 a      1052     0    43     1     2
  1.3735013726235534E-01 a      1053     0    43     1     3
 -1.0875163287128924E-01 a      1054     0    43     1     4
 -5.0096319300396784E-02 a      1055     0    43     1     5
  2.0727948657734976E-01 a      1056     0    43     1     6
 -6.0918414080774849E-02 a      1057     0    43     1     7
 -1.3262875520038239E-01 a      1058     0    43     1     8
  2.7204189587148325E-01 a      1059     0    43     1     9
  1.2693727056332110E-01 a      1060     0    43     1    10
 -6.5724777733888315E-03 a      1061     0    43     1    11
  9.5360553247096733E-02 a      1062     0    43     1    12
  2.4266605068098527E-02 a      1063     0    43     1    13
 -5.7179012848325349E-02 a      1064     0    43     1    14
 -1.5995629391614447E-01 a      1065     0    43     1    15
  2.5300586851650955E-02 a      1066     0    43     1    16
  1.2655038369247748E-01 a      1067     0    43     1    17
 -6.5114502726604684E-02 a      1068     0    43     1    18
  9.6343686343345017E-02 a      1069     0    43     1    19
 -4.9071360307967674E-02 a      1070     0    43     1    20
 -1.7476288146996050E-01 a      1071     0    43     1    21
  1.5157044332856276E-01 a      1072     0    43     1    22
  2.4822806146164622E-01 a      1073     0    43     1    23
 -3.4833063699286328E-02 a      1074     0    43     1    24
 -2.8456230201186911E-01 a      1075     0    43     1    25
 -2.6187433345701904E-02 a      1076     0    44     1     1
 -8.1429186691215558E-02 a      1077     0    44     1     2
  1.2543687811176846E-01 a      1078     0    44     1     3
  9.9065379715494895E-02 a      1079     0    44     1     4
  5.3338053963117131E-03 a      1080     0    44     1     5
 -2.3037556955327259E-02 a      1081     0    44     1     6
  2.7331750891394224E-01 a      1082     0    44     1     7
  1.4872221685328268E-01 a      1083     0    44     1     8
 -9.5209890887242243E-02 a      1084     0    44     1     9
  1.1113651286788392E-01 a      1085     0    44     1    10
  4.3251699647621850E-02 a      1086     0    44     1    11
 -1.3422262913561647E-01 a      1087     0    44     1    12
  2.0336196588594985E-01 a      1088     0    44     1    13
 -4.4605871601075833E-02 a      1089     0    44     1    14
 -5.8758367928167736E-02 a      1090     0    44     1    15
 -3.1897280808416334E-02 a      1091     0    44     1    16
  1.2418024468149541E-01 a      1092     0    44     1    17
  3.3947986403654609E-02 a      1093     0    44     1    18
  1.4294423332985240E-01 a      1094     0    44     1    19
 -5.7080544662241446E-02 a      1095     0    44     1    20
  4.4108343961635713E-03 a      1096     0    44     1    21
 -5.2272855175571821E-02 a      1097     0    44     1    22
 -8.7595762158792362E-02 a      1098     0    44     1    23
  1.6954586552809861E-01 a      1099     0    44     1    24
 -1.7715630657146595E-03 a      1100     0    44     1    25
 -6.2105376526114829E-02 a      1101     0    45     1     1
 -1.4800916497199385E-01 a      1102     0    45     1     2
 -1.4929475683798279E-02 a      1103     0    45     1     3
  2.6116801188794767E-02 a      1104     0    45     1     4
 -9.6617995594848419E-02 a      1105     0    45     1     5
 -1.3738547986000060E-01 a      1106     0    45     1     6
 -1.0358307695274377E-01 a      1107     0    45     1     7
  1.3172279327794406E-01 a      1108     0    45     1     8
  1.0765952784775137E-01 a      1109     0    45     1     9
  2.5246280488125628E-01 a      1110     0    45     1    10
  2.1569139301947235E-01 a      1111     0    45     1    11
 -1.8552261268583506E-01 a      1112     0    45     1    12
  1.9858456320611652E-02 a      1113     0    45     1    13
 -3.1970440749032471E-02 a      1114     0    45     1    14
 -5.6397200261156202E-02 a      1115     0    45     1    15
  6.6738072971940987E-03 a      1116     0    45     1    16
  8.2303075066662582E-02 a      1117     0    45     1    17
 -1.4068008801065032E-01 a      1118     0    45     1    18
  1.9923208882485618E-01 a      1119     0    45     1    19
  3.8571120439484928E-02 a      1120     0    45     1    20
  4.6930798252617818E-03 a      1121     0    45     1    21
 -1.4023536762638834E-02 a      1122     0    45     1    22
  8.1398212296125247E-02 a      1123     0    45     1    23
 -1.3431355025199221E-01 a      1124     0    45     1    24
 -1.4509023874771215E-01 a      1125     0    45     1    25
 -2.2756719531693806E-01 a      1126     0    46     1     1
  8.1445084962885120E-02 a      1127     0    46     1     2
  1.7545279561545241E-01 a      1128     0    46     1     3
 -5.3611873064195653E-02 a      1129     0    46     1     4
 -2.1012653307212886E-01 a      1130     0    46     1     5
  9.6572440646655711E-02 a      1131     0    46     1     6
  1.6164520050726067E-01 a      1132     0    46     1     7
  9.4250982895665886E-02 a      1133     0    46     1     8
  1.0768632526955077E-02 a      1134     0    46     1     9
 -2.2181582168285183E-02 a      1135     0    46     1    10
 -1.1154384428031783E-01 a      1136     0    46     1    11
  2.0562672366343099E-02 a      1137     0    46     1    12
  9.8664453260162252E-02 a      1138     0    46     1    13
  2.4206934132666023E-02 a      1139     0    46     1    14
  1.6390649285103062E-01 a      1140     0    46     1    15
  1.0534879811578449E-02 a      1141     0    46     1    16
  1.2757958942372491E-01 a      1142     0    46     1    17
 -9.6818882197795234E-02 a      1143     0    46     1    18
  1.9126179732298404E-01 a      1144     0    46     1    19
  7.8143870387442249E-02 a      1145     0    46     1    20
  2.1721532660405116E-01 a      1146     0    46     1    21
 -8.1378403372820263E-02 a      1147     0    46     1    22
  9.0089114119725842E-03 a      1148     0    46     1    23
  6.2068892138267761E-04 a      1149     0    46     1    24
  9.3094119662156929E-02 a      1150     0    46     1    25
  7.8808663562364462E-02 a      1151     0    47     1     1
  1.4920968467346947E-02 a      1152     0    47     1     2
  1.4352842368363275E-01 a      1153     0    47     1     3
  1.1606901669591621E-01 a      1154     0    47     1     4
 -1.8322035898555680E-01 a      1155     0    47     1     5
 -3.0535695324608245E-02 a      1156     0    47     1     6
  1.4322822600295110E-01 a      1157     0    47     1     7
  6.3239918307723839E-02 a      1158     0    47     1     8
  1.7921961176375987E-02 a      1159     0    47     1     9
 -3.9001683537569817E-02 a      1160     0    47     1    10
 -1.6086279810723239E-01 a      1161     0    47     1    11
 -1.0116641871564913E-01 a      1162     0    47     1    12
  1.4726595869985548E-01 a      1163     0    47     1    13
 -1.0660353579907279E-01 a      1164     0    47     1    14
  5.8794911766339226E-02 a      1165     0    47     1    15
  3.9177190614956843E-02 a      1166     0    47     1    16
 -3.2956532200643973E-01 a      1167     0    47     1    17
 -1.4899008142056219E-01 a      1168     0    47     1    18
  6.6213804255662284E-02 a      1169     0    47     1    19
 -8.1795918448606633E-02 a      1170     0    47     1    20
 -1.7393524351893380E-01 a      1171     0    47     1    21
  6.4612982565997708E-04 a      1172     0    47     1    22
 -8.8032916230883135E-02 a      1173     0    47     1    23
 -1.2755363049401749E-01 a      1174     0    47     1    24
 -3.8491354899885213E-02 a      1175     0    47     1    25
 -2.7340418177694703E-01 a      1176     0    48     1     1
 -1.7142303328017066E-02 a      1177     0    48     1     2
  1.1019190893905806E-01 a      1178     0    48     1     3
  4.8143833126613744E-02 a      1179     0    48     1     4
 -4.9501718908187926E-03 a      1180     0    48     1     5
 -9.2569602740532539E-02 a      1181     0    48     1     6
  2.3728365518694083E-01 a      1182     0    48     1     7
 -7.4961970549046783E-02 a      1183     0    48     1     8
 -5.3286336503325114E-02 a      1184     0    48     1     9
  1.3472841856633833E-01 a      1185     0    48     1    10
 -2.3070774929328079E-02 a      1186     0    48     1    11
  2.5628967850476976E-02 a      1187     0    48     1    12
  1.9663253725281417E-02 a      1188     0    48     1    13
 -6.8082093934309806E-02 a      1189     0    48     1    14
 -1.3435315038231438E-01 a      1190     0    48     1    15
 -1.9769538280000440E-01 a      1191     0    48     1    16
 -9.3323699940440680E-02 a      1192     0    48     1    17
  2.6886554416622443E-01 a      1193     0    48     1    18
  2.3059123550478056E-01 a      1194     0    48     1    19
 -2.7365716514636451E-01 a      1195     0    48     1    20
  9.0703801537337952E-02 a      1196     0    48     1    21
 -2.8488245239058602E-02 a      1197     0    48     1    22
  1.6349866816950825E-01 a      1198     0    48     1    23
 -4.1020348474539031E-02 a      1199     0    48     1    24
  1.8402930486278873E-01 a      1200     0    48     1    25
  1.3814829012741042E-01 a      1201     0    49     1     1
  1.3925527631702281E-01 a      1202     0    49     1     2
  6.9067495478677396E-02 a      1203     0    49     1     3
 -1.0643570923248791E-02 a      1204     0    49     1     4
  1.1005932730645910E-02 a      1205     0    49     1     5
 -2.0508232457370029E-01 a      1206     0    49     1     6
  1.2194804659009417E-01 a      1207     0    49     1     7
  1.6329501446849515E-01 a      1208     0    49     1     8
 -1.6914360436616258E-01 a      1209     0    49     1     9
 -2.9624745445540945E-01 a      1210     0    49     1    10
  2.0541501360932288E-01 a      1211     0    49     1    11
 -8.2521998270784519E-02 a      1212     0    49     1    12
 -1.5334003782446368E-01 a      1213     0    49     1    13
 -1.7361196795896894E-01 a      1214     0    49     1    14
  7.6823793603505428E-02 a      1215     0    49     1    15
 -2.9247583914118486E-01 a      1216     0    49     1    16
 -7.6081833732061691E-02 a      1217     0    49     1    17
  1.4073220981721550E-02 a      1218     0    49     1    18
 -2.8092063156440011E-01 a      1219     0    49     1    19
 -1.3342770673321608E-01 a      1220     0    49     1    20
  9.7900723955401448E-04 a      1221     0    49     1    21
 -2.3553882486870639E-01 a      1222     0    49     1    22
  2.3279111474995673E-01 a      1223     0    49     1    23
 -9.4756214546486292E-02 a      1224     0    49     1    24
 -7.7116599981148240E-02 a      1225     0    49     1    25
  7.5921636662212924E-02 a      1226     0    50     1     1
 -1.8259293342986119E-01 a      1227     0    50     1     2
  2.2103796256406679E-02 a      1228     0    50     1     3
  1.4334948675503911E-01 a      1229     0    50     1     4
  5.1960681778543544E-02 a      1230     0    50     1     5
 -5.3413580291785313E-02 a      1231     0    50     1     6
  3.6913138309313159E-01 a      1232     0    50     1     7
  3.5793478457656139E-02 a      1233     0    50     1     8
  6.1881555170685658E-02 a      1234     0    50     1     9
 -1.6855918647794602E-01 a      1235     0    50     1    10
 -4.4452816332267608E-02 a      1236     0    50     1    11
  1.7130431075609132E-01 a      1237     0    50     1    12
 -1.3530924513980241E-01 a      1238     0    50     1    13
 -1.4067445571071921E-01 a      1239     0    50     1    14
 -5.3772864313525688E-02 a      1240     0    50     1    15
  5.9313500262550965E-02 a      1241     0    50     1    16
  1.3454794066035300E-01 a      1242     0    50     1    17
  2.0781541352520388E-01 a      1243     0    50     1    18
  3.7254667586268629E-02 a      1244     0    50     1    19
 -2.9236365680855225E-01 a      1245     0    50     1    20
  1.8804025595972534E-02 a      1246     0    50     1    21
 -9.6844570675192324E-02 a      1247     0    50     1    22
  1.6980804941551586E-01 a      1248     0    50     1    23
 -2.0005881751942681E-02 a      1249     0    50     1    24
  4.8725851264586749E-02 a      1250     0    50     1    25
 -5.4012848411789563E-02 a      1251     0    51     1     1
 -1.8262413657731477E-01 a      1252     0    51     1     2
 -1.7922766397481485E-01 a      1253     0    51     1     3
 -2.8630283165551851E-01 a      1254     0    51     1     4
 -3.0770912333656725E-01 a      1255     0    51     1     5
 -1.5685280361440185E-01 a      1256     0    51     1     6
  1.8328462041073121E-01 a      1257     0    51     1     7
 -1.7502092403966477E-01 a      1258     0    51     1     8
 -1.0207060997329402E-01 a      1259     0    51     1     9
  9.6250377373949356E-02 a      1260     0    51     1    10
 -2.5726052778240643E-01 a      1261     0    51     1    11
 -9.0418424892612648E-02 a      1262     0    51     1    12
 -9.0860002896922060E-02 a      1263     0    51     1    13
 -1.0552796471071046E-01 a      1264     0    51     1    14
  6.5629869907366814E-02 a      1265     0    51     1    15
  4.2031123591502989E-02 a      1266     0    51     1    16
 -7.2690737277832054E-02 a      1267     0    51     1    17
  1.4796874721884778E-01 a      1268     0    51     1    18
 -2.2506179637372203E-01 a      1269     0    51     1    19
 -6.2471261262269734E-02 a      1270     0    51     1    20
  1.2750175363104796E-01 a      1271     0    51     1    21
 -1.4964354271422581E-01 a      1272     0    51     1    22
 -3.0660580000604683E-02 a      1273     0    51     1    23
 -1.1044616009153943E-02 a      1274     0    51     1    24
  1.1369007978029699E-01 a      1275     0    51     1    25
  2.2565957901332392E-01 a      1276     0    52     1     1
 -1.2998841182049220E-01 a      1277     0    52     1     2
 -5.5683758049269533E-02 a      1278     0    52     1     3
  1.7107561570682658E-01 a      1279     0    52     1     4
  3.7361684894400238E-01 a      1280     0    52     1     5
  2.4766147592356869E-01 a      1281     0    52     1     6
 -1.6414381752640958E-01 a      1282     0    52     1     7
  4.0467680624363200E-01 a      1283     0    52     1     8
  2.1817314034912296E-02 a      1284     0    52     1     9
 -4.0692902274684147E-02 a      1285     0    52     1    10
  4.5272260820512211E-01 a      1286     0    52     1    11
 -1.1736243308170675E-01 a      1287     0    52     1    12
 -1.6126112404549456E-01 a      1288     0    52     1    13
 -1.3765280534964136E-01 a      1289     0    52     1    14
  1.1144631214369258E-01 a      1290     0    52     1    15
  1.9074903547585292E-01 a      1291     0    52     1    16
 -1.2956478046696751E-01 a      1292     0    52     1    17
  1.3958982515514609E-01 a      1293     0    52     1    18
  3.7461831942110238E-02 a      1294     0    52     1    19
  8.7068539734846736E-03 a      1295     0    52     1    20
 -1.4236270364816250E-01 a      1296     0    52     1    21
  1.9355772081768297E-01 a      1297     0    52     1    22
  1.8058215821855749E-02 a      1298     0    52     1    23
  2.5552385197609512E-01 a      1299     0    52     1    24
 -1.4713124602688404E-01 a      1300     0    52     1    25
 -1.5817361022726076E-01 a      1301     0    53     1     1
 -1.9947900848808789E-01 a      1302     0    53     1     2
 -5.1047020842986963E-02 a      1303     0    53     1     3
 -8.1198090932723843E-02 a      1304     0    53     1     4
  1.0473396368930295E-02 a      1305     0    53     1     5
 -3.6504016166747111E-01 a      1306     0    53     1     6
  1.2016720450322475E-02 a      1307     0    53     1     7
 -1.7958870651958786E-01 a      1308     0    53     1     8
  4.3365622679052925E-02 a      1309     0    53     1     9
 -8.2696201050864976E-02 a      1310     0    53     1    10
  9.1284616048826248E-02 a      1311     0    53     1    11
 -2.1081728248937212E-02 a      1312     0    53     1    12
 -2.5405113064443507E-01 a      1313     0    53     1    13
  2.3320078089297722E-01 a      1314     0    53     1    14
 -7.4885331238408043E-02 a      1315     0    53     1    15
  2.7076240746113850E-01 a      1316     0    53     1    16
  1.6730922554773278E-01 a      1317     0    53     1    17
  2.4359315514047022E-01 a      1318     0    53     1    18
 -3.5820162440726383E-01 a      1319     0    53     1    19
 -1.7335035735937143E-02 a      1320     0    53     1    20
 -9.9419726477142548E-02 a      1321     0    53     1    21
 -1.2455314277746343E-01 a      1322     0    53     1    22
  1.6292551107876294E-01 a      1323     0    53     1    23
  2.1439002137662830E-01 a      1324     0    53     1    24
  9.7525731773056359E-03 a      1325     0    53     1    25
 -1.2041053666824604E-01 a      1326     0    54     1     1
 -7.4064928246999853E-02 a      1327     0    54     1     2
 -1.4690334829930779E-01 a      1328     0    54     1     3
 -6.5100672734930282E-02 a      1329     0    54     1     4
  1.0554578615119728E-02 a      1330     0    54     1     5
  1.3967248314818814E-01 a      1331     0    54     1     6
  1.0073130699082243E-02 a      1332     0    54     1     7
 -2.4869633105489300E-01 a      1333     0    54     1     8
 -2.9948711694779334E-02 a      1334     0    54     1     9
  1.1297790787366144E-01 a      1335     0    54     1    10
  1.9781358153434347E-02 a      1336     0    54     1    11
 -1.1975900652315720E-01 a      1337     0    54     1    12
 -2.0443802018944546E-01 a      1338     0    54     1    13
  1.5569715999080877E-01 a      1339     0    54     1    14
 -1.6687805516388268E-01 a      1340     0    54     1    15
 -1.3678127180782360E-01 a      1341     0    54     1    16
  2.0890099120822009E-01 a      1342     0    54     1    17
  7.4790285805725748E-02 a      1343     0    54     1    18
  1.6087697058544975E-01 a      1344     0    54     1    19
  1.0336876237170627E-01 a      1345     0    54     1    20
 -7.1780963852562316E-03 a      1346     0    54     1    21
  2.0420969864470884E-01 a      1347     0    54     1    22
  1.0738343916214854E-01 a      1348     0    54     1    23
 -1.1992248168459871E-01 a      1349     0    54     1    24
  1.6038572807182794E-01 a      1350     0    54     1    25
  5.1462008902500647E-03 a      1351     0    55     1     1
  1.3039812444906834E-01 a      1352     0    55     1     2
 -1.0306097958544046E-01 a      1353     0    55     1     3
  1.1479428956106538E-01 a      1354     0    55     1     4
  1.5066715491434354E-01 a      1355     0    55     1     5
  2.2015901764352427E-01 a      1356     0    55     1     6
  4.9937424706475449E-02 a      1357     0    55     1     7
 -2.5008858677601076E-01 a      1358     0    55     1     8
 -9.1617836364839472E-02 a      1359     0    55     1     9
 -3.3260248011938260E-03 a      1360     0    55     1    10
 -1.8161638472645344E-01 a      1361     0    55     1    11
  1.1766692037355221E-01 a      1362     0    55     1    12
 -4.9517060702274455E-02 a      1363     0    55     1    13
  8.3634197090582618E-02 a      1364     0    55     1    14
  1.1472211429011235E-01 a      1365     0    55     1    15
 -2.2461919647603659E-01 a      1366     0    55     1    16
 -6.5113491691265415E-02 a      1367     0    55     1    17
 -2.1139923678980096E-01 a      1368     0    55     1    18
 -2.7509987279417281E-01 a      1369     0    55     1    19
  1.4142418769115123E-01 a      1370     0    55     1    20
 -8.2415752126886496E-02 a      1371     0    55     1    21
 -1.3104179966553606E-01 a      1372     0    55     1    22
 -1.2469865512093185E-01 a      1373     0    55     1    23
 -6.2409020444354146E-02 a      1374     0    55     1    24
  3.7566674812855166E-02 a      1375     0    55     1    25
  4.3557261628414293E-02 a      1376     0    56     1     1
 -8.6708043781717203E-02 a      1377     0    56     1     2
  1.9809748252829426E-01 a      1378     0    56     1     3
  1.7499370966264660E-01 a      1379     0    56     1     4
 -4.2804276476449620E-04 a      1380     0    56     1     5
  2.2491876503793548E-01 a      1381     0    56     1     6
  1.7200092733011874E-01 a      1382     0    56     1     7
  2.7277270195575648E-01 a      1383     0    56     1     8
 -5.2075920084703837E-03 a      1384     0    56     1     9
  1.7895506729783570E-01 a      1385     0    56     1    10
 -2.1452991157025255E-02 a      1386     0    56     1    11
  3.9815976833168197E-02 a      1387     0    56     1    12
  3.4775477247636494E-01 a      1388     0    56     1    13
 -2.2977924432253235E-03 a      1389     0    56     1    14
  1.2020372155318611E-01 a      1390     0    56     1    15
 -1.0191001009296323E-01 a      1391     0    56     1    16
 -1.7244890876034542E-02 a      1392     0    56     1    17
 -1.8784141965901217E-02 a      1393     0    56     1    18
  2.5072887670716804E-01 a      1394     0    56     1    19
  5.9819659369655553E-02 a      1395     0    56     1    20
  2.5840277523513328E-01 a      1396     0    56     1    21
  2.8426744799492137E-01 a      1397     0    56     1    22
 -2.4859380216995991E-02 a      1398     0    56     1    23
 -2.6716944547200278E-02 a      1399     0    56     1    24
 -1.0362339885437291E-02 a      1400     0    56     1    25
 -1.8279375432543268E-01 a      1401     0    57     1     1
 -1.1668910018409895E-01 a      1402     0    57     1     2
 -6.5579420040549521E-02 a      1403     0    57     1     3
 -1.5985124756828520E-01 a      1404     0    57     1     4
  1.0453881803526635E-01 a      1405     0    57     1     5
  7.1755845866034784E-02 a      1406     0    57     1     6
 -2.6223205266585857E-02 a      1407     0    57     1     7
  1.6367919573795428E-01 a      1408     0    57     1     8
 -9.4508162026609287E-03 a      1409     0    57     1     9
 -5.1452032240049024E-02 a      1410     0    57     1    10
  5.4455639958075112E-02 a      1411     0    57     1    11
  5.1529684208835927E-02 a      1412     0    57     1    12
  2.0778203806436579E-01 a      1413     0    57     1    13
  9.9734731457054554E-02 a      1414     0    57     1    14
  9.6068828495017314E-02 a      1415     0    57     1    15
  1.0276033216313533E-01 a      1416     0    57     1    16
 -1.7315603976472865E-01 a      1417     0    57     1    17
 -2.8553610128702578E-01 a      1418     0    57     1    18
  7.4495083143095173E-03 a      1419     0    57     1    19
  1.0602987404041538E-01 a      1420     0    57     1    20
 -5.1193169283860904E-02 a      1421     0    57     1    21
  4.8139822281079861E-03 a      1422     0    57     1    22
  5.5273200612170288E-02 a      1423     0    57     1    23
 -2.9923330802847450E-02 a      1424     0    57     1    24
  1.5875358579501095E-01 a      1425     0    57     1    25
  1.1310987106669093E-01 a      1426     0    58     1     1
 -2.7163482320201021E-01 a      1427     0    58     1     2
 -2.6363164663584043E-01 a      1428     0    58     1     3
  9.4453341071114201E-03 a      1429     0    58     1     4
  5.5073564461035729E-02 a      1430     0    58     1     5
  2.9560621551556615E-02 a      1431     0    58     1     6
  1.6749218862391502E-01 a      1432     0    58     1     7
 -1.3455270364027588E-01 a      1433     0    58     1     8
  2.6431023485555127E-01 a      1434     0    58     1     9
 -1.2251003482871825E-01 a      1435     0    58     1    10
  5.1511005486339884E-02 a      1436     0    58     1    11
 -6.2957968553059809E-02 a      1437     0    58     1    12
 -7.8892905037141692E-02 a      1438     0    58     1    13
 -1.9235329099475298E-02 a      1439     0    58     1    14
  2.0461016372419685E-01 a      1440     0    58     1    15
  1.4723815415567221E-01 a      1441     0    58     1    16
 -7.0367202030897039E-02 a      1442     0    58     1    17
  3.6406097828868153E-02 a      1443     0    58     1    18
  1.9570325767620347E-01 a      1444     0    58     1    19
  2.0711722875444991E-01 a      1445     0    58     1    20
  1.4769308669766726E-01 a      1446     0    58     1    21
  7.4592397681750966E-02 a      1447     0    58     1    22
  3.6385926579815370E-01 a      1448     0    58     1    23
 -2.7202344729550326E-01 a      1449     0    58     1    24
 -7.5943162350819188E-02 a      1450     0    58     1    25
 -1.9263790063435544E-02 a      1451     0    59     1     1
 -2.0597675326086092E-03 a      1452     0    59     1     2
 -2.2898207435331400E-02 a      1453     0    59     1     3
  2.6672334317131347E-01 a      1454     0    59     1     4
 -1.3613574756060792E-01 a      1455     0    59     1     5
 -7.0559446454206518E-02 a      1456     0    59     1     6
 -1.9648828857985812E-01 a      1457     0    59     1     7
 -1.7371305877215992E-01 a      1458     0    59     1     8
 -6.0228423191696023E-02 a      1459     0    59     1     9
  3.9647799792281102E-01 a      1460     0    59     1    10
  2.7992670098472350E-01 a      1461     0    59     1    11
 -9.6023810474554147E-02 a      1462     0    59     1    12
  2.0909736859252812E-01 a      1463     0    59     1    13
  1.1414428998818746E-01 a      1464     0    59     1    14
 -2.0714695877939537E-01 a      1465     0    59     1    15
 -1.4852126401937024E-01 a      1466     0    59     1    16
 -1.3368961704368232E-01 a      1467     0    59     1    17
  5.3271843233057982E-02 a      1468     0    59     1    18
 -8.3892977186300066E-02 a      1469     0    59     1    19
 -3.1788909470633078E-02 a      1470     0    59     1    20
  8.9926063758890562E-03 a      1471     0    59     1    21
  3.6997133630297108E-02 a      1472     0    59     1    22
 -2.2848408713553692E-01 a      1473     0    59     1    23
  1.7675881051258666E-01 a      1474     0    59     1    24
 -1.7437973648647154E-01 a      1475     0    59     1    25
 -9.6032054740719922E-02 a      1476     0    60     1     1
  2.9726211811285486E-01 a      1477     0    60     1     2
 -1.6311764592607209E-01 a      1478     0    60     1     3
 -7.6708929541650192E-02 a      1479     0    60     1     4
  4.6122467207781279E-02 a      1480     0    60     1     5
  5.3181372381027464E-02 a      1481     0    60     1     6
 -1.4900681919776468E-01 a      1482     0    60     1     7
 -1.3779016785363910E-01 a      1483     0    60     1     8
 -1.2473918980357665E-01 a      1484     0    60     1     9
 -8.4276239979418535E-02 a      1485     0    60     1    10
 -1.5199245556498878E-01 a      1486     0    60     1    11
  6.6609545340934759E-02 a      1487     0    60     1    12
  5.6631469182828978E-02 a      1488     0    60     1    13
  2.8622055340336078E-01 a      1489     0    60     1    14
  1.9654451466074715E-01 a      1490     0    60     1    15
  9.5050014390844678E-02 a      1491     0    60     1    16
 -4.4516764542185228E-02 a      1492     0    60     1    17
 -5.5227373579256368E-02 a      1493     0    60     1    18
  1.3394717162688952E-01 a      1494     0    60     1    19
  2.1479441479130221E-01 a      1495     0    60     1    20
  2.4533401350598644E-01 a      1496     0    60     1    21
  1.3288190650544832E-01 a      1497     0    60     1    22
 -7.9103017729539163E-02 a      1498     0    60     1    23
  1.1902338810367591E-01 a      1499     0    60     1    24
 -6.3278248073925292E-02 a      1500     0    60     1    25
  4.1650264959122663E-02 a      1501     0    61     1     1
 -1.4030182842375713E-01 a      1502     0    61     1     2
  2.1297160263018360E-03 a      1503     0    61     1     3
 -2.4835178852931909E-02 a      1504     0    61     1     4
 -1.7567070618042829E-01 a      1505     0    61     1     5
 -1.7753008354707145E-01 a      1506     0    61     1     6
  2.3795586862850721E-01 a      1507     0    61     1     7
 -2.0695777608392973E-03 a      1508     0    61     1     8
 -3.8039008600426694E-02 a      1509     0    61     1     9
  9.3857588949458698E-02 a      1510     0    61     1    10
  2.8682277894416314E-02 a      1511     0    61     1    11
 -3.1111511231745222E-02 a      1512     0    61     1    12
 -2.3868103964653151E-01 a      1513     0    61     1    13
 -1.1662545764631271E-01 a      1514     0    61     1    14
  8.7716693841857124E-02 a      1515     0    61     1    15
  8.5007783280270123E-04 a      1516     0    61     1    16
 -3.8965040630964842E-02 a      1517     0    61     1    17
 -1.1825410959436336E-02 a      1518     0    61     1    18
  3.3482403898059038E-02 a      1519     0    61     1    19
 -5.9519521639378528E-02 a      1520     0    61     1    20
  1.4039517318720493E-01 a      1521     0    61     1    21
 -5.6968165760859106E-02 a      1522     0    61     1    22
  1.3675955281623739E-01 a      1523     0    61     1    23
 -2.1266696902051707E-01 a      1524     0    61     1    24
  4.5157478835402371E-03 a      1525     0    61     1    25
 -1.0707202621419183E-01 a      1526     0    62     1     1
  8.7569841762802567E-02 a      1527     0    62     1     2
  1.6461716613647795E-01 a      1528     0    62     1     3
 -1.0593925238065890E-01 a      1529     0    62     1     4
  3.1305893010624780E-01 a      1530     0    62     1     5
  1.2471978222267860E-01 a      1531     0    62     1     6
 -1.9711707823341412E-01 a      1532     0    62     1     7
  3.7518170359070076E-02 a      1533     0    62     1     8
  3.1547550172307599E-02 a      1534     0    62     1     9
  3.3826768530854978E-02 a      1535     0    62     1    10
  1.2678315159344100E-01 a      1536     0    62     1    11
 -1.1457401280535046E-01 a      1537     0    62     1    12
  1.8394353743602360E-01 a      1538     0    62     1    13
  1.1334603389827451E-01 a      1539     0    62     1    14
  8.2060016959394133E-02 a      1540     0    62     1    15
 -1.8846710278532930E-01 a      1541     0    62     1    16
 -7.8365758635746477E-02 a      1542     0    62     1    17
 -5.6017110416894972E-02 a      1543     0    62     1    18
 -2.1197631563224722E-02 a      1544     0    62     1    19
 -3.2258944092368159E-02 a      1545     0    62     1    20
 -1.0778589998236791E-01 a      1546     0    62     1    21
 -8.0559939127118355E-02 a      1547     0    62     1    22
 -8.6908706057261240E-02 a      1548     0    62     1    23
 -1.1985214723201343E-01 a      1549     0    62     1    24
 -1.2335123829067751E-01 a      1550     0    62     1    25
  1.4282866153747387E-01 a      1551     0    63     1     1
  2.4134133050065332E-01 a      1552     0    63     1     2
  1.1481199210127707E-01 a      1553     0    63     1     3
 -8.0546076911846808E-03 a      1554     0    63     1     4
  2.9055084992400119E-02 a      1555     0    63     1     5
  6.5636113867413970E-02 a      1556     0    63     1     6
 -8.3090323671768856E-02 a      1557     0    63     1     7
 -9.9740678075317959E-02 a      1558     0    63     1     8
 -2.2842553649142040E-02 a      1559     0    63     1     9
 -1.7789295091131901E-02 a      1560     0    63     1    10
 -1.2725476839402480E-01 a      1561     0    63     1    11
  1.1323489638026846E-01 a      1562     0    63     1    12
  7.7499216545572269E-03 a      1563     0    63     1    13
  6.2783124464885431E-02 a      1564     0    63     1    14
 -1.8875059495850534E-02 a      1565     0    63     1    15
 -5.5162459712487311E-03 a      1566     0    63     1    16
 -2.5319538037958950E-01 a      1567     0    63     1    17
 -1.3749949413643324E-02 a      1568     0    63     1    18
 -1.5212611394922707E-01 a      1569     0    63     1    19
 -5.1348670896442121E-02 a      1570     0    63     1    20
 -7.1792659213473775E-02 a      1571     0    63     1    21
 -9.5229013067980300E-03 a      1572     0    63     1    22
  4.2182106612578936E-02 a      1573     0    63     1    23
 -4.2106897114858918E-02 a      1574     0    63     1    24
  8.6704954672557122E-02 a      1575     0    63     1    25
  4.5469721567554272E-02 a      1576     0    64     1     1
 -5.8253639863381605E-02 a      1577     0    64     1     2
 -5.3852287692839410E-02 a      1578     0    64     1     3
 -3.5002069104607673E-02 a      1579     0    64     1     4
 -3.5301499246094194E-02 a      1580     0    64     1     5
  3.0577487184899447E-02 a      1581     0    64     1     6
 -8.8907771852721820E-02 a      1582     0    64     1     7
  5.1199926881846540E-02 a      1583     0    64     1     8
  4.1530462558103359E-02 a      1584     0    64     1     9
  9.3651981008122984E-02 a      1585     0    64     1    10
  1.3398103857795204E-01 a      1586     0    64     1    11
 -7.1114174641184136E-02 a      1587     0    64     1    12
  1.7197172054083026E-01 a      1588     0    64     1    13
 -7.7045268594795366E-02 a      1589     0    64     1    14
  9.8760828344766401E-03 a      1590     0    64     1    15
  1.0856460692637338E-02 a      1591     0    64     1    16
 -9.1400654292018185E-02 a      1592     0    64     1    17
 -2.4912386089630936E-02 a      1593     0    64     1    18
 -3.0661660448522692E-02 a      1594     0    64     1    19
  3.1525405197860963E-02 a      1595     0    64     1    20
 -4.6768374470075237E-02 a      1596     0    64     1    21
 -9.4891078724241573E-02 a      1597     0    64     1    22
  1.1733523660891890E-01 a      1598     0    64     1    23
 -1.3521548338098188E-01 a      1599     0    64     1    24
 -2.1256099767771072E-01 a      1600     0    64     1    25
 -4.4039274769908605E-02 a      1601     0    65     1     1
 -6.7472960283066180E-02 a      1602     0    65     1     2
  3.9492363623053833E-02 a      1603     0    65     1     3
  1.9915096742505606E-01 a      1604     0    65     1     4
 -1.8552107492368139E-01 a      1605     0    65     1     5
  8.7606636822170680E-02 a      1606     0    65     1     6
  2.8679100847150035E-01 a      1607     0    65     1     7
  3.5017244672089144E-02 a      1608     0    65     1     8
  3.0112991921899483E-02 a      1609     0    65     1     9
 -1.8269818503730394E-02 a      1610     0    65     1    10
 -6.0021435544175258E-02 a      1611     0    65     1    11
 -4.0245191767187251E-02 a      1612     0    65     1    12
  6.4080245081124088E-02 a      1613     0    65     1    13
 -6.3843510385164282E-02 a      1614     0    65     1    14
  8.8368813722458459E-02 a      1615     0    65     1    15
 -9.9651937530576301E-02 a      1616     0    65     1    16
  1.5320993095265398E-01 a      1617     0    65     1    17
 -2.1581442253626018E-01 a      1618     0    65     1    18
  1.3778011618639810E-01 a      1619     0    65     1    19
  7.6678915009564419E-02 a      1620     0    65     1    20
  2.0914811327251109E-01 a      1621     0    65     1    21
 -9.8799954676167326E-03 a      1622     0    65     1    22
  1.0230377375766571E-01 a      1623     0    65     1    23
