################################################################################
# Neural network connection values (weights and biases).
################################################################################
# Col  Name       Description
################################################################################
# 1    connection Neural network connection value.
# 2    t          Connection type (a = weight, b = bias).
# 3    index      Index enumerating weights.
# 4    l_s        Starting point layer (end point layer for biases).
# 5    n_s        Starting point neuron in starting layer (end point neuron for biases).
# 6    l_e        End point layer.
# 7    n_e        End point neuron in end layer.
################################################################################
#                      1 2         3     4     5     6     7
#             connection t     index   l_s   n_s   l_e   n_e
############################################################
 -7.0033319359396307E-01 a         1     0     1     1     1
 -6.6899595095516740E-03 a         2     0     1     1     2
  3.4322891411967893E-01 a         3     0     1     1     3
  5.4972153162953237E-02 a         4     0     1     1     4
 -5.7602388697840101E-01 a         5     0     1     1     5
  6.6775470511213608E-01 a         6     0     1     1     6
  2.4688645468385390E-01 a         7     0     1     1     7
 -6.8938104202055608E-02 a         8     0     1     1     8
  2.2639860072608244E-02 a         9     0     1     1     9
 -7.0778373961334984E-01 a        10     0     1     1    10
 -2.0139715855997714E-01 a        11     0     1     1    11
 -1.0007619753870156E+00 a        12     0     1     1    12
  1.8250943343256928E-01 a        13     0     1     1    13
  4.9036377004979058E-02 a        14     0     1     1    14
  2.9305894157212015E-01 a        15     0     1     1    15
  3.9709997306621153E-01 a        16     0     1     1    16
 -5.6720315989756043E-01 a        17     0     1     1    17
  3.2384844791085099E-01 a        18     0     1     1    18
  8.6597399623627958E-01 a        19     0     1     1    19
  8.0212193170308010E-01 a        20     0     1     1    20
  2.4384595318407984E-01 a        21     0     1     1    21
 -9.1718984486590091E-02 a        22     0     1     1    22
  2.9018962277463445E-01 a        23     0     1     1    23
  1.7768825725533130E-01 a        24     0     1     1    24
  1.3430231946621943E-01 a        25     0     1     1    25
  8.2196105114556314E-02 a        26     0     2     1     1
 -3.0775933064933764E-01 a        27     0     2     1     2
 -3.3946434866318825E-01 a        28     0     2     1     3
 -2.9135391069649663E-01 a        29     0     2     1     4
 -1.9987771358779344E-01 a        30     0     2     1     5
  2.8550726856200387E-01 a        31     0     2     1     6
 -1.5374030847856687E-01 a        32     0     2     1     7
  5.3392038051409470E-02 a        33     0     2     1     8
  1.0952464860339877E+00 a        34     0     2     1     9
  3.2385186776531877E-01 a        35     0     2     1    10
 -5.5170008292741678E-02 a        36     0     2     1    11
  4.5767045652895383E-01 a        37     0     2     1    12
  7.2090205170060462E-01 a        38     0     2     1    13
 -4.6014042478162692E-01 a        39     0     2     1    14
 -2.3321891552798804E-01 a        40     0     2     1    15
  2.4568125388706807E-01 a        41     0     2     1    16
  4.6316232840134092E-01 a        42     0     2     1    17
  1.7077657438139063E-01 a        43     0     2     1    18
 -2.1104701949928070E-01 a        44     0     2     1    19
 -1.9708215194822953E-01 a        45     0     2     1    20
  6.0321770317950307E-01 a        46     0     2     1    21
  7.8948801730158547E-01 a        47     0     2     1    22
  1.8580641998355359E-02 a        48     0     2     1    23
 -7.2303044448184098E-02 a        49     0     2     1    24
 -1.7710365621248553E-01 a        50     0     2     1    25
 -2.3996213931253013E-01 a        51     0     3     1     1
 -2.6813993073424004E-02 a        52     0     3     1     2
  1.4125161652390170E-01 a        53     0     3     1     3
  1.5683509767348611E-01 a        54     0     3     1     4
  6.9589914605763359E-02 a        55     0     3     1     5
  1.0538935630904087E-01 a        56     0     3     1     6
 -4.1806136589915985E-02 a        57     0     3     1     7
 -1.4729232473389323E-01 a        58     0     3     1     8
  2.1144718855023245E-01 a        59     0     3     1     9
 -1.2749705490922625E-01 a        60     0     3     1    10
 -2.6690192531833851E-01 a        61     0     3     1    11
 -2.2529143151674130E-01 a        62     0     3     1    12
  1.5359589874314175E-01 a        63     0     3     1    13
 -7.1851903637896952E-02 a        64     0     3     1    14
 -3.0929344629957625E-02 a        65     0     3     1    15
 -7.4353297911316984E-03 a        66     0     3     1    16
 -1.3525718826135344E-01 a        67     0     3     1    17
  6.0385027553855657E-02 a        68     0     3     1    18
  1.3544889281590937E-02 a        69     0     3     1    19
  4.6825141768019538E-02 a        70     0     3     1    20
 -1.1587353346023289E-01 a        71     0     3     1    21
 -2.6527869830167361E-02 a        72     0     3     1    22
 -1.7906633313317111E-01 a        73     0     3     1    23
  7.4719989211023241E-02 a        74     0     3     1    24
 -3.8106985722212203E-02 a        75     0     3     1    25
 -3.0785176257057595E-02 a        76     0     4     1     1
 -8.7580178044804613E-03 a        77     0     4     1     2
  5.4622910142292549E-02 a        78     0     4     1     3
 -6.6780368050836841E-02 a        79     0     4     1     4
 -1.5115987055726374E-01 a        80     0     4     1     5
  1.8043088893228823E-01 a        81     0     4     1     6
 -1.8443587327210484E-01 a        82     0     4     1     7
 -2.6215775870661426E-03 a        83     0     4     1     8
  2.3502336566986920E-01 a        84     0     4     1     9
  9.1877618880880883E-03 a        85     0     4     1    10
  1.8266121509155706E-01 a        86     0     4     1    11
  1.1159340090488351E-01 a        87     0     4     1    12
  1.7455714753687662E-02 a        88     0     4     1    13
  1.4323317499764406E-02 a        89     0     4     1    14
  1.4039131333761294E-02 a        90     0     4     1    15
  1.4250727694921125E-01 a        91     0     4     1    16
  1.0982933534413107E-01 a        92     0     4     1    17
 -1.4594621625727064E-01 a        93     0     4     1    18
  6.7236785091020379E-02 a        94     0     4     1    19
 -2.3129401504658509E-01 a        95     0     4     1    20
  2.5364861832981290E-03 a        96     0     4     1    21
 -1.7530042807135473E-03 a        97     0     4     1    22
 -7.8433709093707754E-02 a        98     0     4     1    23
 -2.0772279508205768E-01 a        99     0     4     1    24
 -1.9214976703030745E-01 a       100     0     4     1    25
  5.6352626729472932E-01 a       101     0     5     1     1
  1.5750299787662644E-01 a       102     0     5     1     2
  1.5095115790937030E+00 a       103     0     5     1     3
 -8.0708985984268256E-01 a       104     0     5     1     4
  4.0773669662730172E-01 a       105     0     5     1     5
 -6.6179585161698007E-01 a       106     0     5     1     6
  1.1720421472232327E+00 a       107     0     5     1     7
 -2.8705225758920871E-01 a       108     0     5     1     8
  5.8157619775277902E-01 a       109     0     5     1     9
  4.1231616715204905E-01 a       110     0     5     1    10
  3.7085794352526613E-01 a       111     0     5     1    11
  5.4478509197599034E-01 a       112     0     5     1    12
 -3.7381664043906837E-01 a       113     0     5     1    13
  3.9252244604288156E-01 a       114     0     5     1    14
 -7.7057796840981588E-02 a       115     0     5     1    15
 -9.8717062785475840E-01 a       116     0     5     1    16
  1.3163832583038173E+00 a       117     0     5     1    17
 -3.5804682708386493E-01 a       118     0     5     1    18
 -9.0324733181663708E-01 a       119     0     5     1    19
 -1.4319621422095565E+00 a       120     0     5     1    20
 -1.0473701956638935E-01 a       121     0     5     1    21
 -4.7123838762968051E-01 a       122     0     5     1    22
 -5.8824985285888454E-01 a       123     0     5     1    23
 -4.6328131581787974E-01 a       124     0     5     1    24
  8.3494922785127434E-02 a       125     0     5     1    25
  1.6359677103409137E-01 a       126     0     6     1     1
  1.9442221830836956E-01 a       127     0     6     1     2
  4.1840575423076387E-01 a       128     0     6     1     3
  7.4494778094112493E-02 a       129     0     6     1     4
  1.7215184130254535E-01 a       130     0     6     1     5
 -3.8292957313130932E-01 a       131     0     6     1     6
 -1.6525491210050142E-01 a       132     0     6     1     7
 -2.7181393116396402E-01 a       133     0     6     1     8
 -2.2543635495810591E-01 a       134     0     6     1     9
 -4.0351016251807387E-01 a       135     0     6     1    10
 -4.9381131278480161E-01 a       136     0     6     1    11
  2.6719159699459522E-01 a       137     0     6     1    12
 -2.9069726735401963E-01 a       138     0     6     1    13
 -4.1769239407715125E-01 a       139     0     6     1    14
  2.7057958533692356E-01 a       140     0     6     1    15
  1.6139476572895703E-01 a       141     0     6     1    16
  2.4437160930760804E-01 a       142     0     6     1    17
  2.9233020284630009E-02 a       143     0     6     1    18
  2.8085698333242204E-01 a       144     0     6     1    19
 -3.6228524748906310E-01 a       145     0     6     1    20
 -7.6592471916278015E-01 a       146     0     6     1    21
 -7.4906880356232708E-01 a       147     0     6     1    22
 -5.5357912055158642E-01 a       148     0     6     1    23
 -4.0466538042345325E-02 a       149     0     6     1    24
 -3.2209765510525279E-01 a       150     0     6     1    25
  1.8531957615355442E-02 a       151     0     7     1     1
 -2.2672099373489113E-01 a       152     0     7     1     2
 -8.1389636362858342E-02 a       153     0     7     1     3
 -3.3073121848806238E-02 a       154     0     7     1     4
  1.6790275988995093E-01 a       155     0     7     1     5
  1.3475482702833055E-01 a       156     0     7     1     6
  8.2674557614919209E-02 a       157     0     7     1     7
 -9.8995833987807064E-02 a       158     0     7     1     8
 -2.6896025558854308E-01 a       159     0     7     1     9
  1.7843654202454942E-01 a       160     0     7     1    10
  2.5588269184943224E-01 a       161     0     7     1    11
  1.1718367762522538E-03 a       162     0     7     1    12
 -5.4984678552394570E-02 a       163     0     7     1    13
 -1.7702213953741572E-01 a       164     0     7     1    14
  2.0137897193583648E-01 a       165     0     7     1    15
 -6.7926194968965903E-02 a       166     0     7     1    16
  6.2316962093354557E-02 a       167     0     7     1    17
  1.3991918073311196E-01 a       168     0     7     1    18
 -1.1460520109935349E-01 a       169     0     7     1    19
  7.3897137241538666E-02 a       170     0     7     1    20
  7.4665927837373233E-02 a       171     0     7     1    21
  8.5455435196263196E-02 a       172     0     7     1    22
  1.1856329966762094E-01 a       173     0     7     1    23
 -3.9691865311735859E-02 a       174     0     7     1    24
  1.8443630659469851E-01 a       175     0     7     1    25
  2.2867122145234058E-03 a       176     0     8     1     1
 -1.7399536338738173E-02 a       177     0     8     1     2
 -3.6536616259040942E-02 a       178     0     8     1     3
  1.2173002924790798E-01 a       179     0     8     1     4
  1.3034362102063521E-01 a       180     0     8     1     5
 -8.0279996727201347E-02 a       181     0     8     1     6
  3.4169453889374729E-02 a       182     0     8     1     7
 -1.0553792176125452E-01 a       183     0     8     1     8
 -3.0721931936322347E-02 a       184     0     8     1     9
 -3.2473236629829005E-01 a       185     0     8     1    10
 -6.7645492099529039E-02 a       186     0     8     1    11
 -1.0684874473838754E-01 a       187     0     8     1    12
  2.8407586882514418E-01 a       188     0     8     1    13
 -1.8157338366545464E-01 a       189     0     8     1    14
  1.1172681757188746E-01 a       190     0     8     1    15
  2.7441737072113531E-01 a       191     0     8     1    16
 -9.1618370036772798E-02 a       192     0     8     1    17
 -2.3235852820435110E-01 a       193     0     8     1    18
  1.7206578585357479E-01 a       194     0     8     1    19
 -2.6766005354382372E-01 a       195     0     8     1    20
 -6.6626971391090486E-02 a       196     0     8     1    21
 -2.7263796048712824E-01 a       197     0     8     1    22
 -6.4563806947415842E-02 a       198     0     8     1    23
  7.8201207637803624E-02 a       199     0     8     1    24
 -1.6129019967675642E-01 a       200     0     8     1    25
 -6.9883927076045660E-01 a       201     0     9     1     1
 -1.9867872736668071E-01 a       202     0     9     1     2
 -1.7494408313116807E+00 a       203     0     9     1     3
  7.4617315614816160E-01 a       204     0     9     1     4
 -1.1581624599164431E-01 a       205     0     9     1     5
  7.3580576252179619E-01 a       206     0     9     1     6
 -1.9991128977575343E+00 a       207     0     9     1     7
  6.0950422041864982E-01 a       208     0     9     1     8
 -3.1060481567143527E-01 a       209     0     9     1     9
 -5.1214690391430728E-01 a       210     0     9     1    10
 -1.5071727115471018E-01 a       211     0     9     1    11
 -2.2109445731460942E-01 a       212     0     9     1    12
  1.6107966313302827E-01 a       213     0     9     1    13
 -1.1949221600195338E-01 a       214     0     9     1    14
  1.5458490024119534E-01 a       215     0     9     1    15
  3.2838481092245070E-01 a       216     0     9     1    16
 -1.1126269021710409E+00 a       217     0     9     1    17
 -1.0082180538950671E-01 a       218     0     9     1    18
 -2.0638088622283151E-02 a       219     0     9     1    19
  9.5403974851311246E-01 a       220     0     9     1    20
  1.7423232963971080E-01 a       221     0     9     1    21
  3.5909054643407864E-03 a       222     0     9     1    22
  3.7437097658159890E-01 a       223     0     9     1    23
  3.5865726659559005E-01 a       224     0     9     1    24
  4.2181302811923777E-01 a       225     0     9     1    25
  7.4768476779734083E-02 a       226     0    10     1     1
 -2.0706917969235178E-01 a       227     0    10     1     2
  2.9460369434907343E-02 a       228     0    10     1     3
 -7.8599724216059166E-02 a       229     0    10     1     4
  2.3661506349768111E-01 a       230     0    10     1     5
  1.6874910875356822E-01 a       231     0    10     1     6
 -2.8099225644801950E-02 a       232     0    10     1     7
 -3.0456749021095769E-01 a       233     0    10     1     8
  5.5291639639739820E-02 a       234     0    10     1     9
  2.1183828724049775E-01 a       235     0    10     1    10
  8.8362325592810410E-03 a       236     0    10     1    11
  6.7791232829384807E-01 a       237     0    10     1    12
  5.0202525146342947E-01 a       238     0    10     1    13
 -1.7670822342106385E-01 a       239     0    10     1    14
  2.4212143023114543E-01 a       240     0    10     1    15
 -8.4513535480841909E-03 a       241     0    10     1    16
  9.8544561179568377E-02 a       242     0    10     1    17
  3.2703029998335464E-01 a       243     0    10     1    18
  1.7611913514063701E-01 a       244     0    10     1    19
  1.2866878752333171E-02 a       245     0    10     1    20
  1.4841582180202953E-01 a       246     0    10     1    21
  1.7370808776534649E-01 a       247     0    10     1    22
 -1.9847278141435465E-01 a       248     0    10     1    23
  2.2096995230574804E-02 a       249     0    10     1    24
 -2.0894351187664268E-02 a       250     0    10     1    25
 -6.2847641701800058E-02 a       251     0    11     1     1
  1.9432729056897360E-01 a       252     0    11     1     2
  6.0105507598322651E-02 a       253     0    11     1     3
 -2.3182575941621753E-01 a       254     0    11     1     4
 -2.5365605455512386E-01 a       255     0    11     1     5
  1.6310007157533123E-02 a       256     0    11     1     6
 -3.5966885404211869E-02 a       257     0    11     1     7
  1.5737580360599696E-01 a       258     0    11     1     8
  9.4431108096141581E-02 a       259     0    11     1     9
 -3.0622703490122222E-01 a       260     0    11     1    10
 -1.3125283662226572E-02 a       261     0    11     1    11
 -8.1295454516892435E-02 a       262     0    11     1    12
 -1.3461282982333758E-01 a       263     0    11     1    13
  9.6848825165428407E-02 a       264     0    11     1    14
  1.4596150990914047E-01 a       265     0    11     1    15
 -8.1902019581179777E-02 a       266     0    11     1    16
 -4.9492896651083952E-02 a       267     0    11     1    17
 -1.8175405943517714E-01 a       268     0    11     1    18
  1.1461601592618156E-01 a       269     0    11     1    19
 -1.8633577469372709E-01 a       270     0    11     1    20
  1.9100515920827291E-01 a       271     0    11     1    21
 -1.1128665457494644E-01 a       272     0    11     1    22
 -2.3009529093412702E-02 a       273     0    11     1    23
 -5.5506435387822933E-02 a       274     0    11     1    24
  4.6406763424697087E-03 a       275     0    11     1    25
  3.1227535444660396E-02 a       276     0    12     1     1
  8.8219684450330169E-02 a       277     0    12     1     2
  1.4238750090356522E-01 a       278     0    12     1     3
 -5.1404352772134190E-02 a       279     0    12     1     4
  4.0240995210995979E-02 a       280     0    12     1     5
  9.8480950175620766E-02 a       281     0    12     1     6
 -2.1977870967563304E-01 a       282     0    12     1     7
 -1.4968460317139504E-01 a       283     0    12     1     8
  7.2031793192826168E-02 a       284     0    12     1     9
 -6.8281924001721978E-02 a       285     0    12     1    10
 -3.6810156172413658E-03 a       286     0    12     1    11
  6.8447808590636108E-02 a       287     0    12     1    12
  6.0415458212859083E-02 a       288     0    12     1    13
 -1.0947991129397493E-01 a       289     0    12     1    14
 -3.2638985609829987E-02 a       290     0    12     1    15
 -4.0160769352261344E-02 a       291     0    12     1    16
  7.3631792663130843E-02 a       292     0    12     1    17
  6.0175982994777312E-02 a       293     0    12     1    18
  5.5316089015807868E-02 a       294     0    12     1    19
 -1.9380308198343824E-01 a       295     0    12     1    20
 -1.2699797086771017E-01 a       296     0    12     1    21
 -1.4388379911456045E-01 a       297     0    12     1    22
 -1.7225747715501974E-01 a       298     0    12     1    23
 -6.6992072391182558E-02 a       299     0    12     1    24
 -2.1032232452630570E-01 a       300     0    12     1    25
 -1.3189895023080644E-01 a       301     0    13     1     1
  2.5819923287003882E-01 a       302     0    13     1     2
  1.4737181375710966E+00 a       303     0    13     1     3
 -6.1308512182127772E-01 a       304     0    13     1     4
 -2.1656270454841517E-02 a       305     0    13     1     5
  7.3546448368012829E-02 a       306     0    13     1     6
  1.5414915024293054E+00 a       307     0    13     1     7
 -2.1369885049262438E-01 a       308     0    13     1     8
  1.8529457803121080E-01 a       309     0    13     1     9
  6.2010370271443821E-02 a       310     0    13     1    10
  3.8403882838767356E-01 a       311     0    13     1    11
 -7.1631656605819860E-01 a       312     0    13     1    12
 -4.3213968222271582E-02 a       313     0    13     1    13
 -6.9517905396479174E-02 a       314     0    13     1    14
 -1.6734227916889850E-02 a       315     0    13     1    15
 -5.5540874730822931E-01 a       316     0    13     1    16
  6.7366248497189651E-01 a       317     0    13     1    17
  1.8454843853400838E-02 a       318     0    13     1    18
  1.4433757007966279E-02 a       319     0    13     1    19
 -7.9257810538125473E-01 a       320     0    13     1    20
  5.9671883399068551E-02 a       321     0    13     1    21
  4.3418245827565649E-02 a       322     0    13     1    22
 -2.4948080797638716E-01 a       323     0    13     1    23
 -4.3080926609527226E-01 a       324     0    13     1    24
 -1.9399663130258937E-01 a       325     0    13     1    25
  1.9534938103691074E-01 a       326     0    14     1     1
  1.5630976746187139E-01 a       327     0    14     1     2
  4.8136112891981928E-02 a       328     0    14     1     3
 -1.2617525370315788E-01 a       329     0    14     1     4
 -1.3697407575392895E-01 a       330     0    14     1     5
 -1.5832716394384727E-01 a       331     0    14     1     6
 -2.9845125936640471E-01 a       332     0    14     1     7
 -3.1235628268787347E-01 a       333     0    14     1     8
 -1.3943067114290389E-01 a       334     0    14     1     9
 -1.6162120916330058E-01 a       335     0    14     1    10
  1.5872321445085363E-01 a       336     0    14     1    11
  1.2944333557636636E-01 a       337     0    14     1    12
 -2.0700651226423152E-02 a       338     0    14     1    13
  5.7480737867425705E-02 a       339     0    14     1    14
 -2.2699921513337956E-01 a       340     0    14     1    15
 -2.5780843548452149E-03 a       341     0    14     1    16
  3.5897668603476968E-01 a       342     0    14     1    17
  1.8140362529992723E-02 a       343     0    14     1    18
  2.6663038049677457E-01 a       344     0    14     1    19
  2.5472706638534515E-02 a       345     0    14     1    20
 -1.7663820829077143E-01 a       346     0    14     1    21
 -1.9605753347627652E-01 a       347     0    14     1    22
  1.2183507252668561E-02 a       348     0    14     1    23
  5.5699601396550211E-02 a       349     0    14     1    24
  2.7586645484359452E-02 a       350     0    14     1    25
 -1.9350718401169295E-01 a       351     0    15     1     1
 -1.4090817039006442E-01 a       352     0    15     1     2
 -2.1833694102850573E-02 a       353     0    15     1     3
  7.1892213566870200E-02 a       354     0    15     1     4
  1.6455713210758044E-01 a       355     0    15     1     5
  1.9467916417683861E-01 a       356     0    15     1     6
  1.3979894860789972E-02 a       357     0    15     1     7
  1.4086424627468841E-01 a       358     0    15     1     8
  6.3314311983042867E-02 a       359     0    15     1     9
  1.2240425001266164E-01 a       360     0    15     1    10
 -1.3841824895651899E-02 a       361     0    15     1    11
 -8.3123564126588445E-03 a       362     0    15     1    12
  1.4049809597308050E-02 a       363     0    15     1    13
 -8.0814669143799617E-02 a       364     0    15     1    14
 -4.2262536744422853E-02 a       365     0    15     1    15
 -4.1294566710668439E-02 a       366     0    15     1    16
 -5.8964896898233345E-02 a       367     0    15     1    17
 -3.7943738408136127E-02 a       368     0    15     1    18
 -1.8813369629343449E-01 a       369     0    15     1    19
  2.3610903927190049E-01 a       370     0    15     1    20
 -6.0912124168693071E-02 a       371     0    15     1    21
  3.0179311572882924E-03 a       372     0    15     1    22
  2.2207423824168057E-02 a       373     0    15     1    23
 -1.8627220661939198E-02 a       374     0    15     1    24
  1.1335283107692629E-01 a       375     0    15     1    25
  2.2704861270664446E-03 a       376     0    16     1     1
 -1.3231834258663777E-01 a       377     0    16     1     2
  1.4986545077095324E-02 a       378     0    16     1     3
  2.3614463411108726E-02 a       379     0    16     1     4
  5.0404625833611258E-02 a       380     0    16     1     5
  4.1279390386058691E-02 a       381     0    16     1     6
 -9.2706960516642824E-03 a       382     0    16     1     7
 -2.8390886718306219E-01 a       383     0    16     1     8
 -4.5949033151046238E-02 a       384     0    16     1     9
 -1.1842388540662112E-01 a       385     0    16     1    10
 -2.6354748103726788E-02 a       386     0    16     1    11
  1.9825778142253406E-01 a       387     0    16     1    12
  2.6859172406761711E-01 a       388     0    16     1    13
  3.7287273052391567E-03 a       389     0    16     1    14
 -1.1229280451957370E-01 a       390     0    16     1    15
 -6.3840445167476903E-02 a       391     0    16     1    16
  2.0787886970700373E-01 a       392     0    16     1    17
  8.4345185512574611E-02 a       393     0    16     1    18
  9.2905103586815529E-02 a       394     0    16     1    19
 -8.0845165726262699E-02 a       395     0    16     1    20
  2.5272052535801354E-02 a       396     0    16     1    21
 -9.5494266217023879E-02 a       397     0    16     1    22
 -1.3464362955357714E-01 a       398     0    16     1    23
  7.1033531298092631E-02 a       399     0    16     1    24
  3.9164637357873122E-02 a       400     0    16     1    25
 -2.3386966767660841E-01 a       401     0    17     1     1
 -1.4240415261816886E-01 a       402     0    17     1     2
 -6.9586230236276414E-01 a       403     0    17     1     3
  1.9856780895471243E-01 a       404     0    17     1     4
 -3.1295016809145038E-01 a       405     0    17     1     5
  1.8223402953768050E-01 a       406     0    17     1     6
 -9.2514490540842031E-01 a       407     0    17     1     7
  4.5643474494096936E-01 a       408     0    17     1     8
  1.4079737313365348E-01 a       409     0    17     1     9
 -4.1128834489953964E-01 a       410     0    17     1    10
 -4.3914963255018660E-02 a       411     0    17     1    11
  3.7398991801184794E-01 a       412     0    17     1    12
 -1.4281460450880587E-01 a       413     0    17     1    13
  3.5928506780695202E-01 a       414     0    17     1    14
  6.4780556289823640E-02 a       415     0    17     1    15
 -8.5426845330905804E-02 a       416     0    17     1    16
 -9.9553152340081802E-02 a       417     0    17     1    17
 -2.2571083197510064E-01 a       418     0    17     1    18
 -3.3006305147057013E-01 a       419     0    17     1    19
  2.6256243425674147E-01 a       420     0    17     1    20
  1.5242189903518072E-01 a       421     0    17     1    21
 -3.5709409024663347E-01 a       422     0    17     1    22
 -7.9935736514300929E-02 a       423     0    17     1    23
 -6.8491019068559950E-02 a       424     0    17     1    24
  4.4886055020014010E-01 a       425     0    17     1    25
  3.2995469853839143E-01 a       426     0    18     1     1
 -2.7228932524235011E-01 a       427     0    18     1     2
  1.4897543402479055E-01 a       428     0    18     1     3
  4.7064607773342461E-02 a       429     0    18     1     4
  5.5724836723944141E-02 a       430     0    18     1     5
 -4.3337155996919077E-02 a       431     0    18     1     6
  4.3580416729217542E-01 a       432     0    18     1     7
 -2.6995689827661129E-01 a       433     0    18     1     8
  2.1504058513985785E-01 a       434     0    18     1     9
  9.4121108573400156E-02 a       435     0    18     1    10
 -1.5141777653168551E-01 a       436     0    18     1    11
  4.5172122687997907E-01 a       437     0    18     1    12
 -7.0747006847241195E-02 a       438     0    18     1    13
 -8.3916753277321843E-02 a       439     0    18     1    14
  2.7761878094438935E-01 a       440     0    18     1    15
 -2.8894971349032149E-02 a       441     0    18     1    16
  7.9343266893434128E-02 a       442     0    18     1    17
 -3.8902928686598184E-02 a       443     0    18     1    18
  1.7196895637210244E-01 a       444     0    18     1    19
 -1.7322514729669450E-01 a       445     0    18     1    20
  4.3444989605673926E-03 a       446     0    18     1    21
 -1.8828053457819998E-03 a       447     0    18     1    22
 -2.9409160933109640E-01 a       448     0    18     1    23
  1.4854573413669134E-01 a       449     0    18     1    24
 -8.0644944266824531E-02 a       450     0    18     1    25
 -1.1123933639289671E-02 a       451     0    19     1     1
  3.7849032848998744E-02 a       452     0    19     1     2
 -1.5320665923746394E-02 a       453     0    19     1     3
  1.2676022685416178E-03 a       454     0    19     1     4
  3.0279457416831267E-02 a       455     0    19     1     5
 -3.9024803947679848E-02 a       456     0    19     1     6
  1.0509155516863003E-02 a       457     0    19     1     7
  1.1127347934401534E-01 a       458     0    19     1     8
 -1.3201652046365586E-02 a       459     0    19     1     9
 -1.9458875576350335E-01 a       460     0    19     1    10
  3.0363826702353845E-02 a       461     0    19     1    11
 -3.3323944077311041E-01 a       462     0    19     1    12
  7.3258683496236002E-02 a       463     0    19     1    13
  1.4309949190758492E-01 a       464     0    19     1    14
  5.9524393042875073E-02 a       465     0    19     1    15
 -3.5743274689825095E-03 a       466     0    19     1    16
  9.7766253974566189E-02 a       467     0    19     1    17
 -1.9914256098601663E-01 a       468     0    19     1    18
  8.2714834461347475E-02 a       469     0    19     1    19
 -9.1652002108044278E-02 a       470     0    19     1    20
  9.5283226817890546E-02 a       471     0    19     1    21
  1.2548907078821739E-01 a       472     0    19     1    22
 -5.2985534210047244E-02 a       473     0    19     1    23
 -1.3004462629410177E-01 a       474     0    19     1    24
  3.0057955066337849E-02 a       475     0    19     1    25
  4.8361846134040418E-02 a       476     0    20     1     1
  1.4899837882884326E-01 a       477     0    20     1     2
  6.8396825000717573E-02 a       478     0    20     1     3
 -2.7127827844863634E-03 a       479     0    20     1     4
  5.7108199110086660E-02 a       480     0    20     1     5
 -6.4345133083814803E-03 a       481     0    20     1     6
 -1.3630671208555714E-01 a       482     0    20     1     7
 -1.8492155454072842E-01 a       483     0    20     1     8
  5.0624636218556786E-03 a       484     0    20     1     9
  1.9769758335922710E-01 a       485     0    20     1    10
  7.7427382747109141E-02 a       486     0    20     1    11
  8.6006223885209426E-02 a       487     0    20     1    12
 -1.3586357666296880E-01 a       488     0    20     1    13
 -9.3725460207898889E-02 a       489     0    20     1    14
  2.2625404668400986E-01 a       490     0    20     1    15
  7.2116422191602803E-02 a       491     0    20     1    16
 -1.2676570940317894E-01 a       492     0    20     1    17
 -2.3115122286021764E-02 a       493     0    20     1    18
  1.3695698089160442E-02 a       494     0    20     1    19
 -1.1134300403185576E-01 a       495     0    20     1    20
 -4.1177483426578280E-02 a       496     0    20     1    21
 -1.1768631558697587E-01 a       497     0    20     1    22
 -5.2058599145310330E-02 a       498     0    20     1    23
  1.3891484507001187E-01 a       499     0    20     1    24
 -8.1647386231003413E-02 a       500     0    20     1    25
 -5.1615065039721304E-02 a       501     0    21     1     1
  7.6643107330141971E-02 a       502     0    21     1     2
  3.7758307721291423E-01 a       503     0    21     1     3
 -1.2520069478569434E-01 a       504     0    21     1     4
  3.5918355445189065E-01 a       505     0    21     1     5
  4.1453291350905051E-02 a       506     0    21     1     6
  4.3070520847152532E-01 a       507     0    21     1     7
  2.7873614687762760E-01 a       508     0    21     1     8
 -5.3568162686655908E-02 a       509     0    21     1     9
  3.4514052337630796E-01 a       510     0    21     1    10
  6.0727719012069852E-02 a       511     0    21     1    11
 -4.0222527591035379E-01 a       512     0    21     1    12
  1.1023834238741152E-01 a       513     0    21     1    13
 -2.3116318569676625E-01 a       514     0    21     1    14
  9.8754863493580470E-03 a       515     0    21     1    15
  8.9777073346003877E-02 a       516     0    21     1    16
 -7.0636253342612518E-02 a       517     0    21     1    17
 -2.5079016191719990E-02 a       518     0    21     1    18
  7.9273144709438623E-02 a       519     0    21     1    19
  1.5802145899527734E-01 a       520     0    21     1    20
 -6.8046217115426161E-02 a       521     0    21     1    21
  3.7226070328862559E-01 a       522     0    21     1    22
  3.9178114249641870E-02 a       523     0    21     1    23
 -1.4067838321561713E-01 a       524     0    21     1    24
 -1.9831895671205585E-01 a       525     0    21     1    25
 -6.3741969237102361E-02 a       526     0    22     1     1
  2.5314161162109100E-01 a       527     0    22     1     2
 -8.9599064402973466E-02 a       528     0    22     1     3
  3.2064181030704589E-02 a       529     0    22     1     4
  1.7634025674311504E-01 a       530     0    22     1     5
 -5.8884762931496332E-03 a       531     0    22     1     6
 -3.9849733024078016E-01 a       532     0    22     1     7
 -4.4653108741994429E-01 a       533     0    22     1     8
 -2.5718276672445578E-01 a       534     0    22     1     9
  9.4412376670366741E-02 a       535     0    22     1    10
  2.4542255151272919E-03 a       536     0    22     1    11
  6.1522194677057190E-02 a       537     0    22     1    12
  1.4791428192188966E-01 a       538     0    22     1    13
 -8.0777055798647107E-02 a       539     0    22     1    14
 -2.6309950524476272E-01 a       540     0    22     1    15
 -6.4098026908883388E-03 a       541     0    22     1    16
  4.6554955867619735E-02 a       542     0    22     1    17
  3.4181563485061635E-02 a       543     0    22     1    18
 -5.2602708585258402E-02 a       544     0    22     1    19
 -9.1871800982498864E-02 a       545     0    22     1    20
 -1.1581651178664439E-01 a       546     0    22     1    21
 -1.9281213706675412E-01 a       547     0    22     1    22
  1.6671233691641232E-01 a       548     0    22     1    23
  3.1772862153715958E-01 a       549     0    22     1    24
  6.9161746088179890E-02 a       550     0    22     1    25
 -1.6092752465111476E-01 a       551     0    23     1     1
 -1.4039856881336969E-02 a       552     0    23     1     2
 -8.8041122919413507E-03 a       553     0    23     1     3
 -1.1634463250835156E-01 a       554     0    23     1     4
 -1.6973243391895212E-01 a       555     0    23     1     5
  1.5178904783779326E-01 a       556     0    23     1     6
  5.9661283585107978E-02 a       557     0    23     1     7
  3.5384510104268024E-01 a       558     0    23     1     8
  4.2982811506178630E-02 a       559     0    23     1     9
 -2.2957492153600198E-02 a       560     0    23     1    10
 -9.3619892864916943E-03 a       561     0    23     1    11
  5.6236499220791734E-02 a       562     0    23     1    12
 -1.1977550397114529E-01 a       563     0    23     1    13
  2.0066241059683944E-02 a       564     0    23     1    14
 -1.3910973118564445E-02 a       565     0    23     1    15
 -2.7322373881205612E-02 a       566     0    23     1    16
 -8.0253224639362922E-02 a       567     0    23     1    17
  1.1120020423151540E-01 a       568     0    23     1    18
 -1.0431484035092341E-01 a       569     0    23     1    19
  1.5472883384704048E-01 a       570     0    23     1    20
  1.1604864731746238E-02 a       571     0    23     1    21
 -8.3472388233757910E-03 a       572     0    23     1    22
  1.1783558100640443E-02 a       573     0    23     1    23
 -7.0081127039885324E-02 a       574     0    23     1    24
 -7.3946468658334555E-02 a       575     0    23     1    25
  9.3673671868432257E-02 a       576     0    24     1     1
 -1.1597448736574872E-01 a       577     0    24     1     2
 -4.4986410108240241E-02 a       578     0    24     1     3
 -5.7503627353976622E-03 a       579     0    24     1     4
 -7.0022414530419561E-02 a       580     0    24     1     5
  2.1677925741119410E-02 a       581     0    24     1     6
  9.2045669666461105E-02 a       582     0    24     1     7
 -2.4800113053199793E-01 a       583     0    24     1     8
 -3.4464331502868505E-02 a       584     0    24     1     9
 -1.5207249251021196E-01 a       585     0    24     1    10
 -2.8762088325437387E-03 a       586     0    24     1    11
  1.1772144436071072E-01 a       587     0    24     1    12
  1.2759584010964531E-01 a       588     0    24     1    13
  5.0451706924064928E-02 a       589     0    24     1    14
 -1.9713719234243099E-01 a       590     0    24     1    15
 -5.0771927202886903E-02 a       591     0    24     1    16
  1.1561848571106557E-01 a       592     0    24     1    17
  5.4834552892754282E-02 a       593     0    24     1    18
  9.8064402515343374E-02 a       594     0    24     1    19
 -1.5928810299940072E-01 a       595     0    24     1    20
 -2.1460297253240029E-02 a       596     0    24     1    21
 -6.8318757506858632E-02 a       597     0    24     1    22
  3.2593377740501916E-02 a       598     0    24     1    23
  1.5213076266332179E-01 a       599     0    24     1    24
 -4.2530530546989687E-02 a       600     0    24     1    25
 -6.0628954047852755E-02 a       601     0    25     1     1
 -1.6691854604630710E-01 a       602     0    25     1     2
 -1.3043107443252130E-01 a       603     0    25     1     3
 -5.7839551240119615E-02 a       604     0    25     1     4
 -1.6936092685840634E-01 a       605     0    25     1     5
  1.3255717834461738E-02 a       606     0    25     1     6
 -1.5713040907715867E-01 a       607     0    25     1     7
  1.3072636478411220E-01 a       608     0    25     1     8
  1.4384501066875618E-01 a       609     0    25     1     9
 -2.5563360022328330E-01 a       610     0    25     1    10
 -1.0726714102291250E-01 a       611     0    25     1    11
  2.4774324264939723E-01 a       612     0    25     1    12
 -1.9771112577376203E-02 a       613     0    25     1    13
  2.2246107528680553E-01 a       614     0    25     1    14
  5.6882982167259316E-02 a       615     0    25     1    15
 -1.3165284135201272E-01 a       616     0    25     1    16
  1.1008289149166967E-01 a       617     0    25     1    17
  5.4327396324072220E-02 a       618     0    25     1    18
 -1.5916402789023962E-01 a       619     0    25     1    19
  4.2460070611782995E-02 a       620     0    25     1    20
  7.6768483341513857E-02 a       621     0    25     1    21
 -2.2741587905901792E-01 a       622     0    25     1    22
 -6.5587285824525499E-02 a       623     0    25     1    23
 -1.2289397596996873E-01 a       624     0    25     1    24
  2.1982131401494523E-01 a       625     0    25     1    25
  2.2068633751826494E-01 a       626     0    26     1     1
 -5.4207159302556970E-02 a       627     0    26     1     2
  6.4896974976261471E-02 a       628     0    26     1     3
 -7.7489811945519339E-03 a       629     0    26     1     4
 -2.1177385992352049E-01 a       630     0    26     1     5
 -3.1207463883274545E-02 a       631     0    26     1     6
  1.9172666191468837E-01 a       632     0    26     1     7
 -9.8808511326385948E-02 a       633     0    26     1     8
  1.7981400960366839E-01 a       634     0    26     1     9
 -2.3452998107910596E-02 a       635     0    26     1    10
  5.1125431525133783E-02 a       636     0    26     1    11
  8.5578663048411621E-02 a       637     0    26     1    12
 -1.0508160430790510E-01 a       638     0    26     1    13
  1.7860576539220846E-01 a       639     0    26     1    14
  1.3203774799945656E-01 a       640     0    26     1    15
 -7.2479346372460923E-02 a       641     0    26     1    16
  5.8961175243509585E-02 a       642     0    26     1    17
 -3.6060643410940299E-02 a       643     0    26     1    18
  2.8157448258129575E-02 a       644     0    26     1    19
 -1.5426768914020700E-01 a       645     0    26     1    20
  6.2954777064195222E-02 a       646     0    26     1    21
 -1.0714704316056321E-01 a       647     0    26     1    22
 -1.2047720851712417E-01 a       648     0    26     1    23
  2.3376251562395527E-02 a       649     0    26     1    24
 -1.5719746116216193E-01 a       650     0    26     1    25
  7.8474967907195686E-02 a       651     0    27     1     1
 -1.0531506963194595E-01 a       652     0    27     1     2
  2.8769317332794198E-02 a       653     0    27     1     3
  5.5171318598735315E-02 a       654     0    27     1     4
  1.6823790862591048E-01 a       655     0    27     1     5
 -1.8153642744457876E-01 a       656     0    27     1     6
  1.7643469746920711E-02 a       657     0    27     1     7
 -2.9416966124559615E-02 a       658     0    27     1     8
 -8.9339969554970960E-03 a       659     0    27     1     9
 -1.1727305849050233E-02 a       660     0    27     1    10
 -1.7913413102590332E-02 a       661     0    27     1    11
 -1.1330474791001839E-01 a       662     0    27     1    12
  2.3378037295673528E-02 a       663     0    27     1    13
 -8.9634317728764526E-02 a       664     0    27     1    14
 -1.9385125093810709E-02 a       665     0    27     1    15
  2.1723783685682976E-02 a       666     0    27     1    16
  3.8463885575321696E-02 a       667     0    27     1    17
 -6.0819028647089123E-02 a       668     0    27     1    18
  5.9442696051630398E-02 a       669     0    27     1    19
 -1.7448650307643941E-02 a       670     0    27     1    20
 -2.4161280462488135E-02 a       671     0    27     1    21
  1.3076319636540598E-01 a       672     0    27     1    22
  3.5531026086658410E-02 a       673     0    27     1    23
 -5.2788684494599669E-02 a       674     0    27     1    24
  1.5429791112307004E-01 a       675     0    27     1    25
 -7.0253862729033251E-02 a       676     0    28     1     1
  9.6164013482735469E-02 a       677     0    28     1     2
  4.6639167596653465E-02 a       678     0    28     1     3
  1.1013508900155834E-01 a       679     0    28     1     4
  9.3493169831766934E-02 a       680     0    28     1     5
 -1.5054698158492594E-02 a       681     0    28     1     6
 -1.0598228701983885E-01 a       682     0    28     1     7
  7.4858277014343735E-02 a       683     0    28     1     8
 -2.3915695354403497E-03 a       684     0    28     1     9
  1.9354295457078521E-01 a       685     0    28     1    10
 -6.1174331323414176E-03 a       686     0    28     1    11
 -7.0329795569005898E-02 a       687     0    28     1    12
 -1.4186050265950056E-01 a       688     0    28     1    13
 -1.0111984048957036E-01 a       689     0    28     1    14
  1.2239067639879145E-01 a       690     0    28     1    15
 -3.9930500850597775E-03 a       691     0    28     1    16
 -9.0151310076827779E-02 a       692     0    28     1    17
 -1.1266561514482917E-01 a       693     0    28     1    18
 -9.7125990534784615E-02 a       694     0    28     1    19
  5.1423215869489489E-02 a       695     0    28     1    20
 -2.5722626177189796E-02 a       696     0    28     1    21
  2.5212691492462184E-02 a       697     0    28     1    22
 -1.0396027212722030E-01 a       698     0    28     1    23
 -2.2487077480944757E-02 a       699     0    28     1    24
  7.9616565861814717E-02 a       700     0    28     1    25
  2.4520533149631398E-02 a       701     0    29     1     1
  4.4011607785124215E-03 a       702     0    29     1     2
 -5.6757174571062303E-04 a       703     0    29     1     3
  3.1795315823381728E-02 a       704     0    29     1     4
  1.8150683282689088E-02 a       705     0    29     1     5
  4.9732980756901440E-04 a       706     0    29     1     6
  9.2933257588924734E-02 a       707     0    29     1     7
  3.6822781544467037E-01 a       708     0    29     1     8
 -1.3929578912194102E-01 a       709     0    29     1     9
  1.3787425210514181E-01 a       710     0    29     1    10
  3.9048319673427659E-02 a       711     0    29     1    11
 -3.2356665171998644E-01 a       712     0    29     1    12
 -9.7330005287203872E-03 a       713     0    29     1    13
 -8.3035070484907575E-02 a       714     0    29     1    14
 -7.0704337415755839E-02 a       715     0    29     1    15
  1.2850643537614179E-01 a       716     0    29     1    16
 -1.5268772899402883E-01 a       717     0    29     1    17
 -1.5721670589917382E-02 a       718     0    29     1    18
  9.1948744282210712E-02 a       719     0    29     1    19
  1.8597380312991235E-01 a       720     0    29     1    20
  3.2829779774653681E-03 a       721     0    29     1    21
  4.3047080122438580E-01 a       722     0    29     1    22
  5.1839624069754675E-02 a       723     0    29     1    23
 -1.7627456007430251E-01 a       724     0    29     1    24
 -1.5063712339911953E-01 a       725     0    29     1    25
 -1.0975932123817045E-01 a       726     0    30     1     1
  1.9341775043769574E-01 a       727     0    30     1     2
 -2.3933155257758507E-02 a       728     0    30     1     3
  4.0574526690540590E-02 a       729     0    30     1     4
  2.0880854514029451E-01 a       730     0    30     1     5
  4.7988153115993359E-02 a       731     0    30     1     6
 -2.7353924189214918E-01 a       732     0    30     1     7
 -3.6709040752484134E-01 a       733     0    30     1     8
 -1.3418683354852090E-01 a       734     0    30     1     9
  1.4251036174210871E-01 a       735     0    30     1    10
  5.0760652519829759E-02 a       736     0    30     1    11
  9.3009192010260047E-02 a       737     0    30     1    12
  9.9367352592887828E-02 a       738     0    30     1    13
 -9.9132357461884382E-02 a       739     0    30     1    14
 -1.0765603812843573E-01 a       740     0    30     1    15
  1.2730316296516600E-02 a       741     0    30     1    16
  5.4774383364643846E-02 a       742     0    30     1    17
  2.4563345454522013E-03 a       743     0    30     1    18
 -5.4826310486556451E-02 a       744     0    30     1    19
 -1.0012847151918951E-01 a       745     0    30     1    20
 -9.4432013562851039E-02 a       746     0    30     1    21
 -1.9560327929063473E-01 a       747     0    30     1    22
  7.2427006766334623E-02 a       748     0    30     1    23
  2.5173171675664641E-01 a       749     0    30     1    24
  6.4941381585756158E-02 a       750     0    30     1    25
 -9.2239230359093038E-02 a       751     0    31     1     1
  2.4303009548921589E-02 a       752     0    31     1     2
 -2.2951956016543269E-02 a       753     0    31     1     3
 -1.0550164404870310E-01 a       754     0    31     1     4
 -6.8449512261793036E-02 a       755     0    31     1     5
  2.2183849892995788E-01 a       756     0    31     1     6
 -2.4299629584037571E-02 a       757     0    31     1     7
  3.5231309786165155E-01 a       758     0    31     1     8
  4.9680621029973795E-02 a       759     0    31     1     9
  1.7143505078228089E-03 a       760     0    31     1    10
 -6.2058225609963082E-02 a       761     0    31     1    11
 -6.6596652937230764E-04 a       762     0    31     1    12
  8.0682304361399976E-02 a       763     0    31     1    13
  2.2728434069356976E-01 a       764     0    31     1    14
  8.9909017956076882E-03 a       765     0    31     1    15
 -9.2589052974840019E-02 a       766     0    31     1    16
  9.4182822713793038E-02 a       767     0    31     1    17
 -4.4147533702920912E-02 a       768     0    31     1    18
 -1.2399392381067870E-01 a       769     0    31     1    19
  1.5504229266785263E-01 a       770     0    31     1    20
  3.3647323159828768E-02 a       771     0    31     1    21
 -2.2019987733248880E-02 a       772     0    31     1    22
 -9.8934698085292136E-02 a       773     0    31     1    23
 -1.3635104066751733E-01 a       774     0    31     1    24
 -1.4353261674245352E-01 a       775     0    31     1    25
  1.8188117280838334E-01 a       776     0    32     1     1
  3.2699136018163349E-02 a       777     0    32     1     2
 -1.7003930053892665E-02 a       778     0    32     1     3
 -7.5826016896774678E-02 a       779     0    32     1     4
 -5.1708117836391052E-02 a       780     0    32     1     5
 -1.6811951861746669E-02 a       781     0    32     1     6
  3.0368327604874172E-02 a       782     0    32     1     7
 -4.4761371601080602E-01 a       783     0    32     1     8
  7.9223498835873703E-03 a       784     0    32     1     9
 -1.9995417055121700E-02 a       785     0    32     1    10
  1.0974355180762558E-02 a       786     0    32     1    11
  2.0040200131587302E-01 a       787     0    32     1    12
  8.4757200751233205E-02 a       788     0    32     1    13
  7.3390968935460321E-02 a       789     0    32     1    14
 -8.0145091491369891E-02 a       790     0    32     1    15
 -9.2860133166879390E-03 a       791     0    32     1    16
  2.1595629858118123E-02 a       792     0    32     1    17
  8.9591435404789768E-02 a       793     0    32     1    18
 -3.3074352884215909E-03 a       794     0    32     1    19
 -1.2014555737725151E-01 a       795     0    32     1    20
  3.1014764186751108E-02 a       796     0    32     1    21
 -2.5712386754828165E-01 a       797     0    32     1    22
  1.3853496461818504E-01 a       798     0    32     1    23
  2.8870996282160050E-01 a       799     0    32     1    24
 -6.5036775874314542E-02 a       800     0    32     1    25
 -1.4108369786907568E-02 a       801     0    33     1     1
 -6.4020761613525087E-02 a       802     0    33     1     2
  1.7483595964310791E-03 a       803     0    33     1     3
 -7.2602476930227797E-02 a       804     0    33     1     4
 -8.4662199637136559E-02 a       805     0    33     1     5
 -1.5595582829666107E-02 a       806     0    33     1     6
  1.6357020925708871E-02 a       807     0    33     1     7
 -5.1573373397151699E-02 a       808     0    33     1     8
  7.6179863793344529E-02 a       809     0    33     1     9
 -1.3877208113692199E-01 a       810     0    33     1    10
 -4.4977283881325325E-02 a       811     0    33     1    11
  9.5751154922679771E-02 a       812     0    33     1    12
 -4.1505302194658221E-02 a       813     0    33     1    13
 -2.3078814041100959E-02 a       814     0    33     1    14
  4.3281525511051133E-02 a       815     0    33     1    15
 -1.2911909984882727E-01 a       816     0    33     1    16
  6.4083177239311021E-02 a       817     0    33     1    17
  1.4802175269817832E-02 a       818     0    33     1    18
 -9.0815059662125008E-03 a       819     0    33     1    19
 -7.4158060209183516E-02 a       820     0    33     1    20
  2.4320256990201149E-02 a       821     0    33     1    21
 -1.7026988179529809E-01 a       822     0    33     1    22
  9.5920580979920612E-03 a       823     0    33     1    23
  1.7878871899718315E-02 a       824     0    33     1    24
  8.8117447909349764E-02 a       825     0    33     1    25
  4.6202299034980437E-02 a       826     0    34     1     1
 -4.2989704083403676E-02 a       827     0    34     1     2
  1.1291014768181945E-02 a       828     0    34     1     3
 -1.5474663232943173E-02 a       829     0    34     1     4
 -1.0273075325545816E-01 a       830     0    34     1     5
 -3.2075271805184324E-02 a       831     0    34     1     6
  1.4088412945618942E-01 a       832     0    34     1     7
  6.8920987957046015E-02 a       833     0    34     1     8
  6.6107107857151792E-02 a       834     0    34     1     9
 -8.2419972546942402E-02 a       835     0    34     1    10
 -2.4482166544730621E-02 a       836     0    34     1    11
  1.3381407625475399E-02 a       837     0    34     1    12
 -5.4959028045810258E-02 a       838     0    34     1    13
  1.9479466277417687E-02 a       839     0    34     1    14
  7.5745504602272251E-02 a       840     0    34     1    15
 -1.0637158536532548E-02 a       841     0    34     1    16
 -1.5928696206098540E-02 a       842     0    34     1    17
 -1.6441088050600530E-02 a       843     0    34     1    18
  4.9371687470874184E-02 a       844     0    34     1    19
 -2.0155621080859665E-02 a       845     0    34     1    20
  4.2127616329433688E-02 a       846     0    34     1    21
  3.4013857054932040E-02 a       847     0    34     1    22
 -3.6195476835464785E-02 a       848     0    34     1    23
 -5.1703167657625643E-02 a       849     0    34     1    24
 -4.4874044929236336E-02 a       850     0    34     1    25
  1.9885196198892213E-02 a       851     0    35     1     1
 -5.2239184547856671E-02 a       852     0    35     1     2
  4.2424205772828433E-03 a       853     0    35     1     3
  6.2730521078553980E-02 a       854     0    35     1     4
 -5.1138254933083402E-03 a       855     0    35     1     5
 -1.2991291308641881E-01 a       856     0    35     1     6
  4.3333289483823104E-02 a       857     0    35     1     7
 -1.9851818969075669E-01 a       858     0    35     1     8
 -4.5142862646924256E-02 a       859     0    35     1     9
 -1.4802024706683441E-02 a       860     0    35     1    10
  4.0115408579486374E-02 a       861     0    35     1    11
 -6.3310090582320525E-02 a       862     0    35     1    12
 -1.0874833960962957E-01 a       863     0    35     1    13
 -1.8604855592974254E-01 a       864     0    35     1    14
 -1.6119483453969290E-02 a       865     0    35     1    15
  7.0639092807046500E-02 a       866     0    35     1    16
 -9.0654939231644555E-02 a       867     0    35     1    17
  4.6419098414192839E-02 a       868     0    35     1    18
  1.1079087535720268E-01 a       869     0    35     1    19
 -8.9456459246632467E-02 a       870     0    35     1    20
 -1.0016469992126884E-02 a       871     0    35     1    21
  5.1834903411620496E-02 a       872     0    35     1    22
  6.7776912716415449E-02 a       873     0    35     1    23
  1.0036988169332887E-01 a       874     0    35     1    24
  1.1645679447701048E-01 a       875     0    35     1    25
 -1.2515293515194137E-01 a       876     0    36     1     1
 -2.0175242544189270E-02 a       877     0    36     1     2
  1.5686822015405871E-02 a       878     0    36     1     3
  3.2236105854654598E-02 a       879     0    36     1     4
 -9.9570520582423685E-03 a       880     0    36     1     5
  6.2777195177039558E-02 a       881     0    36     1     6
 -5.8354116153948137E-02 a       882     0    36     1     7
  2.2278634136723041E-01 a       883     0    36     1     8
 -3.3613692753923390E-02 a       884     0    36     1     9
  7.1702956815840237E-03 a       885     0    36     1    10
  1.5659135653992139E-02 a       886     0    36     1    11
 -6.1431957106255417E-02 a       887     0    36     1    12
 -5.9816382757064265E-03 a       888     0    36     1    13
 -5.2628039529660005E-02 a       889     0    36     1    14
  3.0396512475970930E-02 a       890     0    36     1    15
 -3.7272756146030740E-02 a       891     0    36     1    16
  2.1566533481950378E-02 a       892     0    36     1    17
 -3.3659069519105515E-02 a       893     0    36     1    18
 -2.8875518542184939E-04 a       894     0    36     1    19
  3.9739875010049559E-02 a       895     0    36     1    20
 -1.6752706140548110E-02 a       896     0    36     1    21
  1.2313781890731509E-01 a       897     0    36     1    22
 -1.1481619147964246E-01 a       898     0    36     1    23
 -1.2082951141137634E-01 a       899     0    36     1    24
  2.3287428632902195E-02 a       900     0    36     1    25
  1.2486820784931277E-02 a       901     0    37     1     1
 -1.7950903188501323E-02 a       902     0    37     1     2
 -1.9032236185197837E-02 a       903     0    37     1     3
  5.6043375686406854E-04 a       904     0    37     1     4
 -4.3420351274279956E-02 a       905     0    37     1     5
 -7.5998655895328443E-03 a       906     0    37     1     6
  2.3712363620922345E-02 a       907     0    37     1     7
  1.5928648110906549E-01 a       908     0    37     1     8
 -5.0721760041143468E-02 a       909     0    37     1     9
 -8.3416489624825251E-05 a       910     0    37     1    10
 -5.5124719802367387E-03 a       911     0    37     1    11
 -6.1356063362414295E-02 a       912     0    37     1    12
  2.0580932193657959E-03 a       913     0    37     1    13
  1.7180716514801211E-02 a       914     0    37     1    14
 -2.5995573211420802E-02 a       915     0    37     1    15
  3.6553212000575777E-02 a       916     0    37     1    16
 -3.4525874104173973E-02 a       917     0    37     1    17
  4.3740057861285785E-02 a       918     0    37     1    18
  8.3075523320056809E-03 a       919     0    37     1    19
  6.8696117355145303E-02 a       920     0    37     1    20
  1.0065037554231354E-02 a       921     0    37     1    21
  1.4892248359698962E-01 a       922     0    37     1    22
  1.1300696091025424E-02 a       923     0    37     1    23
 -1.0353853248228541E-01 a       924     0    37     1    24
 -3.0372878822301958E-02 a       925     0    37     1    25
 -2.9695918136328978E-02 a       926     0    38     1     1
  7.0256881071705690E-02 a       927     0    38     1     2
  1.4496418744616121E-02 a       928     0    38     1     3
  2.6159824229488867E-02 a       929     0    38     1     4
  1.2712397474724749E-01 a       930     0    38     1     5
  3.2763569054674285E-02 a       931     0    38     1     6
 -9.7746305172373787E-02 a       932     0    38     1     7
 -1.7979714052905912E-01 a       933     0    38     1     8
 -8.3676540398740958E-03 a       934     0    38     1     9
  8.4807163135121488E-02 a       935     0    38     1    10
  4.9083880662371078E-02 a       936     0    38     1    11
  4.9831642804938507E-02 a       937     0    38     1    12
  5.9126699473315072E-02 a       938     0    38     1    13
  1.4805955318582951E-02 a       939     0    38     1    14
 -7.6958447594284180E-03 a       940     0    38     1    15
  3.4656835938982007E-02 a       941     0    38     1    16
  3.7023672807945190E-02 a       942     0    38     1    17
 -2.9898307985400666E-04 a       943     0    38     1    18
 -3.6599857150377745E-02 a       944     0    38     1    19
 -4.6442972102186217E-02 a       945     0    38     1    20
 -5.1886306127522992E-02 a       946     0    38     1    21
 -1.0571470556641088E-01 a       947     0    38     1    22
  3.0857814552028660E-03 a       948     0    38     1    23
  1.0556688759737297E-01 a       949     0    38     1    24
  5.0650555702968483E-04 a       950     0    38     1    25
 -2.2515311428360180E-02 a       951     0    39     1     1
  7.7707666325696201E-03 a       952     0    39     1     2
 -9.1205088761821072E-03 a       953     0    39     1     3
 -5.2661068506564969E-02 a       954     0    39     1     4
 -1.1291521787439166E-02 a       955     0    39     1     5
  3.0392493765901515E-02 a       956     0    39     1     6
  1.8676251189777466E-02 a       957     0    39     1     7
  2.2037218770084291E-01 a       958     0    39     1     8
  1.8976172379188624E-02 a       959     0    39     1     9
 -4.6344744811465340E-02 a       960     0    39     1    10
 -4.9303124884980967E-02 a       961     0    39     1    11
 -1.9847093174548860E-03 a       962     0    39     1    12
  6.0938287179571379E-02 a       963     0    39     1    13
  8.3962147951147911E-02 a       964     0    39     1    14
  1.1528588170702903E-02 a       965     0    39     1    15
 -6.0140848474991439E-02 a       966     0    39     1    16
  7.2470611778659932E-02 a       967     0    39     1    17
  2.8668425649700656E-03 a       968     0    39     1    18
 -4.9935291579447219E-02 a       969     0    39     1    19
  6.4119717155578418E-02 a       970     0    39     1    20
  2.9433151590105839E-03 a       971     0    39     1    21
  3.8383238007783226E-02 a       972     0    39     1    22
 -1.2056056612647316E-02 a       973     0    39     1    23
 -1.4532804897345816E-01 a       974     0    39     1    24
 -5.9370104528592899E-02 a       975     0    39     1    25
  6.3039826492647638E-02 a       976     0    40     1     1
  5.5386760485687615E-02 a       977     0    40     1     2
 -1.4812471660737564E-02 a       978     0    40     1     3
  1.4492783243954690E-02 a       979     0    40     1     4
 -3.5909477119506518E-02 a       980     0    40     1     5
 -3.1195504229793690E-02 a       981     0    40     1     6
 -1.6435722113349989E-02 a       982     0    40     1     7
 -2.3842602506745939E-01 a       983     0    40     1     8
  1.3269278313669221E-02 a       984     0    40     1     9
  4.3431316334082794E-02 a       985     0    40     1    10
  7.5466029277779581E-02 a       986     0    40     1    11
  3.3788445513606595E-02 a       987     0    40     1    12
 -4.6642177254930063E-02 a       988     0    40     1    13
  4.7108483865256998E-02 a       989     0    40     1    14
 -1.6451169414781065E-02 a       990     0    40     1    15
  6.9525903118952487E-02 a       991     0    40     1    16
 -3.9987789024032196E-02 a       992     0    40     1    17
  8.3917665836905433E-04 a       993     0    40     1    18
  3.7476892692417954E-02 a       994     0    40     1    19
 -9.3516051634334782E-02 a       995     0    40     1    20
  1.4574346438124348E-02 a       996     0    40     1    21
 -1.0745181719959078E-01 a       997     0    40     1    22
  4.3551814074137066E-02 a       998     0    40     1    23
  1.4101522778754233E-01 a       999     0    40     1    24
 -3.9314331258966266E-02 a      1000     0    40     1    25
  1.0770514063692480E-01 a      1001     0    41     1     1
  1.8352322266962998E-01 a      1002     0    41     1     2
 -1.1009310026623319E-01 a      1003     0    41     1     3
  9.5670554980224504E-02 a      1004     0    41     1     4
  2.0047897349851654E-01 a      1005     0    41     1     5
 -5.6008229022866052E-01 a      1006     0    41     1     6
 -7.1309329369783131E-03 a      1007     0    41     1     7
 -5.6889098719258555E-02 a      1008     0    41     1     8
 -1.4442806969891874E-02 a      1009     0    41     1     9
  2.5517206021108912E-01 a      1010     0    41     1    10
 -6.4798404481229011E-01 a      1011     0    41     1    11
  5.0897499345979580E-01 a      1012     0    41     1    12
  1.5590552734266362E-02 a      1013     0    41     1    13
  4.6104996400825438E-02 a      1014     0    41     1    14
  2.0449411245926455E-01 a      1015     0    41     1    15
 -3.3842839457068680E-01 a      1016     0    41     1    16
 -2.1191941243112768E-02 a      1017     0    41     1    17
 -4.1482777675948657E-01 a      1018     0    41     1    18
 -1.6241504716867561E-01 a      1019     0    41     1    19
 -2.3199516271117195E-02 a      1020     0    41     1    20
  2.7956984234566973E-01 a      1021     0    41     1    21
  7.5808377439440910E-02 a      1022     0    41     1    22
  2.6818302417177786E-01 a      1023     0    41     1    23
  1.9293065312243834E-01 a      1024     0    41     1    24
  1.7456101408557792E-01 a      1025     0    41     1    25
  5.5046300700666451E-01 a      1026     0    42     1     1
  2.7538525680286757E-01 a      1027     0    42     1     2
  1.2318053640837213E-01 a      1028     0    42     1     3
  6.5141504537890083E-02 a      1029     0    42     1     4
 -1.7308347935015053E-01 a      1030     0    42     1     5
 -3.4250061055839015E-01 a      1031     0    42     1     6
 -4.1054486981130911E-01 a      1032     0    42     1     7
  5.7294848632623109E-02 a      1033     0    42     1     8
  1.6466034773733595E-01 a      1034     0    42     1     9
  1.8581809337949570E-01 a      1035     0    42     1    10
  3.9277396660138580E-01 a      1036     0    42     1    11
 -5.9537753986933062E-01 a      1037     0    42     1    12
  2.7061252712013495E-01 a      1038     0    42     1    13
  2.8949746795926984E-01 a      1039     0    42     1    14
 -5.3346712194104562E-01 a      1040     0    42     1    15
  2.8564166659597690E-01 a      1041     0    42     1    16
  6.3706209737440544E-01 a      1042     0    42     1    17
  8.8241464117633772E-01 a      1043     0    42     1    18
 -7.3081787763047329E-02 a      1044     0    42     1    19
  1.3699927226177326E+00 a      1045     0    42     1    20
 -4.3202392175386795E-01 a      1046     0    42     1    21
  4.2289150445349602E-02 a      1047     0    42     1    22
 -3.3486755346744945E-01 a      1048     0    42     1    23
 -3.3186034904846823E-01 a      1049     0    42     1    24
  1.8329652311498662E-01 a      1050     0    42     1    25
  7.8342634024475503E-03 a      1051     0    43     1     1
 -5.8974602097627477E-02 a      1052     0    43     1     2
 -4.8944325595291951E-02 a      1053     0    43     1     3
  1.4977466926227290E-01 a      1054     0    43     1     4
  1.5174993884299853E-01 a      1055     0    43     1     5
 -1.6481199705807115E-03 a      1056     0    43     1     6
 -5.1778905590494683E-03 a      1057     0    43     1     7
 -5.1799203588942327E-02 a      1058     0    43     1     8
 -4.2239108081174058E-02 a      1059     0    43     1     9
  9.0859631572091981E-02 a      1060     0    43     1    10
 -1.3831317097196053E-01 a      1061     0    43     1    11
  2.2483847693175410E-01 a      1062     0    43     1    12
  1.8850908104681954E-01 a      1063     0    43     1    13
 -8.0413602031061321E-02 a      1064     0    43     1    14
  4.2552004488060777E-02 a      1065     0    43     1    15
 -5.5393023350506644E-02 a      1066     0    43     1    16
 -5.8483232411036173E-02 a      1067     0    43     1    17
 -1.7087000574544692E-01 a      1068     0    43     1    18
 -5.2516719239903982E-02 a      1069     0    43     1    19
 -1.5436580958922191E-01 a      1070     0    43     1    20
 -8.6853154736655794E-02 a      1071     0    43     1    21
 -4.0570400629403539E-03 a      1072     0    43     1    22
  8.3958510049434290E-02 a      1073     0    43     1    23
  1.0205692177599024E-01 a      1074     0    43     1    24
 -4.4007785703565956E-02 a      1075     0    43     1    25
  2.4198049881261929E-01 a      1076     0    44     1     1
 -2.0315848861422212E-02 a      1077     0    44     1     2
  2.5569343306143612E-02 a      1078     0    44     1     3
 -1.3446009196568837E-01 a      1079     0    44     1     4
  1.2151258412355592E-01 a      1080     0    44     1     5
 -1.8039590003820846E-01 a      1081     0    44     1     6
 -7.1119988886328478E-02 a      1082     0    44     1     7
  1.1493389866089489E-01 a      1083     0    44     1     8
  5.5756279004774381E-02 a      1084     0    44     1     9
  4.5815490607561266E-02 a      1085     0    44     1    10
 -1.5696306057248741E-01 a      1086     0    44     1    11
  3.8202143924666952E-03 a      1087     0    44     1    12
  2.2580755498711838E-01 a      1088     0    44     1    13
  1.6585900933511104E-03 a      1089     0    44     1    14
 -1.0206781006328597E-01 a      1090     0    44     1    15
 -3.7841607126163537E-02 a      1091     0    44     1    16
  9.8503906239765585E-02 a      1092     0    44     1    17
 -2.8267811711262955E-02 a      1093     0    44     1    18
  8.1787404185915652E-02 a      1094     0    44     1    19
  2.9053886127590817E-01 a      1095     0    44     1    20
  1.4315991809302851E-02 a      1096     0    44     1    21
 -2.0718301819272630E-03 a      1097     0    44     1    22
  8.0805425864343625E-02 a      1098     0    44     1    23
 -1.6656072897129245E-01 a      1099     0    44     1    24
 -1.9734066812925224E-03 a      1100     0    44     1    25
 -5.2350545974130447E-01 a      1101     0    45     1     1
  2.2002798946593996E-01 a      1102     0    45     1     2
 -2.1906264185777274E-01 a      1103     0    45     1     3
  7.5453072273558672E-02 a      1104     0    45     1     4
 -1.4476247380368423E-01 a      1105     0    45     1     5
 -8.2693582902515370E-02 a      1106     0    45     1     6
  3.3516709011426671E-01 a      1107     0    45     1     7
  4.1310864102575950E-02 a      1108     0    45     1     8
 -7.4772840185156383E-02 a      1109     0    45     1     9
  7.2633376601496283E-02 a      1110     0    45     1    10
 -3.4505543763185403E-01 a      1111     0    45     1    11
 -1.1906706412432397E-01 a      1112     0    45     1    12
 -6.8551564256031061E-01 a      1113     0    45     1    13
 -1.9842187579944726E-01 a      1114     0    45     1    14
  3.6445829999890561E-01 a      1115     0    45     1    15
  2.9505775596408323E-01 a      1116     0    45     1    16
 -8.0447752345174284E-01 a      1117     0    45     1    17
 -7.4029739521354176E-01 a      1118     0    45     1    18
 -2.0101840657096806E-01 a      1119     0    45     1    19
 -6.3916497102593617E-01 a      1120     0    45     1    20
  4.8062106464893245E-01 a      1121     0    45     1    21
  2.8654518597886980E-02 a      1122     0    45     1    22
  5.8401781835844557E-01 a      1123     0    45     1    23
  2.3813140020437282E-01 a      1124     0    45     1    24
  2.9105119694772708E-01 a      1125     0    45     1    25
  1.8926086696970765E-01 a      1126     0    46     1     1
 -2.4318285950519986E-03 a      1127     0    46     1     2
  6.1026370608232988E-02 a      1128     0    46     1     3
  8.2218322301706115E-02 a      1129     0    46     1     4
 -4.1018879712856304E-01 a      1130     0    46     1     5
 -1.8166659253504114E-01 a      1131     0    46     1     6
  1.2063557923386925E-01 a      1132     0    46     1     7
 -1.4107981356584876E-01 a      1133     0    46     1     8
  9.2665905798145473E-02 a      1134     0    46     1     9
  9.1976877807036173E-02 a      1135     0    46     1    10
  1.3529612559516460E-01 a      1136     0    46     1    11
 -2.1713148169769411E-01 a      1137     0    46     1    12
 -1.9380287091031973E-02 a      1138     0    46     1    13
  1.3786959593398315E-01 a      1139     0    46     1    14
  2.2638106524447154E-02 a      1140     0    46     1    15
  2.3802815740412358E-02 a      1141     0    46     1    16
  5.2510573850170876E-02 a      1142     0    46     1    17
  2.1836617367653346E-01 a      1143     0    46     1    18
 -6.9185213356263934E-03 a      1144     0    46     1    19
  3.1576055913137330E-01 a      1145     0    46     1    20
  8.8714269474595403E-02 a      1146     0    46     1    21
 -5.2718386282602496E-02 a      1147     0    46     1    22
 -5.2230292824489953E-02 a      1148     0    46     1    23
 -1.1436471037051860E-01 a      1149     0    46     1    24
  1.7357991404305822E-03 a      1150     0    46     1    25
 -1.6638788885080780E-01 a      1151     0    47     1     1
  6.4523915918154304E-02 a      1152     0    47     1     2
 -1.8719562294967004E-01 a      1153     0    47     1     3
  7.9188466375516939E-03 a      1154     0    47     1     4
 -1.3624106260772054E-01 a      1155     0    47     1     5
 -1.2320882346321196E-01 a      1156     0    47     1     6
  2.5241517506323297E-01 a      1157     0    47     1     7
  1.2104540847233185E-01 a      1158     0    47     1     8
 -1.1061060459521632E-02 a      1159     0    47     1     9
  3.3972975663815785E-01 a      1160     0    47     1    10
 -9.7952318751862805E-02 a      1161     0    47     1    11
 -1.1746051923038842E-01 a      1162     0    47     1    12
 -4.2725637733731958E-01 a      1163     0    47     1    13
  1.0374043994874592E-01 a      1164     0    47     1    14
 -2.5145486035758158E-02 a      1165     0    47     1    15
  1.9977031200988746E-01 a      1166     0    47     1    16
 -2.9461854234875984E-01 a      1167     0    47     1    17
 -2.6767645480371943E-02 a      1168     0    47     1    18
 -1.7026524366774282E-01 a      1169     0    47     1    19
  3.1352567923312008E-01 a      1170     0    47     1    20
  1.0504716132181889E-01 a      1171     0    47     1    21
  1.4948293488319103E-01 a      1172     0    47     1    22
  4.0794544487161538E-01 a      1173     0    47     1    23
  3.0234266675758475E-01 a      1174     0    47     1    24
  4.0413631815351309E-01 a      1175     0    47     1    25
 -4.3791875845093302E-02 a      1176     0    48     1     1
  1.0492191120604895E-01 a      1177     0    48     1     2
  3.4060273314240136E-02 a      1178     0    48     1     3
 -4.3936631857966812E-02 a      1179     0    48     1     4
 -1.8227260028732173E-01 a      1180     0    48     1     5
  1.1973738624810470E-01 a      1181     0    48     1     6
  7.0391180094826172E-02 a      1182     0    48     1     7
 -1.3752011524133362E-01 a      1183     0    48     1     8
 -4.7278914403399881E-02 a      1184     0    48     1     9
 -2.5177724533076085E-02 a      1185     0    48     1    10
  1.2677725120821104E-01 a      1186     0    48     1    11
  4.7302850809874737E-02 a      1187     0    48     1    12
 -6.6086053970497979E-02 a      1188     0    48     1    13
  3.7338974351227502E-03 a      1189     0    48     1    14
  1.4899098663493157E-01 a      1190     0    48     1    15
  8.7469276659771486E-02 a      1191     0    48     1    16
 -3.6586187595878339E-02 a      1192     0    48     1    17
  9.6086677804405565E-02 a      1193     0    48     1    18
  3.9832801467745080E-02 a      1194     0    48     1    19
 -3.9069816680821309E-02 a      1195     0    48     1    20
  7.8999859764124020E-02 a      1196     0    48     1    21
 -1.6495443448891031E-01 a      1197     0    48     1    22
  2.6175507943400414E-02 a      1198     0    48     1    23
  3.3545129676693937E-02 a      1199     0    48     1    24
  2.6902343599209268E-02 a      1200     0    48     1    25
 -1.7817701858387783E-02 a      1201     0    49     1     1
 -4.5638047456119553E-02 a      1202     0    49     1     2
  1.1412749225791584E-01 a      1203     0    49     1     3
 -4.1446864648594088E-02 a      1204     0    49     1     4
 -6.9067677563654124E-03 a      1205     0    49     1     5
 -2.8786557688704150E-02 a      1206     0    49     1     6
 -8.6264675388600748E-02 a      1207     0    49     1     7
 -7.0434248571842745E-02 a      1208     0    49     1     8
 -8.9041399200005145E-02 a      1209     0    49     1     9
 -7.3972920913315575E-03 a      1210     0    49     1    10
  4.5578134486339864E-02 a      1211     0    49     1    11
  1.7807629887944601E-01 a      1212     0    49     1    12
  1.4455969213819672E-01 a      1213     0    49     1    13
  2.1111258714916394E-02 a      1214     0    49     1    14
 -1.2100136658991334E-01 a      1215     0    49     1    15
 -4.0159666618241413E-02 a      1216     0    49     1    16
  1.5895512832361022E-01 a      1217     0    49     1    17
  6.7226469427745864E-02 a      1218     0    49     1    18
 -7.9108930246354736E-02 a      1219     0    49     1    19
 -6.0580725225598805E-02 a      1220     0    49     1    20
 -2.5179303442615646E-02 a      1221     0    49     1    21
  2.1206748149686351E-02 a      1222     0    49     1    22
 -1.0880035473187367E-02 a      1223     0    49     1    23
  5.0021641882198910E-03 a      1224     0    49     1    24
  6.1414653826570263E-02 a      1225     0    49     1    25
 -2.4171514338817163E-02 a      1226     0    50     1     1
  5.6772422694239245E-02 a      1227     0    50     1     2
  9.0331881625358070E-03 a      1228     0    50     1     3
 -1.1529812357417310E-02 a      1229     0    50     1     4
  3.3220004174316177E-02 a      1230     0    50     1     5
 -9.4899636551622566E-03 a      1231     0    50     1     6
 -1.1180513386250307E-01 a      1232     0    50     1     7
 -1.0930955190828284E-01 a      1233     0    50     1     8
 -5.8043214800150421E-02 a      1234     0    50     1     9
  2.5195369150159694E-03 a      1235     0    50     1    10
 -8.1980394334125933E-02 a      1236     0    50     1    11
 -1.5577021405158256E-01 a      1237     0    50     1    12
 -1.0101724695175155E-02 a      1238     0    50     1    13
  1.1689488941102437E-01 a      1239     0    50     1    14
 -4.7533992772796019E-02 a      1240     0    50     1    15
 -3.6409785375475394E-02 a      1241     0    50     1    16
  1.0089362095160689E-01 a      1242     0    50     1    17
  3.6961703146766445E-02 a      1243     0    50     1    18
 -2.8812238255600359E-01 a      1244     0    50     1    19
  1.0813343070710038E-01 a      1245     0    50     1    20
  1.1253706662960387E-01 a      1246     0    50     1    21
 -1.3978677351433429E-02 a      1247     0    50     1    22
  9.8611729461657402E-02 a      1248     0    50     1    23
 -7.7216885964838722E-02 a      1249     0    50     1    24
  1.1397675452391273E-01 a      1250     0    50     1    25
 -2.0338172029537951E-01 a      1251     0    51     1     1
 -1.2212340532939006E-01 a      1252     0    51     1     2
 -4.0041081901573111E-01 a      1253     0    51     1     3
 -1.3955422280498750E-01 a      1254     0    51     1     4
  5.0526740517628344E-02 a      1255     0    51     1     5
  6.4225737153096141E-01 a      1256     0    51     1     6
 -1.4768128331840710E-01 a      1257     0    51     1     7
  3.8542256850112389E-01 a      1258     0    51     1     8
  6.1547667872331041E-02 a      1259     0    51     1     9
 -1.5889784401151344E-01 a      1260     0    51     1    10
  5.2433989661016332E-02 a      1261     0    51     1    11
 -7.0065874531476799E-03 a      1262     0    51     1    12
  1.3622178802342824E-01 a      1263     0    51     1    13
  1.3166110241828916E-01 a      1264     0    51     1    14
 -9.2556958186000432E-02 a      1265     0    51     1    15
 -2.9408173162910062E-01 a      1266     0    51     1    16
 -1.9752274132287506E-01 a      1267     0    51     1    17
 -6.9656463747980402E-02 a      1268     0    51     1    18
  9.6782942520165491E-02 a      1269     0    51     1    19
 -7.4318908210442769E-01 a      1270     0    51     1    20
 -5.3073024477092090E-01 a      1271     0    51     1    21
 -3.9794161623956892E-01 a      1272     0    51     1    22
  1.3004497189715852E-01 a      1273     0    51     1    23
 -9.8575514564203756E-02 a      1274     0    51     1    24
 -3.7747312874973765E-01 a      1275     0    51     1    25
  6.2400616080578697E-01 a      1276     0    52     1     1
 -3.5845111472282565E-01 a      1277     0    52     1     2
  1.1771356933538328E+00 a      1278     0    52     1     3
 -8.9551659095361336E-01 a      1279     0    52     1     4
  4.6029742418649766E-02 a      1280     0    52     1     5
 -2.1292795998273734E-01 a      1281     0    52     1     6
  3.9897937186457988E-01 a      1282     0    52     1     7
 -5.8308598729729622E-01 a      1283     0    52     1     8
 -6.4865751354885015E-01 a      1284     0    52     1     9
  1.4133315486358319E-01 a      1285     0    52     1    10
  1.3152620817104721E-01 a      1286     0    52     1    11
 -8.0066169481784563E-02 a      1287     0    52     1    12
 -1.5265750337632350E-01 a      1288     0    52     1    13
  1.1304511070482552E-01 a      1289     0    52     1    14
 -1.4596730308361905E-01 a      1290     0    52     1    15
  2.0210893793621409E-01 a      1291     0    52     1    16
  2.1463157534920804E-01 a      1292     0    52     1    17
  5.1339734979206930E-01 a      1293     0    52     1    18
  3.6770458074888940E-01 a      1294     0    52     1    19
 -2.3007092932911163E-01 a      1295     0    52     1    20
  9.3776725561330243E-01 a      1296     0    52     1    21
  9.0152962518670632E-01 a      1297     0    52     1    22
 -2.6924327389690444E-01 a      1298     0    52     1    23
  5.0881865934127624E-01 a      1299     0    52     1    24
 -9.6560638044143232E-01 a      1300     0    52     1    25
 -6.2916432360854242E-03 a      1301     0    53     1     1
  1.2223732579399474E-01 a      1302     0    53     1     2
 -7.9390799486825911E-02 a      1303     0    53     1     3
 -2.3565446052193628E-01 a      1304     0    53     1     4
 -2.2085452328523436E-01 a      1305     0    53     1     5
  2.2036400296554980E-02 a      1306     0    53     1     6
 -1.1080149702792190E-01 a      1307     0    53     1     7
  2.8466263335574387E-03 a      1308     0    53     1     8
  3.8755374360327166E-02 a      1309     0    53     1     9
 -6.3880036837048338E-03 a      1310     0    53     1    10
  4.9434926179278978E-02 a      1311     0    53     1    11
  6.1134080143661245E-03 a      1312     0    53     1    12
 -2.0062079948949474E-01 a      1313     0    53     1    13
  3.2915700392111861E-03 a      1314     0    53     1    14
  6.6756690048375353E-02 a      1315     0    53     1    15
 -9.9390212303761494E-02 a      1316     0    53     1    16
 -1.6274060571979092E-02 a      1317     0    53     1    17
  8.7785920240475629E-02 a      1318     0    53     1    18
  1.0762523484037442E-01 a      1319     0    53     1    19
 -4.6120614063517203E-02 a      1320     0    53     1    20
  1.1206888579445999E-01 a      1321     0    53     1    21
 -1.3951459959682613E-01 a      1322     0    53     1    22
  3.6234268372192041E-02 a      1323     0    53     1    23
 -2.5741218631135623E-02 a      1324     0    53     1    24
 -2.7023787378373014E-02 a      1325     0    53     1    25
  8.9957698776080477E-03 a      1326     0    54     1     1
 -1.5445696447093463E-01 a      1327     0    54     1     2
  6.9610467888157973E-02 a      1328     0    54     1     3
  6.9233591056600777E-02 a      1329     0    54     1     4
 -3.6673428333271342E-02 a      1330     0    54     1     5
  5.3756460168446277E-03 a      1331     0    54     1     6
  1.4652282597707694E-01 a      1332     0    54     1     7
  5.5499450928658531E-02 a      1333     0    54     1     8
 -7.2415238591505685E-02 a      1334     0    54     1     9
 -1.4349848255806316E-01 a      1335     0    54     1    10
  2.2222524716676271E-02 a      1336     0    54     1    11
 -7.3107401409258269E-02 a      1337     0    54     1    12
 -1.6797804332184502E-01 a      1338     0    54     1    13
  2.7939739648672336E-02 a      1339     0    54     1    14
 -2.5786647646042876E-01 a      1340     0    54     1    15
 -1.1782177677508474E-01 a      1341     0    54     1    16
  1.1012149134757196E-01 a      1342     0    54     1    17
 -1.4150569721077988E-01 a      1343     0    54     1    18
  1.1967552973336395E-02 a      1344     0    54     1    19
 -2.4525517466688992E-01 a      1345     0    54     1    20
 -3.9573193926017026E-04 a      1346     0    54     1    21
  2.2834896950516079E-01 a      1347     0    54     1    22
 -1.0632981872825836E-01 a      1348     0    54     1    23
  8.0590474680281965E-02 a      1349     0    54     1    24
 -3.9712728808741840E-02 a      1350     0    54     1    25
 -3.1092965706145032E-01 a      1351     0    55     1     1
 -1.6659364956908906E-01 a      1352     0    55     1     2
 -2.4028145890765362E-01 a      1353     0    55     1     3
  2.8625537182325994E-01 a      1354     0    55     1     4
  3.7865976845278171E-01 a      1355     0    55     1     5
  3.3521598449624529E-01 a      1356     0    55     1     6
 -2.6578554228149764E-01 a      1357     0    55     1     7
  3.4003677528105797E-01 a      1358     0    55     1     8
  2.4408633898502935E-01 a      1359     0    55     1     9
 -2.7951743461923036E-02 a      1360     0    55     1    10
  9.2696050268468513E-02 a      1361     0    55     1    11
 -2.4625330869833043E-02 a      1362     0    55     1    12
  3.1642122193591404E-01 a      1363     0    55     1    13
 -3.3192644056149667E-01 a      1364     0    55     1    14
  9.8492278962038673E-02 a      1365     0    55     1    15
 -1.1973719292192116E-01 a      1366     0    55     1    16
 -1.1122749360627350E-01 a      1367     0    55     1    17
  1.6263451054361694E-01 a      1368     0    55     1    18
 -2.1544616348347206E-01 a      1369     0    55     1    19
  1.6721271338943788E-01 a      1370     0    55     1    20
 -4.8538091608252582E-01 a      1371     0    55     1    21
 -3.5859916432150707E-01 a      1372     0    55     1    22
  6.0947745809299273E-03 a      1373     0    55     1    23
 -3.7154866398404490E-01 a      1374     0    55     1    24
  1.3003632091689862E-01 a      1375     0    55     1    25
  5.6979738911434180E-03 a      1376     0    56     1     1
  3.1653161830141392E-02 a      1377     0    56     1     2
  1.1331204616205072E-01 a      1378     0    56     1     3
 -7.1935985092731650E-02 a      1379     0    56     1     4
  2.1827594772553094E-01 a      1380     0    56     1     5
 -2.4287236195057283E-02 a      1381     0    56     1     6
 -1.8418569329406209E-01 a      1382     0    56     1     7
  1.3948208645181900E-01 a      1383     0    56     1     8
 -1.3111620804109952E-01 a      1384     0    56     1     9
 -1.1739496875063514E-01 a      1385     0    56     1    10
  7.7030043426347020E-02 a      1386     0    56     1    11
 -1.8334981607602611E-02 a      1387     0    56     1    12
 -1.4857864285067093E-02 a      1388     0    56     1    13
  6.7359423501049509E-02 a      1389     0    56     1    14
 -2.4035253835773182E-01 a      1390     0    56     1    15
  5.9961787899238179E-02 a      1391     0    56     1    16
  2.5491351874960733E-01 a      1392     0    56     1    17
  8.2320955786196859E-02 a      1393     0    56     1    18
 -8.4380362055798495E-03 a      1394     0    56     1    19
 -5.9323851973835537E-02 a      1395     0    56     1    20
 -9.0941710247394808E-02 a      1396     0    56     1    21
  1.8914984778860594E-01 a      1397     0    56     1    22
 -1.2403547042497944E-01 a      1398     0    56     1    23
  2.4959413013779321E-02 a      1399     0    56     1    24
 -3.8068055750490664E-03 a      1400     0    56     1    25
 -2.6772283244067600E-02 a      1401     0    57     1     1
  5.0523692894118621E-02 a      1402     0    57     1     2
 -2.3095409047979031E-02 a      1403     0    57     1     3
  2.4157820710227457E-02 a      1404     0    57     1     4
 -5.3401323855900150E-02 a      1405     0    57     1     5
  4.9286603141398370E-02 a      1406     0    57     1     6
 -1.8873559940969351E-01 a      1407     0    57     1     7
  5.7782624788757071E-02 a      1408     0    57     1     8
  5.9213971380563210E-02 a      1409     0    57     1     9
 -5.7263844147589452E-03 a      1410     0    57     1    10
  1.5815105302938226E-01 a      1411     0    57     1    11
  6.3081033898832614E-02 a      1412     0    57     1    12
 -4.7153118163674707E-02 a      1413     0    57     1    13
 -1.6826007503635115E-01 a      1414     0    57     1    14
  3.7416942792415492E-01 a      1415     0    57     1    15
 -1.1860289885707715E-03 a      1416     0    57     1    16
 -1.6784458484941522E-01 a      1417     0    57     1    17
  1.3278230400599705E-01 a      1418     0    57     1    18
 -8.1260631420584331E-02 a      1419     0    57     1    19
 -1.2674363361840854E-01 a      1420     0    57     1    20
 -5.0491761706020662E-02 a      1421     0    57     1    21
 -2.0388824397310529E-01 a      1422     0    57     1    22
 -2.8104104147641647E-02 a      1423     0    57     1    23
 -1.7261636323337673E-01 a      1424     0    57     1    24
 -1.3363655482700440E-01 a      1425     0    57     1    25
  2.3763227424948088E-02 a      1426     0    58     1     1
 -6.2747381989006520E-02 a      1427     0    58     1     2
 -4.2590611450306258E-02 a      1428     0    58     1     3
 -1.2946964960851368E-01 a      1429     0    58     1     4
  1.0046347115737396E-01 a      1430     0    58     1     5
 -7.9089537888265588E-02 a      1431     0    58     1     6
 -2.2513857142252852E-01 a      1432     0    58     1     7
  8.2807379719875382E-02 a      1433     0    58     1     8
  4.3845078004272516E-02 a      1434     0    58     1     9
  1.3587362238946106E-02 a      1435     0    58     1    10
 -8.7443338424805617E-02 a      1436     0    58     1    11
  1.5121123602002598E-01 a      1437     0    58     1    12
 -3.1398637287778176E-02 a      1438     0    58     1    13
 -1.1635767903771504E-01 a      1439     0    58     1    14
 -2.2195067693054785E-01 a      1440     0    58     1    15
 -1.6690761304586166E-01 a      1441     0    58     1    16
 -2.1877399328579803E-03 a      1442     0    58     1    17
 -2.5071551872285591E-01 a      1443     0    58     1    18
  1.3225640380340387E-01 a      1444     0    58     1    19
 -1.1145044532747313E-01 a      1445     0    58     1    20
  2.4086580576711498E-02 a      1446     0    58     1    21
 -9.1150438046066172E-03 a      1447     0    58     1    22
  1.1000552832585078E-02 a      1448     0    58     1    23
  4.1972709550183777E-02 a      1449     0    58     1    24
 -3.3517535165910051E-02 a      1450     0    58     1    25
 -1.3024582384205282E-02 a      1451     0    59     1     1
  6.3559501668653276E-02 a      1452     0    59     1     2
 -1.5438709303313689E-01 a      1453     0    59     1     3
  1.5652801431811109E-01 a      1454     0    59     1     4
 -1.6534906694201892E-02 a      1455     0    59     1     5
  1.6260398276195806E-01 a      1456     0    59     1     6
 -5.3223259579609147E-02 a      1457     0    59     1     7
  1.2040383273579838E-01 a      1458     0    59     1     8
 -5.2998136965573824E-02 a      1459     0    59     1     9
  2.1817616871315654E-01 a      1460     0    59     1    10
 -6.3614181673021492E-02 a      1461     0    59     1    11
 -1.9206027093631792E-01 a      1462     0    59     1    12
  7.9088336966314857E-03 a      1463     0    59     1    13
  6.2086150384339324E-02 a      1464     0    59     1    14
 -2.0945115050559307E-01 a      1465     0    59     1    15
 -2.1597767273355520E-01 a      1466     0    59     1    16
  1.0518609168441674E-01 a      1467     0    59     1    17
  7.1283286743516032E-04 a      1468     0    59     1    18
  6.7601985823900323E-03 a      1469     0    59     1    19
  1.5722083414504257E-01 a      1470     0    59     1    20
 -3.4714660132754371E-02 a      1471     0    59     1    21
  3.3601061988671445E-02 a      1472     0    59     1    22
 -2.0497628951890512E-01 a      1473     0    59     1    23
  1.2490548914986105E-01 a      1474     0    59     1    24
 -1.3129176041993171E-01 a      1475     0    59     1    25
 -1.4000897521731627E-03 a      1476     0    60     1     1
  3.5716048645310161E-03 a      1477     0    60     1     2
  8.8073635715020023E-03 a      1478     0    60     1     3
  5.0749741858930213E-02 a      1479     0    60     1     4
  1.8519752656994230E-02 a      1480     0    60     1     5
  3.9282684812216778E-02 a      1481     0    60     1     6
  1.2797410076517404E-01 a      1482     0    60     1     7
  8.3288918086009217E-02 a      1483     0    60     1     8
  8.4616197956302930E-02 a      1484     0    60     1     9
 -4.6793805601537605E-02 a      1485     0    60     1    10
 -4.1130632580181833E-02 a      1486     0    60     1    11
  8.3021347529294229E-02 a      1487     0    60     1    12
  9.5555645256262034E-02 a      1488     0    60     1    13
 -1.1773449924821734E-01 a      1489     0    60     1    14
  7.4539013553383007E-02 a      1490     0    60     1    15
 -1.4289206730338433E-01 a      1491     0    60     1    16
 -1.4121030005848006E-01 a      1492     0    60     1    17
 -5.7826901396467248E-02 a      1493     0    60     1    18
  1.5276260230346650E-01 a      1494     0    60     1    19
 -6.1254004426876472E-02 a      1495     0    60     1    20
 -6.6556352781919029E-02 a      1496     0    60     1    21
 -8.2182954329709845E-02 a      1497     0    60     1    22
 -1.7258342719961076E-01 a      1498     0    60     1    23
  1.6538033275065475E-01 a      1499     0    60     1    24
 -3.5127002333274218E-02 a      1500     0    60     1    25
  4.3889153651997378E-03 a      1501     0    61     1     1
 -6.8837153249548316E-03 a      1502     0    61     1     2
 -5.6614961959379505E-02 a      1503     0    61     1     3
 -8.0350788289528144E-02 a      1504     0    61     1     4
  1.6477663516618948E-01 a      1505     0    61     1     5
 -2.8799486556098479E-02 a      1506     0    61     1     6
  5.4727892177045032E-02 a      1507     0    61     1     7
  6.6296609623396521E-02 a      1508     0    61     1     8
 -1.1562046250988552E-02 a      1509     0    61     1     9
  2.1633026853461499E-02 a      1510     0    61     1    10
 -1.3428148865974265E-01 a      1511     0    61     1    11
  1.2786920055690842E-01 a      1512     0    61     1    12
  5.3680392826129623E-03 a      1513     0    61     1    13
 -7.9488425660472026E-02 a      1514     0    61     1    14
  1.1817847301651646E-01 a      1515     0    61     1    15
  4.7392349888854830E-02 a      1516     0    61     1    16
 -1.1789337756328402E-01 a      1517     0    61     1    17
  4.2013877663207605E-02 a      1518     0    61     1    18
  6.5076701284364866E-02 a      1519     0    61     1    19
 -3.8804270737301312E-02 a      1520     0    61     1    20
 -5.0917782906552508E-02 a      1521     0    61     1    21
 -1.6757048912059255E-03 a      1522     0    61     1    22
  7.9496414368661464E-02 a      1523     0    61     1    23
 -9.2904006003614367E-03 a      1524     0    61     1    24
 -4.1193567289349795E-02 a      1525     0    61     1    25
  1.9408379925276786E-02 a      1526     0    62     1     1
 -8.7591493732033145E-03 a      1527     0    62     1     2
  2.2154029240859380E-02 a      1528     0    62     1     3
  1.6779999829061526E-01 a      1529     0    62     1     4
  8.5161036465367532E-02 a      1530     0    62     1     5
  8.4118139650198834E-02 a      1531     0    62     1     6
 -1.1895837748321902E-01 a      1532     0    62     1     7
 -3.6943934729982135E-02 a      1533     0    62     1     8
 -1.1959967130505224E-01 a      1534     0    62     1     9
  2.7638136706546444E-02 a      1535     0    62     1    10
  4.3080786048614823E-02 a      1536     0    62     1    11
 -2.8910817500461655E-01 a      1537     0    62     1    12
  2.6783244471353224E-01 a      1538     0    62     1    13
  8.0968752684178399E-02 a      1539     0    62     1    14
 -4.3246249959808547E-01 a      1540     0    62     1    15
 -3.4790891248261138E-02 a      1541     0    62     1    16
  8.6466944460841716E-02 a      1542     0    62     1    17
  2.1671129670283243E-02 a      1543     0    62     1    18
 -1.1558063962885462E-01 a      1544     0    62     1    19
  1.0645625258674837E-01 a      1545     0    62     1    20
 -3.8116347703677396E-02 a      1546     0    62     1    21
  2.3410189035204287E-01 a      1547     0    62     1    22
  2.4666482599592327E-02 a      1548     0    62     1    23
 -5.7425858460966449E-02 a      1549     0    62     1    24
 -1.5709584628986159E-01 a      1550     0    62     1    25
 -1.5064815445129243E-02 a      1551     0    63     1     1
  3.8762916929515924E-02 a      1552     0    63     1     2
 -7.3472269941179905E-02 a      1553     0    63     1     3
  5.9282391971556582E-02 a      1554     0    63     1     4
  2.9293518839992833E-01 a      1555     0    63     1     5
 -2.8770939701962244E-02 a      1556     0    63     1     6
 -5.6009164949975777E-03 a      1557     0    63     1     7
  1.1836975726770135E-01 a      1558     0    63     1     8
 -6.1424373148675229E-02 a      1559     0    63     1     9
 -4.8348259872284180E-03 a      1560     0    63     1    10
 -1.1857339973524761E-01 a      1561     0    63     1    11
 -1.7702243096078410E-01 a      1562     0    63     1    12
  1.7710296909242706E-02 a      1563     0    63     1    13
  7.5241290488022042E-02 a      1564     0    63     1    14
 -2.5472328207316686E-01 a      1565     0    63     1    15
  1.1629451283005016E-01 a      1566     0    63     1    16
 -1.2096883346069996E-01 a      1567     0    63     1    17
 -7.4308320050984103E-02 a      1568     0    63     1    18
  8.5697230057776588E-02 a      1569     0    63     1    19
 -8.8744021955583716E-02 a      1570     0    63     1    20
 -1.2974882802038457E-01 a      1571     0    63     1    21
  1.5119630077054030E-01 a      1572     0    63     1    22
  1.9630613984596191E-02 a      1573     0    63     1    23
  3.0996543676224649E-03 a      1574     0    63     1    24
 -6.7403727708358244E-02 a      1575     0    63     1    25
  1.0530174254370037E-01 a      1576     0    64     1     1
  6.8386947041677693E-02 a      1577     0    64     1     2
  9.5594672521669991E-02 a      1578     0    64     1     3
  8.6434967853503911E-03 a      1579     0    64     1     4
  3.0142138970280587E-02 a      1580     0    64     1     5
 -1.2973000323728240E-01 a      1581     0    64     1     6
 -8.7798760978510013E-02 a      1582     0    64     1     7
 -1.7254090176589163E-02 a      1583     0    64     1     8
  7.4507334755565622E-03 a      1584     0    64     1     9
  1.0770702200523756E-01 a      1585     0    64     1    10
  3.4434338535961583E-03 a      1586     0    64     1    11
  2.3328002143914695E-01 a      1587     0    64     1    12
 -1.2996177737841058E-01 a      1588     0    64     1    13
 -1.0198481539895403E-01 a      1589     0    64     1    14
  8.0476644532966032E-02 a      1590     0    64     1    15
  6.8376394391521447E-02 a      1591     0    64     1    16
  5.6719473424565993E-02 a      1592     0    64     1    17
 -1.2599196173641539E-01 a      1593     0    64     1    18
 -4.4011690345649383E-02 a      1594     0    64     1    19
 -7.1813684019355520E-02 a      1595     0    64     1    20
 -3.1630217838805742E-02 a      1596     0    64     1    21
 -2.7067969352784580E-02 a      1597     0    64     1    22
 -2.0493824372474660E-02 a      1598     0    64     1    23
  4.2726582803699287E-02 a      1599     0    64     1    24
  1.7754008372967044E-02 a      1600     0    64     1    25
  2.4498065714573559E-02 a      1601     0    65     1     1
 -4.2027187091967157E-02 a      1602     0    65     1     2
  2.0235534522835250E-02 a      1603     0    65     1     3
 -1.4744143351608444E-01 a      1604     0    65     1     4
  1.4731412246606279E-01 a      1605     0    65     1     5
  1.4596121667712476E-02 a      1606     0    65     1     6
  2.6175886363907181E-02 a      1607     0    65     1     7
  1.7186270044512572E-01 a      1608     0    65     1     8
  1.4610378869082413E-01 a      1609     0    65     1     9
  9.6164855288252152E-02 a      1610     0    65     1    10
  1.3057808936868381E-01 a      1611     0    65     1    11
  1.0024847522379249E-01 a      1612     0    65     1    12
 -2.5688297502728591E-01 a      1613     0    65     1    13
  1.4478943326972021E-01 a      1614     0    65     1    14
  2.6566532518591833E-02 a      1615     0    65     1    15
  5.1296040532681986E-01 a      1616     0    65     1    16
  2.3960193170843181E-02 a      1617     0    65     1    17
 -1.2210258828516085E-01 a      1618     0    65     1    18
  2.6063029494831896E-01 a      1619     0    65     1    19
 -3.8544339906121730E-02 a      1620     0    65     1    20
  8.0854483521198270E-02 a      1621     0    65     1    21
 -2.1547834409271896E-01 a      1622     0    65     1    22
 -9.7808686360694938E-02 a      1623     0    65     1    23
