################################################################################
# Neural network connection values (weights and biases).
################################################################################
# Col  Name       Description
################################################################################
# 1    connection Neural network connection value.
# 2    t          Connection type (a = weight, b = bias).
# 3    index      Index enumerating weights.
# 4    l_s        Starting point layer (end point layer for biases).
# 5    n_s        Starting point neuron in starting layer (end point neuron for biases).
# 6    l_e        End point layer.
# 7    n_e        End point neuron in end layer.
################################################################################
#                      1 2         3     4     5     6     7
#             connection t     index   l_s   n_s   l_e   n_e
############################################################
 -1.1461615935873944E-02 a         1     0     1     1     1
 -1.1044070449450086E-01 a         2     0     1     1     2
  1.6664947696670487E-01 a         3     0     1     1     3
  9.8050609660638610E-02 a         4     0     1     1     4
 -5.2232208766115029E-01 a         5     0     1     1     5
 -2.8879306425405682E-01 a         6     0     1     1     6
 -5.3469050308701427E-01 a         7     0     1     1     7
  2.1204474713615420E-01 a         8     0     1     1     8
  2.3481111195079393E-01 a         9     0     1     1     9
 -1.3709476727883550E-02 a        10     0     1     1    10
 -1.8594250062448989E-01 a        11     0     1     1    11
  2.3217886749155620E-01 a        12     0     1     1    12
  3.3599638818078298E-01 a        13     0     1     1    13
 -1.1206047048718056E-01 a        14     0     1     1    14
  4.3573329978565944E-01 a        15     0     1     1    15
  3.1104641119912558E-02 a        16     0     1     1    16
 -7.3965724976300629E-01 a        17     0     1     1    17
  1.9802297783311171E-01 a        18     0     1     1    18
 -2.1917318121100640E-01 a        19     0     1     1    19
  5.1674724116564219E-01 a        20     0     1     1    20
  2.0002051270639654E-01 a        21     0     1     1    21
 -7.2891677047670878E-01 a        22     0     1     1    22
  4.1190174016754194E-01 a        23     0     1     1    23
 -6.6663850972914318E-01 a        24     0     1     1    24
  5.4538423552646126E-02 a        25     0     1     1    25
 -3.8053055750034662E-02 a        26     0     2     1     1
  2.9987792835232504E-02 a        27     0     2     1     2
  2.0249018754475806E-01 a        28     0     2     1     3
  6.0019049619553753E-03 a        29     0     2     1     4
  3.4256044097747963E-04 a        30     0     2     1     5
 -3.5249595728710281E-02 a        31     0     2     1     6
  9.4654748263179999E-03 a        32     0     2     1     7
 -1.3977080237855241E-01 a        33     0     2     1     8
  1.2441328066850720E-01 a        34     0     2     1     9
  1.2186236147464986E-02 a        35     0     2     1    10
  8.2511211541753254E-02 a        36     0     2     1    11
  1.8951269893111011E-01 a        37     0     2     1    12
 -1.0145223482958181E-01 a        38     0     2     1    13
 -2.0637054566434491E-02 a        39     0     2     1    14
 -1.2395154348935847E-01 a        40     0     2     1    15
  3.9498921779745740E-02 a        41     0     2     1    16
 -1.2994750445351858E-01 a        42     0     2     1    17
  2.9063689861341977E-02 a        43     0     2     1    18
  7.5442412401575135E-02 a        44     0     2     1    19
 -1.5681303269277549E-01 a        45     0     2     1    20
 -2.7007598384082676E-02 a        46     0     2     1    21
 -1.9641769904543201E-02 a        47     0     2     1    22
 -6.2864406884142340E-02 a        48     0     2     1    23
  8.3230107526928762E-02 a        49     0     2     1    24
 -1.2816164572944752E-01 a        50     0     2     1    25
 -1.3450632929729270E-01 a        51     0     3     1     1
 -2.5975175602295963E-01 a        52     0     3     1     2
 -1.1945597485196086E-01 a        53     0     3     1     3
 -9.1183440542122060E-02 a        54     0     3     1     4
  1.0912490036599476E-01 a        55     0     3     1     5
  3.4227968931656846E-02 a        56     0     3     1     6
 -2.5537164515950445E-01 a        57     0     3     1     7
  4.7238152194633336E-02 a        58     0     3     1     8
  1.9644881165968398E-01 a        59     0     3     1     9
 -7.8586337819495117E-02 a        60     0     3     1    10
 -1.0276956900658102E-02 a        61     0     3     1    11
  2.3327963265641588E-01 a        62     0     3     1    12
 -6.6612707533873827E-02 a        63     0     3     1    13
  7.6822113512460724E-02 a        64     0     3     1    14
  2.5612250120041313E-01 a        65     0     3     1    15
  3.9710639285819305E-02 a        66     0     3     1    16
 -1.0035992385685696E-01 a        67     0     3     1    17
 -1.0862480577164596E-01 a        68     0     3     1    18
 -1.1784444785676701E-01 a        69     0     3     1    19
 -3.9136284899507795E-02 a        70     0     3     1    20
  1.7897685260634191E-02 a        71     0     3     1    21
  1.1653743259453540E-01 a        72     0     3     1    22
  2.1069126394970064E-01 a        73     0     3     1    23
 -9.4603418919092255E-02 a        74     0     3     1    24
 -1.3051018822670746E-03 a        75     0     3     1    25
  4.6032378686991088E-02 a        76     0     4     1     1
 -8.3336732169764838E-02 a        77     0     4     1     2
  1.3893709794557696E-01 a        78     0     4     1     3
 -5.7328784647769623E-02 a        79     0     4     1     4
  6.2730609712859740E-03 a        80     0     4     1     5
  1.2894145433286017E-01 a        81     0     4     1     6
  1.5097037866323798E-01 a        82     0     4     1     7
  2.2214080853679918E-01 a        83     0     4     1     8
  3.2456930193570627E-01 a        84     0     4     1     9
 -1.3246926246080662E-01 a        85     0     4     1    10
  6.0168190742504624E-02 a        86     0     4     1    11
  1.2167072977657904E-01 a        87     0     4     1    12
 -7.2093852508444911E-02 a        88     0     4     1    13
  3.1891403693855513E-02 a        89     0     4     1    14
  1.6108721318045016E-01 a        90     0     4     1    15
 -5.9262884160461949E-03 a        91     0     4     1    16
 -9.2935496201887152E-02 a        92     0     4     1    17
  1.4386755140231974E-01 a        93     0     4     1    18
 -2.3976316210077686E-01 a        94     0     4     1    19
  8.4942402434194653E-02 a        95     0     4     1    20
 -2.7008398587300878E-02 a        96     0     4     1    21
  7.1640582336499836E-02 a        97     0     4     1    22
  2.9349913415514278E-01 a        98     0     4     1    23
 -1.3235492022354065E-01 a        99     0     4     1    24
  4.6163404874087342E-02 a       100     0     4     1    25
  2.9722532586557027E-01 a       101     0     5     1     1
 -3.1306228324779856E-01 a       102     0     5     1     2
  7.1263186811404491E-02 a       103     0     5     1     3
  4.5214252851653480E-02 a       104     0     5     1     4
  3.0509530834473259E-01 a       105     0     5     1     5
 -2.7125102074497848E-01 a       106     0     5     1     6
  4.0423236424856646E-01 a       107     0     5     1     7
 -1.7624783779776454E-01 a       108     0     5     1     8
  4.6992470125890168E-02 a       109     0     5     1     9
  4.6632493305367007E-01 a       110     0     5     1    10
 -2.5322252405762397E-01 a       111     0     5     1    11
  6.0706514426889302E-01 a       112     0     5     1    12
 -4.0634689560302817E-01 a       113     0     5     1    13
 -2.5383581722215304E-01 a       114     0     5     1    14
 -5.4955798763483818E-02 a       115     0     5     1    15
 -2.5035514733619302E-01 a       116     0     5     1    16
  1.7223620870034262E-01 a       117     0     5     1    17
  3.3950709360840697E-01 a       118     0     5     1    18
 -2.6067177267357111E-01 a       119     0     5     1    19
 -8.5242434133806388E-01 a       120     0     5     1    20
 -1.2324739085024418E-02 a       121     0     5     1    21
  1.4846280881412932E-01 a       122     0     5     1    22
 -6.1148109544550466E-01 a       123     0     5     1    23
  6.9679939720393413E-01 a       124     0     5     1    24
 -6.8679324046576085E-01 a       125     0     5     1    25
  1.8004527911786838E-01 a       126     0     6     1     1
  2.1634795216355965E-01 a       127     0     6     1     2
 -3.2094905318673728E-01 a       128     0     6     1     3
 -1.2549129056124980E-01 a       129     0     6     1     4
 -1.1144056179231800E-01 a       130     0     6     1     5
  1.0179195892996185E-01 a       131     0     6     1     6
  8.3207874643464793E-03 a       132     0     6     1     7
  1.1656301663692599E-01 a       133     0     6     1     8
 -2.5187318095638928E-01 a       134     0     6     1     9
 -5.5721220807246910E-02 a       135     0     6     1    10
  7.0116201370002448E-02 a       136     0     6     1    11
 -3.6138594012976166E-01 a       137     0     6     1    12
  1.5366208900757924E-01 a       138     0     6     1    13
  2.5642103422512941E-02 a       139     0     6     1    14
 -2.6536988500246446E-02 a       140     0     6     1    15
 -4.4320630756308259E-02 a       141     0     6     1    16
  1.4288823069241252E-01 a       142     0     6     1    17
 -2.3470907349032791E-02 a       143     0     6     1    18
 -3.9362006986398773E-02 a       144     0     6     1    19
  2.7015523349702802E-01 a       145     0     6     1    20
  9.7553241059086266E-03 a       146     0     6     1    21
  1.3879073768429137E-01 a       147     0     6     1    22
  3.9002874094024075E-04 a       148     0     6     1    23
 -1.1954573002563447E-01 a       149     0     6     1    24
  1.1550362605058054E-01 a       150     0     6     1    25
  1.5843523650746388E-01 a       151     0     7     1     1
  1.9430688325573478E-01 a       152     0     7     1     2
  2.5642873473243832E-01 a       153     0     7     1     3
 -1.0988183767775693E-01 a       154     0     7     1     4
  5.2152496804017803E-02 a       155     0     7     1     5
 -1.1291182594179758E-01 a       156     0     7     1     6
  9.8314057493156762E-02 a       157     0     7     1     7
  9.2107996772815684E-02 a       158     0     7     1     8
 -2.2344523824808926E-01 a       159     0     7     1     9
  1.4431283502179548E-01 a       160     0     7     1    10
 -2.3281931159341355E-02 a       161     0     7     1    11
 -8.9587132889064044E-02 a       162     0     7     1    12
  1.1924333652224324E-01 a       163     0     7     1    13
 -2.3601446667945350E-01 a       164     0     7     1    14
 -7.9150094039498867E-02 a       165     0     7     1    15
  5.1693688135749635E-02 a       166     0     7     1    16
  9.7595642998118154E-02 a       167     0     7     1    17
 -9.9790111897912287E-02 a       168     0     7     1    18
 -1.1498495632764569E-01 a       169     0     7     1    19
 -2.0510225026510905E-02 a       170     0     7     1    20
 -1.6103003064553303E-01 a       171     0     7     1    21
 -3.6500517843464845E-03 a       172     0     7     1    22
 -1.5301603326100682E-01 a       173     0     7     1    23
 -5.0645001079801098E-02 a       174     0     7     1    24
 -1.7650119650591420E-01 a       175     0     7     1    25
 -1.5451952543953602E-02 a       176     0     8     1     1
 -2.5852267726553840E-01 a       177     0     8     1     2
 -6.5584660989036397E-02 a       178     0     8     1     3
 -8.7614603075174893E-03 a       179     0     8     1     4
 -4.8568529036521049E-02 a       180     0     8     1     5
 -1.4097384786746253E-01 a       181     0     8     1     6
 -3.2603005446245482E-02 a       182     0     8     1     7
 -2.2154437186766701E-01 a       183     0     8     1     8
 -1.2790133469295550E-01 a       184     0     8     1     9
 -8.5049830680454130E-02 a       185     0     8     1    10
 -1.2090819303782432E-01 a       186     0     8     1    11
  3.5871247315022267E-02 a       187     0     8     1    12
  5.4880580073370334E-03 a       188     0     8     1    13
 -6.5870094281963845E-02 a       189     0     8     1    14
 -7.9529197053003431E-02 a       190     0     8     1    15
 -1.5662392381590146E-01 a       191     0     8     1    16
 -7.6919721614676653E-02 a       192     0     8     1    17
  3.4589741936605525E-03 a       193     0     8     1    18
  1.7758551821593005E-01 a       194     0     8     1    19
 -1.1353199644174933E-01 a       195     0     8     1    20
  4.2485511551208235E-02 a       196     0     8     1    21
 -5.9498170688802018E-02 a       197     0     8     1    22
 -7.1260141269597732E-02 a       198     0     8     1    23
 -4.6334886575676894E-02 a       199     0     8     1    24
  7.5761537642812696E-02 a       200     0     8     1    25
  2.3626147353492954E-01 a       201     0     9     1     1
  4.1243015619729684E-01 a       202     0     9     1     2
 -1.3288627708049058E-01 a       203     0     9     1     3
  2.8315926580667489E-01 a       204     0     9     1     4
 -1.4273230919976940E-01 a       205     0     9     1     5
 -2.6599959643325544E-01 a       206     0     9     1     6
 -1.2572324488873809E-01 a       207     0     9     1     7
 -3.8845059204109128E-01 a       208     0     9     1     8
 -2.4329879432328139E-01 a       209     0     9     1     9
 -4.8169179668877804E-01 a       210     0     9     1    10
  6.9441213223212575E-02 a       211     0     9     1    11
  1.1267787130456240E-01 a       212     0     9     1    12
  2.5316947658515148E-02 a       213     0     9     1    13
 -2.6747155895811070E-01 a       214     0     9     1    14
  4.8485133918085593E-01 a       215     0     9     1    15
  1.7264469348131388E-03 a       216     0     9     1    16
 -9.5802181725329644E-02 a       217     0     9     1    17
 -7.8081751298917073E-03 a       218     0     9     1    18
  1.3930915172325828E-01 a       219     0     9     1    19
  6.5111984704903381E-01 a       220     0     9     1    20
 -3.7547707867312638E-02 a       221     0     9     1    21
 -3.1199270338859747E-01 a       222     0     9     1    22
  2.7298013109176311E-01 a       223     0     9     1    23
 -5.3809919611885304E-01 a       224     0     9     1    24
  5.0199247706678174E-01 a       225     0     9     1    25
 -1.0507224745277646E-01 a       226     0    10     1     1
  2.5190844307133248E-01 a       227     0    10     1     2
  1.0623390027442930E-01 a       228     0    10     1     3
 -2.3987864144448154E-01 a       229     0    10     1     4
  9.5629329185401516E-03 a       230     0    10     1     5
  3.6154056392155087E-01 a       231     0    10     1     6
  8.9797217567233953E-02 a       232     0    10     1     7
  1.8640439161982328E-01 a       233     0    10     1     8
 -3.6298141463322213E-02 a       234     0    10     1     9
  2.8689140206604802E-01 a       235     0    10     1    10
  1.2176370570000866E-01 a       236     0    10     1    11
 -1.4941330942931388E-01 a       237     0    10     1    12
 -1.8534693474281436E-01 a       238     0    10     1    13
 -6.6203723733011983E-04 a       239     0    10     1    14
  1.9540710490340440E-01 a       240     0    10     1    15
  2.3154742991095763E-02 a       241     0    10     1    16
  4.0410278373575810E-02 a       242     0    10     1    17
 -1.8302893930420364E-01 a       243     0    10     1    18
 -1.8675504320610006E-01 a       244     0    10     1    19
 -1.0371578826009148E-01 a       245     0    10     1    20
 -1.8480640733411652E-01 a       246     0    10     1    21
  1.3586731059195447E-02 a       247     0    10     1    22
  8.2213503887638095E-02 a       248     0    10     1    23
 -3.2808687650645721E-02 a       249     0    10     1    24
 -1.0311878766605576E-01 a       250     0    10     1    25
  3.8286069631552788E-02 a       251     0    11     1     1
 -6.4753467546558252E-02 a       252     0    11     1     2
 -3.2862755039679219E-02 a       253     0    11     1     3
 -3.0037572306510177E-02 a       254     0    11     1     4
  2.3016261309393342E-03 a       255     0    11     1     5
 -1.2597890533546927E-01 a       256     0    11     1     6
 -1.1771251911271949E-01 a       257     0    11     1     7
 -8.3974476116602401E-02 a       258     0    11     1     8
  1.3731254418480132E-01 a       259     0    11     1     9
 -1.4187043058661764E-01 a       260     0    11     1    10
  1.3326397068215218E-01 a       261     0    11     1    11
 -9.5262061083933425E-02 a       262     0    11     1    12
  1.7861303709199547E-01 a       263     0    11     1    13
  1.9470753630516226E-02 a       264     0    11     1    14
 -4.0995653100625556E-02 a       265     0    11     1    15
 -5.4179806714866517E-02 a       266     0    11     1    16
 -1.7130384391604626E-02 a       267     0    11     1    17
  1.0275886344995272E-01 a       268     0    11     1    18
  4.2274174709334214E-02 a       269     0    11     1    19
  5.9983116190732405E-02 a       270     0    11     1    20
  1.0101001383379549E-01 a       271     0    11     1    21
 -1.3827281719203061E-01 a       272     0    11     1    22
 -1.0927005716787452E-01 a       273     0    11     1    23
  2.6785895735012338E-01 a       274     0    11     1    24
  3.3498869349177957E-01 a       275     0    11     1    25
 -4.9291804467380664E-02 a       276     0    12     1     1
  3.5001801616275235E-01 a       277     0    12     1     2
 -1.8982584943801750E-01 a       278     0    12     1     3
 -2.0952280814083796E-01 a       279     0    12     1     4
 -3.0890428918159567E-02 a       280     0    12     1     5
 -1.6326886684197378E-01 a       281     0    12     1     6
  7.7481934353513429E-02 a       282     0    12     1     7
  1.9988536395823750E-01 a       283     0    12     1     8
 -1.6196121359663193E-01 a       284     0    12     1     9
  2.3226658847648771E-01 a       285     0    12     1    10
  6.0289562953138292E-03 a       286     0    12     1    11
 -2.0147509423527585E-01 a       287     0    12     1    12
 -4.7778331669906374E-02 a       288     0    12     1    13
  2.8922219272793554E-02 a       289     0    12     1    14
  1.6086444353596846E-01 a       290     0    12     1    15
  1.2236020251397092E-01 a       291     0    12     1    16
 -2.5944522390432663E-02 a       292     0    12     1    17
  9.5211633216997188E-02 a       293     0    12     1    18
 -1.0438415749973703E-01 a       294     0    12     1    19
  7.2287404307751296E-02 a       295     0    12     1    20
 -9.2456812890942167E-02 a       296     0    12     1    21
  1.7070320145105439E-01 a       297     0    12     1    22
  9.7616617780477394E-02 a       298     0    12     1    23
  9.0484023466984184E-02 a       299     0    12     1    24
 -7.7721981963560158E-02 a       300     0    12     1    25
 -8.8784588732217548E-02 a       301     0    13     1     1
 -7.0609857397869791E-01 a       302     0    13     1     2
  6.1773730976559338E-01 a       303     0    13     1     3
 -1.8679978596319921E-01 a       304     0    13     1     4
 -1.9926603465834047E-01 a       305     0    13     1     5
  3.6235550141287501E-02 a       306     0    13     1     6
  1.6390722677891634E-01 a       307     0    13     1     7
  1.1782800276763328E-01 a       308     0    13     1     8
  1.1133092377241148E-01 a       309     0    13     1     9
  5.2474995767536536E-01 a       310     0    13     1    10
  1.6136819067779022E-02 a       311     0    13     1    11
 -2.5029981705926885E-01 a       312     0    13     1    12
 -1.9661305944735964E-02 a       313     0    13     1    13
 -4.1807271802329612E-02 a       314     0    13     1    14
 -8.3859076898455717E-02 a       315     0    13     1    15
 -2.4998821796013343E-01 a       316     0    13     1    16
  1.8435120035329995E-02 a       317     0    13     1    17
  8.9394218739314946E-01 a       318     0    13     1    18
 -2.3794903178929666E-01 a       319     0    13     1    19
 -5.4573307168276219E-01 a       320     0    13     1    20
  2.6455194446359687E-01 a       321     0    13     1    21
 -4.8006502740408658E-02 a       322     0    13     1    22
 -2.7953745963788296E-01 a       323     0    13     1    23
  5.8962408391353216E-01 a       324     0    13     1    24
  1.2722442996594857E-01 a       325     0    13     1    25
  1.0747582985100479E-01 a       326     0    14     1     1
  3.2878256944935791E-01 a       327     0    14     1     2
 -9.6844416022101740E-02 a       328     0    14     1     3
  1.6040474477704120E-01 a       329     0    14     1     4
 -3.2298289588859119E-01 a       330     0    14     1     5
  9.9256966384095507E-02 a       331     0    14     1     6
  2.9478522484869824E-01 a       332     0    14     1     7
  4.4262065534124406E-01 a       333     0    14     1     8
  3.1635766574395201E-02 a       334     0    14     1     9
  2.7942161292431866E-01 a       335     0    14     1    10
  1.0571625876269550E-01 a       336     0    14     1    11
 -2.7589716250677238E-01 a       337     0    14     1    12
  1.7163708967401339E-01 a       338     0    14     1    13
  2.9772976123560235E-01 a       339     0    14     1    14
 -1.4644143674142668E-01 a       340     0    14     1    15
 -1.8388855755836997E-01 a       341     0    14     1    16
 -2.3835947368390523E-01 a       342     0    14     1    17
 -1.5503881016780777E-01 a       343     0    14     1    18
 -2.1203957238970261E-01 a       344     0    14     1    19
 -1.9699468934850772E-01 a       345     0    14     1    20
  1.1147802601222109E-01 a       346     0    14     1    21
  1.3006345850262757E-01 a       347     0    14     1    22
 -1.2120743630776119E-01 a       348     0    14     1    23
  2.2667857141031994E-01 a       349     0    14     1    24
 -5.7612695196391332E-02 a       350     0    14     1    25
  5.7029203471990250E-03 a       351     0    15     1     1
 -2.7302721927900936E-01 a       352     0    15     1     2
  9.9557070201296574E-02 a       353     0    15     1     3
 -8.7465165146142082E-02 a       354     0    15     1     4
 -1.2325414850025550E-01 a       355     0    15     1     5
  2.0087282189086536E-01 a       356     0    15     1     6
  6.7376347059652009E-02 a       357     0    15     1     7
  9.2803596097020616E-02 a       358     0    15     1     8
 -1.7482435241833938E-01 a       359     0    15     1     9
  8.1155125256749810E-02 a       360     0    15     1    10
 -5.3137291235163343E-02 a       361     0    15     1    11
  1.0048742084109057E-01 a       362     0    15     1    12
 -1.7564828803394328E-01 a       363     0    15     1    13
 -1.2583680140335046E-01 a       364     0    15     1    14
 -4.6430380638416771E-02 a       365     0    15     1    15
  1.5929233980499283E-02 a       366     0    15     1    16
  7.6756491949111199E-03 a       367     0    15     1    17
 -2.0167472663948020E-02 a       368     0    15     1    18
  1.0277714114175433E-01 a       369     0    15     1    19
 -1.6480050595758186E-01 a       370     0    15     1    20
 -3.2829192667031171E-01 a       371     0    15     1    21
 -1.0887544646130907E-01 a       372     0    15     1    22
 -8.6079948243098961E-02 a       373     0    15     1    23
 -1.5279827747130545E-01 a       374     0    15     1    24
 -1.1602790214001640E-01 a       375     0    15     1    25
  3.1421907772861279E-01 a       376     0    16     1     1
  3.1849058690704396E-02 a       377     0    16     1     2
 -4.7017997043836357E-02 a       378     0    16     1     3
  1.4341923459566436E-01 a       379     0    16     1     4
 -7.6381372039733525E-02 a       380     0    16     1     5
  1.3077998508231406E-01 a       381     0    16     1     6
  2.5286864483220639E-01 a       382     0    16     1     7
  9.2618056275938065E-03 a       383     0    16     1     8
 -3.7060933365443652E-02 a       384     0    16     1     9
 -1.7500957852124688E-02 a       385     0    16     1    10
  1.5558074093750851E-01 a       386     0    16     1    11
 -7.8827392710798250E-02 a       387     0    16     1    12
  9.9460453332322965E-02 a       388     0    16     1    13
 -2.5692404130536198E-02 a       389     0    16     1    14
 -1.7982289500054313E-01 a       390     0    16     1    15
 -1.4226656506355514E-01 a       391     0    16     1    16
  4.6147134377469315E-04 a       392     0    16     1    17
  7.0996952661865585E-03 a       393     0    16     1    18
 -1.8670012607858452E-01 a       394     0    16     1    19
 -1.3006557151163955E-01 a       395     0    16     1    20
  7.4079365636061392E-02 a       396     0    16     1    21
 -1.7782446599171575E-01 a       397     0    16     1    22
 -3.1140068607909782E-01 a       398     0    16     1    23
  2.3138344007974920E-01 a       399     0    16     1    24
  6.6478203777061992E-03 a       400     0    16     1    25
  2.5696211204868608E-01 a       401     0    17     1     1
 -1.7433399515630701E-01 a       402     0    17     1     2
 -2.6086746074436989E-01 a       403     0    17     1     3
  1.1043731267744809E-01 a       404     0    17     1     4
  2.2562622201386739E-01 a       405     0    17     1     5
  3.4040113319315279E-01 a       406     0    17     1     6
 -9.3865113797249822E-02 a       407     0    17     1     7
 -5.3302719822706857E-01 a       408     0    17     1     8
 -3.4624007586391081E-01 a       409     0    17     1     9
 -4.3656833101377168E-01 a       410     0    17     1    10
  9.3635683363886030E-02 a       411     0    17     1    11
  3.4642068936525816E-01 a       412     0    17     1    12
  2.5157744341245863E-01 a       413     0    17     1    13
 -2.6046524574974578E-01 a       414     0    17     1    14
  2.7284539089205984E-01 a       415     0    17     1    15
 -7.8879065885597080E-02 a       416     0    17     1    16
  9.0745201038399448E-02 a       417     0    17     1    17
  1.4445649869410241E-02 a       418     0    17     1    18
  1.7506953031830896E-01 a       419     0    17     1    19
  3.4260325473093900E-01 a       420     0    17     1    20
 -1.0415642689729579E-01 a       421     0    17     1    21
  9.3000990165508043E-02 a       422     0    17     1    22
  3.6058290967336798E-01 a       423     0    17     1    23
 -3.8429201688739412E-01 a       424     0    17     1    24
 -8.8381925891495253E-02 a       425     0    17     1    25
 -1.3246053460873061E-01 a       426     0    18     1     1
  1.3247643884754398E-01 a       427     0    18     1     2
 -1.6598135193257374E-01 a       428     0    18     1     3
  7.3632354519909085E-02 a       429     0    18     1     4
  3.1348402772479494E-01 a       430     0    18     1     5
  3.6039178115774417E-01 a       431     0    18     1     6
  7.9737086314987063E-02 a       432     0    18     1     7
  1.7068959385099014E-01 a       433     0    18     1     8
  1.4696012280912718E-01 a       434     0    18     1     9
  1.5627736017940358E-01 a       435     0    18     1    10
  4.0551380188287633E-02 a       436     0    18     1    11
  7.8941133809818320E-02 a       437     0    18     1    12
 -3.1948405728849626E-02 a       438     0    18     1    13
  9.9623410789304832E-03 a       439     0    18     1    14
 -2.3199706078301618E-01 a       440     0    18     1    15
  1.2768401163464324E-01 a       441     0    18     1    16
  1.6512074466686602E-01 a       442     0    18     1    17
 -3.8675621737513755E-01 a       443     0    18     1    18
 -3.8611384710760183E-01 a       444     0    18     1    19
  5.6780072345904667E-02 a       445     0    18     1    20
  3.3853780488444549E-02 a       446     0    18     1    21
 -1.4289222561155021E-01 a       447     0    18     1    22
  1.0711836204240415E-02 a       448     0    18     1    23
 -3.8994077489932284E-02 a       449     0    18     1    24
 -4.5052384602346968E-01 a       450     0    18     1    25
  1.2254287714749024E-01 a       451     0    19     1     1
  1.5080157082232110E-01 a       452     0    19     1     2
  6.1913588827060217E-02 a       453     0    19     1     3
 -3.5302554299975648E-02 a       454     0    19     1     4
  1.9017905636709811E-02 a       455     0    19     1     5
 -3.6068247790330771E-02 a       456     0    19     1     6
  1.8219765773110536E-01 a       457     0    19     1     7
 -1.4601931075350985E-01 a       458     0    19     1     8
 -2.0430837724549334E-02 a       459     0    19     1     9
  1.0033907091168091E-01 a       460     0    19     1    10
  6.6587754666541446E-02 a       461     0    19     1    11
 -2.1142676882939976E-01 a       462     0    19     1    12
 -6.5796616669688487E-02 a       463     0    19     1    13
 -2.6865121997041129E-02 a       464     0    19     1    14
  1.6822423789522883E-01 a       465     0    19     1    15
 -1.1891880056745115E-01 a       466     0    19     1    16
  2.4340061358534781E-02 a       467     0    19     1    17
  2.6800756915066598E-01 a       468     0    19     1    18
  2.3597298097973764E-04 a       469     0    19     1    19
  9.2364828806526814E-02 a       470     0    19     1    20
  1.2587402891193505E-01 a       471     0    19     1    21
  5.2421157348405113E-02 a       472     0    19     1    22
  1.0248795834764175E-01 a       473     0    19     1    23
  7.4061168842814606E-02 a       474     0    19     1    24
  9.7060414903564610E-02 a       475     0    19     1    25
 -1.6854931446351109E-02 a       476     0    20     1     1
  3.4826546407396908E-01 a       477     0    20     1     2
 -5.6994824338203807E-04 a       478     0    20     1     3
  4.3702910841817343E-02 a       479     0    20     1     4
  2.9137567797707203E-01 a       480     0    20     1     5
  8.7197522105643938E-02 a       481     0    20     1     6
 -6.5957672289416860E-02 a       482     0    20     1     7
  5.9106385697434399E-02 a       483     0    20     1     8
  1.8562234628272423E-01 a       484     0    20     1     9
  6.8715930038294008E-03 a       485     0    20     1    10
 -5.8155140419688521E-02 a       486     0    20     1    11
  7.5473596629408732E-03 a       487     0    20     1    12
  1.5770364576579107E-01 a       488     0    20     1    13
 -1.1793805437141781E-01 a       489     0    20     1    14
 -1.4475221610688396E-02 a       490     0    20     1    15
 -1.7036398725592976E-02 a       491     0    20     1    16
 -1.5269624693386130E-01 a       492     0    20     1    17
 -4.3747015922883159E-02 a       493     0    20     1    18
 -2.6432200277224416E-01 a       494     0    20     1    19
  1.8857247204622610E-01 a       495     0    20     1    20
 -2.6567750348663255E-01 a       496     0    20     1    21
  3.4600232288058912E-02 a       497     0    20     1    22
 -1.9815805858225033E-01 a       498     0    20     1    23
 -1.3750257168875840E-01 a       499     0    20     1    24
 -2.0776547854117952E-01 a       500     0    20     1    25
 -3.4406775903298312E-02 a       501     0    21     1     1
 -2.8957806828235155E-01 a       502     0    21     1     2
  4.8405894096413232E-01 a       503     0    21     1     3
 -2.4725867477796018E-01 a       504     0    21     1     4
 -2.4917727513658619E-01 a       505     0    21     1     5
 -1.7483819991886629E-01 a       506     0    21     1     6
 -1.1254427014454570E-01 a       507     0    21     1     7
  2.0744008924807941E-01 a       508     0    21     1     8
 -1.2852814659941206E-01 a       509     0    21     1     9
  8.2411992747201823E-01 a       510     0    21     1    10
 -5.6179028573483829E-02 a       511     0    21     1    11
 -1.9891247767881673E-01 a       512     0    21     1    12
 -1.1306714116684606E-01 a       513     0    21     1    13
 -1.2116884368134943E-03 a       514     0    21     1    14
  6.1379493962532691E-03 a       515     0    21     1    15
  6.6293712679648523E-02 a       516     0    21     1    16
  5.7042769250247975E-02 a       517     0    21     1    17
  3.1907448523533216E-01 a       518     0    21     1    18
  1.0308411064918496E-01 a       519     0    21     1    19
 -6.2878318415326789E-02 a       520     0    21     1    20
  1.1298118214020372E-01 a       521     0    21     1    21
 -1.1789937917587208E-01 a       522     0    21     1    22
 -1.5850963428751511E-01 a       523     0    21     1    23
  2.8260069177670727E-01 a       524     0    21     1    24
  2.1782895307750580E-01 a       525     0    21     1    25
 -6.0050729327303888E-03 a       526     0    22     1     1
  4.3915374452714451E-01 a       527     0    22     1     2
 -1.7471381399176117E-01 a       528     0    22     1     3
  9.6672889697981712E-02 a       529     0    22     1     4
 -6.8583067577195400E-02 a       530     0    22     1     5
 -1.2966059185133497E-01 a       531     0    22     1     6
  5.0637169175611688E-02 a       532     0    22     1     7
  1.5028896790354013E-01 a       533     0    22     1     8
  8.4129734736594339E-02 a       534     0    22     1     9
 -1.9550470683699994E-01 a       535     0    22     1    10
  5.0050821748630951E-02 a       536     0    22     1    11
  2.5297422909545262E-02 a       537     0    22     1    12
  1.5090333929727634E-01 a       538     0    22     1    13
  1.6342616391505782E-01 a       539     0    22     1    14
  2.1036717916545930E-01 a       540     0    22     1    15
 -1.2998179425992826E-01 a       541     0    22     1    16
 -1.5893240891163460E-01 a       542     0    22     1    17
 -6.2839144046906631E-02 a       543     0    22     1    18
 -2.8358381084093187E-01 a       544     0    22     1    19
 -1.8067779540673218E-01 a       545     0    22     1    20
 -2.1961094814905234E-02 a       546     0    22     1    21
  1.3931419258088118E-01 a       547     0    22     1    22
 -1.0573777987831946E-01 a       548     0    22     1    23
 -2.7504287840889943E-02 a       549     0    22     1    24
 -4.0342612697970709E-02 a       550     0    22     1    25
 -5.3251726482766867E-02 a       551     0    23     1     1
 -3.0997084048267975E-01 a       552     0    23     1     2
  1.8175681987064374E-01 a       553     0    23     1     3
 -9.8638610217016975E-02 a       554     0    23     1     4
  4.2808184728556298E-02 a       555     0    23     1     5
  2.7256797531400639E-01 a       556     0    23     1     6
 -1.7280093638371888E-01 a       557     0    23     1     7
 -2.0948081554340031E-01 a       558     0    23     1     8
 -1.0585011450148236E-01 a       559     0    23     1     9
  1.7792415010861171E-01 a       560     0    23     1    10
  8.9956820285275560E-02 a       561     0    23     1    11
  1.2955683136018639E-01 a       562     0    23     1    12
  2.6201946456814451E-02 a       563     0    23     1    13
 -1.0577432233103191E-01 a       564     0    23     1    14
 -1.0065752235029682E-01 a       565     0    23     1    15
  8.4976457248217244E-02 a       566     0    23     1    16
  1.9621820380986127E-01 a       567     0    23     1    17
 -1.0202752748175161E-02 a       568     0    23     1    18
  9.9439434222337045E-02 a       569     0    23     1    19
  6.7105088976245689E-02 a       570     0    23     1    20
 -6.1074436962274409E-03 a       571     0    23     1    21
 -1.4373477855615940E-01 a       572     0    23     1    22
  4.6198361601987190E-02 a       573     0    23     1    23
  6.5852206047329165E-02 a       574     0    23     1    24
  9.5647293740757800E-03 a       575     0    23     1    25
  8.7495892183860391E-02 a       576     0    24     1     1
 -1.5284619750853440E-01 a       577     0    24     1     2
 -2.9910638377244031E-01 a       578     0    24     1     3
  1.1946558871094765E-01 a       579     0    24     1     4
 -5.1211153911278947E-03 a       580     0    24     1     5
 -9.0206943083513721E-02 a       581     0    24     1     6
  1.1219441026005401E-01 a       582     0    24     1     7
  1.3225694610562461E-01 a       583     0    24     1     8
 -7.5005790962930613E-02 a       584     0    24     1     9
  7.1022294769943276E-02 a       585     0    24     1    10
 -2.3116403825626471E-02 a       586     0    24     1    11
  3.4423189461897506E-02 a       587     0    24     1    12
  2.0878084161070395E-01 a       588     0    24     1    13
  1.6157775083886255E-01 a       589     0    24     1    14
  2.1142460600367460E-01 a       590     0    24     1    15
 -1.6603218747471618E-01 a       591     0    24     1    16
 -3.0226679875624975E-02 a       592     0    24     1    17
  8.3492753118694862E-02 a       593     0    24     1    18
 -1.2539100185309024E-01 a       594     0    24     1    19
 -1.8052492875653323E-01 a       595     0    24     1    20
  1.4297978575519521E-01 a       596     0    24     1    21
  4.4811689497248224E-02 a       597     0    24     1    22
 -3.5191287159667892E-02 a       598     0    24     1    23
  1.0123385598352969E-01 a       599     0    24     1    24
 -1.9068873128996813E-01 a       600     0    24     1    25
  1.0775680089096623E-01 a       601     0    25     1     1
  5.9034177485986453E-02 a       602     0    25     1     2
 -4.7752131626848209E-02 a       603     0    25     1     3
 -1.7754767055475591E-02 a       604     0    25     1     4
  1.4147883766437536E-01 a       605     0    25     1     5
  2.2865882014316330E-01 a       606     0    25     1     6
 -6.3829130698212916E-02 a       607     0    25     1     7
 -1.7917021576374154E-01 a       608     0    25     1     8
 -1.8582433631924780E-01 a       609     0    25     1     9
 -3.1048257802866980E-01 a       610     0    25     1    10
  1.8217650898374885E-01 a       611     0    25     1    11
 -1.0730845678194180E-01 a       612     0    25     1    12
  2.5519927569386802E-01 a       613     0    25     1    13
 -8.7275603497737594E-02 a       614     0    25     1    14
  2.4929209735538463E-01 a       615     0    25     1    15
  4.3119440602130243E-02 a       616     0    25     1    16
  4.1074147045878889E-02 a       617     0    25     1    17
 -4.8341971047136480E-02 a       618     0    25     1    18
  1.2626043965232819E-01 a       619     0    25     1    19
  6.8051177120530021E-02 a       620     0    25     1    20
  1.4246970059855666E-03 a       621     0    25     1    21
 -2.7491478675480220E-02 a       622     0    25     1    22
 -1.9248181824136365E-01 a       623     0    25     1    23
  1.8149282515610391E-03 a       624     0    25     1    24
  2.0482443910805798E-01 a       625     0    25     1    25
 -2.3044771610027444E-02 a       626     0    26     1     1
 -1.5085445875379616E-01 a       627     0    26     1     2
 -1.6259844304724222E-01 a       628     0    26     1     3
  1.6310557028901748E-01 a       629     0    26     1     4
  1.0591030113603229E-02 a       630     0    26     1     5
  1.0107981793892330E-01 a       631     0    26     1     6
  7.7110400812493748E-02 a       632     0    26     1     7
  8.8085567029837789E-02 a       633     0    26     1     8
  9.9410427370836038E-02 a       634     0    26     1     9
 -8.1446707150696129E-02 a       635     0    26     1    10
 -1.1603433242079213E-01 a       636     0    26     1    11
 -1.5753064928011831E-02 a       637     0    26     1    12
 -5.0276987427967587E-02 a       638     0    26     1    13
 -6.3400437386939811E-03 a       639     0    26     1    14
 -3.4130935603596152E-01 a       640     0    26     1    15
 -3.4710243681055734E-02 a       641     0    26     1    16
  1.6319468922456493E-02 a       642     0    26     1    17
 -2.8518285649675075E-02 a       643     0    26     1    18
 -7.3365597957431070E-02 a       644     0    26     1    19
 -2.7362830191469699E-02 a       645     0    26     1    20
 -3.4279824333357405E-02 a       646     0    26     1    21
 -1.4421005404878684E-01 a       647     0    26     1    22
 -3.5524083571867797E-03 a       648     0    26     1    23
  2.1603561967423197E-02 a       649     0    26     1    24
 -2.5903023163166028E-01 a       650     0    26     1    25
  1.1326668394826851E-01 a       651     0    27     1     1
  8.7671969866954372E-02 a       652     0    27     1     2
  2.4162736961910694E-02 a       653     0    27     1     3
  1.1562630715791858E-01 a       654     0    27     1     4
  2.0743184838413996E-02 a       655     0    27     1     5
 -1.4667021172079067E-01 a       656     0    27     1     6
  6.9715485645067660E-02 a       657     0    27     1     7
  5.0371326457779742E-03 a       658     0    27     1     8
 -6.8150898821913011E-02 a       659     0    27     1     9
  6.6760441737327607E-03 a       660     0    27     1    10
  1.8717333834979522E-02 a       661     0    27     1    11
 -7.6527018591968754E-02 a       662     0    27     1    12
 -4.8774572136299696E-02 a       663     0    27     1    13
  5.7209259550238908E-02 a       664     0    27     1    14
  1.0149858842018251E-01 a       665     0    27     1    15
  1.3342859191148424E-02 a       666     0    27     1    16
 -1.0928875892834503E-01 a       667     0    27     1    17
 -3.1691710015028698E-02 a       668     0    27     1    18
 -1.2294332042064539E-02 a       669     0    27     1    19
 -3.6491879912303293E-02 a       670     0    27     1    20
  2.8208126220779058E-02 a       671     0    27     1    21
  2.0919095458776979E-01 a       672     0    27     1    22
 -4.9829284052968485E-02 a       673     0    27     1    23
 -2.8457582232714385E-02 a       674     0    27     1    24
 -5.7001819161221230E-03 a       675     0    27     1    25
 -1.0225051491566793E-01 a       676     0    28     1     1
  9.0557067509195135E-02 a       677     0    28     1     2
 -3.3617178766242018E-03 a       678     0    28     1     3
 -3.4308750909273975E-02 a       679     0    28     1     4
  2.2104814230714795E-02 a       680     0    28     1     5
  7.1690493472920488E-02 a       681     0    28     1     6
 -6.8935866947232513E-02 a       682     0    28     1     7
  1.0281469954582149E-01 a       683     0    28     1     8
  1.7048565087539463E-01 a       684     0    28     1     9
 -2.0137066668546966E-01 a       685     0    28     1    10
 -7.9679042254666210E-02 a       686     0    28     1    11
 -2.9884576097394561E-02 a       687     0    28     1    12
 -3.6020075132919591E-02 a       688     0    28     1    13
 -9.1455732429527398E-02 a       689     0    28     1    14
 -1.6543237997285541E-02 a       690     0    28     1    15
  9.5553608085489378E-02 a       691     0    28     1    16
 -5.6365320479090271E-02 a       692     0    28     1    17
  1.2795920979678843E-01 a       693     0    28     1    18
 -1.6436056645315431E-01 a       694     0    28     1    19
 -1.0822350391607095E-02 a       695     0    28     1    20
 -4.6808499111920573E-02 a       696     0    28     1    21
 -6.0342288684305023E-02 a       697     0    28     1    22
 -5.4515138879351409E-02 a       698     0    28     1    23
  2.0074975950550761E-02 a       699     0    28     1    24
 -1.4118991528839958E-01 a       700     0    28     1    25
 -1.0797834448153570E-01 a       701     0    29     1     1
 -1.5148061650521472E-01 a       702     0    29     1     2
  1.0088736526880203E-01 a       703     0    29     1     3
 -1.0409553135917655E-01 a       704     0    29     1     4
  9.8660060418840928E-02 a       705     0    29     1     5
  7.6301919687471256E-03 a       706     0    29     1     6
 -9.6792368221936070E-02 a       707     0    29     1     7
  6.6213624200389509E-02 a       708     0    29     1     8
  2.6282866842385243E-02 a       709     0    29     1     9
  4.4680565661991889E-01 a       710     0    29     1    10
 -1.5501572826140592E-01 a       711     0    29     1    11
  2.4006437402230865E-01 a       712     0    29     1    12
 -3.1169187868351544E-01 a       713     0    29     1    13
  2.8739502071080253E-03 a       714     0    29     1    14
  1.0693915087813421E-01 a       715     0    29     1    15
  1.1616768758759839E-01 a       716     0    29     1    16
  1.0669155377442043E-01 a       717     0    29     1    17
  5.1833644272459541E-03 a       718     0    29     1    18
  9.4582592054623396E-02 a       719     0    29     1    19
  3.9952981639845467E-02 a       720     0    29     1    20
  1.1039052531214433E-01 a       721     0    29     1    21
  4.2085307038413532E-02 a       722     0    29     1    22
  1.9558873026378248E-01 a       723     0    29     1    23
 -2.9681914193909132E-02 a       724     0    29     1    24
 -8.0712163344867763E-02 a       725     0    29     1    25
  4.7958270970303217E-02 a       726     0    30     1     1
  1.0499868565677176E-01 a       727     0    30     1     2
  1.0226099703226316E-02 a       728     0    30     1     3
  5.4904098326147274E-02 a       729     0    30     1     4
 -9.2307510977376536E-03 a       730     0    30     1     5
 -1.9441930013732620E-01 a       731     0    30     1     6
  6.7020335464061428E-02 a       732     0    30     1     7
  3.2563058184419021E-02 a       733     0    30     1     8
  1.4905670907945312E-02 a       734     0    30     1     9
 -1.8773221689550798E-01 a       735     0    30     1    10
  1.2112129762164456E-01 a       736     0    30     1    11
 -1.2025636248383703E-02 a       737     0    30     1    12
  2.1259526184181357E-01 a       738     0    30     1    13
  4.5878387606645032E-02 a       739     0    30     1    14
 -9.6509502171801279E-02 a       740     0    30     1    15
 -8.0763068782732608E-02 a       741     0    30     1    16
 -1.7435616058053260E-01 a       742     0    30     1    17
  2.4904939556546553E-02 a       743     0    30     1    18
 -1.5361691952596529E-01 a       744     0    30     1    19
 -3.8992824785824734E-02 a       745     0    30     1    20
 -6.8731588351879425E-02 a       746     0    30     1    21
  7.6728314909005918E-02 a       747     0    30     1    22
 -1.0629651347520418E-01 a       748     0    30     1    23
 -5.4504073264362463E-02 a       749     0    30     1    24
  2.1230670032273184E-02 a       750     0    30     1    25
 -3.1339167427222724E-02 a       751     0    31     1     1
 -1.0625227799414987E-01 a       752     0    31     1     2
  1.3087159169253301E-01 a       753     0    31     1     3
 -2.2122238903229058E-01 a       754     0    31     1     4
  8.3908597708106769E-02 a       755     0    31     1     5
  1.4887343175910636E-01 a       756     0    31     1     6
 -1.1537330204591413E-01 a       757     0    31     1     7
 -3.9548896594875940E-02 a       758     0    31     1     8
  1.2788994599304848E-01 a       759     0    31     1     9
  1.6839899671404290E-01 a       760     0    31     1    10
  1.9407093424417106E-02 a       761     0    31     1    11
  6.2589767964108881E-02 a       762     0    31     1    12
 -2.9826224940759326E-02 a       763     0    31     1    13
 -1.0051377925431580E-01 a       764     0    31     1    14
  8.0358686301056637E-03 a       765     0    31     1    15
  5.1636024401429448E-02 a       766     0    31     1    16
  1.8848655613726997E-01 a       767     0    31     1    17
 -3.6120545732663760E-02 a       768     0    31     1    18
  8.2857336653228447E-02 a       769     0    31     1    19
  1.5409832762880854E-01 a       770     0    31     1    20
  6.7967459357688401E-02 a       771     0    31     1    21
 -1.8665148321449587E-01 a       772     0    31     1    22
  1.2927680170020892E-01 a       773     0    31     1    23
  5.5782576009158071E-02 a       774     0    31     1    24
  3.1714074383746467E-02 a       775     0    31     1    25
  5.8368299577098076E-02 a       776     0    32     1     1
 -8.6363794399476140E-02 a       777     0    32     1     2
 -5.1059672189616070E-03 a       778     0    32     1     3
  9.9676023770572594E-02 a       779     0    32     1     4
 -1.9282281652150432E-03 a       780     0    32     1     5
 -1.0346183725700707E-01 a       781     0    32     1     6
  1.5370549227421806E-01 a       782     0    32     1     7
  2.2199876107402861E-02 a       783     0    32     1     8
 -6.7342218572090468E-02 a       784     0    32     1     9
  4.3972104932095092E-03 a       785     0    32     1    10
  1.6199600139009065E-01 a       786     0    32     1    11
  1.8762568125920576E-02 a       787     0    32     1    12
  2.4803005677914797E-01 a       788     0    32     1    13
  1.1303900546849323E-01 a       789     0    32     1    14
  2.6031853485747294E-02 a       790     0    32     1    15
 -1.8312896670998818E-01 a       791     0    32     1    16
 -8.6348943182346635E-02 a       792     0    32     1    17
 -8.0039710249286605E-02 a       793     0    32     1    18
 -1.2532621386140008E-01 a       794     0    32     1    19
 -5.3861848140582896E-02 a       795     0    32     1    20
 -1.3299041780943505E-01 a       796     0    32     1    21
  7.3087131387735441E-02 a       797     0    32     1    22
 -1.3679225485183280E-01 a       798     0    32     1    23
 -8.5266955714123044E-02 a       799     0    32     1    24
  3.1420312084953578E-02 a       800     0    32     1    25
  5.7229488595410202E-02 a       801     0    33     1     1
  2.6074633340636418E-02 a       802     0    33     1     2
 -2.6307337210800943E-02 a       803     0    33     1     3
 -3.0783052049842279E-03 a       804     0    33     1     4
 -4.0723306534003877E-02 a       805     0    33     1     5
 -2.1731290178241873E-02 a       806     0    33     1     6
  6.2756437330205112E-02 a       807     0    33     1     7
 -7.5968986808949091E-02 a       808     0    33     1     8
  2.0537471370781799E-02 a       809     0    33     1     9
 -1.7179241311657406E-01 a       810     0    33     1    10
  5.5430706016070815E-02 a       811     0    33     1    11
 -1.2470605900185137E-01 a       812     0    33     1    12
 -9.8287043046849914E-03 a       813     0    33     1    13
 -1.8525078920685483E-02 a       814     0    33     1    14
 -8.8167397157460810E-03 a       815     0    33     1    15
 -2.0757491113045208E-02 a       816     0    33     1    16
 -2.0249803209890414E-02 a       817     0    33     1    17
 -4.5275671033601132E-02 a       818     0    33     1    18
 -3.4408310555159007E-02 a       819     0    33     1    19
 -4.7197711070635865E-03 a       820     0    33     1    20
  2.3804175438854724E-02 a       821     0    33     1    21
 -3.2086810286356272E-02 a       822     0    33     1    22
  2.7362275888693565E-02 a       823     0    33     1    23
  5.1015909051905145E-02 a       824     0    33     1    24
  1.2767878700242091E-01 a       825     0    33     1    25
 -1.6652836053870513E-02 a       826     0    34     1     1
 -1.6377071539695025E-02 a       827     0    34     1     2
 -6.2651867290708360E-02 a       828     0    34     1     3
  3.5896626894332657E-02 a       829     0    34     1     4
 -4.4780221591975568E-02 a       830     0    34     1     5
  6.1073676234036638E-02 a       831     0    34     1     6
  1.1036248624432438E-02 a       832     0    34     1     7
  1.2249135723802275E-02 a       833     0    34     1     8
  4.5402515686049031E-03 a       834     0    34     1     9
  5.1081816005825391E-02 a       835     0    34     1    10
 -9.0923329896537119E-02 a       836     0    34     1    11
  4.1854061450943489E-02 a       837     0    34     1    12
 -9.5549437800369633E-02 a       838     0    34     1    13
  1.7711772887639560E-03 a       839     0    34     1    14
  8.0573458839796261E-02 a       840     0    34     1    15
  1.1118227511123919E-02 a       841     0    34     1    16
  7.6518525716236629E-02 a       842     0    34     1    17
 -5.0422962346887527E-02 a       843     0    34     1    18
  2.4691852550983780E-02 a       844     0    34     1    19
 -2.3096266072884946E-03 a       845     0    34     1    20
 -1.7278078479924904E-02 a       846     0    34     1    21
 -5.3033880081424623E-02 a       847     0    34     1    22
 -6.6401744426312290E-03 a       848     0    34     1    23
  3.6913499558459066E-02 a       849     0    34     1    24
 -1.7572661692121569E-01 a       850     0    34     1    25
  1.7032594631326142E-02 a       851     0    35     1     1
  6.4929836222389986E-02 a       852     0    35     1     2
 -7.2131435317205714E-02 a       853     0    35     1     3
  1.5909975020852292E-02 a       854     0    35     1     4
 -3.8424803376178256E-02 a       855     0    35     1     5
 -1.0975436372500832E-01 a       856     0    35     1     6
  8.5230986164933922E-02 a       857     0    35     1     7
  3.6387941852617074E-02 a       858     0    35     1     8
 -2.3075040750768278E-01 a       859     0    35     1     9
 -6.6851267688690947E-03 a       860     0    35     1    10
  4.8707718722727864E-03 a       861     0    35     1    11
  4.3810086024436180E-02 a       862     0    35     1    12
  2.2040303469519462E-02 a       863     0    35     1    13
  3.3790229225041823E-02 a       864     0    35     1    14
  1.6373929356475195E-01 a       865     0    35     1    15
  5.4899405073560226E-02 a       866     0    35     1    16
 -6.2844931669069931E-02 a       867     0    35     1    17
 -1.0598967193490241E-01 a       868     0    35     1    18
 -9.3557096648675994E-02 a       869     0    35     1    19
 -8.2613641775830082E-02 a       870     0    35     1    20
 -3.6058476565092784E-02 a       871     0    35     1    21
  9.2117170696128542E-02 a       872     0    35     1    22
 -1.5815502503078471E-01 a       873     0    35     1    23
  1.6877735359962570E-03 a       874     0    35     1    24
  4.0276356158803664E-02 a       875     0    35     1    25
 -4.5038765188779402E-03 a       876     0    36     1     1
  9.8488338690472674E-02 a       877     0    36     1     2
 -8.6876674002316731E-02 a       878     0    36     1     3
  9.4408384833738090E-02 a       879     0    36     1     4
  4.7403857727109366E-03 a       880     0    36     1     5
  7.5403015141391305E-02 a       881     0    36     1     6
 -7.1849118305138279E-02 a       882     0    36     1     7
  1.2377524193596631E-02 a       883     0    36     1     8
  7.8493360677587762E-02 a       884     0    36     1     9
 -2.5851629420072471E-02 a       885     0    36     1    10
 -1.5105547214403525E-01 a       886     0    36     1    11
 -1.4107623731149290E-03 a       887     0    36     1    12
 -1.0511887961262842E-01 a       888     0    36     1    13
 -4.4353993402630937E-02 a       889     0    36     1    14
 -1.7817521923699525E-01 a       890     0    36     1    15
  6.5618779402079330E-02 a       891     0    36     1    16
  6.3316925991633383E-02 a       892     0    36     1    17
  5.0892212948661322E-02 a       893     0    36     1    18
  1.5602407117829542E-01 a       894     0    36     1    19
  4.1620555893716930E-02 a       895     0    36     1    20
  9.0456089030049841E-02 a       896     0    36     1    21
 -9.9026387126521342E-02 a       897     0    36     1    22
  5.1519017673884691E-02 a       898     0    36     1    23
  5.2698312630798411E-02 a       899     0    36     1    24
 -1.4387257333946837E-01 a       900     0    36     1    25
  3.3384152550763990E-02 a       901     0    37     1     1
  8.0565390161996472E-02 a       902     0    37     1     2
 -1.7533401579317265E-02 a       903     0    37     1     3
 -4.3428513203279673E-03 a       904     0    37     1     4
  1.0473904482938955E-01 a       905     0    37     1     5
  2.5454709007360091E-02 a       906     0    37     1     6
 -9.1313099465570008E-02 a       907     0    37     1     7
  4.0968355065661516E-02 a       908     0    37     1     8
 -2.5286031701464901E-02 a       909     0    37     1     9
  1.5549133173685339E-01 a       910     0    37     1    10
 -6.4050839407604740E-02 a       911     0    37     1    11
  1.1940808553467534E-01 a       912     0    37     1    12
 -1.2409412902750334E-03 a       913     0    37     1    13
 -9.5830656556880264E-03 a       914     0    37     1    14
  1.0057789766923608E-01 a       915     0    37     1    15
  4.0830422241172677E-02 a       916     0    37     1    16
  4.6352001243087131E-02 a       917     0    37     1    17
 -7.2297080232691352E-02 a       918     0    37     1    18
  8.0802262626162066E-02 a       919     0    37     1    19
  3.9143777372292819E-02 a       920     0    37     1    20
 -2.2994794618132613E-02 a       921     0    37     1    21
 -3.0957210720776337E-02 a       922     0    37     1    22
 -1.3972038859379562E-01 a       923     0    37     1    23
 -4.1720140674431125E-02 a       924     0    37     1    24
 -1.1928927598346972E-01 a       925     0    37     1    25
  6.9427676605435104E-03 a       926     0    38     1     1
 -5.0156915926604539E-02 a       927     0    38     1     2
  3.0952914092340533E-02 a       928     0    38     1     3
 -1.7627475822479508E-02 a       929     0    38     1     4
  1.1945446531483491E-03 a       930     0    38     1     5
 -4.4935682805467045E-02 a       931     0    38     1     6
  2.2567542251500539E-02 a       932     0    38     1     7
  1.7754425541157214E-02 a       933     0    38     1     8
 -1.3464897697331442E-03 a       934     0    38     1     9
 -8.0210532394924441E-02 a       935     0    38     1    10
  8.0430400509168373E-02 a       936     0    38     1    11
 -2.6002707333756262E-02 a       937     0    38     1    12
  1.9785599719272737E-01 a       938     0    38     1    13
 -1.5030235849117442E-02 a       939     0    38     1    14
 -8.7643440508176088E-02 a       940     0    38     1    15
 -2.7376893841059319E-02 a       941     0    38     1    16
 -5.4030440111680636E-02 a       942     0    38     1    17
  5.9669745408584107E-02 a       943     0    38     1    18
 -1.7544803795938546E-01 a       944     0    38     1    19
 -8.8504106218675552E-03 a       945     0    38     1    20
 -5.0997809142434382E-02 a       946     0    38     1    21
  5.8613949936553618E-02 a       947     0    38     1    22
 -6.5923305566623408E-03 a       948     0    38     1    23
  3.4951241390745024E-03 a       949     0    38     1    24
  2.7644965560494093E-02 a       950     0    38     1    25
 -8.0509951737100498E-03 a       951     0    39     1     1
 -8.4092442636583109E-02 a       952     0    39     1     2
  1.5288946004754049E-02 a       953     0    39     1     3
 -3.4798522297994489E-02 a       954     0    39     1     4
  2.1578839828334907E-02 a       955     0    39     1     5
  6.9245961024412647E-02 a       956     0    39     1     6
 -5.8473888236075064E-02 a       957     0    39     1     7
  2.5822778412965118E-02 a       958     0    39     1     8
  9.3273621738269280E-02 a       959     0    39     1     9
  5.2578136772297508E-02 a       960     0    39     1    10
 -4.1850354474256404E-02 a       961     0    39     1    11
 -3.0633020168049533E-02 a       962     0    39     1    12
 -1.0797164862003263E-01 a       963     0    39     1    13
  5.0436576371951794E-03 a       964     0    39     1    14
 -2.7708202031189382E-02 a       965     0    39     1    15
 -1.3807814892125643E-03 a       966     0    39     1    16
  4.4341355813389292E-02 a       967     0    39     1    17
  2.2408099751378276E-02 a       968     0    39     1    18
  1.0955659711651568E-01 a       969     0    39     1    19
  3.6663317910269291E-02 a       970     0    39     1    20
  1.0238483532924608E-01 a       971     0    39     1    21
 -5.7843860741064408E-02 a       972     0    39     1    22
  1.3849509105925153E-01 a       973     0    39     1    23
 -1.3394824259591728E-02 a       974     0    39     1    24
  5.8925690849299349E-02 a       975     0    39     1    25
 -3.8278353293489269E-02 a       976     0    40     1     1
 -4.0024774062716366E-02 a       977     0    40     1     2
  7.1118879238975072E-02 a       978     0    40     1     3
 -8.5233267731519596E-02 a       979     0    40     1     4
 -4.0274350302182321E-02 a       980     0    40     1     5
 -1.6569067581245436E-01 a       981     0    40     1     6
  5.5054026328591778E-02 a       982     0    40     1     7
  6.9669721179508549E-03 a       983     0    40     1     8
 -2.4192292136511608E-02 a       984     0    40     1     9
 -6.7977940519924174E-02 a       985     0    40     1    10
  1.0662508294197126E-01 a       986     0    40     1    11
 -8.9063863390249753E-03 a       987     0    40     1    12
  8.1371908091332712E-02 a       988     0    40     1    13
  1.1368037283942306E-02 a       989     0    40     1    14
  2.3061015293067968E-01 a       990     0    40     1    15
  5.2263872323590416E-03 a       991     0    40     1    16
 -6.6437259459957876E-02 a       992     0    40     1    17
 -1.4900284635587194E-02 a       993     0    40     1    18
 -2.0276869190841951E-01 a       994     0    40     1    19
 -2.2772026106912150E-02 a       995     0    40     1    20
 -6.1445431138610528E-02 a       996     0    40     1    21
  1.3513114257715808E-01 a       997     0    40     1    22
 -4.8739621317105235E-02 a       998     0    40     1    23
  1.5328403896360436E-03 a       999     0    40     1    24
  3.8161265021818977E-02 a      1000     0    40     1    25
 -9.0344106008962907E-02 a      1001     0    41     1     1
 -1.5337702316941398E-01 a      1002     0    41     1     2
 -1.2929004668659946E-01 a      1003     0    41     1     3
  3.9497299050558876E-01 a      1004     0    41     1     4
  2.3902273897213397E-01 a      1005     0    41     1     5
 -1.5580637193086838E-01 a      1006     0    41     1     6
  1.0276399986135357E-03 a      1007     0    41     1     7
  1.0665369304383394E-02 a      1008     0    41     1     8
  6.8212227926648117E-01 a      1009     0    41     1     9
 -1.0619973673879629E-01 a      1010     0    41     1    10
  1.2063388536605442E-01 a      1011     0    41     1    11
  1.9357623170668806E-01 a      1012     0    41     1    12
  6.0142470395076128E-02 a      1013     0    41     1    13
  2.2040741484701151E-01 a      1014     0    41     1    14
 -3.3426916647008181E-01 a      1015     0    41     1    15
  7.3611299840496303E-01 a      1016     0    41     1    16
 -7.1968218646863091E-02 a      1017     0    41     1    17
  5.2499823314866112E-01 a      1018     0    41     1    18
 -3.0610846386931467E-01 a      1019     0    41     1    19
  6.0530975918526619E-01 a      1020     0    41     1    20
  4.1037606783506486E-02 a      1021     0    41     1    21
 -1.0135554619032280E-01 a      1022     0    41     1    22
  2.5838613060139004E-01 a      1023     0    41     1    23
  2.9440211948345868E-01 a      1024     0    41     1    24
  1.3701432370239239E-01 a      1025     0    41     1    25
  1.7138066371862537E-01 a      1026     0    42     1     1
 -1.0066629732098933E+00 a      1027     0    42     1     2
 -3.0891714063042969E-01 a      1028     0    42     1     3
 -7.7247306922442499E-02 a      1029     0    42     1     4
 -1.9865189582379122E-01 a      1030     0    42     1     5
  5.0203722955661167E-01 a      1031     0    42     1     6
 -2.3656644629162160E-01 a      1032     0    42     1     7
 -1.7261128797823150E-01 a      1033     0    42     1     8
 -5.7661105322499073E-01 a      1034     0    42     1     9
 -6.8198864577260598E-01 a      1035     0    42     1    10
 -3.3069226561273196E-01 a      1036     0    42     1    11
 -1.2488280733934504E-01 a      1037     0    42     1    12
 -4.2777872330634198E-01 a      1038     0    42     1    13
  5.7055266674103843E-02 a      1039     0    42     1    14
  4.5540684767336005E-02 a      1040     0    42     1    15
 -9.9794087510903895E-01 a      1041     0    42     1    16
  2.1739583708353180E-01 a      1042     0    42     1    17
 -6.5211626131877642E-01 a      1043     0    42     1    18
  2.7458345829677866E-01 a      1044     0    42     1    19
 -5.9608612190946264E-01 a      1045     0    42     1    20
 -5.8345696071140440E-01 a      1046     0    42     1    21
  7.5897338014963078E-01 a      1047     0    42     1    22
  5.0232948959740578E-02 a      1048     0    42     1    23
 -4.0369447570877037E-01 a      1049     0    42     1    24
  3.3329810263747478E-01 a      1050     0    42     1    25
 -1.2282618985313459E-01 a      1051     0    43     1     1
  3.0329896530748890E-01 a      1052     0    43     1     2
  1.9750243899420900E-01 a      1053     0    43     1     3
  1.0354410746262932E-01 a      1054     0    43     1     4
  1.0317302750120977E-01 a      1055     0    43     1     5
 -6.3134475511311891E-02 a      1056     0    43     1     6
 -1.1421888981972904E-01 a      1057     0    43     1     7
  7.6526064465783653E-02 a      1058     0    43     1     8
  3.6745418850447503E-01 a      1059     0    43     1     9
 -6.0080597260091996E-02 a      1060     0    43     1    10
  1.2442664795986419E-01 a      1061     0    43     1    11
  4.1308407074803655E-01 a      1062     0    43     1    12
 -4.8162164341593337E-02 a      1063     0    43     1    13
  9.6779015191257950E-02 a      1064     0    43     1    14
  3.5192989012308882E-03 a      1065     0    43     1    15
  1.0461403566319355E-01 a      1066     0    43     1    16
  3.1140357627904913E-01 a      1067     0    43     1    17
 -4.4142985498902415E-02 a      1068     0    43     1    18
 -2.4875629201205635E-01 a      1069     0    43     1    19
 -3.3683566090888205E-02 a      1070     0    43     1    20
  3.6199904347253098E-01 a      1071     0    43     1    21
 -2.2623873121570359E-01 a      1072     0    43     1    22
 -3.1915850803438850E-01 a      1073     0    43     1    23
 -6.6696230207638901E-02 a      1074     0    43     1    24
 -9.4657562054584171E-02 a      1075     0    43     1    25
  1.3556950759201729E-02 a      1076     0    44     1     1
 -3.8745020564096427E-02 a      1077     0    44     1     2
  3.1121468988640877E-02 a      1078     0    44     1     3
 -2.1672014298829621E-02 a      1079     0    44     1     4
 -8.1111717091627178E-02 a      1080     0    44     1     5
 -7.4351247199297449E-02 a      1081     0    44     1     6
  1.2827421213631115E-02 a      1082     0    44     1     7
 -1.3728139821409186E-03 a      1083     0    44     1     8
  5.1874236780145170E-03 a      1084     0    44     1     9
 -1.9717554487322567E-01 a      1085     0    44     1    10
 -9.1182480319419223E-02 a      1086     0    44     1    11
  3.7508011972537302E-02 a      1087     0    44     1    12
 -9.3525785092696920E-02 a      1088     0    44     1    13
  8.4511848241901819E-02 a      1089     0    44     1    14
 -3.5139868529643977E-03 a      1090     0    44     1    15
 -2.7110137641823401E-01 a      1091     0    44     1    16
 -1.7822409155868021E-01 a      1092     0    44     1    17
 -2.9460808243449915E-01 a      1093     0    44     1    18
  8.2248225763181360E-02 a      1094     0    44     1    19
 -1.5004702683323007E-01 a      1095     0    44     1    20
 -1.4190075852479012E-01 a      1096     0    44     1    21
 -2.1130091062959094E-01 a      1097     0    44     1    22
 -4.8715233393540308E-02 a      1098     0    44     1    23
 -9.3203097940087673E-02 a      1099     0    44     1    24
  1.1899812636548369E-01 a      1100     0    44     1    25
  6.1051942844367307E-03 a      1101     0    45     1     1
  1.1928867404456335E-01 a      1102     0    45     1     2
  1.3089636093633830E-01 a      1103     0    45     1     3
 -6.9418775528625340E-02 a      1104     0    45     1     4
  1.6666440264484889E-01 a      1105     0    45     1     5
 -3.1839559300831055E-01 a      1106     0    45     1     6
  6.0170419703831683E-02 a      1107     0    45     1     7
  8.2891479930081349E-02 a      1108     0    45     1     8
 -1.7503563193964941E-02 a      1109     0    45     1     9
  1.8910420141617834E-01 a      1110     0    45     1    10
 -1.8122885432908839E-02 a      1111     0    45     1    11
 -3.6682216655274408E-02 a      1112     0    45     1    12
  3.1184580793132338E-01 a      1113     0    45     1    13
  1.2348787122165068E-01 a      1114     0    45     1    14
 -8.3445626262557571E-03 a      1115     0    45     1    15
  2.7532416990767428E-01 a      1116     0    45     1    16
 -2.1900784512505592E-01 a      1117     0    45     1    17
  2.1360428641892126E-01 a      1118     0    45     1    18
  1.3715051852714857E-01 a      1119     0    45     1    19
 -7.9361510371250804E-02 a      1120     0    45     1    20
  1.0816730111632303E-01 a      1121     0    45     1    21
 -5.5654511928478678E-01 a      1122     0    45     1    22
  8.9570262377558357E-02 a      1123     0    45     1    23
  1.5950521968645055E-02 a      1124     0    45     1    24
 -1.4798042073452830E-01 a      1125     0    45     1    25
 -2.0197333414881966E-01 a      1126     0    46     1     1
 -1.1534860451441505E-01 a      1127     0    46     1     2
 -2.7163912595723858E-02 a      1128     0    46     1     3
 -1.2992346052064993E-01 a      1129     0    46     1     4
  2.0033079920249960E-01 a      1130     0    46     1     5
 -2.0354649589687641E-02 a      1131     0    46     1     6
 -2.7169301613552882E-02 a      1132     0    46     1     7
  1.8482352292072055E-03 a      1133     0    46     1     8
 -8.3784506216989268E-02 a      1134     0    46     1     9
 -1.8032095370778112E-01 a      1135     0    46     1    10
 -9.6708717627544058E-02 a      1136     0    46     1    11
 -7.0165448774936551E-02 a      1137     0    46     1    12
  1.9150670136796288E-01 a      1138     0    46     1    13
 -9.6869977365474327E-02 a      1139     0    46     1    14
  2.3500003585377477E-01 a      1140     0    46     1    15
 -4.3338838934360108E-02 a      1141     0    46     1    16
 -2.1944263522181770E-01 a      1142     0    46     1    17
  8.0026064666604238E-02 a      1143     0    46     1    18
  5.8156377786080038E-03 a      1144     0    46     1    19
 -1.1013121217915765E-01 a      1145     0    46     1    20
 -3.3259882267508756E-02 a      1146     0    46     1    21
  4.7037762693697499E-02 a      1147     0    46     1    22
 -1.0073428825908187E-01 a      1148     0    46     1    23
  1.0577921758010052E-01 a      1149     0    46     1    24
 -3.6454861963958390E-02 a      1150     0    46     1    25
 -1.7173517651789932E-01 a      1151     0    47     1     1
 -1.6853267829068053E-01 a      1152     0    47     1     2
  4.8187733337614988E-02 a      1153     0    47     1     3
 -6.6115580834865503E-02 a      1154     0    47     1     4
  4.9570632688190862E-02 a      1155     0    47     1     5
 -9.7593545187798461E-02 a      1156     0    47     1     6
 -5.2245336219124222E-02 a      1157     0    47     1     7
 -1.7516895860267737E-01 a      1158     0    47     1     8
 -1.1645800935679573E-01 a      1159     0    47     1     9
  6.1776386263404558E-02 a      1160     0    47     1    10
 -1.0183215600148651E-01 a      1161     0    47     1    11
 -2.2630647142266706E-02 a      1162     0    47     1    12
  1.6599957523443079E-02 a      1163     0    47     1    13
  3.4416974866196381E-02 a      1164     0    47     1    14
  7.1691698323504041E-02 a      1165     0    47     1    15
  3.2495662945676976E-02 a      1166     0    47     1    16
 -6.4433799625620305E-02 a      1167     0    47     1    17
  3.5409128340344892E-01 a      1168     0    47     1    18
  2.1213386892167790E-01 a      1169     0    47     1    19
  1.0206437845663666E-02 a      1170     0    47     1    20
  1.4125426767030583E-01 a      1171     0    47     1    21
 -3.2813568932635692E-02 a      1172     0    47     1    22
  1.2113527883129219E-01 a      1173     0    47     1    23
 -1.5304231235636338E-02 a      1174     0    47     1    24
 -2.8888879758371663E-02 a      1175     0    47     1    25
  6.1144944941507247E-02 a      1176     0    48     1     1
 -1.4698846890067294E-03 a      1177     0    48     1     2
  1.3911260787997676E-01 a      1178     0    48     1     3
  1.6943159653909257E-01 a      1179     0    48     1     4
  7.5237379755742545E-02 a      1180     0    48     1     5
 -7.4680109512963139E-02 a      1181     0    48     1     6
  7.6060122936329452E-02 a      1182     0    48     1     7
 -1.8472386261743340E-01 a      1183     0    48     1     8
 -1.5048287467688759E-01 a      1184     0    48     1     9
  3.0424381549120213E-03 a      1185     0    48     1    10
  1.6389606597647619E-01 a      1186     0    48     1    11
  1.6453313650927148E-01 a      1187     0    48     1    12
 -1.0935776054437119E-01 a      1188     0    48     1    13
 -2.6523663754045867E-02 a      1189     0    48     1    14
 -6.0299537142739348E-02 a      1190     0    48     1    15
  8.9247256125526905E-02 a      1191     0    48     1    16
  1.3170753705403024E-01 a      1192     0    48     1    17
 -2.0783908984166150E-01 a      1193     0    48     1    18
 -8.3438365204745929E-02 a      1194     0    48     1    19
  8.4390104535163171E-02 a      1195     0    48     1    20
  3.9426409548876988E-02 a      1196     0    48     1    21
  2.7043708326380044E-02 a      1197     0    48     1    22
 -2.6572405828473428E-03 a      1198     0    48     1    23
 -7.6697506306157306E-02 a      1199     0    48     1    24
  1.0255163944579002E-01 a      1200     0    48     1    25
 -4.8127647801062531E-02 a      1201     0    49     1     1
 -1.5750949151386209E-01 a      1202     0    49     1     2
 -1.0033839176165464E-01 a      1203     0    49     1     3
  1.3335302647282585E-02 a      1204     0    49     1     4
 -5.2176945345695962E-03 a      1205     0    49     1     5
  1.3430973177714156E-03 a      1206     0    49     1     6
  6.1272719442836937E-02 a      1207     0    49     1     7
 -4.9381067464318168E-02 a      1208     0    49     1     8
  9.1340666849968638E-02 a      1209     0    49     1     9
 -1.4696190932116698E-01 a      1210     0    49     1    10
 -8.6738635192393873E-02 a      1211     0    49     1    11
 -3.2038191570978085E-02 a      1212     0    49     1    12
  6.0255046124158489E-02 a      1213     0    49     1    13
 -3.0617912963076543E-02 a      1214     0    49     1    14
 -2.2224035702883110E-01 a      1215     0    49     1    15
 -1.3961571244075542E-02 a      1216     0    49     1    16
 -8.1043807718085864E-02 a      1217     0    49     1    17
 -2.8265133424207580E-02 a      1218     0    49     1    18
  4.4752569483622419E-02 a      1219     0    49     1    19
  5.9272817239454080E-02 a      1220     0    49     1    20
  3.1583029370354336E-02 a      1221     0    49     1    21
  1.2113815202738749E-01 a      1222     0    49     1    22
  1.0063780391054065E-01 a      1223     0    49     1    23
  1.3223770485527625E-01 a      1224     0    49     1    24
  7.3363958138376900E-02 a      1225     0    49     1    25
 -3.3290160562351345E-02 a      1226     0    50     1     1
 -2.2067651730357532E-02 a      1227     0    50     1     2
  6.0186082299579863E-02 a      1228     0    50     1     3
  1.4488807814441293E-01 a      1229     0    50     1     4
 -3.9531433864194547E-02 a      1230     0    50     1     5
  5.4178046660661623E-02 a      1231     0    50     1     6
 -7.6419350053144302E-03 a      1232     0    50     1     7
 -1.2796253877795730E-01 a      1233     0    50     1     8
 -1.1585512938639705E-01 a      1234     0    50     1     9
  1.2527178057214852E-01 a      1235     0    50     1    10
 -5.2305180519364093E-02 a      1236     0    50     1    11
 -4.2498113435202177E-02 a      1237     0    50     1    12
  6.1267042941920959E-02 a      1238     0    50     1    13
  1.8809721337559634E-02 a      1239     0    50     1    14
 -9.1794841731887428E-02 a      1240     0    50     1    15
 -2.9087557130528126E-02 a      1241     0    50     1    16
  6.7471338536501474E-02 a      1242     0    50     1    17
  1.3820105251462803E-01 a      1243     0    50     1    18
 -8.9324588007907615E-02 a      1244     0    50     1    19
  5.8757643449276982E-02 a      1245     0    50     1    20
 -1.3130210284465413E-01 a      1246     0    50     1    21
 -1.7524656588454113E-01 a      1247     0    50     1    22
  8.0370538885240511E-02 a      1248     0    50     1    23
 -9.3804986752855604E-02 a      1249     0    50     1    24
  5.9762305577014792E-02 a      1250     0    50     1    25
 -2.5003048485541612E-01 a      1251     0    51     1     1
  9.0967697981303863E-01 a      1252     0    51     1     2
  4.4319273919406332E-01 a      1253     0    51     1     3
  8.9198033334269747E-02 a      1254     0    51     1     4
  4.9365968525157865E-02 a      1255     0    51     1     5
 -3.8779593477717578E-01 a      1256     0    51     1     6
 -4.8128395522853440E-01 a      1257     0    51     1     7
  3.5664009462565885E-02 a      1258     0    51     1     8
 -5.8406875977642403E-01 a      1259     0    51     1     9
  4.1490614114626817E-01 a      1260     0    51     1    10
  3.5096870927455626E-01 a      1261     0    51     1    11
 -8.6190256428006248E-02 a      1262     0    51     1    12
  5.4459318756627118E-03 a      1263     0    51     1    13
  4.9234071476240884E-02 a      1264     0    51     1    14
  3.0836101734766769E-01 a      1265     0    51     1    15
  1.4607405486328137E-01 a      1266     0    51     1    16
 -2.3848986675422679E-01 a      1267     0    51     1    17
  1.5348826737221868E-01 a      1268     0    51     1    18
  9.9269540924183192E-02 a      1269     0    51     1    19
 -5.5481855005420810E-01 a      1270     0    51     1    20
  3.7927219224141867E-01 a      1271     0    51     1    21
  1.3482420182193472E-01 a      1272     0    51     1    22
  2.7000525847665924E-01 a      1273     0    51     1    23
 -5.9084869799717152E-02 a      1274     0    51     1    24
 -3.8338473108954985E-01 a      1275     0    51     1    25
 -4.3755314977552245E-01 a      1276     0    52     1     1
 -6.0162843759493634E-01 a      1277     0    52     1     2
 -9.2825137539555280E-01 a      1278     0    52     1     3
 -2.0893347992502151E-01 a      1279     0    52     1     4
 -5.8764852568938530E-01 a      1280     0    52     1     5
 -1.6704037380816833E-01 a      1281     0    52     1     6
 -3.0538336666107441E-01 a      1282     0    52     1     7
 -5.7667652417342463E-01 a      1283     0    52     1     8
  6.7148036898278418E-01 a      1284     0    52     1     9
 -1.8806455952747250E-01 a      1285     0    52     1    10
 -6.9215530339554121E-01 a      1286     0    52     1    11
 -1.6174097054538601E-02 a      1287     0    52     1    12
 -1.2373900572391996E-01 a      1288     0    52     1    13
 -9.2529075055471990E-02 a      1289     0    52     1    14
  3.1371133908791995E-02 a      1290     0    52     1    15
  6.6664613605247725E-01 a      1291     0    52     1    16
  3.7966832135228501E-01 a      1292     0    52     1    17
 -8.1330072604943210E-02 a      1293     0    52     1    18
  1.5487057255279973E-01 a      1294     0    52     1    19
  3.7095812000920880E-01 a      1295     0    52     1    20
 -2.0596107261318000E-01 a      1296     0    52     1    21
 -5.2224465000317533E-01 a      1297     0    52     1    22
 -3.4128917515849605E-01 a      1298     0    52     1    23
 -3.1484109734237492E-01 a      1299     0    52     1    24
  4.9206857903817991E-01 a      1300     0    52     1    25
  6.3603379503286053E-02 a      1301     0    53     1     1
 -3.0266457790526508E-01 a      1302     0    53     1     2
 -1.2426761194724725E-01 a      1303     0    53     1     3
 -3.2754280377657166E-02 a      1304     0    53     1     4
  2.1596539406245178E-02 a      1305     0    53     1     5
  3.7130437405689713E-02 a      1306     0    53     1     6
  6.3822711498873086E-02 a      1307     0    53     1     7
 -1.7720086768302952E-02 a      1308     0    53     1     8
 -2.6549141649370217E-01 a      1309     0    53     1     9
  2.7312263478936671E-01 a      1310     0    53     1    10
 -1.0251379471114869E-01 a      1311     0    53     1    11
 -1.6594648260200973E-01 a      1312     0    53     1    12
  4.4174163298895716E-02 a      1313     0    53     1    13
 -4.3028627733167069E-02 a      1314     0    53     1    14
  1.1733505258462733E-01 a      1315     0    53     1    15
  2.0887930899994796E-02 a      1316     0    53     1    16
 -2.1021226229995782E-01 a      1317     0    53     1    17
  3.0672860708914146E-01 a      1318     0    53     1    18
  1.1983859627128249E-01 a      1319     0    53     1    19
  1.6364257087939682E-01 a      1320     0    53     1    20
 -2.0794437446678346E-01 a      1321     0    53     1    21
  2.3400305389943538E-01 a      1322     0    53     1    22
  2.8247723303118188E-01 a      1323     0    53     1    23
 -3.6311997617207985E-02 a      1324     0    53     1    24
 -7.2479475045618913E-02 a      1325     0    53     1    25
 -2.3086819251032684E-01 a      1326     0    54     1     1
 -1.1475873131830079E-01 a      1327     0    54     1     2
 -1.1145847679245680E-01 a      1328     0    54     1     3
  9.9874434047950794E-02 a      1329     0    54     1     4
 -1.1339488458085298E-01 a      1330     0    54     1     5
  2.3591826476633912E-01 a      1331     0    54     1     6
  9.8624318837997840E-02 a      1332     0    54     1     7
  1.1197799160432903E-01 a      1333     0    54     1     8
  6.9079359162007067E-02 a      1334     0    54     1     9
  8.0460860109360863E-02 a      1335     0    54     1    10
  3.6908045771244687E-02 a      1336     0    54     1    11
 -2.0391710990107510E-02 a      1337     0    54     1    12
 -1.9227580053885884E-01 a      1338     0    54     1    13
  2.7943130262574077E-02 a      1339     0    54     1    14
  1.8448670415002702E-01 a      1340     0    54     1    15
  3.5801989964266523E-01 a      1341     0    54     1    16
  3.7376344527359900E-01 a      1342     0    54     1    17
 -1.5418843582533059E-01 a      1343     0    54     1    18
 -1.1618224058366424E-02 a      1344     0    54     1    19
  8.4905028790816836E-02 a      1345     0    54     1    20
  3.5271238909035496E-02 a      1346     0    54     1    21
  3.7287297236414066E-02 a      1347     0    54     1    22
  1.3066475641358413E-01 a      1348     0    54     1    23
 -4.7285901063253477E-02 a      1349     0    54     1    24
 -9.3140353468287057E-02 a      1350     0    54     1    25
  2.0574711280006658E-01 a      1351     0    55     1     1
 -3.1256953806399262E-01 a      1352     0    55     1     2
 -6.5400257181986152E-02 a      1353     0    55     1     3
  2.2540426961971990E-01 a      1354     0    55     1     4
  6.9505662089655931E-02 a      1355     0    55     1     5
  1.1684871177586048E-01 a      1356     0    55     1     6
 -2.5109024795707047E-01 a      1357     0    55     1     7
  3.7954053968531659E-01 a      1358     0    55     1     8
  1.3686394396389132E-01 a      1359     0    55     1     9
 -2.8510023794360212E-01 a      1360     0    55     1    10
  1.5553748606228565E-01 a      1361     0    55     1    11
  1.0649094913075857E-01 a      1362     0    55     1    12
 -7.2482005220066772E-02 a      1363     0    55     1    13
 -3.1051372953420658E-01 a      1364     0    55     1    14
 -2.1879495596444171E-01 a      1365     0    55     1    15
 -7.0542015307452965E-02 a      1366     0    55     1    16
  1.8687344411965706E-02 a      1367     0    55     1    17
  3.0221928887138200E-01 a      1368     0    55     1    18
 -4.4410484111069942E-01 a      1369     0    55     1    19
  3.1620501678150581E-01 a      1370     0    55     1    20
  1.7578921820004353E-02 a      1371     0    55     1    21
  9.4939592464155598E-01 a      1372     0    55     1    22
 -1.7971381802650066E-01 a      1373     0    55     1    23
  2.8013619048179222E-01 a      1374     0    55     1    24
  1.9450551546782194E-01 a      1375     0    55     1    25
  1.9193265835256448E-01 a      1376     0    56     1     1
 -6.7712132512506698E-02 a      1377     0    56     1     2
 -8.7603569372415702E-02 a      1378     0    56     1     3
  2.8857098932873138E-01 a      1379     0    56     1     4
 -4.2857029419617429E-02 a      1380     0    56     1     5
 -1.7902048631181877E-01 a      1381     0    56     1     6
 -1.4086628552858946E-01 a      1382     0    56     1     7
 -1.1313426572910923E-02 a      1383     0    56     1     8
  3.4260635179148574E-01 a      1384     0    56     1     9
 -1.3440027013284073E-01 a      1385     0    56     1    10
 -3.2259207840768606E-02 a      1386     0    56     1    11
  2.4679023290367424E-01 a      1387     0    56     1    12
  1.1990884565209778E-03 a      1388     0    56     1    13
  1.5204101165059722E-01 a      1389     0    56     1    14
 -3.0903629768935909E-01 a      1390     0    56     1    15
  9.3173368766713959E-03 a      1391     0    56     1    16
  7.2393207421470318E-02 a      1392     0    56     1    17
  1.5634167000825105E-01 a      1393     0    56     1    18
  3.0473377046297261E-02 a      1394     0    56     1    19
  7.6796493164575253E-03 a      1395     0    56     1    20
 -4.9651163952512574E-03 a      1396     0    56     1    21
  2.0241383641536692E-01 a      1397     0    56     1    22
  4.3635026133954327E-02 a      1398     0    56     1    23
 -2.0344781507331666E-01 a      1399     0    56     1    24
  1.2121488087895026E-01 a      1400     0    56     1    25
  4.1812902662165634E-02 a      1401     0    57     1     1
  9.1053582379163986E-02 a      1402     0    57     1     2
 -6.4469673177369818E-02 a      1403     0    57     1     3
  1.6036607686912804E-01 a      1404     0    57     1     4
 -4.0468640609586277E-02 a      1405     0    57     1     5
  1.6234066667423103E-01 a      1406     0    57     1     6
 -1.3046790928786209E-01 a      1407     0    57     1     7
  1.9411329739648114E-01 a      1408     0    57     1     8
  9.2025313638898487E-02 a      1409     0    57     1     9
 -7.7638243036591781E-02 a      1410     0    57     1    10
  6.5850266846713953E-02 a      1411     0    57     1    11
  2.7196287210974066E-03 a      1412     0    57     1    12
  5.0410288222417020E-02 a      1413     0    57     1    13
 -1.2712413962592515E-02 a      1414     0    57     1    14
 -9.0365146162437932E-02 a      1415     0    57     1    15
  1.7298546303244764E-02 a      1416     0    57     1    16
 -9.9866560576096650E-02 a      1417     0    57     1    17
 -4.3453146456115435E-02 a      1418     0    57     1    18
 -1.0803707587484893E-01 a      1419     0    57     1    19
 -6.3298196550367933E-02 a      1420     0    57     1    20
  8.7677192559277264E-02 a      1421     0    57     1    21
  2.2641707691231222E-01 a      1422     0    57     1    22
  1.1480571455125288E-01 a      1423     0    57     1    23
 -5.5134516888108165E-02 a      1424     0    57     1    24
  2.1601419998699833E-01 a      1425     0    57     1    25
 -3.8261627311393091E-02 a      1426     0    58     1     1
  1.0478356293544313E-02 a      1427     0    58     1     2
 -1.7129916606127546E-01 a      1428     0    58     1     3
  5.1285915403347891E-02 a      1429     0    58     1     4
  4.4432410974881952E-02 a      1430     0    58     1     5
  5.7442396880779248E-02 a      1431     0    58     1     6
 -1.6351090465036322E-01 a      1432     0    58     1     7
  6.1710305007522150E-02 a      1433     0    58     1     8
  2.1776292970864697E-01 a      1434     0    58     1     9
  3.4993160989044633E-02 a      1435     0    58     1    10
 -2.0171582390840850E-01 a      1436     0    58     1    11
 -6.1311893577153890E-03 a      1437     0    58     1    12
  8.0364502096623242E-02 a      1438     0    58     1    13
  6.1761475562799997E-02 a      1439     0    58     1    14
 -4.8939578091520344E-02 a      1440     0    58     1    15
  5.4965816178543956E-03 a      1441     0    58     1    16
 -3.9394663215949359E-02 a      1442     0    58     1    17
 -3.1260733288132982E-02 a      1443     0    58     1    18
  6.2507872703257680E-02 a      1444     0    58     1    19
 -6.2327424836632665E-02 a      1445     0    58     1    20
  1.9119652418683047E-01 a      1446     0    58     1    21
 -5.9878548797914107E-02 a      1447     0    58     1    22
  7.9290830148561114E-02 a      1448     0    58     1    23
  1.2021412804204937E-01 a      1449     0    58     1    24
 -9.8417800487973731E-02 a      1450     0    58     1    25
 -7.3313541578325189E-02 a      1451     0    59     1     1
  9.8556707422984030E-02 a      1452     0    59     1     2
  5.3003936921663157E-02 a      1453     0    59     1     3
 -6.7451429422922650E-03 a      1454     0    59     1     4
 -1.8265514358454515E-01 a      1455     0    59     1     5
 -2.2263571553359504E-01 a      1456     0    59     1     6
 -7.8659811795327397E-02 a      1457     0    59     1     7
  1.6573229850706020E-01 a      1458     0    59     1     8
  1.2108670583562364E-01 a      1459     0    59     1     9
 -9.4050704401284907E-02 a      1460     0    59     1    10
  4.2299108374981478E-02 a      1461     0    59     1    11
  1.3041992835666530E-01 a      1462     0    59     1    12
 -1.5098504793653210E-02 a      1463     0    59     1    13
  1.2426359037962276E-01 a      1464     0    59     1    14
  1.1107988274109996E-01 a      1465     0    59     1    15
  1.0167989666757395E-01 a      1466     0    59     1    16
  4.6154180982391900E-02 a      1467     0    59     1    17
  3.3670084667994132E-01 a      1468     0    59     1    18
  7.2402234505377864E-03 a      1469     0    59     1    19
 -1.3964789644754186E-01 a      1470     0    59     1    20
 -5.5826191684343475E-02 a      1471     0    59     1    21
 -2.9767527197891774E-02 a      1472     0    59     1    22
  9.7468653000108596E-02 a      1473     0    59     1    23
 -2.1121259434153644E-01 a      1474     0    59     1    24
 -1.9829786954422882E-01 a      1475     0    59     1    25
  2.6405925440608373E-02 a      1476     0    60     1     1
  9.4234104247355403E-03 a      1477     0    60     1     2
  3.2567611815519398E-02 a      1478     0    60     1     3
 -3.4951240404348695E-02 a      1479     0    60     1     4
  9.3331368741033177E-02 a      1480     0    60     1     5
 -9.0770944852962485E-02 a      1481     0    60     1     6
  7.1325643729777651E-03 a      1482     0    60     1     7
 -7.4797392082437852E-02 a      1483     0    60     1     8
  6.5211941781964045E-02 a      1484     0    60     1     9
 -1.8253133823219780E-01 a      1485     0    60     1    10
  7.1893512498878542E-02 a      1486     0    60     1    11
  7.2181866612191628E-02 a      1487     0    60     1    12
  6.8653321437140744E-02 a      1488     0    60     1    13
 -1.5054248973291390E-01 a      1489     0    60     1    14
  9.2535068461887096E-02 a      1490     0    60     1    15
  4.2415613786115719E-02 a      1491     0    60     1    16
 -1.5236171609382174E-01 a      1492     0    60     1    17
 -4.8686816739830921E-03 a      1493     0    60     1    18
  1.7937126424689676E-01 a      1494     0    60     1    19
  1.1850835864933876E-01 a      1495     0    60     1    20
  2.7801929923579988E-01 a      1496     0    60     1    21
  1.0188363219362634E-01 a      1497     0    60     1    22
  6.0008510191058302E-02 a      1498     0    60     1    23
  2.0843309297834209E-01 a      1499     0    60     1    24
 -7.4877059288185541E-02 a      1500     0    60     1    25
  2.5514716661575088E-01 a      1501     0    61     1     1
  3.2754022653409631E-01 a      1502     0    61     1     2
  3.6463398356303733E-01 a      1503     0    61     1     3
 -1.5027650584432067E-01 a      1504     0    61     1     4
 -1.4892632205131973E-02 a      1505     0    61     1     5
  5.4619845768394548E-01 a      1506     0    61     1     6
  2.4825378147134891E-01 a      1507     0    61     1     7
  2.5230142395830690E-01 a      1508     0    61     1     8
 -4.6747688236716052E-02 a      1509     0    61     1     9
 -2.7425745858080313E-02 a      1510     0    61     1    10
  4.5552044328894703E-01 a      1511     0    61     1    11
 -3.4326882920343071E-01 a      1512     0    61     1    12
 -1.2591163872977951E-01 a      1513     0    61     1    13
  1.0177588132241439E-01 a      1514     0    61     1    14
 -1.0325885555768487E-01 a      1515     0    61     1    15
 -1.2874764930649707E-02 a      1516     0    61     1    16
 -2.9833688549182985E-01 a      1517     0    61     1    17
 -1.1434407233292281E-01 a      1518     0    61     1    18
  4.5938743330492339E-02 a      1519     0    61     1    19
 -1.9990404067948822E-01 a      1520     0    61     1    20
  5.5380494122971767E-02 a      1521     0    61     1    21
  1.8722449269068414E-01 a      1522     0    61     1    22
 -5.5240748778798687E-01 a      1523     0    61     1    23
  2.7128043924809919E-01 a      1524     0    61     1    24
 -1.7335363152934716E-01 a      1525     0    61     1    25
 -3.0532873332569882E-01 a      1526     0    62     1     1
 -2.3554066360477877E-01 a      1527     0    62     1     2
 -9.8910356104811706E-02 a      1528     0    62     1     3
  9.3579437253435968E-02 a      1529     0    62     1     4
  7.1562765902683886E-02 a      1530     0    62     1     5
 -1.2872066485827685E-01 a      1531     0    62     1     6
 -2.5902955157750762E-01 a      1532     0    62     1     7
 -4.3207449454826441E-01 a      1533     0    62     1     8
 -1.1538841473717559E-01 a      1534     0    62     1     9
  1.0474158584324410E-01 a      1535     0    62     1    10
 -2.6967888355501629E-01 a      1536     0    62     1    11
  6.3996232512676846E-02 a      1537     0    62     1    12
 -5.3659638827782893E-02 a      1538     0    62     1    13
  2.7023742088460322E-02 a      1539     0    62     1    14
 -1.6339094258291370E-01 a      1540     0    62     1    15
  2.9503121572298466E-02 a      1541     0    62     1    16
  3.8690670648629633E-01 a      1542     0    62     1    17
  5.1368927785311644E-02 a      1543     0    62     1    18
  9.1662834794262835E-02 a      1544     0    62     1    19
 -1.0478322370804559E-01 a      1545     0    62     1    20
  2.7012372594523609E-01 a      1546     0    62     1    21
 -6.9130753210383722E-01 a      1547     0    62     1    22
  2.9495739403045995E-01 a      1548     0    62     1    23
 -9.0787603640251121E-03 a      1549     0    62     1    24
  3.3479623526070612E-01 a      1550     0    62     1    25
  8.3868183367499256E-03 a      1551     0    63     1     1
  2.5933231478450264E-04 a      1552     0    63     1     2
 -1.2115941805239351E-01 a      1553     0    63     1     3
 -1.6661147989910193E-02 a      1554     0    63     1     4
  2.3639135231433361E-02 a      1555     0    63     1     5
  1.9624627315924226E-01 a      1556     0    63     1     6
  1.2563261948503263E-01 a      1557     0    63     1     7
  7.5527535044423499E-02 a      1558     0    63     1     8
 -1.6657238405475883E-01 a      1559     0    63     1     9
  1.2503800430630635E-01 a      1560     0    63     1    10
 -3.5403014455373527E-02 a      1561     0    63     1    11
 -1.9766349277791959E-01 a      1562     0    63     1    12
  1.7560175566388528E-01 a      1563     0    63     1    13
 -6.9059800637674251E-02 a      1564     0    63     1    14
 -4.3802979996287999E-03 a      1565     0    63     1    15
 -1.4430945139612968E-02 a      1566     0    63     1    16
 -2.8301292014793622E-01 a      1567     0    63     1    17
  2.5757275816285957E-01 a      1568     0    63     1    18
  1.3718881172994304E-01 a      1569     0    63     1    19
  9.9673972712444131E-02 a      1570     0    63     1    20
 -2.9598102734276271E-01 a      1571     0    63     1    21
  1.4483362656176454E-01 a      1572     0    63     1    22
 -1.3516886045852738E-01 a      1573     0    63     1    23
 -1.3055096897260692E-05 a      1574     0    63     1    24
 -9.6078741178375740E-02 a      1575     0    63     1    25
 -1.4726877550185999E-01 a      1576     0    64     1     1
  1.5326012527470187E-02 a      1577     0    64     1     2
 -6.1734573562160127E-03 a      1578     0    64     1     3
  3.2969830058018190E-03 a      1579     0    64     1     4
 -1.5522360037127836E-01 a      1580     0    64     1     5
 -1.7614878858685182E-02 a      1581     0    64     1     6
 -1.1785921143757874E-01 a      1582     0    64     1     7
 -9.2134684668366967E-02 a      1583     0    64     1     8
 -2.2019734287692125E-01 a      1584     0    64     1     9
  9.1689223211515333E-02 a      1585     0    64     1    10
 -2.4888945830648761E-02 a      1586     0    64     1    11
 -1.5709977341310868E-01 a      1587     0    64     1    12
 -1.4523524965007190E-01 a      1588     0    64     1    13
  4.6296759774773204E-02 a      1589     0    64     1    14
  2.2445800168243032E-02 a      1590     0    64     1    15
  6.8128595658428312E-02 a      1591     0    64     1    16
  2.8685528293108953E-01 a      1592     0    64     1    17
 -1.6935015179081297E-01 a      1593     0    64     1    18
  1.7371554911301246E-01 a      1594     0    64     1    19
 -6.0773065391374184E-02 a      1595     0    64     1    20
  6.3999563942069307E-02 a      1596     0    64     1    21
 -2.6479780512969919E-01 a      1597     0    64     1    22
 -6.6231579120606190E-02 a      1598     0    64     1    23
  5.5540994861272550E-02 a      1599     0    64     1    24
  5.5233666849355850E-02 a      1600     0    64     1    25
  1.1015815459092221E-01 a      1601     0    65     1     1
  2.1800298688301262E-01 a      1602     0    65     1     2
  2.2918508986014639E-02 a      1603     0    65     1     3
 -7.3910866187806568E-02 a      1604     0    65     1     4
  6.0534686969504398E-02 a      1605     0    65     1     5
  7.2956353417499599E-03 a      1606     0    65     1     6
  8.7103103246522401E-02 a      1607     0    65     1     7
  2.1262057978901669E-01 a      1608     0    65     1     8
  1.0777700168756429E-01 a      1609     0    65     1     9
  9.8396006438973473E-03 a      1610     0    65     1    10
  9.5533919750730764E-02 a      1611     0    65     1    11
 -4.2281165114209138E-02 a      1612     0    65     1    12
 -1.2065919085705912E-01 a      1613     0    65     1    13
 -3.8693815255599014E-02 a      1614     0    65     1    14
  1.3373445135818726E-01 a      1615     0    65     1    15
  4.3921546377800921E-02 a      1616     0    65     1    16
  3.3897812900626358E-02 a      1617     0    65     1    17
 -5.8607327754464429E-02 a      1618     0    65     1    18
 -8.1564179121426356E-02 a      1619     0    65     1    19
  1.1879875180333621E-01 a      1620     0    65     1    20
  5.7421944400341866E-02 a      1621     0    65     1    21
  1.1945170101003054E-01 a      1622     0    65     1    22
 -1.6553083844258465E-01 a      1623     0    65     1    23
